-0.044969 -0.02988 -0.064225 -0.014315 0.035429 0.012594 0.003501 -0.001657 -0.003771 0.013999 0.026755 0.037639 0.00575 -0.040464 -0.065265 -0.042372 -0.04725 -0.027126 0.032468 0.012449 -0.024426 0.031506 0.012751 -0.031875 0.090311 0.078561 0.011541 -0.0536 -0.038723 -0.08039 -0.064054 -0.069531 0.008894 0.033434 0.003007 -0.062079 -0.149316 -0.10096 -0.024255 0.045804 0.084935 0.020528 0.019053 0.024917 0.021443 0.029514 0.127451 0.106909 0.059113 0.11209 0.073297 0.014384 -0.02689 -0.053849 0.068124 -0.01002 -0.012981 -0.087404 -0.058892 -0.031891 -0.012537 -0.07131 -0.060263 -0.11162 -0.135878 -0.078921 0.005727 0.032564 0.054304 0.076498 0.048085 0.028074 0.022002 0.039429 0.126284 0.106205 0.108148 0.152444 0.060814 -0.118083 -0.080175 -0.111597 -0.024906 -0.027285 0.008273 -0.140279 -0.063763 -0.069511 -0.070207 -0.050113 -0.050342 -0.060936 -0.08332 -0.063812 -0.027764 -0.01103 0.038117 0.060025 0.012102 -0.010959 0.029632 0.026946 0.101634 0.081907 0.079495 0.1599 0.119184 -0.011316 0.009171 -0.043784 0.03022 0.011991 -0.008369 -0.07454 0.001657 -0.029637 0.018827 -0.086415 -0.035506 0.007331 -0.019163 -0.006159 0.001061 0.004963 -0.039105 0.019354 0.043893 0.037937 0.062033 0.074862 0.099381 0.12694 0.152407 0.106425 0.112041 0.040152 0.060343 0.035878 0.019623 0.029177 0.035789 -0.02336 0.028096 0.043338 -0.035358 -0.153378 -0.069269 -0.008598 -0.084566 -0.099611 -0.019326 0.020832 -0.001274 -0.052938 0.011759 -0.002423 -0.053431 -0.003726 0.056392 0.071229 0.013243 -0.020762 0.013987 -0.064182 0.001918 0.027137 0.022011 0.051293 -0.046052 -0.007821 0.024472 -0.028858 -0.0811 -0.156257 -0.07289 -0.014184 -0.002327 0.029891 0.083833 0.102563 0.037649 -0.038694 -0.02869 -0.022019 7.65E-4 0.019399 0.088811 0.083544 0.060409 0.03509 -0.005731 -0.019875 0.061103 0.019969 0.052639 0.008687 -0.060516 0.007179 0.031785 -0.022337 -0.033167 -0.063465 -0.083361 -0.174086 -0.092578 -0.058192 0.037872 0.025965 -0.03515 -0.099996 -0.018086 0.038874 2.6E-5 0.014019 0.038237 0.042083 -0.038328 -0.019766 0.066065 0.056096 0.08605 0.025537 0.049612 -0.022795 -0.058847 0.037206 0.092284 0.026687 0.037666 -0.059466 -0.072676 -0.083378 -0.098455 -0.057469 -0.036019 0.024784 0.010733 -0.073183 -0.060302 -0.039486 -0.04067 0.016345 0.032959 -0.01493 -0.076154 -0.0507 0.024204 -0.03144 0.045573 0.033071 0.03409 -0.073666 -0.064123 0.020722 0.030498 0.010536 0.069956 -0.003163 -0.090727 -0.027674 -0.106599 -0.051116 -0.060137 -0.022469 -0.040817 -0.050529 -0.029311 -0.034784 0.004731 0.025828 0.04272 0.061576 -0.02676 0.016519 0.075196 -0.025258 0.078538 0.11552 0.098007 -0.118242 -0.120149 -0.007549 0.021038 0.009742 0.131321 5.59E-4 -0.033505 0.030423 -0.032333 -0.06904 -0.086481 -0.037038 -0.080311 -0.049449 -0.023649 -0.083628 -0.026003 -0.048955 -0.053783 0.030209 0.007753 -0.043204 0.051751 0.075119 0.089883 0.050519 0.081371 -0.056447 -0.042282 -0.027347 0.038519 0.017 0.063483 0.009396 0.004612 0.065363 -0.050324 -0.056308 -0.07226 -0.081937 -0.091592 -0.068564 0.043736 0.080252 0.039679 -0.070375 -0.061284 0.063033 0.035015 -0.115046 -0.018791 0.062323 0.096578 0.043357 0.04683 -0.017463 0.017379 -0.091024 -0.008964 -0.037035 0.039682 0.02679 0.06333 0.043411 -0.133235 -0.125903 -0.128511 -0.015128 0.005336 -0.019858 0.054487 0.088796 -0.028459 -0.135116 -0.002391 0.011253 -0.035272 -0.079912 0.014322 0.061362 -0.010627 -0.053182 0.079768 0.022492 0.052872 -0.101453 -8.11E-4 -0.012357 -0.026449 0.068643 0.065239 0.039768 -0.00924 -0.011724 -0.099908 0.001539 0.012989 -0.126098 -0.079941 -0.074705 -0.144152 -0.155324 -0.005453 -0.060965 -0.06545 -0.04603 0.02956 0.014036 -0.053334 0.00188 0.144274 0.10887 0.128658 -0.037413 0.034377 0.016231 0.048338 0.115399 0.026901 0.03166 0.056341 0.056568 -0.014459 0.085924 0.021843 -0.089214 -0.066514 -0.105038 -0.090382 -0.027889 0.008531 -0.08076 -0.053467 0.016417 0.070174 0.013144 -0.025571 0.096503 0.15955 0.056784 0.10596 -0.023392 -0.002955 0.017564 0.070554 0.132027 0.020126 0.002787 0.07738 -0.023308 -0.091067 -0.033367 0.01033 -0.032725 -0.113242 -0.133189 -0.019776 -0.065591 -0.052649 -0.042843 -0.003735 0.052347 0.094392 0.051255 0.022947 0.028919 0.095665 0.056209 0.136769 -0.073382 -0.082525 0.014857 0.066099 0.060285 -0.047384 -0.004357 0.033055 -0.003149 -0.030166 -0.025126 0.051788 -0.071779 -0.116938 -0.123007 -0.041416 -0.067823 -0.005568 0.043284 0.006202 0.084923 0.131528 0.021857 -0.029442 0.01902 0.04422 0.041316 0.11778 -0.13756 -0.080111 0.036634 0.010529 0.004826 -0.085025 -0.016268 0.017758 -0.001264 0.013668 0.048998 0.009404 -0.045948 -0.003829 -0.037366 0.028139 0.064258 0.033311 0.095151 0.122484 0.107882 0.113209 0.069034 0.043942 0.064297 0.128981 0.137885 0.147282 -0.107524 -0.047751 0.029202 -0.004535 0.060658 -0.035889 0.03883 0.015247 -0.021226 0.007224 -0.048229 -0.066103 -0.00814 -0.011862 -0.014593 0.079543 0.0852 0.063533 0.162779 0.100845 0.01649 0.115998 0.124758 0.102917 0.076424 0.200226 0.188698 0.187044 -0.025281 -5.9E-5 0.045479 -0.009736 0.05482 0.07756 0.115242 0.020746 -0.005668 -0.003288 0.034039 -0.013762 0.015071 0.023768 -0.02907 0.007584 0.002568 0.030204 0.059385 0.047289 0.02643 0.005974 0.05342 0.07467 0.143124 0.1993 0.15494 0.219877 -0.001033 0.078504 0.040206 -0.042938 0.056915 -0.008652 -0.030112 -0.082766 -0.070872 0.037358 0.085864 -0.050632 -0.069319 0.001304 -0.035984 -0.088079 -0.074733 -7.0E-6 0.004471 0.049122 0.039543 -0.038865 0.009703 0.046192 0.137446 0.154331 0.142115 0.211822 -0.014307 0.040795 0.002645 -0.010543 -0.042165 -0.098636 -0.084376 -0.046135 0.013371 0.070176 0.118557 0.029959 0.035798 0.015844 -0.098438 -0.075092 0.022786 0.08354 0.120928 0.143988 0.053708 0.029144 0.08552 0.073081 0.170313 0.146058 0.142679 0.197514 -0.022286 -0.018489 -0.015056 -0.046759 -0.015196 -0.072411 -0.081871 0.072033 0.047188 0.090989 0.129625 -0.027719 -0.045528 -0.075469 -0.124998 -0.029291 0.04246 0.068938 0.146022 0.124665 0.129435 0.125369 0.100022 0.105599 0.147974 0.190999 0.142562 0.181983 -0.060414 -0.081775 -0.047292 -0.05011 0.010645 0.018583 0.031717 0.073444 0.031326 0.05759 -0.013824 -0.041715 -0.002212 -0.007996 -0.034987 -0.016208 0.044416 0.125641 0.12304 0.098532 0.124007 0.084522 0.107714 0.079322 0.152193 0.189138 0.154759 0.174885 -0.091688 -0.115336 -0.03126 -0.017846 -0.015551 0.03184 0.058079 0.073455 -0.030428 -0.069605 -0.01841 -0.044402 0.052369 0.032516 0.047746 0.063574 0.07417 0.104424 0.083057 0.123774 0.102399 0.100776 0.082062 0.071258 0.143568 0.15375 0.176538 0.192083 -0.044573 -0.043279 -0.029797 -0.046488 -0.038024 0.009945 0.040165 0.060528 -0.035797 -0.057137 0.039226 -0.009538 0.050616 0.08136 0.049624 0.036911 0.054463 0.076501 0.066918 0.085315 0.087689 0.102139 0.085431 0.100812 0.127943 0.122807 0.159534 0.167395 -0.02678 0.03686 -0.096843 -0.10535 -0.030384 0.026627 -0.026121 -0.023362 -0.024986 0.006889 0.058874 -0.054998 -0.029644 0.006103 -0.050259 -0.059023 -0.018868 0.057526 0.080447 0.122775 0.13174 0.15572 0.145949 0.150168 0.163563 0.16135 0.173626 0.176256 -0.103674 -0.07442 -0.101777 -0.064552 -0.00307 -0.022561 0.014797 0.027977 -0.016922 0.018704 0.021768 -0.067197 -0.016441 -0.019542 -0.041263 0.020028 0.014328 0.064517 0.091512 0.130409 0.161668 0.173775 0.162659 0.156354 0.160835 0.141798 0.153579 0.166475 
0.539602 0.009045 0.047122 0.110627 0.153251 0.138429 0.085945 0.017437 -0.016226 -0.007897 0.046933 0.164448 0.259876 0.180448 0.164599 0.086209 0.081311 0.046656 -0.071723 -0.071146 -0.08342 -0.038438 -0.094341 -0.081428 -0.095314 -0.057288 -0.066391 -0.257083 -0.2445 -0.017516 0.021324 0.050392 0.055436 0.054936 0.06916 0.044657 0.042356 0.06262 0.09328 0.073978 0.042867 0.053572 0.059456 0.027031 0.09777 0.061076 0.043051 0.085482 0.060947 0.012532 -0.106019 -0.097385 -0.022722 -0.084126 -0.075294 -0.083982 -0.258336 0.047304 0.054109 0.040376 0.097518 0.080881 0.09249 0.188717 0.225612 0.150855 0.162921 0.066937 0.014696 -0.08353 0.005399 0.006498 -0.020863 -0.069862 -0.023525 -0.107985 -0.11667 -0.059343 -0.06417 -0.090206 -0.139356 -0.059082 -0.159496 -0.065921 -0.097165 0.052466 -0.026311 -0.027941 0.047668 0.044392 0.203361 0.217297 0.11198 0.046957 0.004968 -0.032207 -0.004209 -0.038878 0.051511 0.074488 0.049158 0.023681 -0.014907 -0.013502 0.00854 0.02346 -0.017495 -0.072934 -0.1267 -0.070534 -0.0814 -0.048438 0.009203 0.017963 -0.007248 0.021027 0.014346 0.091716 0.039253 -0.010196 0.093944 0.088454 0.057438 -0.030311 0.018422 0.001649 0.007677 0.037572 0.153498 0.063919 -0.08437 -9.6E-4 0.029592 0.073406 0.012032 -0.132721 -0.101902 -0.088472 -0.09159 0.020541 0.012635 -0.018149 0.024732 0.044272 0.022736 0.026445 -3.54E-4 0.081492 0.156777 0.069419 -0.047984 -0.055601 -0.015935 -0.026289 0.002872 0.02518 0.061047 0.026962 0.001959 0.006597 0.049902 0.082691 -0.032537 -0.041432 -0.01319 -0.04915 -0.094842 -0.077649 -0.009828 -0.037628 -0.018642 0.048898 -0.024387 -0.043031 0.001138 0.195819 0.09261 0.053597 0.060563 0.062393 -0.00212 -0.040798 0.013254 -0.042603 -0.00574 0.053193 0.093393 0.055775 -0.034372 -0.051214 -0.170616 -0.131611 -0.061121 0.055096 -0.027774 0.017126 0.023382 -0.076005 -0.050928 -0.053681 -0.008996 -0.069303 0.118233 0.093195 0.04841 0.062565 0.106826 7.24E-4 -0.066388 -0.011749 0.056759 0.048613 0.145184 0.159159 0.13864 0.064038 -0.019817 -0.04281 -0.072562 -0.096341 -0.126249 0.001226 -0.030195 0.032404 6.78E-4 -0.059252 -0.077232 -0.074095 -0.076516 0.010456 -0.059818 -0.016252 0.021051 0.059796 0.005398 -0.035187 -0.064912 0.122918 0.182897 0.050572 0.025512 0.154287 0.040214 0.019798 0.02088 -0.02095 -0.040164 -0.023857 -0.042791 -0.008124 0.003665 0.013299 -0.030362 0.040521 0.027395 0.027423 0.057599 -0.011385 -0.052604 0.008259 -0.015925 0.029297 -0.00451 -0.075676 0.046523 0.065186 -0.01577 -0.035498 -0.007351 0.095588 -0.006565 0.040837 -0.004385 0.060278 0.105308 0.00129 -0.029754 -0.004171 0.071567 0.086624 -0.049955 -0.01598 0.003114 -0.002666 0.033949 0.001989 0.087352 -0.021481 -0.00864 -0.008778 -0.099646 -0.092669 -0.028617 -0.037624 0.00963 0.086397 0.052019 0.088965 -0.038751 0.009255 0.01552 0.060123 0.05229 0.053937 0.032738 0.029825 0.107837 0.143292 -0.031793 -0.014771 0.016013 0.111939 0.02682 0.025689 0.084412 -0.006449 -0.101677 -0.02056 0.005648 -0.002372 -0.017418 0.074394 0.01258 -0.023025 -0.117458 -0.01154 -0.020063 -0.048054 -0.114266 -0.041609 -0.030344 -0.066803 0.033185 -0.015109 -0.026897 0.102307 -0.067569 -0.002453 0.001311 0.050326 -0.010582 0.014818 -0.019713 -0.122942 -0.135671 -0.100828 0.003188 0.079495 0.082838 0.051822 -0.016011 -0.059547 -0.05033 0.044996 -0.041464 -0.264601 -0.193564 0.011424 -0.025797 0.014503 -0.065798 -0.050394 0.034369 0.098564 -0.040313 -0.066448 7.52E-4 -0.005953 0.03572 0.061441 0.090642 -0.096924 -0.074538 0.010479 0.038109 0.064879 0.0901 0.007512 0.017759 -0.014664 -0.050817 -0.055071 -0.021174 -0.092764 -0.035789 -0.094779 -0.060333 0.007781 -0.1297 0.035982 0.049377 0.051794 0.063653 -0.054165 -0.003424 -0.061009 -0.066724 -0.016143 0.038373 0.008265 0.049874 -0.037695 -8.52E-4 0.106414 0.12921 0.027263 -0.02731 -0.07209 -0.013304 -0.024719 -0.014959 -0.014192 -0.01227 0.039652 -0.042185 -0.064133 -0.066038 0.018894 -0.015139 -0.036965 0.081746 -0.007327 0.045714 -0.041151 -0.040704 -0.020473 -0.107265 -0.176457 -0.096032 -0.011268 0.059331 0.182735 0.143067 0.066404 0.118199 0.099959 0.051786 0.13808 0.03594 0.040291 0.031006 -0.056783 -0.071831 -0.01916 -0.057824 0.032291 0.042955 0.050501 0.039686 -0.001419 0.037051 0.081694 0.074569 -0.1117 0.061484 -0.05204 0.008471 -0.018359 -0.008451 0.061432 0.089091 0.190545 0.181399 0.157277 0.063854 0.127413 0.113898 -0.057727 -0.128386 -0.018952 -0.009639 0.005439 0.052512 0.033056 0.052714 0.054126 0.067662 0.0559 -0.060662 0.024428 0.115107 0.051159 0.133567 0.011657 -0.077299 -0.094238 -0.007364 -0.015621 0.075995 0.094087 0.053061 0.001753 0.057522 0.062082 0.048686 -0.012096 -0.145079 -0.111214 -0.011414 -0.024076 0.062248 -0.012595 -0.037262 -0.075654 -0.079215 0.128534 -0.065272 -0.09498 -0.046057 -0.069954 -0.055657 -0.106609 -0.030294 -0.005884 0.135145 0.140677 -0.021385 0.035418 0.028157 -0.03607 -0.092894 0.00754 -0.067581 -0.014481 -0.173418 -0.120819 -0.112935 -0.023428 -0.016385 0.025881 0.014942 -0.121159 -0.093426 0.174696 0.005999 -0.02911 0.035018 -0.064925 -0.017382 -0.120018 -0.003843 -0.004216 0.055955 0.100131 0.001499 -0.026028 -0.036889 -0.072815 -0.088228 0.044984 -0.025968 -0.0675 -0.171675 -0.106252 -0.06809 -0.061559 -0.069822 0.10176 0.041998 -0.012116 -0.019453 0.101285 0.022545 -0.026481 0.091948 -0.010681 0.029955 -0.023705 -0.01417 -0.056219 0.02922 -0.020168 -0.141355 -0.030471 0.010147 0.035503 0.020884 -0.021661 -0.072181 -0.06822 -0.032813 0.031551 0.052294 -0.035145 -0.042055 0.107464 0.069159 0.035039 0.045208 0.081547 0.006455 0.053276 0.107905 -0.017068 0.005358 -0.030653 -0.028698 -0.055241 -0.018337 0.009119 0.008698 0.055795 0.053801 -0.038874 -0.064286 -0.010218 -0.010618 -0.050082 -0.03473 0.020388 -0.010598 0.007421 -0.018439 0.064065 0.092638 -0.00521 0.037761 0.135128 0.078116 0.13401 0.150755 0.064401 -0.04383 -0.115464 -0.061016 -0.038186 0.018584 0.098456 0.074253 -0.039892 -0.079153 -0.001876 -0.011095 0.087204 0.030076 0.04737 0.029052 0.031379 -0.078946 -0.052307 -0.083596 0.001728 -0.07948 -0.001808 -0.049476 0.17928 0.052283 0.014604 0.120823 -0.010015 -0.152359 -0.10272 0.009609 -0.023693 -0.074802 -0.001577 0.056078 -0.088056 -0.131029 -0.054354 0.007061 0.048634 0.021096 0.006256 -0.055723 -0.025393 -0.029198 -0.014599 -0.063634 -0.020954 -0.01672 -0.007286 -0.031731 0.197747 0.103326 0.050232 0.013806 0.006641 0.025706 0.016624 0.013878 -0.008862 -0.097184 -0.154324 -0.092984 -0.145157 -0.141314 -0.090368 -0.07256 8.93E-4 0.040278 0.064919 -0.018779 -0.041053 0.031708 -0.053762 -0.065651 -0.019883 0.026973 -0.065445 -0.033528 0.182176 0.143093 0.126313 0.154485 -0.024892 0.046851 0.053145 -0.042416 -0.05331 -0.058431 -0.071131 -0.151715 -0.215581 -0.144895 -0.088049 -0.018104 0.015996 0.06077 0.083239 0.028925 -0.003779 -0.035528 -0.006204 -0.016614 0.002638 -0.074374 -0.06882 -0.065956 0.211709 0.126312 0.126672 0.117166 0.119589 0.105899 0.117451 0.068989 -0.101543 -0.216634 -0.267242 -0.190946 -0.184381 -0.133008 -0.103107 -0.043846 0.012584 0.065344 0.098111 0.01289 0.03302 0.040618 0.018287 -0.026586 -0.099955 -0.128944 -0.061253 -0.093306 0.170624 0.186919 0.11177 0.088788 0.151098 0.138993 0.043271 -0.028117 -0.081549 -0.199468 -0.207623 -0.251784 -0.331201 -0.328555 -0.328464 -0.211839 -0.057519 0.037705 0.038028 -0.004661 0.040972 0.018444 -0.028239 -0.048959 -0.034767 0.03699 -0.083077 -0.128096 
-0.133349 0.042256 0.115739 0.133243 0.075407 0.003192 -0.005828 0.013993 0.04212 -0.094062 -0.055261 -0.049368 -0.127251 -0.177242 -0.209187 -0.144678 -0.071804 0.009562 -0.052283 -0.094868 -0.112334 -0.062611 -0.083648 3.16E-4 0.116169 0.128966 0.203425 0.294603 0.324941 0.110985 0.032163 -0.064029 -0.028378 0.039195 0.081928 0.004508 0.008554 -0.016636 -0.083805 -0.089977 -0.083751 -0.118903 -0.17785 -0.100764 -0.00654 -0.071229 -0.174171 -0.249601 -0.13306 -0.073074 -0.076527 0.085512 0.074044 0.10225 0.156388 0.245989 0.426279 -0.007355 1.49E-4 -0.003638 -0.042191 -0.006788 -0.065765 -0.142331 -0.018801 -0.096691 -0.075356 -0.052808 -0.107362 -0.086536 -0.035362 -0.044399 -0.018277 0.14982 -0.024459 -0.092282 -0.039475 -0.094152 -0.085433 -0.021487 -0.044874 -0.068437 0.176545 0.159406 0.260929 0.025147 0.115509 0.125624 0.020745 0.095436 -0.015334 -0.06285 -0.048166 -0.052352 -0.023496 -0.055268 -0.120394 -0.064047 -0.101013 -0.047385 0.081885 0.241133 0.079858 0.097009 0.049542 0.01357 -0.007534 0.050489 0.113852 0.021316 0.18833 0.186867 0.137061 -0.035329 0.037447 -0.008706 -0.006585 -0.072975 -0.093371 -0.070939 -0.054475 -0.12717 -0.093059 -0.012855 -0.053289 -0.081188 -0.097397 -0.032393 -0.056925 0.044287 0.024579 0.052383 0.134592 0.02882 -0.066648 0.076954 0.073249 0.047482 0.017157 0.185329 0.124012 -0.033204 0.112173 0.071151 -0.096361 -0.188975 -0.014292 -0.019222 -0.111315 -0.175122 -0.08713 -0.02012 -0.006301 -0.025036 0.004836 0.030533 -0.086353 0.025383 0.033752 0.037978 0.087976 0.064755 0.033751 0.058803 1.51E-4 -0.046543 6.94E-4 0.131023 0.110101 0.018525 0.058018 -0.091056 -0.103011 -0.034407 0.053798 -0.112161 -0.042928 0.046248 -0.063392 -0.0508 0.057259 0.032917 -0.022567 -0.036105 -0.063559 0.076823 0.027986 0.041268 0.031575 0.013966 0.017382 0.076004 0.049057 0.015954 0.033599 0.057258 0.065089 0.037278 0.021673 -0.041138 -0.084882 -0.112971 -0.077057 -0.078068 -0.09296 -0.026138 0.071086 0.085924 0.050315 -0.007136 -0.025426 -0.02164 -0.071643 0.054473 0.078107 -0.025502 -0.015775 0.009002 -0.003564 0.089816 0.142302 0.036538 -0.005924 -0.059547 0.04095 0.026939 0.093869 0.033826 -0.068291 -0.167186 -0.066975 -0.077505 -0.10653 -0.073575 -0.025475 -0.037371 -0.023808 0.019777 -0.040346 0.111051 -0.015748 0.073192 0.033543 -0.107393 -0.071515 0.033026 -0.027809 0.019167 0.026461 0.077845 0.021842 -0.003978 0.025059 0.02905 0.031245 0.071329 -0.047349 -0.060872 -0.034944 -0.204297 -0.176476 -0.082784 -0.023934 -0.05456 -0.041202 0.070626 0.001283 0.094709 -0.022528 0.077919 -0.004449 0.010994 -0.108248 -0.129065 -0.148507 -0.028146 -0.043725 0.039239 0.034838 -0.101093 0.003248 0.074215 0.071823 0.073785 -0.038205 -0.153213 -0.05773 -0.067633 0.033932 0.016055 -0.017757 -0.009447 -0.024017 0.047626 0.05645 0.054625 -6.05E-4 0.106417 0.033964 0.118658 -0.045892 -0.04455 -0.045058 0.079272 -0.004114 0.01616 -0.001208 -0.162622 -0.073605 0.087365 0.009316 0.045597 0.018902 -0.071971 -0.015814 -0.025968 -0.084333 0.038134 0.038543 0.022965 -0.035936 -0.029387 0.131698 0.257765 0.193811 0.144177 0.076193 0.078083 -0.00383 -0.042416 0.137051 0.228 0.052219 0.042753 -0.030388 -0.213591 -0.074786 -0.074614 -0.084633 -0.036178 1.91E-4 -0.039495 0.039979 -0.084041 -0.141721 0.036496 -0.018751 0.014225 -0.09567 -0.052624 0.146862 0.162606 0.084255 -0.036615 -0.049914 0.053726 -0.011247 -0.001192 0.154137 0.052048 0.003623 -0.162132 -0.163444 -0.144227 -0.092472 -0.152646 -0.06965 -0.105496 -0.103768 -0.032375 -0.048458 -0.071156 -0.100007 0.008758 0.025177 0.028496 0.023394 -0.013699 0.035755 -0.018589 -0.078546 0.060808 -0.095777 0.087701 0.10746 -0.01138 -0.048723 -0.038141 -0.06121 -0.135357 -0.110772 -0.063651 -0.096645 -0.133738 -0.053681 -0.06692 -0.087489 -0.083145 -0.047059 -0.011267 -0.054707 -8.51E-4 0.082069 0.132267 0.03274 0.00942 -0.013454 0.04202 -0.004497 -0.075814 -0.055414 0.064129 0.028728 -0.034434 -0.040743 -0.067405 -0.022231 -0.012374 -0.049595 0.057633 -0.061616 -0.076765 -0.090757 -0.093898 -0.032416 0.016406 0.019889 -0.050161 -0.058976 -0.029325 0.027163 0.053912 0.059397 -0.011452 -0.137558 -0.017033 0.006886 -0.126143 -0.025826 0.080695 0.067908 0.006324 0.108158 -0.063779 0.07622 0.013417 -0.056315 0.056407 0.021401 -0.154153 -0.144381 -0.132691 -0.046923 0.156952 -0.021637 -0.019003 -0.007118 -0.015775 0.029978 0.040213 0.004998 -0.188396 -0.188574 0.010825 -0.133066 -0.130871 -0.083256 -0.023544 0.078212 0.03628 0.029392 -0.020418 0.05224 -0.01078 -0.025316 0.033416 0.039102 -0.056913 -0.083104 -0.074745 -0.039071 -0.012743 0.005329 -0.076565 -0.010964 -0.103319 0.033217 0.084144 0.024772 -0.053752 -0.072526 0.005218 -0.031946 0.019997 0.089493 0.071776 -2.2E-5 0.073641 0.056284 0.026619 0.086024 0.10192 0.020266 0.045269 -0.005329 -0.038047 -0.060809 -0.136154 -0.084373 -0.06823 0.020132 0.032226 -0.001787 -0.134495 -0.003223 -0.085122 -0.065619 0.044482 -0.025683 0.069737 0.087984 0.138755 0.18423 0.021912 -0.031848 0.038378 0.126324 0.131951 0.142632 0.089242 0.002369 0.077278 3.53E-4 -0.135709 -0.042234 -0.124621 -0.076309 -0.075729 0.091249 0.162109 0.130362 0.007006 0.02057 0.101845 0.007155 0.061644 0.084196 0.072469 0.064758 0.107161 0.078043 0.058315 -0.022647 0.049371 0.008883 0.018725 0.031569 -0.06442 0.012429 0.084165 0.030188 -0.251816 0.011098 -0.068092 -0.043373 1.67E-4 0.024012 0.084032 0.014125 3.4E-4 0.035128 0.058748 0.057177 0.129543 0.028482 0.025275 0.041466 0.025665 0.037752 -0.005898 -0.001458 -0.038653 -0.008869 -0.037971 -0.028208 -0.136985 -0.016846 0.071342 -0.012823 -0.336745 -0.094615 -0.084022 -0.062434 0.005389 0.091167 -0.028214 0.054119 0.19149 -0.002445 -0.072382 0.083111 0.160062 0.110445 0.148282 0.050685 -0.02492 -0.081116 -0.011048 0.031899 -0.03786 -0.090384 -0.072605 -0.028192 -0.067689 0.002585 0.036482 -0.039142 -0.394527 -0.090982 -0.148116 0.010432 0.017714 0.083334 0.04032 0.100261 0.039781 0.025158 0.183877 0.126184 0.149203 0.060386 0.110481 0.0825 0.041441 -0.058963 0.135763 0.071448 -0.014662 0.03445 0.041301 0.046821 0.101338 0.159975 0.091498 -0.060228 -0.416613 -0.149541 -0.049315 -0.063393 0.06453 0.082019 0.09721 0.054564 0.063511 0.088244 0.059898 0.106847 0.092973 -0.011946 0.09121 0.175574 0.163468 0.081114 0.115958 -0.01653 3.24E-4 -0.001423 -0.05469 0.063348 0.037071 0.108721 -0.006163 -0.147416 -0.418011 -0.140426 0.003216 -0.03648 0.073282 0.096945 -0.030153 0.059126 0.108208 0.090979 0.041187 0.038804 0.094518 0.171707 0.116829 0.204431 0.204569 0.091598 0.003551 0.042492 -0.086775 -0.127622 0.047707 0.048629 -0.029053 0.034308 -0.027241 -0.093077 -0.325604 -0.166488 -0.152701 -0.044825 0.033992 -0.098214 -0.127822 0.01957 0.119022 0.102922 0.110655 -0.001288 0.065914 0.0904 0.066499 0.100772 0.047521 0.029695 0.10837 0.074583 0.051513 0.087928 0.029776 0.014029 -0.007074 -0.044328 -0.079906 -0.006431 -0.223747 -0.179426 -0.116214 -0.046039 -0.137945 -0.058754 -0.096044 0.129443 0.164178 0.22224 0.113656 -0.009693 0.039703 -0.023959 0.054326 0.203327 0.143762 0.080379 0.118701 0.138469 0.049524 -0.13328 -0.01257 0.068426 0.081334 -0.021327 0.01492 0.050403 -0.227646 -0.172891 -0.151625 -0.034693 -0.077475 -0.025751 0.049567 0.055695 0.060258 0.126561 0.120739 0.101687 0.054546 -0.082134 -0.035791 0.084218 0.115391 0.098816 0.058194 0.009313 -0.077316 -0.053498 0.050444 0.017588 0.026669 9.71E-4 0.004993 -0.005918 
0.254617 0.140505 0.131774 0.141983 0.089793 0.037622 0.005853 -0.010278 0.010063 -0.005522 0.004393 0.041886 0.015234 -0.038553 -0.068582 -0.081511 -0.079019 -0.047806 -0.140503 -0.088365 -0.063855 -0.016526 -0.102922 -0.124775 -0.028313 0.002811 0.084022 0.071441 0.00155 0.155519 0.071268 0.013 0.033064 0.087547 0.036055 -0.004216 -0.047902 -0.103196 -0.110809 -0.056932 0.041389 0.038858 -0.006922 0.01071 0.06396 -0.069513 0.022945 0.066326 0.026109 0.006884 -0.102718 -0.02216 0.023923 0.068313 -0.00417 0.00808 0.033306 0.132266 0.061108 0.039916 0.014819 0.041287 0.035571 0.056564 -0.024367 -0.087122 -0.012508 0.017839 -0.056901 -0.085501 -0.052995 -0.05591 -0.047893 -0.04091 -0.042262 -0.045972 0.029725 0.006996 -0.022327 -0.06675 -0.060344 -0.076353 -0.008244 -0.071532 0.025852 0.109754 0.088211 0.04723 0.025572 0.061477 0.113112 -0.010214 -0.063987 -0.034062 9.61E-4 -0.057661 -0.048241 -0.093223 -0.096038 -0.013039 -0.010101 0.05678 0.017301 0.033191 -0.03583 -0.002548 0.097667 0.058497 -0.055188 -0.043654 0.055657 -0.037754 0.006127 0.132371 0.125715 0.035307 -0.006701 -0.004512 -0.00908 0.007399 0.038227 0.064844 0.079671 -0.001656 0.003774 -0.003929 0.01417 0.066723 0.08069 0.033514 -0.043719 0.015206 0.044221 -0.016504 0.029693 0.056155 0.008555 0.001868 -0.052025 0.042072 0.069942 0.095466 0.059884 0.04539 -0.052748 -0.095157 0.020442 0.077131 0.058032 0.037779 -0.045347 -0.023946 0.095536 0.001943 0.083319 0.054563 -0.01381 0.006616 0.053947 0.077768 0.007672 -0.061368 -0.056244 -0.022907 -0.039072 -0.028821 -0.113252 -0.04234 0.097515 0.113079 -0.018237 -0.093914 -0.034975 -0.017538 0.121925 0.123224 0.151704 0.143492 0.054547 0.004256 0.049777 -0.012508 0.033485 -0.020572 -0.025157 0.125217 0.148739 0.083904 0.043415 -0.023403 -0.080626 -0.025209 -0.005207 0.056579 0.076677 -0.042291 0.091477 0.050118 -0.154795 -0.110967 -0.057664 -0.011186 0.029061 0.054087 0.023498 0.030511 0.049102 0.005684 -0.003042 -0.028692 0.02868 0.026164 0.005308 0.091325 0.077527 -0.091519 -0.081464 -0.079877 -0.147762 -0.034349 -0.012255 -0.038188 0.114498 -0.029934 0.034882 -0.004228 -0.059342 0.016385 0.008428 -0.044396 -0.031986 -0.074411 -0.029825 -0.029558 0.027 0.063935 0.032878 0.085604 0.081448 0.130887 0.110129 0.20006 0.137518 -0.111175 -0.100467 -0.059735 -0.161633 -0.045816 -0.039714 0.011929 0.061689 0.034679 0.043913 -0.027075 0.020027 0.085119 0.037706 -0.022718 -0.030169 -0.136191 -0.155287 -0.001969 0.036342 -0.028116 0.036837 0.094578 0.01886 0.055671 0.057736 0.21278 0.184135 0.053647 -0.057664 -0.119987 -0.073614 -0.009177 -0.071463 0.050056 0.067364 0.07486 0.068349 -0.051751 -0.02707 -0.062609 -0.023489 -0.005428 -0.046493 -0.106013 0.021018 0.0275 -0.068572 -0.024838 0.005669 0.021124 0.088504 0.090317 0.073637 0.100319 0.066808 0.036963 -0.085693 -0.116937 -0.082368 0.050299 -0.035407 0.033318 0.093261 0.072955 0.158252 -0.080184 -0.027895 -0.038557 -0.02099 -0.035231 -0.063696 0.024775 -0.047107 0.001442 -0.022301 0.017261 -0.012177 0.030043 0.124252 0.131018 0.131989 0.020275 -0.037656 0.011954 -0.010468 -0.09849 -0.053626 0.137277 0.025161 0.022934 0.07992 0.075302 0.096499 -0.181736 -0.106184 -0.158531 -0.045176 -0.067182 -0.046118 -0.153314 -0.050966 -0.004011 -0.010118 0.068329 0.084298 0.09219 0.088762 0.076634 0.04848 -0.100267 -0.126555 -0.185439 -0.076306 0.058907 0.06615 0.105291 -0.049844 -0.068403 0.126698 0.147586 0.094546 -0.252939 -0.025594 -0.112206 -0.010904 0.04466 0.008109 -0.076324 0.022388 0.073501 -5.59E-4 0.031419 0.065735 -0.030394 0.056502 0.012178 -0.005468 -0.051228 -0.113286 -0.107676 -0.078137 0.066096 0.038731 0.043277 -0.093761 0.019675 0.205972 0.183816 0.136787 -0.18007 -0.004698 -0.006305 0.036723 0.01541 -0.071365 -0.076724 0.100769 -0.022624 -0.055696 0.049903 -0.030519 -0.019773 0.015444 -0.017388 0.007739 -0.143995 -0.056803 -0.014958 -0.083956 0.045548 -0.074941 -0.015928 -0.032935 0.044606 0.182502 0.254036 0.129686 -0.157484 -0.019542 -0.031253 4.28E-4 -0.017977 -0.09904 -0.103824 0.015862 0.068917 0.043404 -0.033441 -0.03656 -0.015388 -0.077738 -0.055271 0.02615 -0.147893 -0.102777 0.03367 0.005857 -0.036301 0.017528 0.07516 0.081463 0.027479 0.132727 0.216595 0.110126 -0.204703 -0.194037 -0.093165 -0.066637 0.022604 0.005359 -0.052355 0.020838 0.099018 0.027818 -0.085662 -0.025352 -0.04882 -0.060301 -0.007369 -0.099053 -0.159364 -0.182137 -0.259184 -0.215846 -0.076686 -0.055278 0.137125 0.198259 0.104616 0.150147 0.135508 0.075232 -0.155958 -0.24994 -0.100662 0.025914 0.00444 0.162179 -0.007808 0.085357 0.019458 -0.08767 -0.072555 0.034903 0.064795 -0.065228 -0.13647 -0.031674 -0.114151 -0.131832 -0.18036 -0.130086 -0.029281 0.028175 0.101794 0.144045 0.079873 0.094494 0.05016 -0.006601 -0.114719 -0.16772 -0.143527 -8.55E-4 -0.049133 -0.064648 0.010246 0.101757 -0.091762 -0.083647 -0.129499 0.007327 0.031795 -0.028466 -0.072173 -0.140045 -0.082707 -0.074367 -0.15787 -0.043552 -0.014295 -0.010729 0.075424 0.124414 0.154226 0.159432 0.087209 0.056822 -0.045913 -0.06735 -0.098682 0.019218 0.021473 0.036113 0.03435 0.090249 -0.026354 0.004288 0.090072 0.135232 0.004899 0.078328 -0.101491 -0.146437 -0.107279 -0.143479 -0.213547 -0.119394 0.047667 -0.037294 0.005669 0.020794 0.093017 0.151838 0.11204 0.092904 0.022262 0.097421 -0.049888 -0.006611 -0.064288 -0.03515 0.013119 0.068776 0.029026 0.065295 0.006913 -0.008827 -0.022643 -0.042814 -0.202382 -0.054428 -0.148661 -0.130373 -0.237149 -0.058986 0.038691 -0.084714 -0.030194 -0.018373 -0.00116 0.066508 0.046974 0.023436 -0.019296 -0.037307 -0.015248 -0.03915 -0.208963 -0.024646 0.100459 0.175651 0.088106 0.021437 0.008113 0.010322 -0.028943 -0.039251 -0.156474 -0.025507 -0.041791 -0.074338 -0.103004 -0.015769 -0.047502 -0.047456 0.128662 0.065564 0.046137 0.101523 -0.020831 -0.029445 -0.042108 -0.006616 -0.038943 0.112191 -0.013063 0.008604 0.068258 0.164703 0.09135 0.106703 0.206655 0.119423 -0.034865 -0.182243 -0.176821 -0.018506 0.035005 -0.013472 -0.007307 -0.0937 0.001601 0.051071 0.132346 0.051394 0.097242 0.099721 0.005798 -0.033232 0.037931 -0.035996 -0.092833 0.03843 0.001886 0.007008 0.093029 0.08344 0.159056 0.112489 0.042155 0.081341 0.013888 -0.093386 -0.132298 -0.058425 -0.055353 -0.125743 -0.206247 -0.193486 0.012973 0.029489 0.106363 0.053468 0.172566 0.061673 -0.023832 -0.010299 -0.024143 -0.010197 -0.049502 -0.104383 -0.103748 0.033511 0.108315 0.133864 0.106275 0.010545 0.008557 0.047227 0.002157 -0.031959 -0.118524 -0.085075 -0.066792 -0.106537 -0.220895 -0.080781 -0.050558 -0.03731 0.005913 -0.014681 0.005103 0.018533 -0.049494 -0.050582 -0.06474 -0.096184 -0.055587 0.017331 0.00664 -0.030774 0.01184 0.154569 0.210451 0.147272 0.223216 0.072121 -0.059018 -0.040657 -0.063776 0.050213 0.019215 -0.086892 -0.095452 0.022352 0.123392 0.108538 0.039429 -0.008667 0.01289 -0.024212 -0.094866 -0.150005 -0.06468 -0.023461 0.00554 0.040523 -0.033389 -0.080991 -0.045753 0.29257 0.25906 0.261305 0.139542 0.027679 -0.020593 -0.082284 -0.089164 -0.027658 -0.009643 -0.079382 0.008933 0.159752 0.138493 0.011583 0.090737 0.080892 0.097143 0.011121 -0.109047 -0.177707 -0.007469 0.027657 0.001774 -0.021657 0.002965 0.013569 0.122717 0.122223 0.065005 0.073111 0.090642 0.073168 -0.020539 -0.174467 -0.272978 -0.239111 -0.184723 -0.127262 -0.114273 -0.020916 0.00842 0.061794 0.038127 -0.017466 0.041855 -0.034456 -0.17333 -0.238291 
-0.972549 -0.222628 -0.189887 -0.138465 -0.054425 0.006413 0.018574 -0.057858 -0.102974 -0.067733 -0.018638 -0.030572 0.020568 0.071957 0.090037 0.111819 0.107153 0.125394 0.136615 0.015015 -0.024961 -0.019054 0.02215 0.073956 0.02277 -0.015744 -0.123661 -0.073453 -0.015617 -0.248126 -0.105688 -0.0393 -0.005425 -0.049279 -0.097973 -0.053561 -0.005441 0.058168 0.069352 0.064835 0.014645 -0.027638 -0.004114 0.008548 -0.011576 0.084122 -0.0083 -0.076066 -0.119459 0.010488 0.120233 0.007418 -0.009848 -0.028183 0.045361 -0.026513 -0.042047 -0.206038 -0.068406 -0.01271 0.012049 -0.076773 -0.066427 -0.060846 0.002897 0.018104 -0.050302 -0.047469 0.050359 0.091184 0.097069 0.054343 -0.005221 -0.016666 0.008067 0.083778 0.013486 0.068791 0.093502 0.073773 0.014204 0.079796 0.070687 0.059731 -0.084557 -0.174417 -0.108089 -0.053724 -0.056755 -0.048209 -0.069152 -0.040961 -0.047291 -0.051235 -0.06607 0.033754 0.019745 0.056812 0.056278 -0.066479 -0.100707 -0.131729 -0.101558 -0.118776 0.011758 0.071385 -0.005414 0.056895 0.076311 6.99E-4 0.010325 0.059318 -0.062671 -0.200804 -0.126048 -0.097033 -0.037007 -0.03823 -0.07157 -0.115389 -0.133977 -0.104972 -0.126586 -0.049665 -0.003991 0.009765 -0.08237 -0.127688 -0.057256 -0.005382 0.035223 -0.098194 -0.098372 0.035423 0.031576 0.130281 0.080926 0.053861 0.001367 -0.04661 -0.059638 -0.164387 -0.092191 -0.079666 0.005926 -0.040325 -0.073245 -0.105712 -0.095707 -0.014128 0.058843 0.024873 -0.02433 -0.005352 -0.165022 -0.094961 0.079012 0.041246 0.029968 -0.033041 -0.080239 -0.023336 0.034027 0.118925 0.052368 0.039414 0.040954 -0.009823 -0.080484 -0.167605 -0.022787 0.005432 -0.036158 -0.043253 -0.089122 -0.10777 -0.115134 -0.051056 -0.006984 0.016445 -0.0338 -0.071865 -0.140027 -0.051171 0.03414 -0.106575 -0.065053 0.018365 -0.021013 -0.008661 0.013006 0.057033 0.006968 -0.075403 -0.088932 0.003772 -0.116692 -0.102063 0.100868 0.066962 1.23E-4 0.037902 -0.039864 -0.119878 0.02542 0.057283 0.029021 0.009673 -0.053085 -0.10919 -0.116137 -0.067816 0.029844 -0.046883 -0.018647 0.110077 0.036761 0.017443 0.034811 0.049721 -0.02584 -0.033162 -0.053709 -0.020295 -0.091147 -0.061914 0.003005 -7.75E-4 -0.045313 -0.002434 -0.107054 -0.039614 0.00727 0.043022 -0.060169 -0.073652 -0.009549 -0.094478 -0.146677 -0.147754 0.030222 -0.051006 -0.018544 0.036483 -0.040172 -0.028003 0.024628 -0.038027 -0.055825 -0.071693 -0.028251 -0.090022 -0.073236 -0.02148 -0.040405 -0.062798 -0.061863 -0.031957 -0.04424 -0.009865 0.057082 -0.047231 -0.118239 -0.023185 0.074227 -0.007917 -0.011486 -0.026791 0.046688 -0.053305 -0.027654 -0.101939 -0.06986 0.051276 -0.006769 -0.046028 -0.025138 -0.124525 -0.048732 -0.176377 -0.114298 0.008102 -0.039231 0.003485 0.006307 -0.027713 -0.026173 0.014301 -0.036781 -0.022028 0.018435 -0.031907 0.004159 0.002609 -0.089474 -0.050271 0.041926 0.043613 0.05003 -0.03059 -0.060531 -0.024319 -0.031154 -0.110607 0.017631 -0.124362 -0.066346 -0.131414 -0.188426 0.033076 -0.048761 0.022839 0.018548 0.031863 0.042503 0.013166 0.048188 0.039866 -0.014761 -0.125427 -0.022041 -0.012571 -0.11888 -0.104251 -8.59E-4 -0.010484 -0.01733 -0.064315 -0.043 -0.085062 -0.060605 -0.130794 -0.025729 -0.049821 -0.07361 -0.111354 -0.142378 0.057967 0.026768 0.146731 0.084954 0.093192 0.090062 0.084873 -0.001821 -0.016925 -0.0239 -0.199524 -0.059826 -0.068262 -0.123148 -0.046268 0.043713 -0.016618 -0.025722 0.053839 -0.029428 -0.176902 -0.079689 -0.076579 0.001549 -0.002682 -0.105621 -0.084764 -0.118991 0.066614 0.021944 0.129262 0.042917 0.030042 0.006283 -0.019339 -0.011465 0.01743 -0.0248 -0.213329 -0.126537 -0.052967 -0.10952 -0.004381 0.004015 -0.02548 0.03821 0.019323 -0.071591 -0.154634 -0.09785 -0.04607 -0.020249 -0.080879 -0.110751 -0.056031 -0.164065 0.057281 -0.00383 0.045734 0.042042 -0.040656 -0.014304 -0.012463 -0.025928 0.030232 -0.003065 -0.22701 -0.07883 -0.074809 -0.030445 0.00835 -0.043766 0.024862 -0.075336 -0.069489 -0.080046 -0.082283 -0.013259 -0.031132 -0.086901 -0.060746 -0.076574 -0.117156 -0.153809 0.133352 -0.043939 0.053508 0.080923 -0.018907 0.048487 0.100842 0.078856 -0.01679 -0.06288 -0.149818 -0.022854 -0.004136 -0.004481 -0.008791 0.004259 0.074543 -0.015168 -0.092318 -0.08346 -0.037079 -0.050781 -0.078814 -0.099762 -0.013925 -0.031725 -0.109631 -0.075662 0.185458 0.066161 0.051326 0.105859 0.015721 0.01604 0.068047 0.087438 -0.035555 -0.054971 -0.098667 -0.014958 0.038588 8.16E-4 0.048145 0.181405 0.143658 0.177841 0.199845 0.115819 -0.008932 0.004435 -0.042931 -0.114681 -0.028662 -0.042091 -0.051393 -0.021252 0.124292 0.134829 0.048688 -0.036749 -0.05361 -0.092961 0.021244 -0.00552 -0.041203 -0.059188 -0.106851 -0.006058 -0.002617 0.087869 0.206135 0.133454 0.090314 0.068819 0.10774 0.082835 0.061985 0.045876 0.011755 -0.049801 0.031432 0.099129 0.009944 0.013062 0.081445 0.033434 0.009295 -0.029042 0.008765 -0.003685 0.010376 0.017775 0.073089 -0.042912 -0.079502 -0.002491 -0.066153 -0.004512 0.10288 0.103771 0.009672 0.029058 0.101589 0.063929 0.103304 0.057946 0.079804 0.022548 0.004533 0.097479 0.027026 -0.049281 0.062685 -0.022265 -0.007799 -0.041859 0.018673 0.023269 0.027959 0.032304 0.077796 -0.055339 -0.193506 -0.105609 -0.029369 -0.081983 0.086188 0.104573 0.054329 0.122717 0.174047 0.122258 0.001105 0.064811 0.111982 0.083755 0.033904 0.059691 -0.01671 -0.082087 0.007114 -0.066718 -0.025217 -0.037672 0.019521 -0.004317 -0.054836 -0.022667 0.044567 -0.031889 -0.127695 -0.103773 -0.063338 -0.001227 0.197964 0.019248 0.125865 0.151095 0.156654 0.12252 0.0682 0.129154 0.14961 0.075154 0.103829 0.090033 -0.016504 0.028633 -0.053129 0.069783 -0.019058 0.017935 0.111 0.009565 -0.075521 -0.08969 -0.00932 -0.006919 -0.077811 -0.092906 -0.047008 -0.047799 0.160484 0.021485 0.06895 0.132756 0.122302 0.152117 0.20611 0.214269 0.050668 0.031626 0.128473 0.046176 0.048181 0.101554 -0.039856 0.021858 0.013037 -0.037392 0.046773 -0.012126 -0.116598 -0.029634 0.046221 -0.042321 -0.15888 -0.115753 -0.051624 0.003041 0.05309 -0.031482 0.020958 0.089848 0.058278 0.104273 0.077511 0.068885 -0.01475 0.052638 0.032766 0.036615 0.034789 0.074704 -0.060389 -0.011912 0.037129 -0.033581 0.013802 0.027479 -0.079826 0.006036 0.006167 -0.087976 -0.103293 -0.067995 -0.090371 0.0213 0.078686 0.115606 0.145561 0.147893 0.119079 0.123753 0.057211 0.041942 0.039548 0.051281 -0.072688 0.061147 0.074945 0.032688 0.019018 0.013529 0.031121 0.060885 0.072382 0.030322 -0.086286 -0.039272 -0.042547 -0.055283 -0.081174 0.009484 1.94E-4 0.032571 0.11285 0.127384 0.080818 0.103396 0.156608 0.098622 0.126798 0.111405 0.10723 0.061214 0.033559 0.099182 0.128337 0.110006 0.040554 0.099672 0.039317 -0.011156 0.009034 0.021798 -0.031845 -0.048353 -0.13452 -0.114241 -0.146504 0.00909 0.081904 0.057166 0.058359 0.003727 0.009362 0.04048 0.015126 -0.007017 -0.035382 -0.02707 -0.027252 0.001981 0.05993 0.122599 0.198688 0.177902 -0.002107 0.031269 -0.011668 -0.02964 0.00913 -0.018913 -0.020273 -0.156116 -0.127766 -0.143063 -0.053551 0.081046 0.117754 0.12567 0.09611 0.050272 0.071172 0.086427 -7.29E-4 -0.069105 -0.012032 0.068716 -0.010852 0.012328 0.013384 0.110671 0.175351 0.14784 -0.096619 -0.141259 -0.106825 -0.003835 -0.017449 -0.019998 -0.119734 -0.064371 -0.044136 -0.029546 -0.075625 -0.016281 0.064438 0.186807 0.213185 0.232245 0.166675 0.085174 0.088738 0.027728 0.069432 0.032596 0.071249 0.083656 0.028378 0.051142 0.143598 0.219357 
-1.013019 -0.069972 -0.10235 -0.073185 0.008651 0.04521 0.099273 0.036061 -0.04422 -0.001397 0.039825 0.047068 0.046558 0.092765 0.104866 0.080404 0.118184 0.099674 0.116244 0.041422 -0.070981 0.015065 0.105341 0.091785 0.029392 0.034168 -0.082374 -0.121638 -0.052659 -0.159881 -0.179661 -0.068857 -0.021108 -0.035325 -0.127036 -0.04116 -0.051806 -0.050007 0.031408 0.035 0.044725 0.010686 -0.02811 -0.043917 -0.004222 0.110142 0.073007 0.150159 0.111908 0.056179 0.032744 -0.062296 -0.033524 -0.089164 -0.052282 -0.072001 -0.175135 -0.160509 -0.049144 0.0393 0.053576 -0.09515 -0.121712 -0.043707 0.009246 0.007354 -0.055542 -0.054253 0.044366 0.134584 0.066526 0.060394 -0.037228 -0.025039 -0.005568 0.070599 0.03083 0.116767 0.061072 0.051031 0.125443 0.07739 -0.089737 -9.03E-4 -0.195339 -0.097405 -0.06055 -0.020519 -0.062099 -0.078648 -0.012156 0.019839 0.012043 0.079405 0.05389 0.065035 0.113691 0.075105 0.032984 0.082107 0.070104 -0.003611 0.009228 -0.013446 -0.037905 0.005176 0.067474 0.068265 0.056877 -0.00736 -0.135666 0.028059 -0.093399 -0.053746 0.014072 -0.007088 -0.061323 0.034107 0.013975 -0.103728 -0.013815 0.051623 0.047717 0.070677 0.079206 0.044974 0.051484 0.026501 -0.014698 9.6E-4 -0.00539 -0.088669 -0.078138 -0.038192 0.046004 0.120111 0.059153 -0.068725 -0.064547 -0.058533 -0.138861 -0.065625 -0.011792 -0.02154 -0.002169 0.037358 -0.099213 -0.085827 -0.013333 0.031867 0.064441 0.066562 0.060227 0.092022 -0.029736 -0.018018 -0.035324 -0.034563 -0.060022 -0.126766 -0.06596 0.031141 0.037435 0.096126 0.062944 -0.03511 -0.100976 -0.164564 -0.0944 -0.045151 0.060865 0.093929 -0.003496 -0.062392 -0.029988 -4.3E-4 -0.053362 -0.052942 0.074972 0.135746 0.098455 0.048263 -0.027324 0.057011 0.046891 0.015571 -0.025363 0.024673 0.057133 0.072546 0.15804 0.082823 0.025703 -0.021435 -0.075498 -0.135984 0.021372 -0.063385 0.110091 0.032627 -0.040297 -0.013151 0.069059 -0.069349 -0.030313 3.39E-4 0.056826 0.071982 -0.028313 -0.018146 -0.085814 9.82E-4 0.038087 0.020797 -0.002973 0.095341 0.005623 -0.05709 0.041949 0.079855 -0.041124 -0.061231 -0.177631 -0.119056 0.168358 -0.072058 0.064002 -0.042515 -0.01729 0.077029 -0.008887 -0.001101 0.010199 -0.004774 0.081549 0.101176 -0.064231 -0.085154 -0.085614 -0.045969 0.032462 -0.036613 0.002472 0.060906 -0.029158 -0.037409 -0.032397 -6.01E-4 -0.018871 -0.07186 -0.179278 -0.122791 0.113256 -0.013532 0.011494 -0.097908 -0.02995 0.06627 0.027215 -0.045261 4.55E-4 0.042266 0.071606 0.052396 -0.037206 -0.067531 -0.064466 0.002155 0.064999 -0.052656 0.008221 0.037807 -0.035663 0.009772 0.087001 0.029771 0.024072 -0.006224 9.88E-4 -0.021742 0.028701 0.052617 0.003622 -0.077472 -0.024445 0.08008 -0.002509 -0.065918 -0.041698 0.045173 0.085964 0.013541 -0.008263 -0.043513 -0.160167 -0.049724 -0.00574 -0.034096 -0.027141 -0.060998 -0.037364 -0.026257 -0.002 0.028961 -0.010427 0.062419 0.010314 -0.036722 0.032666 0.082873 0.036928 0.030571 0.035557 0.089339 0.151201 0.045841 0.004559 0.024112 0.006012 0.050012 -0.015208 0.038099 0.014958 -0.019114 0.001719 0.048402 0.063415 -0.023469 -0.005313 -0.017359 0.004844 -0.069294 -0.07903 -0.064489 0.051874 0.111543 0.143439 0.142051 0.124316 0.180786 0.015345 0.063285 0.138832 0.060668 -0.018018 -0.032966 -0.019153 0.065426 0.021825 0.01622 -0.088919 -0.020642 0.033194 0.126571 0.107293 0.098315 -0.022683 -0.081558 -0.099805 -0.008838 -0.028239 0.044749 -0.015781 0.035242 0.107742 0.214395 0.207379 0.146268 0.0195 0.07895 0.090684 -0.047125 -0.119661 -0.091023 -0.037689 0.018339 -0.018048 0.091097 -0.014274 -0.03609 -0.081911 0.053578 0.008301 -0.052697 -0.05819 0.009438 -0.071602 0.035304 0.029464 0.031202 -0.045696 -0.02088 0.050841 0.194281 0.188695 0.031783 0.012361 0.118524 0.119002 0.103396 -0.061515 -0.079014 0.016623 -0.019062 0.054344 0.191435 0.103112 0.094401 -0.116523 0.07736 -0.050499 -0.0957 -0.017611 0.067172 -0.011976 0.017339 -0.080994 -0.031995 -0.112197 -0.078907 -0.001701 0.164074 0.076614 -0.019341 -0.006693 0.081048 0.106677 0.014419 -0.013436 -0.027925 -0.012762 0.053128 0.034053 0.135717 0.153934 0.074039 -0.061161 0.063013 0.019921 0.01206 -0.039207 -0.072943 -0.068195 0.008205 -0.110171 -0.074856 -0.145343 -0.076413 -0.03099 0.241206 0.17221 0.097148 0.122337 0.109486 0.102581 -0.053286 -0.100638 -0.07521 -0.070463 0.035628 0.034324 0.133816 0.070407 -0.030538 0.007477 0.075987 0.135955 0.134255 -0.013962 -0.069141 0.005624 -0.014349 -0.132099 -0.081862 -0.11325 -0.051682 0.038738 0.155879 0.089382 0.146321 0.083201 0.114285 -0.061367 -0.083336 -0.18542 -0.158279 0.010446 -0.077261 0.05455 0.104322 0.00621 -0.025243 -6.5E-4 -0.023253 0.077454 0.068671 -0.065943 -0.028423 0.00498 -0.095112 -0.085912 -0.05602 -0.136328 -0.093008 0.065734 0.085592 0.082681 0.210052 0.124078 0.074669 -0.085569 -0.035738 -0.064804 -0.075565 0.019685 -0.00626 0.037313 0.032213 -0.086021 -0.004042 0.003893 0.08527 0.054793 0.006101 -0.002352 0.003965 -0.03702 -0.109527 -0.103377 -0.102093 -0.120224 -0.100396 -0.009396 0.101222 0.109462 0.136291 0.099005 0.037869 -0.097531 -0.012575 -0.052999 -0.108354 -0.064882 -0.118356 -0.059155 0.008863 -0.14206 -0.025735 -0.029825 -0.074743 -0.106081 -0.056297 -0.038819 -0.073737 -0.039587 0.031162 0.010527 -0.009022 -0.106515 -0.071498 -0.001205 0.123343 0.07885 0.029174 -0.040722 -0.041023 7.56E-4 -0.047084 -0.053498 -0.029219 0.043053 0.045866 -0.003176 0.016327 0.028913 0.121567 0.03658 -0.043214 -0.056627 0.056823 0.051061 0.066343 0.063104 0.11777 0.109957 0.062374 0.025571 -0.019291 -0.010674 0.187789 0.193504 0.058198 0.01175 -0.012541 0.01174 -0.080364 -0.118826 -0.047509 0.053143 0.037363 0.066058 0.094836 0.043872 0.103726 -0.016777 -0.067754 -0.031684 -0.070952 -0.027672 0.043766 0.127519 0.049017 0.075652 0.058692 -0.013821 -0.049893 -0.073111 0.112862 0.111204 0.084697 -0.075333 -0.012485 -0.040131 -0.063807 -0.030692 -0.063224 -0.157138 -0.107333 -0.009592 0.010484 -0.059336 -0.007919 -0.024479 -0.036144 -0.072723 -0.127064 -0.072297 0.082211 0.081365 0.05906 0.053205 -0.013479 -0.118338 -0.040489 -0.124979 0.1197 0.037245 0.073381 -0.046463 -0.04912 -0.08664 0.019988 0.019329 -0.129074 -0.169053 -0.069787 -3.59E-4 -0.060108 -0.065616 0.005127 0.027087 -0.022478 -0.046642 -0.048731 -0.006105 -0.002146 0.018105 0.074394 0.047523 -0.077658 0.011537 0.027878 -0.102663 0.113309 0.006576 -0.05104 0.00313 -0.120408 -0.103709 -0.002636 -0.068316 -0.027327 -0.01978 -0.075134 -0.105916 -0.175697 -0.096915 -0.047036 -0.046363 -0.002228 0.114518 0.196497 0.111844 0.102544 0.093777 0.084474 0.077432 0.053806 0.109088 0.028716 0.001202 -0.021939 0.013105 -0.025567 -0.026682 -0.074304 -0.037434 0.010903 -0.037808 -0.077563 -0.050625 -0.156423 -0.214437 -0.154024 -0.130705 -0.131588 -0.058333 0.074229 0.117372 0.101533 0.153005 0.154652 0.064608 -0.034404 0.052138 0.129366 0.016648 0.079026 0.084331 -0.185591 -0.072774 -0.018525 -0.034673 0.054037 0.027948 0.032005 0.032438 0.019273 -0.073734 -0.08892 -0.11387 -0.216632 -0.309032 -0.281137 -0.101699 0.023492 0.02552 0.078005 0.084898 0.146723 0.165431 0.08538 0.123964 -0.012252 -0.022592 0.098426 0.088472 -0.264305 -0.229166 -0.114101 -0.010857 0.027635 0.037537 0.083145 0.029548 -0.046724 -0.110563 -0.13508 -0.197227 -0.282616 -0.397769 -0.394013 -0.187147 -0.04232 0.07614 0.131388 0.109926 0.132673 0.192561 0.04797 -0.065263 -0.015551 0.076088 0.14434 0.206793 
-1.915497 0.002235 -0.031512 -0.06793 -0.095997 -0.09247 -0.042926 -0.001864 -0.039871 -0.060147 -0.077094 -0.126167 -0.172741 -0.171118 -0.157133 -0.086641 -0.099907 -0.073215 0.01916 -0.028708 -0.108659 -0.085885 -0.007274 0.054192 0.094087 0.058271 0.067564 0.280139 0.319553 -0.003819 -0.003559 -0.009703 -0.032375 -0.048286 -0.04446 -0.046627 -0.058505 -0.037637 -0.086364 -0.109543 -0.106778 -0.125579 -0.067414 -0.0348 -0.088286 -0.085927 -0.119253 -0.135306 -0.112854 -0.130918 0.017791 -0.006146 0.01212 0.050054 0.082145 0.076148 0.312286 -0.039256 -0.017658 -0.005547 -0.006517 -0.024322 -0.100011 -0.179982 -0.160719 -0.14741 -0.172203 -0.151669 -0.104817 0.026108 0.036221 -0.006069 -0.022356 0.031362 -0.017952 0.016183 -0.041255 -0.07879 -0.098978 -0.01169 0.111019 0.059189 0.146138 0.104468 0.148837 -0.015279 0.001767 0.062373 0.039469 -0.027241 -0.144935 -0.15165 -0.119706 -0.045197 -0.039563 -0.080452 -0.100489 -0.015964 -0.047593 -0.028228 0.039992 0.032436 0.018902 -0.027428 -0.122557 -0.140174 -0.077804 -0.015635 0.042821 -0.011049 0.067085 0.110889 0.050604 0.011142 0.058932 0.084616 -0.004219 -0.068432 -0.03291 -0.059133 -0.105546 -0.145866 -0.111089 -0.047455 -0.054628 -0.062024 -0.042409 -0.037908 -0.108327 -0.065264 0.040706 -0.009895 -0.138569 -0.180411 -0.157979 -0.019277 -0.017149 -0.025541 0.117087 0.086786 0.016615 0.04029 0.097115 -0.001788 -0.072279 -0.029901 -0.07305 -0.166448 -0.177905 -0.084051 -0.001658 -0.02395 -0.046946 -0.030806 -0.026281 -0.038301 -0.086676 -0.044022 -0.004954 -0.009525 -0.09508 -0.130394 -0.034934 0.026328 0.016384 -0.023512 0.122934 0.142082 0.049264 0.051254 -0.021178 -0.086535 0.039971 -0.033961 -0.056748 -0.207226 -0.126117 -0.088272 -0.105693 -0.126456 -0.039175 -0.052544 -0.030354 0.025781 -0.020845 -0.058713 -0.077019 0.029778 -9.91E-4 0.002549 0.098138 0.071931 0.006954 -0.03888 0.053929 0.056269 0.014405 0.102597 0.059222 0.06166 0.036021 -0.00917 -0.150963 -0.156438 -0.103887 -0.124659 -0.120903 -0.041491 0.009012 -0.051678 -0.063862 -0.029343 -0.059089 -0.048554 -0.051342 0.062018 0.049043 7.8E-4 -0.015817 0.04991 0.087739 0.016808 0.021454 -0.014678 0.06144 0.059117 0.032355 0.062523 -0.021071 -0.124945 -0.063016 -0.118371 -0.095489 -0.080394 0.01351 0.020339 0.070183 -0.075986 -0.082787 0.014502 0.017297 -0.128343 -0.06165 -0.007148 -0.106833 -0.03431 -0.007948 0.01922 0.088099 0.039041 0.043326 -0.037318 -0.016282 -0.003063 -0.040224 -0.030697 -0.118092 -0.040928 -0.028186 -0.179275 -0.120813 -0.088602 0.062259 0.06521 -0.018135 -0.047161 0.04037 0.037594 -0.067297 -0.17754 -0.092531 -0.04594 -0.071705 -0.092248 -0.054853 0.008172 0.0674 0.033957 0.020331 -0.104634 -0.045766 0.065629 -0.004634 -0.041444 -0.136442 -0.081548 -0.207098 -0.158135 -0.044733 -0.054404 0.049726 0.035112 -0.03082 -0.046431 -0.042122 -0.107335 -0.086344 -0.122388 -0.021657 0.013011 -0.027013 -0.07378 -0.065347 -0.008752 0.008789 -0.015599 -0.066196 -0.136065 -0.045183 0.114909 0.023729 -0.078737 -0.012997 -0.021611 -0.070946 -0.044612 0.040277 -0.048834 -0.033549 -0.056522 -0.038645 -0.093871 -5.2E-4 0.033895 0.035921 0.00802 0.030754 0.073858 0.092691 0.063406 0.006634 -0.007552 -0.075695 -0.064391 -0.004533 -0.178114 -0.015843 0.164626 0.111292 0.049765 0.057295 0.013622 -0.004853 -0.019116 0.001917 -0.069025 -0.117664 -0.149012 -0.097863 -0.064637 0.007749 0.05876 0.024373 -0.002569 0.006539 0.165719 0.076199 -0.097086 -0.016719 -0.036211 0.020782 0.009375 -0.084785 -0.181816 -0.045056 0.216832 0.147564 0.117415 0.029296 -0.044737 -0.098715 -0.093836 -0.091583 -0.177551 -0.101082 -0.11282 -0.15386 -0.031447 -0.064217 -0.098818 -0.096171 -0.002103 -0.111523 -0.045755 -0.097881 0.044849 -0.024171 -0.026446 0.076446 -0.012895 -0.02341 -0.107168 -0.098698 0.184572 0.119427 0.22434 0.180889 0.103193 0.010642 -0.031415 -0.050016 -0.095265 -0.01692 -0.121288 -0.165211 -0.020596 -0.034367 -0.010105 -0.103118 -0.020038 -0.040388 0.011834 -0.037435 0.043607 0.01477 -9.3E-4 0.057481 0.00646 -0.012923 -0.069537 -0.121963 0.102041 0.056117 0.179226 0.197349 0.128955 0.189338 0.126732 0.083817 0.005675 -0.031265 -0.11642 -0.160918 -0.078439 -0.062772 -0.078636 -0.046008 -0.064065 -0.00895 -0.038374 -0.086426 0.016914 0.015253 0.019049 0.101675 -0.005612 -0.090194 -0.108625 -0.086567 0.134589 0.087575 0.074857 0.095071 0.21486 0.108541 0.147378 0.130327 0.141474 0.105756 0.087713 -0.016846 -0.138766 -0.074745 -0.065622 0.024276 -0.057489 -0.090234 0.00962 -0.008548 -0.034862 -0.03645 0.006045 0.029252 0.007314 -0.02561 -0.107946 -0.114476 0.12895 0.120822 0.025166 -0.014942 0.012406 0.017863 0.050757 0.134487 0.130612 0.126233 0.154324 0.065242 0.037186 0.07412 0.033593 -0.023631 -0.039137 -0.031374 0.044552 -0.022177 -0.032446 -0.003375 0.051715 0.085811 0.107252 0.058916 0.015347 0.021899 -0.003536 0.079966 0.101821 0.016315 0.090842 0.084074 0.069789 0.004573 -0.019205 -0.022104 0.042469 0.156956 0.08905 0.04695 -0.004994 0.081681 0.034274 0.056383 0.008385 -0.020748 -0.021605 0.096133 0.050569 0.049928 0.019097 -0.016044 0.049559 0.02322 -0.093556 0.035854 0.052138 -0.006487 0.121995 0.022605 0.068491 -0.012397 -0.095126 -0.063671 -0.073412 -0.015766 0.064399 0.124782 0.134557 0.112344 -0.050919 0.006215 0.014417 -0.023368 0.011512 0.035803 0.018318 0.023892 -0.084481 -0.028334 -0.017548 -0.014488 -0.027174 0.043978 0.043471 -0.036979 0.038887 0.039837 0.029653 -0.009266 -0.027782 -0.03693 0.02063 0.137671 0.07796 0.104316 0.090282 0.004127 0.001998 0.085515 0.056653 -0.046188 -7.65E-4 0.015341 0.124917 0.13056 -0.028838 -0.059973 -0.019024 -0.07416 -0.011007 0.078472 -0.003403 0.012828 0.057436 0.104895 0.090174 0.026007 0.101143 0.122669 0.030912 0.046369 0.016438 0.04276 0.086182 0.099831 0.076938 0.109096 0.094447 -0.003097 0.011556 0.066147 0.071608 0.161403 0.007688 -0.073467 0.003111 -0.101342 -0.108934 -7.23E-4 -0.073212 -0.06851 0.031152 0.073486 0.077931 0.0756 0.062347 0.023526 -0.084822 -0.076647 0.006663 0.059287 0.010679 0.015757 -0.058218 0.054718 0.044198 0.002637 0.008228 0.080519 0.109327 0.146469 0.010435 0.040025 -0.023139 -0.124001 -0.101749 -0.014133 0.007412 -0.049071 0.162726 0.191461 0.158882 0.059368 0.047409 0.083135 0.029009 0.024163 0.071076 0.045658 0.039714 0.009378 -0.029798 0.084356 0.147702 0.048989 0.036765 0.088883 0.084729 0.081827 0.014831 -0.003312 -0.070121 -0.13852 -0.149358 -0.039108 -0.032299 0.046179 0.079034 0.082928 0.0809 0.059059 0.086231 0.137848 0.123389 0.052243 0.038342 0.053905 0.009597 0.037369 0.061084 0.117516 0.118492 0.036345 0.013548 0.022361 0.108091 0.094682 0.030941 -0.053348 -0.067888 -0.145379 -0.210114 -0.033718 -0.060609 -0.070162 0.146412 0.102715 0.071777 0.135865 0.116426 0.149925 0.048152 -0.008807 0.039646 0.031876 0.025046 0.013769 0.033128 0.075351 0.100674 0.082087 0.108881 0.083633 0.074042 0.051417 0.017961 0.012135 -0.035423 -0.017583 -0.286622 -0.110286 -0.035987 -0.016726 0.038561 -0.01182 0.001098 0.051778 0.225226 0.292255 0.270733 0.109259 0.010253 -0.039257 -0.029234 -0.007551 0.014521 0.140267 0.160349 0.124024 0.083752 0.044352 0.042164 0.087963 0.134075 0.082034 0.002208 -0.009265 -0.276389 -0.214977 -0.066062 -0.008574 -0.069837 -0.088411 0.006704 0.094531 0.10865 0.170091 0.155032 0.134528 0.105791 0.100146 0.115606 0.076102 0.019731 0.099547 0.116248 0.045283 -0.047719 -0.010391 0.014623 -0.038513 -0.020721 -0.029002 -0.014791 0.017129 
1.620505 -0.183769 -0.104003 -0.054404 -0.091454 -0.065139 -0.041249 -0.072731 -0.052915 -0.072046 -0.063082 -0.050324 -0.041456 -0.061023 -0.039066 -0.058426 -0.015718 0.071807 0.026646 -0.009548 0.022871 -0.055294 -0.086713 -0.061512 -0.011656 0.091346 0.081393 -0.059809 -0.188693 -0.146498 -0.107191 -0.067374 -0.03504 -0.034536 0.002445 -0.009118 -0.007888 -0.001259 -0.016101 0.030232 -0.024166 -0.050654 -0.036853 -0.016395 -0.031885 0.013988 -0.03485 -0.045717 0.042959 0.070711 0.060861 5.74E-4 -0.058002 0.041971 0.082673 0.055805 -0.057154 -0.123626 -0.132985 -0.053078 -0.058914 -0.117794 -0.077759 -0.033568 -0.024746 -0.019414 0.012884 -0.008016 -0.011161 -0.041062 -0.011145 0.02344 -0.012213 -0.005372 0.028198 -0.014791 -0.039018 -0.03759 0.024551 8.26E-4 -0.065428 0.020017 0.014442 0.013096 0.040073 -0.088026 -0.106046 -0.092216 -0.05053 -0.093412 -0.070101 0.018249 0.037068 -0.04199 -0.032418 0.014416 0.029505 0.066275 0.099008 0.050602 -0.009433 -0.033504 -0.027083 -0.075277 -0.03567 -0.041554 -0.068211 -0.023335 0.061659 0.035844 -0.036368 -0.049063 -0.007169 -0.055265 -0.141503 -0.106166 -0.07032 -0.127224 -0.09674 -0.019156 0.027121 -0.050988 -0.102941 -0.070379 0.029964 0.068804 0.023461 -0.055347 -0.045601 -0.063281 -0.051627 -0.096174 -0.034566 0.030582 0.008784 0.001928 0.034467 0.031966 -0.096262 -0.143781 -0.002124 -0.049001 -0.044186 -0.071187 -0.0763 -0.111965 -0.078933 -0.032787 -0.061436 -0.096706 -0.088231 -0.026818 0.013076 0.034521 -0.041084 -0.044225 0.016732 -0.034136 -0.093207 -0.060504 -0.021721 0.044382 0.039833 -0.021973 -0.042551 -0.006149 -0.052757 -0.135597 -0.111585 -0.081023 -0.056518 -0.064002 -0.085967 -0.029233 -0.076825 -0.023109 -0.080007 -0.076186 -0.035244 0.002193 -0.025796 -0.038111 -0.025554 0.013427 0.029382 -0.035009 -0.037685 -0.044417 -0.032738 -0.011594 -0.053106 -0.008179 0.018387 -0.056112 -0.121453 -0.083139 -0.136824 -0.064543 -0.050925 -0.095336 -0.068451 -0.083269 -0.046712 -0.052538 -0.031018 -0.029953 -0.036223 -0.102019 -0.103812 -0.096532 -0.04109 -0.040625 -0.02374 -0.058214 0.011668 0.002665 -0.046003 -0.062111 0.032751 0.060078 0.029414 -0.06799 -0.155315 -0.046113 -0.128948 -0.0376 -0.058585 -0.10988 -0.103929 -0.051974 -0.118838 0.013235 0.038046 0.006596 -0.077357 -0.143562 -0.075423 -0.073905 -0.140626 -0.126152 -0.094818 -0.043402 -0.026096 -0.012816 -0.046487 -0.100119 0.008448 -0.052032 -0.04337 -0.081618 -0.063455 -0.022952 -0.109629 0.020428 -0.070779 -0.111525 -0.10825 -0.09583 -0.07034 0.055769 0.007142 -0.0457 -0.011685 -0.030349 -0.016489 -0.108943 -0.114812 -0.10048 -0.028794 -0.048939 -0.090697 -0.076629 -0.06966 -0.025636 -0.075419 -0.098936 -0.030932 -0.146502 -0.094088 -0.097664 -0.068384 0.011804 -0.073413 -0.042837 -0.073128 -0.147034 0.026579 0.06732 -0.047747 -0.005577 0.018621 -0.106333 -0.129647 -0.083681 -0.09097 -0.05871 -0.013833 -0.019556 -0.114302 1.27E-4 0.03213 0.053979 0.005717 -0.067148 -0.014999 -0.117095 -0.063973 -0.085759 -0.128084 0.022584 -0.077621 0.005793 -0.078021 -0.053026 -0.078983 -0.079851 -0.051612 -0.020714 -0.028543 -0.143795 -0.104931 -0.062362 -0.026444 -0.021154 0.016621 0.097291 5.72E-4 0.041465 -0.018786 0.049339 0.058263 -0.089787 0.065748 -0.010617 -0.048538 -0.07268 -0.164278 0.043054 -8.61E-4 0.03662 -0.046049 -0.04105 -0.057248 -0.007718 -0.038225 -0.025201 -0.02544 -0.094014 -0.023113 -6.01E-4 0.054294 0.051786 0.10315 0.065717 0.103669 0.07208 0.068874 0.035869 0.026544 -0.075443 0.017291 -0.049757 -0.033125 -0.047575 -0.169391 -0.004547 -0.050709 0.0087 -0.071783 -0.052722 -0.058833 -0.016587 0.028338 0.026886 0.063972 0.013376 0.056468 0.02534 0.03559 0.106935 0.073613 0.035054 0.169391 0.178544 0.17514 -0.021638 0.037303 0.037941 0.086201 -0.001263 -0.010108 -0.074448 -0.213068 -0.054733 -0.095181 -0.07716 -0.128965 -0.200234 -0.164644 -0.059181 -0.015767 0.099184 0.037416 -0.021288 0.054684 -0.0411 0.014445 0.013052 0.099985 0.146509 0.14465 0.13822 0.102385 -0.003656 0.077448 0.051081 0.100718 -0.002618 -0.002162 -0.124205 -0.177383 0.00645 -0.058814 -0.063416 -0.099876 -0.151017 -0.158286 -0.02257 0.035331 -0.077925 -0.078086 -0.05474 0.049314 -0.010658 0.026492 0.042706 0.126987 0.207203 0.164601 0.148893 0.167064 0.125118 0.110389 0.021926 0.045493 0.033945 0.040347 -0.09797 -0.09474 -0.042803 -0.04381 -0.068777 -0.009292 -0.040599 -0.071271 -0.02901 -0.009018 -0.121202 -0.059086 0.015157 0.035829 0.005557 0.009319 0.091619 0.117444 0.133515 0.161961 0.136123 0.189421 0.147933 0.112733 -0.014493 0.04573 0.023048 0.013374 -0.046345 -0.008372 0.045244 0.016347 -0.054206 0.008977 0.001174 -0.112755 -0.044922 -0.018718 -0.059317 0.01825 0.05201 0.007599 -0.047568 -0.022385 0.079414 0.066077 0.104646 0.086244 0.134641 0.172814 0.139966 0.140153 0.070669 0.102342 0.087797 0.097089 0.011444 0.023166 0.088562 -0.052823 -0.132313 -0.023135 -0.034509 -0.023693 0.025743 0.032325 0.016905 0.055949 0.05363 -0.035801 -0.074536 0.013644 0.04071 0.024622 0.042123 0.030181 0.11379 0.077612 0.117007 0.081645 0.128851 0.130393 0.075868 0.038618 -0.043115 -0.026458 0.086238 -0.073377 -0.047121 -0.06477 -0.125014 -0.040317 0.055615 0.046751 0.026061 0.007224 0.039192 -0.03947 -0.030231 0.029965 0.075073 0.047907 0.094015 0.110547 0.146664 0.110725 0.034415 0.042856 0.0459 0.090711 0.113339 0.088658 0.010619 0.053215 -0.012454 -0.092364 0.021906 0.04193 -0.02706 -0.012768 0.06613 0.083224 0.097538 0.024567 0.073116 0.019512 -0.003866 0.096905 0.209499 0.08127 0.141469 0.170603 0.195576 0.124429 0.049224 0.08748 0.081723 0.076813 0.1357 0.085732 0.092315 0.100383 -0.062507 -0.100929 0.029686 0.050617 0.044367 0.010127 0.014748 0.104525 0.027625 -0.088775 0.027579 0.079928 0.052565 0.065129 0.108481 -0.00374 0.028868 0.044172 0.08785 0.136717 0.114459 0.084845 0.07524 0.030368 0.091555 0.039745 0.110143 0.138827 0.013158 -0.014406 0.080921 0.028608 0.033279 0.043834 0.1098 0.110852 0.00713 -0.044936 0.004055 0.060385 0.066825 0.156627 0.107335 -0.037306 0.005997 0.001415 0.043129 0.114756 0.067823 0.058529 0.070632 0.097405 0.094743 0.095933 0.16589 0.179302 0.03566 0.03723 0.038324 0.02442 0.021988 0.093168 0.03997 0.053885 -0.00502 -0.065306 -0.037939 -0.018702 -0.005062 0.151794 0.125462 0.037786 0.078182 0.055394 0.055351 0.106984 0.058494 0.063806 0.084292 0.100199 -0.012902 0.092817 0.14087 0.163114 0.079304 0.095214 0.071754 0.02555 0.101058 0.077856 0.011685 0.052124 -0.019286 -0.0609 -0.09998 -0.114013 -0.071 0.049323 0.13382 0.067733 0.015527 0.01641 0.028705 0.061941 0.037377 0.056939 0.152312 0.063812 -0.004336 0.109828 0.14932 0.195261 0.13302 0.116615 0.047711 -0.010991 -0.057213 -0.027482 0.0298 -0.046652 -0.154889 -0.113767 -0.093929 -0.054957 0.008414 0.034699 0.113004 0.127959 0.015452 0.017235 0.006524 0.007882 -0.053914 -0.011079 0.075441 0.038534 -0.001784 0.09215 0.163181 0.215353 0.146816 0.057318 0.014922 -0.037137 -0.075887 0.01795 -0.028335 -0.164964 -0.223948 -0.225834 -0.098945 -0.025016 0.069959 0.133511 0.172204 0.139322 0.122206 0.077882 0.003183 -0.033936 -0.012337 0.040782 0.089244 0.023919 0.011642 0.088583 0.181363 0.16204 0.1068 0.036674 0.074121 0.015306 -0.001 0.007658 -0.155807 -0.119095 -0.085594 -0.084563 -0.032413 -0.025596 0.049716 0.191708 0.279435 0.265724 0.237961 0.119907 0.060447 0.052695 0.077895 0.064406 0.132168 0.120864 0.086603 0.148989 0.16615 0.147563 
-0.421661 -0.210346 -0.207663 -0.255175 -0.222165 -0.137476 -0.074699 -0.092563 -0.049009 0.074042 0.135501 0.118785 0.043484 0.041731 0.027816 0.084883 0.130466 0.105452 0.176792 0.050069 -0.106164 -0.036322 0.070729 0.094229 0.119685 0.084767 -0.105982 -0.043527 -0.002399 -0.240134 -0.282227 -0.206466 -0.091181 -0.074982 -0.070362 -0.015017 0.063275 0.061383 0.027819 0.032009 -0.043524 -0.057984 0.005696 0.03335 0.046941 0.108895 0.040697 0.057365 0.069926 0.05407 -0.038478 -0.021542 0.02388 0.079393 0.024794 -0.014122 -0.002966 -0.289775 -0.185845 -0.024434 -0.025859 -0.061182 -0.059386 -0.035755 -0.030142 -0.0088 -0.040513 0.03691 -0.013457 -0.011867 5.69E-4 -0.013491 0.02605 0.057577 -0.039229 0.05154 0.10002 0.085332 0.002939 -0.013955 0.041885 0.064913 0.090289 0.020693 -0.088664 -0.251348 -0.034418 -0.007537 -0.042127 -0.073994 -0.062516 -0.060239 -0.035615 0.014267 -0.011927 0.038726 -0.023885 -0.008087 -0.016151 0.051123 0.091657 0.010935 0.035843 -0.008306 -0.105983 -0.078447 -0.025247 0.114402 0.060962 -0.020256 -0.021047 0.086327 -0.090284 -0.210802 -0.053512 -0.084802 -0.095147 -0.04949 0.029736 -0.02989 0.007296 -0.05069 0.003829 0.045329 0.061934 0.050548 0.032273 -0.049839 -0.041931 0.041728 0.119598 0.014922 -0.047729 -0.061301 0.012818 0.178035 0.175464 0.04394 -0.033442 0.115745 -0.034488 -0.141239 -0.102426 -0.07584 -0.006174 -0.01281 -0.089164 -0.009291 -0.025755 -0.026369 -0.087504 0.018953 0.019041 0.029683 0.008675 -0.057835 -0.024211 0.023621 0.041177 -0.003933 -0.027563 -0.010671 0.062735 0.139645 0.108611 0.114139 -0.005476 0.064783 0.075654 -0.094797 -0.023869 -0.020798 0.0161 -0.107353 -0.010761 -0.036743 -0.006329 -0.124052 -0.150392 -0.058967 0.005142 0.007523 -0.00678 0.017838 0.003854 -0.037688 -0.038382 0.021947 0.018166 0.020431 0.081925 0.068238 0.03584 -0.016043 0.097447 0.022848 0.118413 -0.118097 0.007203 -0.016596 -0.04293 -0.051532 0.033938 -0.010035 -0.064916 -0.067257 0.010973 0.093199 0.012974 0.009081 0.016544 0.046552 0.024726 -0.014014 0.040692 0.144916 0.053873 -0.042001 0.053224 0.100106 0.012526 -0.100481 -0.013214 0.014228 0.150439 -0.147181 -0.064081 -0.086325 -0.091594 -0.071267 -0.06041 0.032285 -0.001908 -0.032307 0.043215 0.04599 -0.028908 -0.137676 -0.087167 8.61E-4 0.012692 5.51E-4 0.137066 0.105142 -0.064671 -0.01101 -0.055649 0.027132 -0.018549 -0.0505 -0.069513 0.068438 0.059661 -0.058771 -0.108362 -0.140889 -0.051356 -0.048097 -0.062427 -0.068118 -0.012774 -0.015984 -0.002863 0.003245 -0.08993 -0.177357 -0.076011 -0.020689 0.027784 0.011862 0.176927 0.108677 -0.019375 -0.09567 -0.113154 0.062795 0.03658 -0.002114 -0.043306 0.042103 0.026004 0.031882 -0.116929 -0.084778 -0.08028 -0.040527 -0.105591 -0.02255 0.015363 -0.009455 0.062487 -0.016807 -0.019196 -0.132972 -0.200597 -0.038093 0.024168 -0.035755 0.060773 0.139435 0.009068 -0.076375 -0.03169 0.019031 -0.013191 -0.030539 -0.104854 -0.080293 -0.01342 0.032723 -0.14239 -0.03655 -0.008422 0.015505 0.007608 -0.02628 -0.068469 -0.034065 -0.034317 -0.003282 -0.132477 -0.218704 -0.114721 0.057975 0.074841 0.00222 0.070565 0.131652 0.111145 0.039772 0.053429 -0.011735 -0.070227 -0.050307 0.059684 -0.059314 0.027155 0.025243 0.009999 0.125206 0.077936 -0.060177 0.01168 -0.024847 -0.014283 -0.003321 -0.105457 -0.13735 -0.166215 -0.200036 -0.008369 0.116727 0.139841 0.108533 0.022341 0.149136 0.13557 -0.068991 -0.05443 -0.137873 -0.071474 -0.048754 0.013838 -0.095267 -0.019777 0.01141 0.096358 0.108506 -0.052657 -0.011062 -0.04082 -0.042532 -0.093653 -0.186919 -0.155843 -0.159846 -0.131781 0.002073 -0.014561 -0.128442 -0.029794 0.083975 -0.010131 0.075396 0.058797 0.017614 -0.043846 -0.013707 0.013881 -0.074948 0.020247 -0.125347 -0.140492 -0.028847 0.066154 0.027961 0.040478 0.053731 -0.039078 0.012321 -0.095978 -0.18959 -0.092541 -0.159556 -0.079584 0.011568 -0.005543 -0.029551 -0.072121 0.017511 -0.09076 -0.006211 0.073543 0.074289 0.046261 0.02963 -2.5E-4 0.042177 -0.018469 -0.060774 -0.1092 -0.016376 -0.00625 0.011182 0.073443 0.076229 0.059359 0.17002 0.096269 -0.040673 -0.027769 -0.007731 -0.03756 -0.00221 -0.001855 -0.043687 -0.022363 -0.018823 -0.043139 -0.014077 0.021801 0.101672 0.129716 0.065299 0.086873 0.007461 -0.052529 -0.076907 -0.018916 -0.023624 -0.050488 -0.050762 -0.007798 0.148285 0.053011 0.073804 0.018325 0.067286 0.036001 0.099825 0.012511 -0.139418 -0.123709 -0.212191 -0.097846 -1.03E-4 -0.022098 0.026815 0.034164 0.002624 0.073222 0.104195 -0.022451 -0.027182 0.054357 -0.020822 0.061398 -0.037107 -0.019894 -0.043649 -0.018238 -0.014026 -0.065346 -0.02036 0.085833 0.086381 0.112037 0.006111 -0.001658 -0.122165 -0.153164 -0.220309 -0.157447 -0.112727 -0.068299 -0.023423 0.032685 0.07344 0.077727 0.031673 -0.024504 0.003048 0.03217 0.073947 0.178277 -0.095184 -0.025091 0.011482 0.103306 0.11924 0.003299 0.137956 0.175396 0.109934 0.098795 -0.00879 0.039526 -0.151772 -0.174637 -0.150157 -0.046823 0.031557 0.015947 -0.079495 0.013218 0.018668 0.094302 0.002537 0.014956 -0.059034 -0.005948 0.159344 0.182521 -0.116782 -0.05868 -0.080673 0.03331 0.071457 0.040763 0.227159 0.11373 -0.001714 -0.011085 0.007487 0.049948 -0.135506 -0.059519 -0.083458 -0.093261 -0.178922 -0.156643 -0.072645 -0.051408 -0.008521 0.016162 -0.001754 0.051673 -0.010316 -0.075534 0.119286 0.116379 -0.112642 -0.033202 -0.081565 -0.013608 0.010859 0.094371 0.160424 0.071009 0.051641 0.0923 0.140784 0.038337 -0.170506 0.019991 -0.114429 -0.002316 -0.092519 -0.019693 0.012939 -0.061263 0.080516 -0.003581 0.042672 0.174733 0.039529 -0.019523 0.09616 0.095956 -0.098731 0.065947 0.025459 -0.010078 0.039757 0.041574 0.047935 0.020378 0.045791 0.160359 0.126303 -0.019135 -0.098115 0.001302 -0.045091 0.009889 -0.038335 0.044304 -0.097581 -0.117927 -0.018284 -0.05796 -7.79E-4 0.182624 0.075119 0.020314 0.03664 0.081204 -0.075049 -0.002984 0.046197 -0.009321 -0.005219 0.030932 0.095556 0.048374 0.038129 0.103271 -0.031786 0.008627 -0.030356 0.031802 -0.063468 0.004791 -0.088616 -0.123504 -0.191652 -0.182736 -0.043972 -0.013334 0.17937 0.18987 0.09043 0.062625 -0.028161 0.045776 -0.056424 0.002459 0.054692 -0.002699 0.14977 0.112589 0.116292 0.075404 -0.027928 -0.008195 0.056327 0.032568 -0.13764 -0.058042 -0.105329 -0.050453 -0.091022 -0.085851 -0.069636 -0.086924 -0.039173 0.027268 0.121739 0.064696 0.03757 0.017626 0.008094 0.044198 -0.08431 0.07906 0.11617 0.084589 0.160445 0.029454 -0.039215 -0.031324 0.050301 0.027204 0.074174 -0.019009 -0.124763 -0.093111 -0.120606 -0.109406 -0.102188 0.005861 -0.036177 -0.117388 -0.007763 -0.044981 0.021894 0.015106 -0.005525 0.011585 -0.008147 0.103309 -0.094178 -0.007159 0.072228 -0.016156 -0.043774 -0.024167 0.021224 0.034413 0.031228 0.026932 0.074313 -0.010769 -0.046747 -0.168405 -0.151744 -0.096028 -0.043833 -0.112484 -0.131246 -0.102696 0.08481 0.026582 -0.085053 0.083731 0.098793 0.077031 0.141218 0.285897 -0.071917 -0.051745 0.015643 -0.026729 0.036293 0.088788 0.003692 0.076848 0.057275 0.084967 0.140633 0.034214 -0.104976 -0.254196 -0.21705 -0.140733 -0.121457 -0.25188 -0.18924 -0.017967 0.077554 0.006143 -0.028226 0.089233 0.149106 0.208022 0.236304 0.299625 0.098957 -0.031848 -0.023151 -0.032279 -0.057855 -0.010856 -0.011407 0.02795 0.038727 0.028105 0.034173 0.029191 -0.036099 -0.153101 -0.114954 -0.096343 -0.154901 -0.152552 -0.087116 0.01534 0.04913 0.085957 -0.030829 -0.099792 0.075314 0.077159 0.264586 0.351135 
-0.869736 0.119996 0.067501 0.129376 0.109445 0.031191 -0.027559 0.011572 0.027142 -0.073493 -0.084568 -0.103575 -0.116656 -0.176192 -0.167794 -0.105948 -0.00616 0.050682 0.022265 0.050805 0.056316 0.042173 0.063357 0.041199 -0.091249 -0.025068 0.07256 0.10998 0.134401 0.086761 0.035145 0.088367 0.068519 0.037012 0.040774 0.105067 0.066191 -0.039805 -0.083463 -0.14376 -0.14943 -0.19606 -0.186955 -0.08813 -0.01771 0.028304 -0.053235 -0.137938 -0.100539 -0.081031 -0.038477 0.053339 0.048017 0.103818 0.106318 0.130692 0.156035 0.044905 0.070152 0.00988 0.005386 -0.007639 -0.004844 0.075522 0.102337 0.051913 -0.003177 -0.065691 -0.139459 -0.086789 -0.013539 -0.013406 -0.034844 -0.016616 -0.126558 -0.144795 -0.057755 -0.043962 -0.06256 0.063342 0.038216 0.076239 0.13456 0.072769 0.134555 0.131185 0.086336 0.002539 -0.001882 0.021681 0.120948 0.169906 0.097319 0.030684 0.007098 -0.065715 -0.102323 -0.145381 -0.072726 -0.024438 0.046238 0.129638 -0.07976 -0.027105 0.053035 0.020769 0.048517 0.041872 -0.021428 -0.103519 -0.032208 0.079515 0.111399 0.111762 -0.014324 -0.013443 0.007841 0.088552 0.025659 0.026679 0.073369 -0.004333 0.00838 -0.026988 -0.025725 -0.117851 -0.047217 -5.2E-4 0.023951 0.078228 -0.023646 -0.030628 0.027529 0.02859 -0.084465 -0.072957 -0.05602 -0.086497 -0.114473 0.04683 0.079741 0.071522 0.013456 0.044357 0.018008 0.03017 0.032813 0.045443 0.025742 -0.004519 -0.024377 -0.031925 -0.023046 -0.024642 0.046065 -2.28E-4 -0.023153 0.067213 -0.012667 -0.099697 0.008561 0.024194 -0.021248 -5.72E-4 -0.039173 -0.112504 -0.109536 -0.018437 0.052259 0.069989 -0.026225 -0.023272 -0.041605 0.037722 0.061233 0.004815 -0.006019 0.055395 0.050059 -0.013637 -0.027965 0.029951 0.061804 0.08889 0.035475 0.002785 -0.045616 -0.053754 0.057269 0.019664 0.004849 0.03522 -0.006364 -0.009191 -0.07909 -0.028529 0.025473 0.00149 -0.076034 -0.029239 -0.011897 0.003266 0.030232 0.063858 0.031632 0.078922 0.081828 0.027804 -0.079707 0.019587 0.070348 0.0687 0.046372 0.035651 0.050066 0.014202 0.05437 0.063695 -0.097837 -0.101263 -0.0908 0.058842 -0.011987 -0.056496 0.031541 -0.036159 -0.036473 0.020712 -0.089703 -0.076922 -0.00175 0.093499 0.062174 -0.058161 -0.020742 0.009345 -0.040374 0.046569 0.092335 0.102405 0.069923 0.111145 0.064524 -0.036959 -0.038141 0.012202 -0.105392 -0.080183 -0.116957 0.058132 0.018268 -0.042479 0.016561 -0.077774 -0.019615 0.059288 0.008384 -0.01603 -0.055866 -0.006316 0.012641 -0.094165 -0.044231 0.108108 0.088901 0.109107 0.150676 0.154522 0.115993 0.142073 -0.032654 -0.005731 -0.052145 -0.055944 -0.103096 -0.110871 -0.212107 -0.003194 -0.028206 -0.081516 -0.041182 -0.040963 0.065697 0.08984 0.022559 -0.083182 -0.096439 -0.031026 0.075267 -0.01137 -0.0499 0.121812 0.141734 0.131521 0.10117 0.112843 -0.016131 0.087089 0.062412 0.046354 -0.108721 -0.101682 -0.134406 -0.027161 -0.16869 -0.073971 -0.053956 -0.060746 -0.124357 0.033302 0.12399 0.106618 0.063034 -0.071741 -0.035674 -0.06242 -0.01346 -0.005344 0.001105 0.129192 0.111621 0.067406 0.090884 0.198386 0.108359 0.134172 0.079118 -0.005862 -0.137579 -0.119023 -0.021538 -0.014235 -0.083436 0.048448 -0.069842 -0.037993 -0.118938 -0.009245 0.05171 0.084871 0.122994 -0.075056 -0.064215 0.023614 -0.011032 -0.127037 -0.048631 0.132461 0.020172 0.069462 0.06334 0.106889 0.123018 0.122676 -0.073391 -0.056886 -0.079248 -0.056832 -0.087835 -0.141004 -0.104368 -0.088006 -0.160591 -0.114836 -0.127262 -0.03266 0.105575 0.083159 0.116439 -0.115285 0.032543 0.075845 -0.005889 -0.161812 0.004446 0.113771 0.069576 0.162105 0.080033 0.05699 0.093083 0.064329 -0.144128 -0.024935 8.29E-4 -0.071575 -0.184311 0.007505 -0.153774 -0.127027 -0.145805 -0.103523 -0.096178 -0.034255 0.112599 0.068948 -0.079763 -0.16289 0.014841 -0.051099 -0.078598 -0.058908 0.087573 0.227099 0.22803 0.27947 0.154896 0.098726 0.095749 -0.102769 -0.173591 -0.081663 -0.065915 -0.105523 -0.187857 -0.037131 -0.140107 -0.069773 -0.130112 -0.11414 -0.024799 -0.047203 0.113987 -0.003288 -0.037809 -0.104907 -0.041053 -0.083788 -0.002534 0.010944 0.039883 0.150551 0.138562 0.264093 0.204895 0.165972 0.058299 -0.031475 0.058648 0.027157 -0.134069 -0.245633 -0.202702 -0.079493 -0.074453 -0.089458 -0.09206 0.009215 -0.041408 -0.05267 0.073215 -0.003012 0.020659 4.59E-4 -0.028273 -0.02999 0.03243 0.01362 0.016548 0.111974 0.233966 0.223784 0.187564 0.151533 0.090675 0.129366 0.134201 -0.021022 -0.170106 -0.250271 -0.175817 -0.068922 -0.003595 -0.111746 -0.036621 0.010789 -0.02267 8.14E-4 0.014398 -0.00676 -0.080568 -0.075412 0.02011 -0.036355 -0.010817 -0.052645 -0.073986 0.125577 0.245977 0.046521 0.060542 -0.024401 0.043214 0.077674 0.08644 -0.072678 -0.221009 -0.201751 -0.147163 -0.088263 -0.079738 -0.089691 -0.083603 -0.041175 0.00851 0.028246 0.033228 0.007333 -0.089978 -0.162607 0.02304 0.014832 0.143114 0.012021 -0.01668 0.111203 0.150992 0.141053 0.011291 0.018166 0.078311 0.065542 0.026733 -0.10848 -0.099763 0.003564 -0.040698 -0.027292 -0.025768 -0.03394 -0.057811 0.020686 0.041288 0.038922 -0.013101 -0.004534 -0.064256 -0.11995 0.043757 0.059428 0.182489 -0.051518 -0.051814 0.030168 0.084831 0.161562 0.054968 0.047625 0.06687 -0.007933 0.021906 -0.037116 -0.091415 0.06875 0.019863 -0.007223 -0.05258 -0.091645 0.010575 0.039804 0.110129 0.022525 -0.011771 -0.036387 -0.027006 -0.067832 0.011058 0.091668 0.052143 -0.055026 0.003591 -0.065104 0.06997 0.161755 0.02903 0.096915 0.173406 0.026357 0.023707 -0.01191 0.039785 0.055347 -0.002944 -0.057732 -0.078389 -0.024435 0.063621 0.039712 0.134927 -0.048436 -0.016569 -0.013263 0.066192 -0.023538 0.068177 0.09722 -0.009669 0.019975 -0.019313 -0.004725 0.102307 0.096387 0.084586 0.155602 0.131696 0.028981 0.065779 0.075543 0.066677 -0.047177 -0.099712 -0.017672 -0.028411 0.081294 0.067174 0.034421 0.100058 -0.112553 -0.012429 -0.027146 0.116247 0.026282 0.088853 -0.020219 -0.034565 -0.069982 -0.120112 0.028285 -0.055853 0.015814 -0.024474 -0.097673 0.042716 -0.012873 0.002491 0.007627 -0.049184 -0.065625 -0.014036 -0.031323 -0.033252 0.175239 0.045857 0.062863 0.031811 -0.052837 -0.003761 0.023464 -0.009013 -0.080467 -0.067887 0.010454 -0.112964 -0.063516 -0.027927 -0.042588 -0.025731 0.07277 -0.11437 -0.106696 0.044507 0.053105 -0.041411 -0.102907 -0.09885 0.001463 -0.030157 -0.026608 0.03885 0.125936 0.128837 0.065709 0.063416 0.029716 0.070269 -0.001409 0.010219 -0.039679 0.019427 0.025536 0.039481 0.187374 0.086713 -0.087365 -0.066802 0.091943 0.038393 -0.076321 -4.17E-4 0.089024 -0.071868 -0.099536 -0.043588 -0.058727 0.040411 0.117623 0.149602 0.147255 0.071228 0.062269 0.079701 -0.039161 -0.043165 -0.004881 0.118108 0.053648 0.009806 -0.122324 0.0177 0.112939 0.057554 0.019831 -0.062839 0.00658 0.039089 -0.073982 -0.037568 -0.002144 -0.036752 -0.071374 0.010589 -0.010524 -0.017238 0.104549 0.133414 0.049019 -0.035354 0.007261 0.07772 0.04858 0.031054 0.060703 0.073156 -0.042456 -0.089676 -0.050574 0.157162 0.115467 0.004218 -0.083698 -0.119219 -0.144564 -0.153149 -0.150439 -0.103438 -0.060585 -0.051479 -0.043289 -0.045915 -0.085518 -0.099404 0.074226 0.079746 0.055948 -0.027886 0.060181 0.098495 0.115747 0.048183 -0.089989 -0.108345 -0.123539 -0.129682 0.046269 0.076565 0.044186 0.019061 -0.016419 -0.09173 -0.213396 -0.357974 -0.342628 -0.253475 -0.215219 -0.069084 -0.073468 -0.056411 -0.057953 -0.048213 -0.061216 -0.027205 -0.058404 -0.047485 0.008203 0.080315 
-0.178531 -0.025688 0.05755 0.051155 0.00154 -0.019497 -0.053075 -0.108313 -0.025566 -0.014488 -0.02557 -0.006494 0.037778 0.02837 0.002018 6.7E-5 0.035229 0.037164 -0.039054 -0.006085 0.04498 -0.033235 -0.179022 -0.182566 -0.091388 -0.003369 -0.010995 -0.043525 -0.080011 0.071589 0.070059 0.040045 0.076773 0.032119 -0.006888 -0.020178 0.038318 0.040242 -0.008773 0.027043 0.005835 0.013326 0.017509 0.005286 -7.66E-4 -0.097885 -0.044578 -0.008842 0.041916 0.051839 -0.057043 -0.054304 0.015504 0.027542 -5.58E-4 -0.032132 0.0053 0.051519 -0.042328 -0.021725 0.021236 0.018402 0.07067 0.059392 0.021415 -0.013049 0.063374 0.09592 0.030097 -0.042691 -0.008148 0.020505 0.006485 -0.050503 -0.026141 0.012491 0.024678 -0.026554 -0.00971 0.034296 0.036474 0.018619 8.62E-4 -0.046934 0.066766 0.034985 0.035461 0.006215 0.029633 0.050537 0.067968 0.026392 -0.024774 -0.024914 0.002942 0.011258 0.027692 0.078001 0.078423 0.05583 0.00232 -0.062592 -0.046762 0.017539 0.026961 0.057589 0.052988 0.080235 0.140563 0.0829 0.037967 -0.096135 0.017128 0.040875 0.018656 -0.007842 0.00921 -0.028516 -0.013418 0.018424 0.035723 0.044947 0.021082 0.036744 0.069312 0.078394 0.001171 0.035834 0.044552 -0.052193 -0.070123 -0.022595 0.040662 0.087152 0.14798 0.07133 0.075899 0.048763 -0.024734 -0.100412 -0.009359 0.092082 0.03715 0.026903 0.024436 -0.015117 -0.03142 -0.018642 0.006983 -2.83E-4 0.014083 0.024465 0.069075 4.09E-4 0.051641 0.050588 0.028421 0.007509 0.002507 0.015208 -0.019354 0.022916 0.079061 0.022152 -0.001064 -0.01239 0.001667 -0.018952 -0.047613 0.027683 0.041269 -0.031856 0.015039 -1.38E-4 -0.020371 0.006672 0.025204 0.080635 0.088482 0.051785 0.044643 0.025549 0.004801 0.01441 0.061883 0.03749 -0.041269 -0.033256 -0.104008 -0.066462 -0.064949 -0.052953 -0.024895 -0.006302 0.049623 0.030606 -0.023126 0.028569 -0.001139 -0.005767 0.045286 0.029912 -0.014377 0.013592 0.038256 0.098018 0.092426 0.069259 0.07964 0.067858 0.063373 0.060459 0.062663 0.049552 -0.02765 -0.018113 -0.066014 -0.088714 -0.050637 -0.050172 0.044423 0.060098 0.091153 0.118971 0.011121 0.025281 -0.070061 0.00492 0.077838 0.013904 -0.089193 -0.051503 -0.019796 0.038943 0.011307 0.004834 0.063844 0.039397 0.065648 0.070773 0.056599 0.061091 -0.04406 -0.041985 0.014165 -0.04115 -0.054776 -0.067982 -0.005413 0.025204 0.044225 0.124354 0.046088 0.004075 -0.010623 0.05237 0.078429 -0.053571 -0.054981 0.015591 -0.043616 -0.043539 -0.01013 -0.031354 0.057532 0.110316 0.044093 0.09274 0.070152 0.056905 -0.02994 -0.065024 -0.002367 -0.033755 -0.077807 -0.074002 -0.016848 -0.050254 -0.017059 0.056938 0.018486 -0.125082 -0.04615 0.10242 0.104773 0.042066 0.065589 0.059401 0.04934 0.027578 -0.029348 -0.031039 0.006271 0.058851 0.096372 0.076 0.054066 0.015369 -0.017201 0.05101 0.039228 0.030331 0.012171 -0.034596 0.029875 -0.110567 -0.072476 -0.023478 0.030041 -0.151729 -0.074949 0.020188 0.041245 0.025835 0.006081 -0.024427 -0.006747 0.057384 0.020919 -0.039871 -0.009158 0.00792 0.007449 0.027131 0.008171 -0.005707 -0.1042 -0.029772 0.014875 -0.019265 -0.049092 0.03008 0.080171 -0.095895 -0.084012 -0.028414 -0.037039 -0.17827 -0.080636 -0.054143 -0.003979 0.040002 0.007271 -0.082622 -0.031616 0.004127 0.046487 -0.023085 0.010961 -0.095835 -0.095104 -0.053865 -0.042778 -0.04597 -0.116168 -0.087978 -0.025156 0.003958 -0.007191 0.024669 0.009884 -0.072095 -0.009331 -0.027165 -0.108241 -0.298616 -0.186672 -0.189575 -0.158544 -0.078391 -0.044577 -0.093275 -0.071557 -0.069089 -0.101817 -0.136206 -0.109377 -0.193895 -0.128401 -0.087575 -0.053059 -0.116888 -0.113218 -0.060424 -0.00788 -0.04037 -0.052685 -0.100367 -0.061347 -0.074531 -0.032704 -0.050054 -0.130316 -0.306394 -0.193293 -0.247729 -0.187312 -0.10543 -0.131638 -0.151538 -0.12474 -0.126976 -0.219932 -0.205401 -0.230553 -0.255188 -0.192327 -0.187173 -0.053518 -0.148397 -0.197155 -0.148726 -0.125828 -0.18243 -0.207622 -0.154235 -0.068165 -0.088101 0.032185 0.062253 -0.06742 -0.187125 -0.119641 -0.168343 -0.126522 -0.011532 -0.094672 -0.11448 -0.062254 -0.120713 -0.108954 -0.179932 -0.210304 -0.192899 -0.111698 -0.14512 -0.06051 -0.117861 -0.262546 -0.228168 -0.135582 -0.093892 -0.123806 -0.055154 0.001952 0.018468 0.158147 0.16163 0.040404 -0.196404 -0.169144 -0.149569 -0.103026 0.022628 0.00705 -0.026221 -0.015173 -0.108785 -0.040916 -0.098172 -0.1202 -0.064314 -0.071326 -0.033382 -0.092945 -0.097496 -0.20807 -0.18294 0.009648 0.084723 0.011866 0.061061 0.11507 0.099968 0.16563 0.176968 0.101878 -0.161891 -0.155157 -0.172071 -0.07077 0.02601 0.04147 0.029484 -0.011478 -0.041029 -0.006188 -0.023966 -0.080286 -0.029245 -0.066635 -0.039695 -0.022265 -0.010636 -0.041215 -0.018068 0.071994 0.137264 0.111512 0.078494 0.063905 0.018673 0.104597 0.129362 0.044397 -0.062312 -0.053279 -0.100835 0.003742 0.08763 0.007172 0.059131 0.022088 -0.024197 -0.044581 -0.020794 -0.01724 -0.010875 0.027928 -0.014103 -0.034957 -0.032959 0.029502 0.119303 0.108185 0.098685 0.110336 0.104533 0.100789 0.076501 0.11211 0.037034 -0.006198 0.04234 -0.020051 0.013435 0.004032 0.017907 -0.007127 -0.010108 -0.040069 -0.055089 -0.07988 -0.008127 0.027484 -0.060147 0.013316 0.011977 -0.036198 0.059435 0.055977 0.053574 0.09741 0.094819 0.156476 0.025029 0.077119 0.112653 0.197342 0.043489 0.020187 0.05993 0.006836 0.073239 0.098687 0.043009 -0.009475 -0.006117 -0.042415 -0.01827 -0.10117 -0.034915 -0.032151 -0.043384 -0.00638 0.008142 -0.063753 0.031198 0.114369 0.028078 0.005063 -0.011459 0.067004 0.01306 0.012284 0.095277 0.132587 0.090236 0.03787 0.014997 -0.015618 0.032958 0.084887 0.040859 -0.049178 0.021992 0.014807 -0.099439 -0.179731 -0.10043 -0.100518 -0.075735 -0.017772 -0.053362 -0.062384 0.045955 0.063479 0.03597 0.088576 0.062502 0.013914 0.048196 0.032097 0.054134 0.029294 0.066965 0.027047 0.044086 0.002755 -0.009934 0.006763 0.048509 0.003669 0.014633 -0.037421 -0.153799 -0.12949 -0.113712 -0.064651 -0.047537 -0.040692 -0.02285 -0.059973 0.070976 0.143613 0.103387 0.159927 0.054881 -0.014101 0.022219 0.023393 -0.016347 0.087326 0.015856 0.08163 0.009439 -0.064862 -0.030621 -0.019323 -0.009897 0.078137 -0.036779 -0.036378 -0.064546 -0.105911 -0.123972 -0.07648 -0.025809 0.060046 0.062558 -0.013997 0.102946 0.051178 0.034898 0.111544 0.086096 0.089138 0.056792 0.021334 0.016346 0.021072 -0.067586 0.084664 -0.042145 -0.033729 0.013986 -0.015442 6.48E-4 0.046183 0.005998 0.023695 -0.066722 -0.14329 -0.060463 -0.051912 -0.023564 0.030442 0.097429 0.027856 0.012829 -0.080012 -0.052688 0.048623 0.103983 0.123087 0.059705 -0.059108 -0.074761 -0.078802 -0.005239 0.033504 0.016938 -0.059651 0.025435 -0.013007 -0.011719 -0.042693 -0.025193 0.032726 0.040972 -0.014734 0.067761 0.025922 -0.074444 0.016395 0.124359 0.102468 0.047247 -0.076363 -0.050548 -0.013504 -0.026451 0.043326 0.066376 0.030882 -0.117577 -0.00752 0.022601 0.003898 0.096832 -0.054677 -0.029155 -0.001313 -0.055611 -0.04371 -0.029554 -0.006191 0.006972 -0.00463 -4.47E-4 0.041488 0.089571 0.189723 0.255129 0.182215 0.107499 -0.011022 -0.053305 -0.050697 -0.03702 -0.017483 0.017666 0.019388 0.032027 0.095812 0.053692 0.044301 0.116019 0.052 -0.038823 -0.075524 -0.065331 -0.018051 -0.087303 -0.061955 -0.03376 -0.030001 -0.017601 -0.005575 0.095877 0.220691 0.284633 0.1995 0.125489 -0.014555 -0.044149 0.013682 -6.62E-4 -0.05678 0.032267 0.104048 0.145198 0.124132 0.082115 0.004325 
-0.190279 0.126591 0.184273 0.172301 0.077027 -0.005742 -0.121314 -0.006332 0.098818 0.038947 0.007685 0.036347 0.047862 -0.063356 -0.110965 -0.092166 -0.152538 -0.120401 -0.136173 -0.019896 0.097842 -0.03 -0.041526 -0.145258 -0.172351 -0.097062 0.082206 0.117457 0.033774 0.214587 0.243441 0.200413 0.132819 0.114401 0.120854 0.028816 0.057905 0.129416 0.063039 0.025615 0.025138 0.03352 0.003997 -0.006996 0.004932 -0.111424 -0.095269 -0.116257 -0.084785 -0.092483 -0.006842 -0.016711 -0.01342 0.045572 0.031298 0.027749 0.139138 0.27974 0.042053 -0.075098 0.021766 0.190424 0.144421 0.125694 0.02699 1.44E-4 0.077751 0.141668 0.004715 -0.174384 -0.15009 -0.107538 0.034873 -0.029424 -0.064454 -0.117621 -0.056238 -0.132748 -0.094931 -0.064278 -0.071818 -0.077658 0.050053 0.014996 0.263891 0.225065 0.041749 0.045247 0.120617 0.109785 0.110266 0.060631 -0.009957 -0.065276 -0.008414 0.029624 -0.064634 -0.06835 -0.037093 -0.08747 -0.044497 0.00422 -0.036832 -0.014735 0.038872 0.021591 -0.054093 -0.079865 -0.100477 -0.042876 0.082529 -0.111749 0.196568 0.213418 0.048234 0.116866 0.201754 0.096588 0.053753 0.144777 0.003891 -0.069564 -0.011862 -0.010786 -0.077639 -0.058597 -0.049598 0.029 0.040232 -0.015582 -0.02978 0.013653 0.001978 0.025239 0.015088 -0.057522 0.026042 0.031738 0.038643 -0.047976 0.162969 0.242638 0.05096 0.078382 0.11031 0.097646 0.09976 0.06455 -0.004036 -0.05171 -0.048689 -0.030828 -7.72E-4 -0.092006 -0.004297 0.001042 -0.001778 -0.003278 -0.017562 0.013413 -0.011803 -0.019119 -0.002646 -0.039197 0.040429 0.08855 0.111775 0.036331 0.073467 0.199752 0.002314 -0.038202 0.157249 0.152418 0.010721 0.034809 0.117783 0.058316 0.058246 0.006162 -0.02837 0.028048 0.089481 -0.013145 0.042727 0.067046 0.038031 -0.083094 -0.007385 -0.042798 -0.06014 -0.033972 0.028763 0.057279 -0.070682 -0.028486 -0.019182 0.16643 -0.071111 0.040905 0.199472 0.058285 -0.118177 0.069546 -0.001166 -0.023628 -0.068977 -0.057426 -0.017946 0.031666 0.126156 0.060664 -0.022002 -0.061503 -0.041735 -0.110739 0.05536 0.048962 -0.052315 -0.074312 0.038087 0.123478 0.052129 0.031943 -0.140312 0.175826 -0.008632 0.147972 0.155085 -0.017573 0.056734 -0.047055 -0.054194 -0.025407 0.039928 0.063628 0.13565 0.101743 0.13586 0.034952 -0.064494 0.053133 0.040252 -0.036043 0.098627 0.071616 0.072835 0.024538 -0.024642 0.032143 -0.002039 -0.050808 -0.15797 0.181556 0.07957 0.142115 0.043887 -0.049014 -0.042566 0.076861 0.028709 -0.044273 0.048734 0.109557 0.057133 -0.018657 0.076168 -0.016074 -0.05275 0.084946 0.074986 0.010023 0.09696 0.082652 0.019606 -0.041359 -0.081847 -0.030084 -0.11661 -0.087805 -0.090507 0.065923 0.103524 0.133932 0.070027 0.044622 0.032421 0.036864 -7.62E-4 -0.04236 0.026636 0.024053 0.056248 0.02794 0.208483 0.058783 -0.003042 0.009741 0.138186 0.027939 0.072229 0.087645 0.050393 -0.018767 -0.044887 -0.088945 -0.068173 -0.026442 -0.057974 1.3E-5 0.122697 -0.010418 -0.06298 0.037636 -0.152465 -0.137821 -0.063485 -0.045015 0.041342 -0.144796 -0.002127 0.055037 0.0559 -0.013752 -0.162531 -0.119508 -0.099977 -0.065778 -0.029199 0.007649 0.010158 0.093008 0.005987 -0.077013 -0.156815 -0.090431 -0.14757 -0.043431 0.073997 -0.145275 -0.016776 0.086136 -0.129025 -0.070088 0.046916 0.014947 0.067074 -0.07921 0.056896 0.100943 0.140995 0.031337 -0.069614 -0.076705 -0.084083 -0.115651 0.004748 0.147181 0.142952 0.034537 0.016386 -0.069452 -0.103661 -0.040721 -0.148018 -0.032962 -0.068439 -0.192312 0.106758 0.163143 0.038975 0.064628 0.112607 -0.016414 0.050769 -0.026518 0.043441 -0.064046 0.074972 0.144011 0.172313 -0.063398 -0.041466 0.033177 0.003686 0.147764 0.185886 -0.005942 -0.025574 -0.064878 -0.104005 0.018842 -0.143298 -0.062607 -0.189461 -0.106007 0.080908 0.14024 0.104498 -0.088597 -0.029383 0.007876 -0.05562 0.004373 -0.034308 -0.123737 0.037632 -0.045801 0.142175 -0.057749 0.0377 0.080763 -0.021169 -0.019162 -3.15E-4 -0.029184 -0.009394 -0.121431 -0.034222 0.079146 -0.127504 -0.1218 -0.075932 0.037728 0.060483 0.027691 0.039867 -0.104013 -0.120005 -0.113788 -0.075672 -0.170396 -0.10212 -0.104188 -0.070508 -0.075696 0.051553 -0.086959 -0.099164 0.041719 0.02023 0.017743 -0.160067 -0.100247 -0.011598 -0.055023 0.023298 0.053047 -0.131281 -0.177825 -0.022098 0.082623 0.038046 -0.022801 0.014624 -0.059678 -0.038088 -0.008788 0.050732 -0.201496 -0.046599 0.083148 0.043819 0.012551 0.016595 -0.046106 -0.046722 0.003589 0.041444 0.051069 -0.128633 -0.051873 0.079763 -0.014287 0.091695 0.009672 -0.187586 -0.165723 0.111097 0.061504 0.075718 -5.65E-4 0.113885 0.078777 0.088605 0.167766 -0.053784 -0.087004 -0.113491 -0.040707 0.059188 0.083008 0.117334 -0.001602 -0.118512 0.012429 0.21373 0.139898 0.015866 0.09311 0.051366 0.028756 0.06238 -0.074668 -0.132095 -0.117036 0.145371 0.066511 0.045361 0.005569 0.053449 0.02208 -0.050998 -0.052499 -0.211588 -0.103761 -0.003779 -4.93E-4 0.117994 0.049697 -0.023006 -0.191138 -0.148708 -0.059691 0.03215 0.007006 -0.079086 0.025705 0.012568 0.159893 0.085067 -0.075995 -0.019898 -0.018309 0.039093 0.093579 0.026166 -0.041314 -0.012132 -0.206841 -0.049912 0.039721 -0.024435 0.017746 0.10658 0.100419 0.206654 -0.001091 -0.041987 0.052004 0.077407 -0.068241 -0.032577 -0.015706 -0.051187 -0.052458 -0.023735 0.091861 0.027962 -0.06139 -0.001762 0.078356 0.025636 0.145933 0.054919 -0.035776 -0.096775 -0.017767 0.027197 0.078174 0.018125 -0.071604 0.011791 0.083629 0.09588 -0.10537 -0.14893 -0.078884 -0.034781 -0.177691 -0.162543 -0.143192 -0.05233 -0.043757 -0.056177 0.050467 -0.093533 -0.02048 -0.054926 0.035133 -0.163455 -0.060385 0.04352 -0.119781 -0.034129 0.118417 0.077091 -0.025113 -0.049983 0.072355 0.043875 -0.023208 -0.00359 -0.247853 -0.161863 -0.039193 -0.067018 -0.072159 -0.090294 -0.010867 -0.03111 -0.028721 -0.012637 -0.068935 -6.48E-4 0.046292 -0.115684 0.078604 -0.065626 -0.153379 0.050739 0.003601 0.049842 0.1256 0.005622 -0.025674 0.006901 -0.025248 -0.09998 -0.032494 -0.007101 -0.089477 -0.094332 -0.042468 0.119991 -0.012813 -0.001159 -0.085016 -0.086411 -0.040909 -0.059425 -0.136418 0.055024 -0.058468 -0.004677 0.118574 0.024141 -0.079089 -0.005153 -0.03125 0.069669 -0.048882 -0.061027 0.041162 0.013299 -0.0877 -0.016293 0.100726 0.091346 0.010019 -0.186903 -0.106105 -0.028318 -0.087001 0.024058 -0.02752 -0.035162 -0.078004 -0.158433 0.010974 -0.042947 -0.084931 0.098385 0.152621 -0.00985 -0.030616 -0.025654 -0.024616 -0.001559 -0.010628 -0.038964 -0.070591 -0.095651 0.08022 0.202562 0.167089 0.047814 0.010411 -0.137322 -0.164711 -0.193118 -0.179959 -0.014928 0.008097 0.008397 -0.103524 -0.180538 -0.083536 -0.126181 -0.040648 0.021941 0.223218 0.055378 0.028201 0.129388 0.103414 0.053461 -0.040905 0.034684 0.036228 -0.00492 0.1401 0.21967 0.06726 0.039896 0.099359 -0.059892 -0.191479 -0.140924 -0.114567 -0.026721 -0.113111 -0.093651 0.054369 -0.045484 -0.139933 -0.059118 -0.08044 -0.080443 0.304151 0.169734 0.087616 0.08755 -0.003717 -0.030008 -0.011447 -0.035603 0.065118 0.151014 0.138942 0.181416 0.208319 0.279681 0.335188 0.038977 -0.12425 -0.125677 -0.115889 -0.045586 -0.147062 -0.127625 -0.009068 -0.046611 0.046989 -0.001862 -0.138731 -0.09521 0.341124 0.241409 0.041804 -0.156537 -0.137509 -0.161103 -0.1181 -0.053372 0.04845 0.13205 0.146145 0.204673 0.331301 0.464864 0.421669 0.136784 -0.110654 -0.224963 -0.265994 -0.246841 -0.247155 -0.275892 -0.16788 0.023912 -0.030911 -0.137609 -0.152412 -0.178587 
1.365627 -0.227881 -0.231532 -0.156266 -0.099676 -0.114146 -0.128749 -0.113407 -0.067436 -0.020115 0.020081 0.029426 0.003705 -0.040227 -0.07948 -0.059057 -0.010054 0.05858 0.050274 0.037028 0.040109 0.067342 0.057787 -0.031944 -0.031453 0.016469 -0.087352 -0.220197 -0.345198 -0.251929 -0.121177 -0.032958 -0.018529 -0.094793 -0.147827 -0.14587 -0.109697 -0.054468 0.055081 0.148471 0.13724 0.125929 0.122637 0.041205 0.017631 0.108634 0.179908 0.217176 0.127002 0.155123 0.062783 -0.061246 -0.157486 -0.106395 -0.008427 -0.14489 -0.37193 -0.220546 -0.109941 -0.086254 -0.116393 -0.176625 -0.068039 -0.065954 -0.132515 -0.021143 0.066409 0.091218 0.091139 0.055198 -0.028864 -0.070802 -0.029964 -0.026949 0.072161 0.119838 0.04472 0.10317 0.079641 -0.062229 -0.069263 -0.021805 -0.140505 -0.110708 -0.18491 -0.235279 -0.094129 -0.084773 -0.131054 -0.12003 -0.074684 0.022351 -0.021777 -0.064175 -0.056106 0.022013 0.036852 0.075046 0.069339 -0.055721 -0.077928 -0.106644 0.055059 0.05911 -0.015794 -0.035895 -0.052587 0.018374 0.079097 0.031222 -0.075399 -0.100587 -0.163584 -0.161249 -0.054124 -0.071872 -0.003168 -0.003374 0.068541 0.105543 0.057592 0.002547 -0.035215 -0.013516 0.035905 0.124749 0.113959 -0.02773 0.02404 0.010214 0.067039 0.128205 0.084275 0.086225 0.027202 -0.009687 0.12312 0.109148 -0.008103 -0.114572 -0.102155 -0.03977 -0.06793 -0.098222 0.041585 0.01695 -0.050864 0.064837 0.058006 0.020986 0.034324 -0.01293 -0.019863 -7.34E-4 0.016691 -0.051522 0.029838 0.01277 0.030264 0.08717 0.10577 0.161814 0.08159 -0.074928 -0.001066 0.125601 0.032193 -0.052542 -0.102709 -0.099205 -0.02333 -0.009128 -0.081927 -0.061655 -0.11858 0.111685 -3.67E-4 -0.115453 0.096759 0.103401 -0.036114 -0.022999 0.04339 0.028332 0.094341 -0.005893 -0.020382 -0.014267 0.045047 0.042878 -0.002382 -0.024936 -0.044191 -0.116392 -0.039771 -0.106893 -0.16425 -0.14755 0.032363 -0.090927 -0.021002 -0.067611 -0.05904 -0.05333 -0.042353 -0.037321 0.070731 -0.006968 -0.036199 -0.013619 0.059708 0.094926 0.02383 -0.142691 -0.126968 0.032468 -0.048322 -0.070473 0.007786 0.046086 -0.010034 -0.153326 -0.025497 0.061817 -0.179133 -0.105004 0.015895 -0.131192 -0.033404 -0.003392 -0.107729 0.039777 0.053635 -0.005482 -0.02593 0.027693 0.091915 0.082342 0.007719 -0.102735 -0.096275 -0.006752 0.046008 0.100026 0.002596 -0.087327 0.036944 -0.019346 -0.027122 -0.0791 -0.050823 -0.019468 -0.119097 -0.007782 -0.01794 -0.207981 0.007075 -0.108634 -0.126384 0.12913 0.083704 0.037132 0.094406 0.070522 0.081088 0.017241 -0.045095 -0.120022 0.125534 0.042276 0.091729 0.087149 0.017543 0.105938 0.037043 -0.012604 0.004827 -0.05737 -0.073264 -0.078981 -0.115576 0.004959 -0.027281 -0.154185 0.05312 -7.6E-5 0.044578 0.14036 0.021326 0.082733 0.114877 0.001822 0.087287 0.130679 0.020479 -0.078375 0.081761 -0.048118 0.027188 0.060697 0.035739 0.027925 -0.051689 -8.32E-4 0.045006 -0.067449 -0.019932 -1.49E-4 -0.119096 -0.00855 0.030196 -0.086356 -0.056039 -0.011687 -0.059986 -0.064895 -0.036015 -0.001145 -0.003252 -0.086383 0.021796 -0.029953 -0.010859 -0.038284 -0.019515 -0.016532 0.052327 0.068733 0.011048 -0.029862 -0.134118 -0.115525 -0.004456 -0.073804 -0.046416 0.114982 0.005008 -0.015397 0.044554 -0.03519 0.039353 -0.023344 -0.081829 0.010447 -0.034829 -0.11759 -0.028353 -0.06582 0.136607 0.028892 0.067839 0.099838 0.117079 0.07049 0.256245 0.052967 0.011521 0.019911 -0.129592 -0.07 -0.028283 -0.059717 0.119335 0.15397 0.018681 -0.044422 -0.06136 -0.069893 -0.024902 -0.085264 -0.062025 0.072577 -0.017383 -0.076124 -0.016771 -0.024754 0.076387 -0.036972 -0.021669 0.084439 0.046757 -0.101754 0.141786 0.011826 -0.102974 -0.018099 0.079057 0.051754 -0.009811 -0.010257 0.089359 0.13613 -0.013856 -0.080538 -0.081324 -0.113317 -0.006083 -0.019616 -0.031528 0.013674 -0.006659 -0.014175 -0.026765 -0.035747 0.052213 -0.144892 0.005445 -0.040619 -0.039642 0.02184 -0.075065 -0.08628 -0.174825 -0.00363 0.052454 0.052499 -0.013278 -0.00892 0.116369 0.002165 -0.035587 -0.071646 0.028592 0.029204 0.065334 -0.001647 -0.072208 -0.031945 0.061748 -0.070963 -0.057779 -0.033268 0.056705 -0.037674 -0.012028 -0.044726 0.076311 0.042629 -0.043344 -0.074216 -0.015694 0.067043 -9.87E-4 0.004981 -0.028092 -0.075819 0.095887 0.022559 -0.006027 -0.050666 -1.63E-4 -0.01274 0.126052 -0.003438 -0.063805 -0.118866 -0.0723 -0.088051 4.66E-4 0.019137 0.042027 0.027979 -0.099208 -0.084464 -0.011107 0.040669 0.054588 0.10746 2.78E-4 0.04896 0.141921 0.028931 -0.070688 -0.004319 0.04057 0.027936 4.0E-4 -0.146807 0.016473 -0.029673 0.114232 -0.017463 -0.142034 -0.123547 -0.033818 0.124351 0.21649 0.007045 -0.07606 -0.108622 -0.039148 0.027217 0.058194 0.059331 -0.084562 0.027068 0.081223 0.019263 0.05043 0.117953 0.006506 -0.022126 0.074663 0.042792 -0.024948 -0.160192 0.015877 -0.071719 0.038809 0.027807 -0.075284 -0.020116 0.045208 0.160015 0.048442 -0.02913 0.001731 -0.004612 0.041457 0.032444 0.1485 0.022643 -0.12734 0.050529 -0.034013 -0.023004 0.04963 0.127448 0.088694 -0.029925 0.055589 0.008851 -0.020112 -0.019957 -0.025565 0.006956 0.009523 0.028579 -0.021259 -0.056111 -0.027708 0.052847 -0.019073 -0.076107 -0.042847 -0.045227 0.043075 0.031422 0.048948 -0.035962 -0.046195 -0.044406 -0.114918 -0.017782 0.053328 0.117006 0.12827 0.130107 0.096616 0.045226 0.074913 0.032041 -0.012117 0.111527 -0.026031 0.029923 0.02577 -0.009966 -0.005477 0.030193 -0.035628 0.004326 -0.081777 -0.105983 0.104872 0.115946 -0.014219 -0.018663 0.004606 -0.028145 -0.115571 -0.089346 -0.079342 0.080543 0.069634 0.125711 0.103299 0.15802 0.205349 0.001306 -0.075951 0.063295 -0.027655 -0.094619 -0.113339 -0.091203 -0.075397 -0.182644 -0.083706 0.043426 0.101902 0.01842 0.019032 -0.10321 -0.085758 0.058468 0.069308 0.057679 -0.061827 -0.129031 -0.031407 -0.001812 -0.00312 0.10241 0.153361 0.234527 0.288305 0.111533 -0.084633 0.070555 -0.01326 -0.044303 -0.080256 -0.11014 -0.008862 0.00341 -0.025108 -0.163961 -0.08269 -0.094882 -0.039246 -0.130478 -0.140748 -0.082999 0.09346 0.082627 -0.075811 -0.019217 -0.016584 -0.005979 2.1E-4 0.022537 0.107277 0.155872 0.296245 0.110847 -0.04685 -0.066671 0.036494 0.04071 0.022634 0.020227 0.090307 -0.019948 -0.040139 -0.114917 -0.063506 -0.093792 0.00573 -0.067045 -0.158408 -0.064291 0.106614 0.078632 0.040381 0.018626 -0.051064 -0.021194 -0.096074 0.005565 0.074402 0.240199 0.380527 0.172575 0.030399 0.029693 0.089687 0.038503 -0.008483 0.077014 0.030619 -0.096663 -0.050907 0.009146 -0.04968 -0.010567 -0.0541 0.052805 0.014503 -0.074287 0.040786 0.145003 0.047115 0.117005 0.097297 0.007273 -0.016139 0.011332 0.081541 0.299311 0.381718 0.204097 0.020054 0.029538 0.001529 -0.13006 0.023735 0.070619 -0.008231 -0.109356 -0.04397 -0.021005 0.035873 -0.023938 -0.079142 -0.006744 0.004119 -0.062801 -0.026192 -0.080607 -0.069061 -0.032428 -0.018436 0.072229 0.063783 -0.030191 0.13439 0.29703 0.353547 0.272361 0.140347 -0.073188 0.00655 0.031264 0.098727 0.084267 -0.056439 -0.129823 -0.126611 -0.03558 0.012792 -0.01921 -0.067944 -0.134728 -0.150024 -0.161533 -0.156988 -0.170281 -0.106099 0.02145 0.169368 0.162562 0.071196 0.153842 0.296488 0.300603 0.335626 0.280775 0.147891 0.089906 0.041825 0.004314 -0.14203 -0.188796 -0.086327 -0.104101 -0.11277 -0.055998 -0.041547 -0.031515 0.005297 0.011885 0.001462 -0.107502 -0.141988 -0.146244 -0.03952 0.080203 0.038179 -0.022128 0.13236 0.230511 0.25893 0.246604 0.290389 
