-0.2953684953884964 -0.43130485946813046 
-1.8077137433580444 7.006524135362223 
0.010165546333301427 -1.1952020211935626 
-4.807179088633655 3.3469096058089973 
6.618280571265676 22.342411829595928 
7.425924821700435 1.7518545471829396 
-5.221526031943807 -2.1329729538136943 
0.5705109076372941 -0.485689621298014 
0.08345054872990995 -6.27145962920058 
-0.5647935937081914 0.030571630330755946 
-0.3416372247690998 9.101344908316634 
3.9827009567583906 1.349027856549377 
-0.013351236846598526 -3.923384921933922 
-0.04329126220274231 0.11273116758871525 
-0.25430943328329647 -5.993188401330562 
0.8757555345611323 0.05200100114484718 
0.24202799715196913 -7.891769624781646 
-2.326514009772262 -0.5929165501058771 
-0.27290466798438084 4.643431475770678 
-2.039739189326928 0.648690215674751 
0.8331411453993569 -3.813243441784899 -0.14618062957699357 1.4499712721156197 7.7854147202929385 3.1781669858044026 -3.86891292556158 1.573861453770569 -4.8323142429540376 -0.8184351593561825 -1.8419245179186008 1.1237336580329536 2.10081973724867 -1.270586831276526 -0.262410904152132 -0.8049123323019172 1.0783353023542162 -1.2831989488873008 -1.8061224964843938 0.758722810822522 -0.809948454873238 
