0.193027 0.055904 -0.000024 0.054951 0.005931 -0.036703 0.049206 -0.039190 -0.031867 0.013984 -0.055432 -0.039885 0.068029 -0.070441 0.040612 -0.006689 -0.004690 0.088735 -0.010116 0.003907 0.058458 0.063016 0.070241 0.027980 -0.053701 0.010668 0.065119 0.104404 0.082440 -0.005251 0.051790 -0.047392 0.041501 -0.067340 -0.076883 -0.050593 -0.053593 -0.027255 -0.013465 0.017119 0.028046 0.088046 -0.032272 -0.061130 0.063166 0.064473 0.044224 0.002793 -0.015765 0.001182 -0.055392 0.010475 -0.014635 0.057114 0.038060 -0.041282 0.049507 0.088482 0.076745 0.023082 -0.072971 0.080486 0.011481 0.013868 0.027154 0.031636 0.047620 -0.040653 -0.018414 0.008471 0.103152 0.042612 0.004608 0.024768 0.052111 0.059708 0.029662 0.049011 -0.026342 0.074707 -0.023795 0.079107 0.063888 0.044445 -0.041499 -0.045297 0.023108 -0.022667 -0.022065 0.007752 0.071704 -0.037048 0.077610 0.072207 -0.027250 -0.004047 0.087221 -0.048634 -0.020712 0.054866 -0.001672 -0.040945 0.077979 -0.045561 0.061550 0.103282 0.025056 0.000568 0.038839 0.057944 0.115453 0.097411 -0.002071 0.031563 0.037155 0.039587 0.093208 0.030418 -0.051909 0.073599 0.068580 0.013003 0.019521 0.096660 0.100199 0.017498 -0.020186 0.060141 -0.043367 0.008986 0.000279 0.024280 -0.010105 -0.041474 0.063545 0.000194 0.047509 0.053879 -0.011748 0.043901 0.002988 -0.066962 0.043708 -0.035953 -0.001280 -0.012213 -0.009634 0.001806 0.011261 0.034420 -0.042741 -0.049424 0.064242 -0.022427 0.055908 0.026665 -0.035661 0.101783 -0.030342 -0.033067 0.051822 0.028467 0.079211 0.053243 0.063717 0.111912 -0.009252 0.038561 -0.010530 0.052367 -0.070683 -0.062643 -0.046516 0.001387 -0.052682 0.076593 0.066461 0.105799 0.084984 0.040989 0.091809 0.094072 0.079096 0.100189 -0.012542 -0.011949 0.065102 0.109758 0.094031 0.045156 -0.026090 0.067056 -0.033220 -0.044191 0.058093 -0.063570 0.098070 0.020357 -0.038455 0.080992 0.001592 0.095753 -0.048879 -0.058366 -0.019747 0.045543 0.010488 -0.059280 -0.050314 -0.038355 0.028310 0.058073 0.012281 0.044698 0.100338 -0.035442 0.081692 -0.037304 -0.043715 0.075729 0.066315 -0.022734 0.046613 0.040648 0.080674 0.012441 0.038007 -0.030111 -0.045471 0.091449 -0.054914 0.085252 -0.067998 0.020657 0.015179 0.093266 -0.065127 0.104989 0.046590 0.091628 0.059819 0.013235 0.007093 0.080549 0.042243 0.056687 0.055307 -0.039806 0.035474 0.040460 0.064854 -0.053696 0.091194 0.062416 0.057116 -0.029710 0.023248 0.010950 0.049003 0.024411 0.047228 0.006296 0.001707 0.069920 0.006121 0.077500 0.068112 -0.004866 -0.019495 0.058955 0.021174 0.051498 0.064404 -0.045626 -0.010969 0.058058 -0.036110 0.082035 0.080690 -0.025914 0.042868 -0.077501 -0.071464 0.049673 0.057736 -0.044622 -0.042454 -0.010419 0.040532 0.034927 0.030644 -0.040079 0.045016 -0.019309 0.061017 0.032342 0.100984 -0.025829 0.047073 0.006899 0.088393 0.022122 0.081807 0.058093 0.007831 0.082857 0.064239 0.008952 0.072886 0.091679 -0.020923 -0.011307 0.094300 0.043558 0.087547 0.093131 -0.056765 0.089471 -0.048644 0.094954 0.009111 0.083707 -0.043156 -0.009069 0.089274 -0.016219 0.052053 -0.033026 -0.068432 -0.071401 -0.063275 -0.044681 -0.004554 0.018795 0.041317 -0.083352 0.066606 0.061310 0.099705 0.100441 0.093613 -0.034621 -0.040314 0.025156 -0.039233 0.075437 0.072531 0.032501 -0.054153 0.036836 -0.016725 0.085318 -0.064686 0.023065 -0.046487 -0.033444 -0.061925 0.055980 -0.043415 -0.080451 -0.033645 -0.003684 -0.069775 0.076175 -0.053660 0.029565 0.024172 0.053573 0.035801 -0.062109 0.058342 -0.024365 -0.065029 -0.037880 0.033069 0.090957 -0.032259 0.078811 0.081270 0.087258 0.003895 0.085025 0.087233 -0.013813 -0.007868 -0.071203 0.030662 0.046795 0.061605 0.042559 0.059520 0.050973 0.002889 -0.017227 0.017107 0.074292 -0.068198 0.063320 -0.017310 -0.023410 0.084445 0.040452 0.003968 0.055485 0.036459 -0.002313 0.023304 0.094359 -0.016094 0.018954 -0.041593 -0.014005 0.092406 -0.037821 -0.033314 -0.022250 0.031998 -0.012590 0.042286 0.055851 0.065179 -0.015541 0.053397 -0.003537 -0.040178 0.091261 0.093639 0.029339 -0.027033 0.085660 0.077221 -0.014449 -0.012856 -0.000661 0.013133 -0.055654 0.047837 0.014264 0.101805 -0.046885 0.018202 0.015725 0.050362 0.074962 0.006541 0.078346 -0.057976 -0.036587 -0.007057 -0.063902 0.084300 0.042382 -0.061282 0.035547 0.009684 0.056051 -0.006338 -0.056752 -0.039125 0.101251 -0.008314 0.072395 0.036973 0.036454 -0.060464 0.068852 -0.048196 0.020358 -0.021840 -0.071830 0.084719 -0.053203 0.054298 -0.068536 -0.018352 0.030099 0.040447 0.095398 0.095136 0.037378 0.096324 0.006314 0.019764 -0.037822 0.034371 -0.024740 0.034634 -0.059837 0.070642 0.065685 -0.050616 -0.022479 -0.005921 -0.033581 -0.065092 0.058221 -0.003426 0.062013 -0.016910 -0.066513 0.082411 -0.020481 0.042101 -0.000132 0.052951 0.002547 0.094766 -0.064901 0.077766 0.068088 -0.042021 0.097937 0.067035 -0.017942 -0.050504 0.038253 0.005043 0.061555 -0.032349 0.077059 -0.018604 -0.053528 0.055513 0.107863 -0.032736 -0.042973 0.049746 -0.066821 0.047229 -0.052404 -0.014835 -0.044697 0.047855 -0.067934 0.037762 0.069494 0.028932 0.047965 -0.015816 0.092186 -0.022576 0.037508 0.093886 0.074782 0.055912 0.073604 -0.043174 0.108483 -0.009773 -0.007187 -0.032062 0.049583 0.044801 -0.040983 -0.025621 -0.025091 0.096030 0.016488 0.053242 0.104083 0.003057 -0.024769 -0.034985 -0.053198 0.061422 0.095979 0.089657 0.063048 0.033112 0.062254 0.037235 0.099505 -0.006145 -0.058927 -0.047977 0.043736 0.029060 -0.011197 0.006359 0.045778 0.008486 -0.015697 0.032319 0.057777 0.019214 0.075083 -0.051495 -0.047323 0.020613 0.007962 0.031839 -0.044531 0.045688 0.082471 0.085371 -0.047114 -0.017157 0.048934 -0.008658 0.022671 -0.030619 0.045482 -0.011762 0.099223 0.070743 0.001707 0.006901 0.069383 -0.023906 -0.007575 0.015205 0.109599 -0.028833 0.062855 -0.015231 0.114040 -0.015882 0.089642 0.066307 0.065948 0.062801 -0.020364 -0.025362 0.079855 0.047431 0.061729 -0.060898 0.071090 -0.057475 -0.061785 0.103420 0.074070 -0.030013 0.013651 0.101971 0.107298 0.002479 0.109543 0.085404 0.007069 0.008478 0.088919 -0.006709 -0.027306 -0.042529 -0.034253 0.041585 0.008449 0.102601 0.080275 0.008677 -0.003846 0.005580 0.074406 0.058175 -0.021821 -0.032042 0.105406 0.023750 0.013291 -0.034332 0.033544 -0.046994 0.052770 0.043618 0.002689 0.071658 0.094031 -0.004357 -0.037937 0.115038 -0.022830 0.015189 0.004832 0.095893 0.006209 0.095283 0.072374 0.113614 0.027499 -0.024777 -0.009470 0.028625 0.040195 0.000184 0.093227 -0.045606 0.014035 -0.003956 -0.056246 -0.028496 -0.061132 0.027150 0.093060 -0.048855 0.042394 0.086402 -0.003956 -0.016617 0.039517 -0.028403 -0.001437 -0.047760 0.033291 0.079501 0.053175 0.102619 -0.022273 0.048051 0.097716 0.070894 -0.027566 0.026348 -0.036182 0.094253 -0.075853 -0.027911 0.042940 -0.005119 0.079591 -0.036564 -0.013150 -0.040050 0.088010 0.092767 0.052808 0.042046 0.070576 0.098214 0.103674 0.049854 0.000668 -0.029320 -0.049941 -0.014686 0.038617 0.046677 -0.047396 0.001721 -0.036753 0.013959 -0.064267 0.085112 0.038306 0.041030 0.086748 0.060381 0.032111 0.027006 0.059189 0.084368 0.094747 -0.018866 0.061690 0.051438 0.073780 0.062109 -0.044903 0.104592 0.079340 -0.060018 0.033940 0.048667 0.080918 -0.005050 0.005829 -0.069354 0.036749 -0.035403 -0.063432 0.017533 -0.060441 -0.053640 -0.039628 -0.056669 -0.054310 -0.033560 0.066676 0.011781 0.062710 -0.038377 -0.028382 -0.064702 0.063984 0.104196 
-0.015085 -0.081636 -0.020493 0.008331 0.017959 -0.046484 0.010079 -0.033848 -0.026185 0.072833 0.015932 -0.011649 0.032956 0.031179 0.047576 0.000185 0.096211 0.060953 0.077043 -0.040969 0.023605 0.090172 -0.044602 -0.065059 0.005204 -0.028467 -0.014910 0.011573 -0.004862 -0.001290 0.060868 -0.065792 0.030075 0.047329 0.081175 -0.075937 0.027804 0.033388 0.144941 0.011047 0.116757 0.043385 0.046273 0.122312 0.071117 0.149554 0.117599 0.026453 0.121672 0.115482 0.062575 -0.023934 -0.037228 -0.100680 0.022765 -0.060448 -0.013781 -0.083824 0.042380 -0.066039 -0.043772 0.058353 -0.007863 -0.009374 0.034071 0.033374 0.082920 0.081676 0.073512 -0.008912 0.119591 0.135381 0.074089 0.022105 0.075718 0.086572 0.133726 -0.020110 0.142293 0.078156 -0.034851 0.052665 0.014319 0.036984 -0.051849 0.034309 0.034416 -0.067258 0.008776 0.065711 0.021026 0.085991 0.002782 0.029058 0.150370 0.051513 0.013802 0.033338 0.118007 0.089062 -0.006424 0.048290 -0.006863 -0.027849 -0.021967 0.148247 0.037605 0.012047 -0.003047 -0.054135 -0.060885 -0.055364 -0.081450 -0.060852 -0.063533 0.047790 -0.034481 0.038898 0.050534 0.125764 -0.025652 0.073339 0.023535 0.093613 0.067309 0.123607 0.024200 -0.011990 -0.011300 0.014177 -0.035558 0.011315 0.023725 0.139195 0.051352 -0.021924 0.082553 0.055240 -0.022295 -0.034692 -0.083319 0.019392 -0.069601 -0.023809 0.035689 0.074558 0.126410 0.042827 0.132146 -0.004589 0.066537 0.004597 0.051298 0.049187 0.004009 0.085282 -0.077319 -0.019814 0.025136 0.020773 0.047475 0.010672 0.028628 0.102059 0.060365 0.124322 0.074034 -0.054853 -0.024058 -0.083869 0.038711 0.069735 0.024007 -0.028099 0.010267 0.046945 -0.032617 0.051969 0.049303 -0.071586 -0.053875 0.038494 0.014545 0.003240 0.023732 -0.013305 0.038465 -0.010565 -0.054667 0.028392 0.006050 0.027372 0.042672 0.007219 -0.017259 -0.068951 -0.000569 0.028078 0.034097 0.119634 0.055414 -0.000802 -0.013386 -0.035666 0.020314 0.092275 0.013217 -0.006688 -0.001508 0.041009 -0.110037 -0.090076 -0.085009 -0.078827 0.007609 -0.091191 0.039192 0.049507 0.015501 0.050532 0.069298 0.081678 0.125149 0.021396 0.014552 -0.015760 -0.026439 -0.035082 -0.021229 0.008543 -0.000910 -0.038429 0.036196 0.007031 0.005975 0.045635 -0.095107 0.032504 -0.029096 -0.081446 0.049840 -0.040899 0.001015 0.062979 0.042316 -0.086348 0.036741 0.028591 -0.029147 0.029820 0.061151 -0.023093 0.028753 -0.093803 0.095459 0.053970 -0.030242 0.120946 0.059073 0.081493 -0.081292 -0.069216 -0.105714 -0.055683 0.055153 0.005724 -0.047424 0.044847 0.048848 -0.035085 0.073799 0.045444 -0.067362 0.001924 0.074431 0.061618 0.024400 0.065553 0.048533 -0.011217 0.099546 -0.061950 -0.033853 0.108294 0.106415 0.096160 -0.006800 0.058418 -0.017320 0.064506 0.008821 -0.046399 -0.016516 -0.067936 -0.086194 -0.006524 0.009886 0.062452 -0.094229 0.004760 0.047582 -0.073136 -0.008841 0.076345 0.099840 0.095615 -0.000919 0.125256 0.073518 0.022266 0.013039 -0.033505 0.118580 -0.027113 0.023454 0.024969 -0.000608 0.028115 0.060693 -0.088876 0.012699 -0.010272 0.024969 -0.054212 0.041605 0.022950 -0.043090 0.052818 0.058621 0.028363 0.082544 -0.048016 -0.073109 0.050801 0.110321 0.151338 0.003299 0.049722 0.115871 -0.011566 0.033822 0.025297 -0.035046 -0.007983 0.011793 -0.083126 -0.016230 -0.103353 0.048991 -0.075662 0.023352 -0.007008 -0.021418 -0.052705 0.031661 0.045396 0.029799 -0.021352 -0.064902 0.073721 -0.048306 0.017136 -0.020929 -0.025927 -0.021609 0.065815 0.058924 -0.039576 -0.052392 -0.088232 0.003040 -0.010472 0.062466 -0.060067 0.031555 -0.036134 -0.036852 0.040519 -0.053458 -0.054730 -0.080931 -0.089566 -0.014768 -0.045106 -0.001454 0.076097 -0.021220 0.001243 0.049426 -0.056441 0.092743 0.016506 0.031579 0.017028 0.047033 -0.004386 0.092818 0.025146 -0.084529 -0.033818 -0.053820 0.035011 0.012065 -0.056257 -0.017485 -0.008955 0.011497 -0.104378 -0.043190 -0.027577 0.022559 -0.055944 0.028539 0.039001 -0.093977 0.001110 -0.086510 0.001902 0.081197 0.052437 0.027769 -0.016454 0.025028 -0.007513 0.063576 -0.019941 -0.098168 -0.048422 -0.091605 0.018698 0.019754 0.027740 -0.103712 0.003262 0.035066 -0.040876 0.047103 0.019693 0.078804 0.082752 -0.032014 0.057749 -0.011130 -0.071255 0.067272 -0.046048 0.048440 0.139516 0.130274 0.032580 0.075898 -0.008884 -0.054862 -0.038350 -0.059211 0.079914 -0.031091 0.019447 0.033737 -0.053235 0.000750 0.007436 -0.008784 -0.084724 -0.053650 0.037973 0.006280 -0.088414 0.056946 0.003284 -0.054717 0.016343 0.057153 0.010246 0.047693 0.022322 0.139680 -0.003148 0.087913 0.113041 0.095531 -0.068195 -0.034904 0.041383 -0.011761 -0.065875 -0.091610 -0.052817 -0.043001 0.037899 -0.033694 -0.001222 -0.058288 0.027026 0.018083 0.049713 0.039652 0.010291 -0.066176 0.085390 0.047854 -0.005196 0.072646 0.079248 0.040289 0.049108 0.068894 0.081055 0.005737 0.002994 -0.030245 0.060733 -0.001405 0.041979 0.023368 0.070028 0.035946 -0.088074 -0.047938 0.021059 -0.063616 0.007641 0.002577 0.053590 -0.067798 0.042002 0.015982 -0.033404 -0.059606 -0.021898 0.036806 0.124092 -0.015958 0.084241 0.025615 0.106066 0.069389 -0.017010 0.041897 -0.050693 0.048655 -0.093961 -0.033709 -0.025401 -0.048186 -0.100946 -0.080034 -0.067512 0.006193 0.077172 0.040631 0.090720 0.032054 0.035223 0.071859 0.064508 0.062066 -0.029797 0.114822 0.099928 0.023505 0.098017 0.013877 -0.045798 -0.027976 -0.038803 -0.070049 0.015984 0.011237 -0.081984 0.005959 -0.065822 -0.074288 -0.022703 0.047561 0.037321 -0.017362 0.068947 -0.076530 0.058610 0.038551 -0.017326 -0.005009 -0.054826 -0.026299 0.087431 0.057786 0.125780 -0.035508 0.043722 0.055451 0.067979 0.051902 0.082885 0.083801 0.070037 -0.075912 0.028550 0.047278 -0.028731 0.030123 -0.044841 0.014394 -0.035260 -0.077629 0.037592 -0.081617 0.032320 0.049887 -0.056976 -0.045793 0.002359 -0.023021 0.049654 0.031857 0.068344 -0.013843 0.025428 0.087366 0.075522 0.053436 -0.045878 0.077264 -0.061458 -0.052192 0.031454 -0.094347 0.058685 -0.040889 0.033286 0.035304 0.040415 0.054507 0.010449 0.059376 0.077034 0.054330 -0.051666 0.076493 0.058843 0.077219 0.013559 -0.023634 0.042268 0.061257 -0.035992 0.093683 0.076747 0.108291 -0.042231 0.062787 0.016649 -0.068167 0.033885 -0.037252 0.061683 -0.031037 0.054596 0.000343 0.022650 0.000614 0.072638 -0.053287 -0.000660 0.050092 -0.057764 -0.045475 0.099183 0.053562 0.021185 -0.026185 0.056820 -0.064076 -0.088003 0.021648 0.018971 0.064095 0.110539 -0.050316 -0.064980 -0.003191 0.082380 0.015198 -0.007523 -0.084785 -0.088182 -0.009908 0.062664 0.052180 -0.033632 -0.018898 0.000993 -0.000993 -0.053283 0.106431 -0.006066 0.045627 -0.027897 -0.025623 0.004061 -0.058111 0.063036 -0.040862 0.085533 0.109548 0.092757 0.020327 0.056096 0.036232 -0.050370 0.063740 -0.023342 -0.018440 -0.052533 0.018114 -0.039621 -0.012534 -0.071393 0.085277 0.082255 0.058225 0.034378 0.071632 -0.007973 -0.011059 -0.026351 0.015739 0.002160 -0.039965 -0.064870 0.000047 0.000042 -0.053024 -0.023593 0.105462 0.021162 0.040926 -0.030001 -0.063636 -0.066212 -0.078525 -0.013994 0.009956 -0.067930 0.080536 0.081971 0.096306 -0.020757 0.066695 0.067036 -0.022781 0.048056 0.021548 -0.029195 0.036924 0.023227 0.038634 -0.078984 0.091593 0.064575 0.058766 -0.045016 -0.076425 -0.010803 -0.037509 -0.025579 0.062423 0.017762 -0.070656 -0.008435 -0.008785 -0.022859 -0.084651 -0.020741 -0.067950 -0.073664 -0.061338 -0.015866 0.077875 -0.047319 0.045903 0.036269 0.107193 0.039757 0.021751 
-0.060679 -0.054845 0.083443 0.087088 0.109007 -0.068952 0.007895 -0.010847 0.011384 -0.092965 -0.014031 -0.170314 -0.174777 -0.167220 -0.305402 -0.266476 -0.067683 0.002077 -0.007494 -0.154152 -0.046025 -0.043461 -0.092675 0.139796 0.157292 0.271967 0.290453 0.346570 0.338192 0.098611 0.024047 -0.054554 0.057740 0.056657 -0.002954 -0.007370 -0.022798 -0.153419 -0.176075 -0.083536 -0.084945 -0.244823 -0.145644 -0.203721 -0.055880 -0.014165 -0.172729 -0.281104 -0.149669 0.035743 -0.101728 0.195614 0.078231 0.232014 0.198073 0.283210 0.377817 -0.127600 -0.012026 -0.039461 -0.099407 -0.058316 -0.212155 -0.152000 -0.099133 -0.124453 -0.216481 -0.107273 -0.104677 -0.056476 -0.132955 0.002867 0.031082 0.180525 -0.068390 0.002639 -0.041918 -0.131547 -0.080559 -0.106710 -0.133695 -0.067222 0.260804 0.195258 0.402909 -0.018167 0.165335 0.109921 0.082693 0.008212 -0.040928 -0.100981 -0.132636 -0.200731 -0.093164 -0.085251 -0.088781 -0.044864 -0.203881 0.024307 0.116854 0.241658 0.077442 -0.004593 -0.042464 -0.031331 0.032109 0.033582 0.135378 -0.049299 0.123133 0.202600 0.263089 0.014995 0.087782 0.025695 0.018130 -0.032324 -0.058721 0.006822 -0.107311 -0.146233 -0.163120 -0.124536 -0.048722 -0.109267 -0.142258 -0.014831 0.063961 0.037960 -0.010362 -0.010431 0.210501 0.027121 0.085161 0.135547 0.148667 0.080669 0.045250 0.171680 0.137433 -0.037364 0.147256 0.070227 -0.097512 -0.280729 -0.145743 -0.080932 -0.198917 -0.115772 -0.116449 -0.072294 0.093034 0.061254 0.002243 0.036937 0.012524 0.042854 0.048801 0.129447 0.038068 0.143884 0.165840 0.181205 0.029608 -0.099369 -0.013828 0.120819 0.138601 -0.049766 0.086995 -0.011556 -0.051244 -0.143426 -0.032466 -0.086965 -0.050489 -0.020571 0.024844 0.099122 0.150508 0.043145 0.044750 -0.018132 0.053250 0.066840 0.031310 0.033190 0.079319 0.111917 0.026603 0.073639 0.050969 0.023335 0.098495 0.128833 0.045314 0.044063 0.155553 -0.013665 -0.057034 -0.085295 -0.110264 -0.236954 -0.193962 -0.019603 0.065379 0.082174 0.011198 -0.059179 -0.056679 0.002315 -0.092307 0.120325 0.177898 -0.055158 -0.136270 0.055787 -0.030596 0.129803 0.054493 -0.023277 -0.044110 -0.005917 0.027429 0.039403 0.072865 -0.037062 -0.134815 -0.253722 -0.097432 -0.062516 -0.171656 -0.006526 -0.059831 0.043347 0.050250 -0.105167 -0.126946 0.115566 0.049786 0.108596 0.002037 -0.092904 -0.066022 0.001396 -0.019644 -0.036661 -0.068506 0.023036 0.049028 -0.058349 -0.005342 0.064931 -0.013270 0.043644 -0.049783 -0.137628 -0.045401 -0.283120 -0.235367 -0.162361 0.019397 0.062870 -0.036007 0.116343 -0.047322 0.209809 0.042758 0.054722 -0.013205 -0.013071 -0.110806 -0.218894 -0.153178 -0.049695 0.035635 0.070238 0.025684 -0.117150 -0.040907 0.017866 0.039455 0.180316 -0.080745 -0.102129 -0.174583 -0.001060 -0.062295 0.019120 0.039912 0.128662 -0.031018 0.066129 0.061848 0.097372 0.088009 0.079974 -0.101382 0.075378 -0.001217 -0.082237 -0.104558 0.069570 -0.048766 0.046720 -0.045531 -0.222891 -0.153309 0.056989 0.032791 0.054988 0.067942 -0.135855 -0.081259 -0.113516 -0.136795 0.050536 0.113354 0.142166 0.054100 -0.022556 0.039837 0.318086 0.255281 0.147295 0.052383 0.098667 0.036734 0.001670 0.160748 0.201749 0.037793 -0.055720 -0.034258 -0.224823 -0.137362 0.021409 -0.063730 0.026065 0.041934 -0.013734 0.025943 -0.193503 -0.103613 -0.031112 -0.042898 -0.026046 0.007391 -0.140712 0.170492 0.141358 0.209540 0.037831 -0.015544 -0.040858 -0.033607 -0.103893 0.061915 -0.015080 -0.003918 -0.285479 -0.102514 -0.198730 -0.135164 -0.141489 -0.009701 -0.105551 -0.176532 -0.047905 -0.091605 -0.093675 -0.163386 -0.070624 -0.089095 0.031473 -0.013408 -0.038846 0.021204 0.032183 -0.110640 -0.062418 -0.024101 -0.073871 0.070790 -0.019743 -0.135527 -0.046173 -0.070757 -0.192195 -0.129028 -0.142040 -0.220138 -0.109765 0.025836 -0.167243 -0.151195 -0.067790 -0.107254 -0.075239 -0.078302 -0.038671 0.076308 0.149573 0.110486 0.102101 0.095904 0.045275 -0.009013 -0.017353 -0.149579 -0.069863 -0.025770 0.087414 -0.117872 -0.028772 -0.146609 -0.122729 -0.038069 -0.059372 -0.086083 -0.038500 -0.008143 -0.139630 -0.037439 -0.021040 0.057252 -0.010397 -0.068065 0.009136 0.048465 0.073205 0.141537 -0.014611 -0.000364 -0.047017 0.094899 -0.118275 -0.017943 0.071416 0.061374 0.011429 0.034815 0.035331 0.004326 -0.023184 -0.085434 0.098823 -0.028159 -0.111877 -0.173021 -0.222235 0.067341 0.201802 -0.033299 0.047135 -0.020065 -0.013789 0.034955 0.038347 0.034295 -0.104870 -0.217306 -0.034946 0.035098 -0.046608 -0.130451 -0.070378 0.002247 0.077039 0.052553 -0.055977 0.012325 -0.060235 -0.087686 0.016270 -0.039074 -0.033341 -0.044585 -0.140692 0.022575 -0.126282 -0.167676 -0.144205 -0.105823 -0.203160 0.117803 0.049786 0.084478 -0.108371 -0.017327 -0.002154 0.043154 0.007450 0.000468 -0.008665 0.123127 0.064412 0.091060 0.102690 -0.065828 0.011168 -0.079367 -0.002120 -0.069490 -0.056781 0.061239 -0.178713 -0.124648 -0.021196 -0.026281 -0.034570 0.037450 -0.033396 -0.010315 -0.076902 -0.018314 0.079323 -0.000194 0.110823 0.158438 0.250337 0.195769 0.060749 -0.001855 -0.033942 0.171451 0.113283 0.090205 0.015616 -0.048597 0.012503 -0.009128 -0.202320 -0.083039 -0.098059 -0.073184 -0.213668 0.094242 0.079142 0.146675 0.025498 0.072617 0.132561 0.050126 -0.021756 0.068666 0.201295 0.113671 0.157516 0.161957 0.091473 -0.070270 -0.001422 0.105838 0.041089 -0.054808 -0.078305 -0.091029 0.043997 -0.064501 -0.297980 0.015009 -0.160610 -0.030982 -0.030964 0.037924 0.050148 0.057321 0.120737 0.114099 0.202120 0.173964 0.243985 0.064634 0.159081 0.141570 0.067384 0.098251 -0.045693 0.038188 0.060360 0.057921 0.023363 -0.052579 -0.118481 -0.101352 -0.016481 0.037161 -0.388268 -0.122851 -0.108911 -0.060462 0.067300 0.012808 -0.147576 0.038018 0.190642 0.085499 0.091277 0.231184 0.211693 0.221653 0.142593 0.126689 0.059176 -0.055123 0.030103 0.146706 0.115365 -0.042097 -0.017194 0.010854 -0.124127 0.002120 0.103572 0.014025 -0.543374 -0.233776 -0.105644 -0.002624 -0.017236 -0.054841 0.068744 0.193565 0.007903 0.028013 0.307150 0.174112 0.209616 0.071318 0.144769 0.089898 -0.060308 -0.086951 0.233142 0.062549 0.092624 0.053779 0.124893 0.091778 0.144683 0.217463 -0.004865 -0.066404 -0.490930 -0.267494 -0.168233 -0.063400 0.007442 0.021800 0.115731 0.121468 0.172980 0.223275 0.174313 0.098477 0.051173 -0.005557 0.166488 0.202915 0.179860 0.214544 0.233384 0.006763 -0.057389 0.045525 0.060460 0.105748 0.025329 0.094182 -0.007933 -0.199442 -0.604249 -0.310051 -0.121897 -0.141292 -0.047631 0.073793 -0.031649 0.014585 0.142804 0.150170 0.105520 0.088514 0.185331 0.217690 0.144196 0.188062 0.227050 0.073682 0.138869 0.086148 -0.072595 -0.139333 0.133829 -0.038606 -0.142923 0.039588 -0.021406 -0.142406 -0.385120 -0.306924 -0.232892 -0.157237 0.054755 -0.092187 -0.016529 0.047520 0.118834 0.126260 0.239234 0.008771 -0.046585 0.155133 0.116185 0.167811 0.087447 0.139209 0.155982 0.090935 0.078614 0.123057 0.107473 0.032593 0.000952 -0.068904 -0.044437 -0.165979 -0.400016 -0.290193 -0.305509 -0.158758 -0.133434 -0.054914 -0.123322 0.091744 0.138469 0.297042 0.123137 -0.028933 0.006922 -0.022080 0.064515 0.117658 0.250002 0.074834 0.150226 0.171787 0.056134 -0.025785 0.009321 0.128189 0.090221 0.018895 -0.021731 -0.030591 -0.320036 -0.320424 -0.210904 -0.121519 -0.056037 -0.018195 0.056153 -0.000760 0.118740 0.194583 0.075897 0.118303 0.080325 -0.186160 -0.129910 0.057706 0.114119 0.098851 0.022172 0.114154 0.026573 0.152766 0.099263 0.108001 -0.004835 -0.060096 -0.107629 -0.004524 
0.254691 0.214781 0.167744 0.172133 0.097811 0.040983 -0.004850 0.042045 -0.001426 0.056457 0.145360 0.107281 0.103402 0.092902 0.001515 0.025698 -0.037465 -0.014820 -0.158382 -0.074124 -0.099887 0.029401 -0.140934 -0.036058 0.036412 -0.001775 0.164599 0.044793 0.140986 0.305319 0.157529 0.027397 0.087721 0.068748 -0.015229 0.096923 0.028533 0.123793 -0.017401 0.064628 -0.037247 0.128394 0.078999 0.119635 0.188242 0.033594 0.101432 -0.003460 0.044836 0.063989 -0.144395 0.033809 0.030720 0.061697 -0.034131 0.054748 0.065810 0.192581 0.113779 0.035522 -0.036524 0.038695 0.131661 0.117460 0.174050 0.091013 0.075843 0.053210 0.013044 -0.121628 -0.056193 0.003820 -0.043263 0.096940 -0.036089 -0.077701 -0.057451 -0.071084 -0.067721 -0.084398 -0.232321 -0.120874 -0.086539 0.040801 0.114627 0.183562 0.117669 0.111397 0.056466 0.092817 0.080464 0.031281 -0.073118 0.047733 0.103014 0.058200 -0.085516 -0.105786 -0.059946 0.122620 0.075644 0.173707 -0.049848 0.052025 -0.067241 0.075714 0.044312 0.088045 -0.079896 -0.132236 0.083753 -0.008552 0.132057 0.112120 0.127191 0.129162 -0.011956 -0.033965 -0.083698 -0.076109 0.031220 -0.009235 0.073979 0.036752 0.088738 -0.042281 -0.054176 0.104790 0.049532 -0.004208 -0.200652 0.008950 0.082947 0.066095 0.080335 0.038178 0.041564 -0.114922 -0.065346 0.140087 0.130199 0.073191 0.123528 -0.020446 -0.027661 -0.076382 -0.079334 0.057988 0.120493 -0.000462 -0.031867 -0.055863 0.007665 -0.069459 0.064992 0.044922 -0.139716 0.018602 0.014501 0.134804 0.084705 -0.055218 -0.022888 -0.025712 -0.072784 0.060546 -0.104696 0.066602 0.103231 0.239440 0.013725 -0.143869 0.001638 0.038856 0.134874 0.044970 0.223036 0.036241 -0.027505 0.034140 0.047067 -0.037855 0.008004 0.075709 0.023615 0.102971 0.118804 0.160642 0.016765 -0.061415 -0.074819 -0.144913 -0.025931 0.007050 -0.022550 0.005362 0.074759 0.174848 -0.172846 -0.126343 0.027337 0.046271 0.002398 0.056781 -0.005808 0.063084 -0.039073 -0.013956 -0.022873 0.088429 0.102747 0.092449 0.132274 0.126759 0.162152 -0.073598 0.015721 -0.026675 -0.053410 -0.149340 -0.008354 -0.014228 0.076869 0.115312 -0.068406 0.052851 -0.177802 -0.037804 0.096076 0.001891 -0.057448 0.034279 -0.016439 -0.079523 0.005327 0.023692 0.017487 0.132359 0.134013 0.205373 0.188007 0.202028 0.134669 -0.019800 -0.131299 -0.005562 -0.235900 -0.011161 -0.000149 0.090646 0.090234 0.044473 -0.031423 -0.113541 0.035982 0.149005 0.163596 0.073536 -0.051080 -0.049634 -0.135124 0.003928 0.035069 -0.013069 -0.040850 0.017999 -0.048283 -0.021399 0.055274 0.071777 0.094886 -0.061673 -0.000405 -0.058095 -0.153378 -0.039655 -0.084080 -0.023054 0.030505 0.069579 -0.009293 -0.147218 -0.084934 -0.029451 -0.048677 -0.058672 0.095441 0.025287 0.019795 0.049778 -0.104575 -0.041595 0.003766 0.008626 0.096034 0.156973 0.097403 0.066000 -0.102545 -0.028766 -0.089142 -0.115097 -0.085749 -0.042179 -0.030837 -0.038923 -0.048383 0.122133 0.191580 -0.105589 -0.069119 0.094374 -0.061168 0.039639 0.085725 0.032205 -0.007945 -0.099399 -0.086004 0.024118 -0.105414 0.094948 0.152700 0.124530 0.019165 -0.030446 -0.183707 0.031304 0.002370 -0.123787 -0.100529 0.079596 0.067087 0.017646 -0.077532 0.055012 0.045115 -0.233049 -0.178840 -0.131481 0.002231 -0.071467 -0.043012 -0.190328 -0.114306 0.050377 0.044129 0.054151 -0.008012 0.115340 0.121232 0.100053 0.019707 -0.097183 -0.125014 -0.228855 -0.108205 0.050416 -0.041030 0.040560 -0.091174 -0.061603 0.105814 0.120276 -0.023898 -0.230035 -0.063668 -0.067470 0.021845 0.018510 -0.044593 -0.089175 -0.000355 0.027600 0.078888 0.108806 0.013079 0.005502 0.138032 0.091370 -0.030635 -0.099557 -0.139880 -0.010694 0.064685 0.134126 0.122440 -0.068910 -0.029374 -0.070141 0.145218 0.056991 0.027599 -0.299297 -0.052644 0.079280 -0.058238 -0.040989 -0.043756 0.036888 0.021753 -0.085652 0.065193 0.032154 -0.080337 0.036716 -0.110652 -0.135279 0.033071 -0.214566 -0.213885 -0.056542 -0.010944 -0.060641 0.014371 -0.009693 -0.007022 -0.031353 0.150965 0.271966 0.074676 -0.228794 0.020320 -0.067046 -0.004769 -0.068493 -0.058893 -0.115983 -0.008360 0.048603 0.018461 0.027340 0.021921 -0.000053 -0.132763 -0.086745 -0.104980 -0.237406 -0.263401 -0.068131 0.020951 0.048226 -0.082401 0.084632 0.109023 0.074513 0.085980 0.156938 0.117502 -0.220777 -0.142085 -0.047779 0.040904 0.105077 0.110368 0.069854 -0.069760 0.108882 0.029918 -0.192071 -0.054094 0.021679 0.021847 -0.017889 -0.169605 -0.105729 -0.287402 -0.284014 -0.146401 -0.110515 -0.055022 0.170933 0.254205 0.097761 0.066331 0.253394 0.078753 -0.240670 -0.281281 -0.039377 -0.047173 0.098293 0.136087 0.062067 -0.011777 0.054693 -0.048416 -0.127702 0.028097 0.034156 -0.133975 -0.293348 -0.180398 -0.185020 -0.181857 -0.148957 -0.122933 -0.050829 0.050780 0.131270 0.192448 0.058626 0.052033 0.113619 0.067095 -0.071599 -0.199049 -0.223830 0.049094 0.061596 0.037878 0.114508 0.022893 0.015008 -0.009596 -0.100170 -0.029833 0.020098 -0.092763 -0.173890 -0.138941 -0.153251 -0.224159 -0.179819 -0.140065 -0.165566 -0.048883 -0.009038 0.109778 0.113062 0.129307 0.119590 -0.051888 0.016565 -0.018033 -0.145994 0.081514 -0.012150 0.102945 0.058058 0.039972 -0.104132 0.071966 0.148488 0.096595 -0.035197 0.059248 -0.221042 -0.247671 -0.162148 -0.174493 -0.215276 -0.117208 0.048335 0.006995 -0.025080 -0.013558 0.031758 0.117286 0.078930 0.010214 -0.051610 -0.053890 -0.020016 -0.016584 -0.024368 0.010171 0.172404 0.176107 0.158107 0.079298 0.141138 -0.051797 -0.112304 0.003401 -0.229369 -0.040777 -0.114365 -0.126677 -0.198969 -0.190262 0.016290 -0.039132 -0.142996 -0.085767 0.009012 -0.040063 0.032467 -0.071076 -0.011127 -0.008482 0.040458 -0.027269 -0.123054 0.061508 0.067364 0.201384 0.100235 0.207667 0.190073 0.044246 -0.000592 0.017052 -0.169011 -0.023214 0.042089 0.018419 -0.020444 -0.050745 0.035880 -0.133591 0.180200 0.015285 -0.004252 0.083809 0.036918 -0.069105 -0.103039 -0.111231 -0.019508 0.043045 0.000814 -0.084147 0.071253 0.110037 0.047024 0.190824 0.306049 0.065454 -0.031122 -0.081761 -0.180983 0.050134 -0.002956 0.031954 0.048978 -0.127077 -0.052639 0.012989 0.057243 0.136394 0.085375 0.068486 -0.028630 -0.150875 -0.139800 0.005822 -0.009681 -0.026803 -0.040353 -0.094991 0.099911 0.147764 0.204238 0.152974 0.202801 0.088326 -0.070432 -0.228323 -0.139591 -0.070885 0.064679 -0.212985 -0.141773 -0.043317 0.038705 0.025241 0.011164 0.090487 0.118397 -0.038692 -0.127702 -0.036874 -0.199000 -0.078806 0.051419 -0.028930 -0.056318 -0.075571 0.083473 0.071928 0.090883 0.126610 0.098640 0.108815 0.044602 -0.134941 -0.263914 -0.096984 -0.047066 -0.116569 -0.170354 0.007961 -0.042677 -0.123707 -0.054940 -0.012393 0.002431 -0.131397 -0.140207 -0.049094 -0.098079 -0.175163 0.114367 0.163375 0.018660 -0.026814 0.033688 0.177267 0.159028 0.225352 0.301281 0.065374 -0.220242 -0.108852 -0.137725 -0.075536 -0.039390 -0.112906 -0.069668 -0.016987 0.030954 0.092459 0.040614 0.025886 0.003094 -0.108527 -0.246320 -0.248571 -0.046519 -0.015068 0.076985 0.138306 0.003086 -0.016324 0.053810 0.234334 0.265044 0.199404 0.139534 -0.037379 -0.246027 -0.140036 -0.223356 -0.061971 -0.075190 -0.236115 -0.093940 0.095479 0.121648 -0.105277 0.104426 -0.020891 0.116205 -0.055956 -0.194880 -0.091940 0.196586 0.095147 0.044541 0.054546 0.108043 0.106873 0.209262 0.057116 0.042496 0.057410 0.025812 0.123821 -0.049911 -0.325483 -0.236536 -0.301008 -0.257734 -0.293302 -0.236181 -0.157356 -0.112027 -0.073297 -0.036393 -0.033779 0.035429 -0.048063 -0.175830 -0.277517 
-0.285982 -0.330518 -0.288753 -0.196376 -0.097344 -0.100474 0.056002 -0.032383 -0.011460 -0.152755 0.005037 0.008447 -0.095850 -0.037294 -0.035214 0.097006 0.083802 0.198184 0.165898 0.008133 -0.029418 0.020709 -0.040602 0.026108 -0.010675 0.087855 -0.100527 -0.117604 -0.019033 -0.252984 -0.220267 -0.160689 -0.019472 -0.035424 -0.013913 0.036913 -0.122534 0.011383 0.075212 -0.060766 -0.026951 -0.048872 -0.051760 -0.101242 0.021519 0.059711 -0.087600 -0.014025 -0.072573 0.086430 0.175047 -0.017572 0.033539 0.043455 0.038597 0.002368 -0.041488 -0.297104 -0.029921 -0.070317 -0.118710 -0.028971 -0.149338 -0.065374 0.024073 -0.002590 0.039496 -0.018988 0.047433 0.097375 0.112639 0.048550 0.073814 -0.067157 -0.026601 -0.014147 0.014453 -0.032763 -0.014626 0.052566 0.039830 0.133632 0.126034 0.032287 -0.028449 -0.142456 -0.074922 -0.084385 -0.079202 -0.026237 -0.158455 0.005055 -0.058807 0.008284 -0.045849 0.052580 0.040984 0.152077 -0.023362 -0.111120 -0.074318 -0.059049 -0.075575 -0.133529 -0.026076 -0.080667 -0.095282 0.013249 0.187409 -0.038441 -0.010404 0.066010 -0.116836 -0.281127 -0.073045 -0.185895 -0.096034 -0.009519 -0.041879 0.040092 -0.058816 -0.073458 -0.115230 -0.049814 0.013502 0.052993 -0.084533 -0.082148 -0.163588 -0.039162 0.061437 -0.072522 -0.117247 0.030456 0.065069 0.202746 0.146054 0.009579 0.014778 -0.062547 0.008011 -0.137370 -0.132337 -0.033993 0.020033 -0.079681 0.043167 -0.175453 -0.113906 -0.040934 -0.037190 0.081667 -0.026470 -0.068701 -0.220085 -0.135791 0.025632 -0.008927 -0.049556 -0.056758 -0.055507 0.088404 0.164382 0.081325 0.112678 0.005906 -0.016841 -0.062748 -0.145247 -0.197491 0.001530 -0.012121 0.014433 -0.039298 -0.034835 -0.129054 -0.125162 -0.066000 -0.059552 0.053100 0.029086 0.026578 -0.118133 -0.002929 0.037599 -0.122948 -0.089090 -0.080606 0.018237 0.095660 0.013885 0.013957 0.079851 -0.089783 -0.097381 -0.023665 -0.080919 -0.083719 0.003336 0.000482 0.009485 -0.016958 -0.085894 -0.098907 -0.011597 -0.043460 0.034167 -0.049247 -0.000302 -0.023889 -0.191585 -0.044065 0.106676 -0.061711 -0.122837 0.146354 0.039015 0.046455 0.035342 0.082160 0.047360 -0.114001 -0.041666 -0.113974 -0.156048 -0.043794 0.056754 -0.105228 -0.081096 -0.032132 -0.196181 -0.001415 0.025272 -0.054686 -0.072831 -0.012171 -0.035474 -0.197779 -0.153471 -0.182811 -0.043128 -0.017634 -0.052234 0.096758 -0.073552 -0.010814 0.037226 0.038297 -0.055653 -0.011349 -0.075189 -0.071464 -0.163769 -0.081803 0.017777 -0.079036 -0.100712 0.035566 -0.057274 -0.046463 0.056313 -0.096716 -0.072131 0.084312 -0.031078 -0.109505 -0.144470 -0.072618 0.057081 -0.040767 -0.072208 -0.107211 0.033322 -0.045081 -0.031167 -0.097461 0.010051 -0.203442 -0.031470 -0.209707 -0.141062 0.013919 -0.057303 0.060454 0.023076 0.026527 -0.007727 -0.036637 0.059338 0.018865 0.129508 0.012198 0.019318 -0.048372 -0.216015 -0.195837 -0.014579 -0.104812 0.080546 -0.061822 -0.085380 -0.057580 -0.035943 -0.097964 -0.054467 -0.099318 -0.163800 -0.281547 -0.216086 0.074490 -0.044717 0.033852 0.129344 0.097688 0.113382 0.097128 0.000276 -0.018502 -0.060342 -0.082922 0.034440 -0.120458 -0.097283 -0.079658 0.006180 -0.039565 -0.112245 -0.150798 -0.103311 -0.127562 -0.084787 -0.249447 -0.111639 -0.078020 -0.201601 -0.077253 -0.194325 -0.005096 0.014864 0.190123 0.058692 0.197322 0.193677 0.113436 -0.087517 0.007465 -0.069671 -0.236757 -0.148183 -0.080674 -0.246296 -0.041911 -0.041349 -0.115954 0.012455 -0.073264 -0.200786 -0.199921 -0.062397 -0.062195 0.017545 0.008183 -0.169698 -0.204177 -0.135378 0.053458 0.164201 0.159354 0.172887 0.022902 0.072057 -0.094979 -0.072253 0.001499 -0.015453 -0.143897 -0.079934 -0.119339 -0.163285 0.011985 0.023226 -0.012149 0.027407 -0.011325 -0.217993 -0.241231 -0.044878 0.020724 -0.048570 -0.094761 -0.161934 -0.192049 -0.252932 0.093835 0.082310 0.056808 0.046106 -0.027302 -0.022966 -0.033412 -0.109923 -0.130280 -0.042714 -0.307819 -0.045420 -0.013673 0.040012 0.029475 -0.087516 0.089617 -0.027617 -0.101892 -0.039454 -0.158673 -0.064759 -0.145587 -0.122558 -0.064491 -0.080384 -0.197333 -0.144004 0.191559 0.019047 0.054175 0.104635 0.130104 0.087337 0.046982 0.033422 -0.041905 -0.125086 -0.083104 -0.066748 -0.013480 0.006479 -0.025914 0.059014 0.121024 0.018161 -0.053254 -0.146588 -0.101328 -0.131888 -0.207885 -0.089965 -0.085052 -0.047395 -0.272005 -0.196420 0.230581 0.160000 0.109486 0.168134 0.043885 -0.061897 -0.014188 -0.073744 -0.100387 -0.167070 0.024394 -0.083883 -0.041720 -0.016043 0.047228 0.123334 0.217669 0.181750 0.267884 0.195199 0.027213 -0.041345 -0.081533 -0.083340 -0.135377 -0.124033 -0.135670 -0.175441 0.218818 0.175529 -0.019447 -0.080514 -0.004492 -0.202139 -0.047221 -0.055906 -0.120264 -0.061568 -0.158739 -0.005189 0.073673 -0.016653 0.066583 0.128620 0.100902 0.245083 0.156114 0.095731 -0.018089 -0.015858 -0.067620 0.018379 -0.049737 0.115236 -0.078245 -0.116865 0.027179 0.018252 -0.072296 0.000779 -0.024188 -0.125196 -0.022906 -0.022014 0.108061 -0.060717 -0.090914 -0.016825 -0.055334 0.066365 0.113710 0.206202 0.045987 0.095221 0.241945 0.147086 0.128392 0.138600 0.155627 -0.004694 0.062714 0.109600 0.030804 -0.123887 0.000238 -0.072645 -0.010726 -0.119304 0.001131 -0.034651 0.017092 -0.041782 0.082797 -0.006873 -0.154710 0.032632 0.079852 0.038477 0.085446 0.116409 0.093903 0.312872 0.324810 0.197190 0.172185 0.116562 0.052044 0.104013 0.092727 0.009774 0.022404 -0.133654 -0.052238 -0.084355 -0.073675 -0.059027 -0.082036 0.002464 -0.107520 -0.037790 0.005035 -0.106359 -0.061899 -0.045255 -0.022796 0.107916 0.168722 -0.008817 0.153603 0.211557 0.338685 0.202024 0.165162 0.151933 0.224213 0.136145 0.044307 0.004907 -0.066225 -0.116916 0.039922 -0.009518 -0.038898 0.056937 0.116590 0.046900 -0.105705 -0.106803 -0.060422 -0.032409 -0.141655 -0.098263 0.064241 0.044405 0.137787 0.141543 0.045830 0.260735 0.268148 0.109623 0.203380 0.138168 -0.037270 0.113579 0.093806 -0.059810 0.057141 0.003328 -0.000265 -0.016421 0.019473 -0.011524 -0.030618 -0.031174 -0.143612 -0.046131 -0.086777 -0.177243 -0.210007 -0.105801 -0.016950 0.110015 0.176283 -0.038734 0.082350 0.117334 0.200712 0.166368 0.118850 0.062095 0.059833 0.198478 0.096105 -0.007601 0.080945 0.114271 0.003545 0.004741 0.059677 -0.014908 -0.027173 0.011638 -0.113613 -0.108847 -0.197761 -0.197833 -0.159338 -0.019092 -0.005764 0.003178 0.155453 0.197275 0.164958 0.166615 0.266655 0.118503 0.190766 0.119629 0.093556 0.062417 0.019245 0.087908 0.067641 0.152470 -0.030016 0.047787 0.104170 0.080760 0.185956 0.086332 -0.176371 -0.100408 -0.057575 -0.182614 -0.172931 -0.044821 -0.027623 0.074937 0.132962 0.104299 0.126201 0.250640 0.235481 0.161094 0.148443 0.122150 0.142833 0.058648 -0.002759 0.116840 0.097559 0.143532 0.063027 0.052389 -0.020525 -0.074776 0.082454 -0.043391 -0.034821 -0.154301 -0.316780 -0.226379 -0.243357 -0.020203 0.076939 0.165753 0.162059 0.043569 0.069991 0.080844 0.045959 0.033599 -0.017283 0.011242 -0.065217 0.070562 0.068885 0.187976 0.207995 0.190465 -0.096043 -0.104372 -0.058562 -0.099063 0.057114 0.015626 -0.018767 -0.251574 -0.257104 -0.164394 -0.165179 -0.016765 0.113339 0.087465 0.174901 0.067075 0.076970 0.127219 0.052638 -0.002489 -0.098423 -0.047583 -0.006039 -0.038929 0.083579 0.171780 0.225037 0.123158 -0.063677 -0.235528 -0.009833 -0.022547 -0.021584 -0.088064 -0.124812 -0.108848 -0.183849 -0.131848 -0.069668 0.044430 0.014412 0.180902 0.353223 0.312472 0.349549 0.227117 0.175238 0.051266 0.037674 0.059034 0.165952 0.200445 0.172371 0.147718 0.181564 0.258238 
-0.171264 -0.148386 -0.267800 -0.169574 -0.025762 0.008500 0.051607 -0.038309 -0.114179 -0.036277 0.015885 0.083912 0.191860 0.091766 0.218905 0.082771 0.221440 0.195478 0.103800 0.129059 0.161928 0.105465 0.168135 0.092442 -0.012310 -0.004495 -0.207794 -0.195004 -0.087342 -0.326741 -0.268230 -0.136677 -0.055329 -0.212669 -0.208182 -0.028046 0.010005 -0.006954 0.200688 0.036621 0.122630 0.163064 0.092811 -0.001607 0.070689 0.231419 0.143202 0.245176 0.071811 0.053680 0.063387 0.035828 0.017858 -0.084075 -0.017451 -0.125445 -0.264917 -0.223333 -0.047893 -0.070345 -0.017497 -0.046219 -0.068510 -0.080162 0.108215 0.110278 -0.015041 -0.102592 0.111148 0.201519 0.093862 -0.021247 -0.031079 -0.116846 0.077961 0.096609 0.056086 0.138891 0.006910 0.028907 0.157745 0.062891 -0.107519 -0.076176 -0.233275 -0.071984 -0.196710 -0.044702 -0.110555 -0.167350 -0.016820 0.033644 -0.001790 0.103427 0.046251 0.106558 0.015175 0.056157 0.075669 -0.011497 -0.054371 -0.065180 0.081442 0.009049 -0.070950 0.025747 0.037880 -0.011755 0.056551 -0.015257 -0.163921 -0.071100 -0.172262 -0.137314 -0.103793 -0.076818 -0.105802 -0.014421 0.098386 -0.082950 -0.067088 0.092278 0.065527 0.092177 0.120747 0.100466 0.082775 -0.022011 -0.070543 -0.023439 0.066401 -0.117979 -0.045873 -0.041474 0.050041 0.024433 0.055791 0.032117 0.014241 -0.049045 -0.084404 -0.157491 -0.049218 -0.047504 -0.003897 0.055149 -0.135857 -0.056173 -0.008864 0.061190 0.007831 0.110915 0.010396 0.125901 -0.065998 -0.023471 0.083183 0.003463 0.071431 -0.108433 -0.049401 0.048832 0.070994 0.195924 0.138351 0.135654 -0.096505 -0.205490 -0.190284 -0.149762 0.007335 0.176557 0.045686 -0.057397 -0.137308 -0.062268 -0.110898 0.012631 0.010499 0.218383 0.013369 -0.008227 -0.031145 0.034641 0.010933 0.018130 -0.022149 0.058882 -0.013486 0.135452 0.230924 0.144126 0.060289 -0.098850 -0.149289 -0.119881 -0.091380 -0.117783 0.192195 0.096713 -0.035710 0.042957 0.060189 0.025695 -0.087927 -0.017303 0.049359 0.049944 0.034325 0.013071 -0.003958 0.081276 0.038325 -0.077233 -0.096353 0.012786 0.023459 -0.050672 0.104029 0.116459 -0.085974 -0.152950 -0.161464 -0.159771 0.037335 -0.145474 0.023128 0.011908 0.062809 0.126526 0.101693 0.064588 -0.020207 0.059095 0.046270 0.083586 -0.126130 -0.042660 -0.097846 -0.153591 0.042490 -0.043624 -0.056638 0.146404 -0.011824 -0.040156 0.021424 0.082798 -0.096602 -0.138282 -0.174439 -0.192835 -0.043862 -0.029244 0.042702 -0.167264 -0.015213 0.155005 0.096972 0.105988 0.145330 0.054209 0.132400 0.121827 -0.018385 0.031693 0.085809 -0.083264 0.030431 -0.122669 0.036113 -0.059586 -0.049153 0.128702 0.134308 0.141157 0.031066 -0.056835 -0.083243 -0.053717 -0.095877 0.048678 -0.057499 -0.108365 -0.009283 0.169281 0.109351 -0.037043 -0.047666 0.105748 0.073341 -0.063330 0.059289 0.084902 -0.081460 -0.110330 0.028658 -0.046410 -0.028965 -0.022170 -0.063496 0.070599 0.039846 -0.109150 -0.100742 0.032699 0.031670 0.006818 0.046543 0.209475 0.153648 0.066034 0.081920 0.097819 0.069256 0.126369 -0.045306 0.103824 0.032699 -0.001322 0.003660 0.069305 -0.080155 -0.058621 -0.154938 -0.014587 0.102081 0.069296 0.006533 0.027237 -0.097517 -0.185119 -0.093940 -0.128648 -0.018197 0.106277 0.023411 0.200110 0.243584 0.238780 0.028509 0.077981 -0.010198 0.039848 0.025391 -0.138894 -0.017740 -0.054379 -0.037728 -0.077766 -0.030026 0.011797 -0.037885 0.167207 0.162668 0.009128 0.035792 -0.198572 -0.195651 -0.090435 -0.049530 -0.000821 0.013830 0.011814 0.077551 0.361723 0.185840 0.148122 -0.010528 -0.010058 0.035407 -0.016381 -0.153334 -0.078975 0.002522 0.032041 0.006412 0.139189 -0.014580 0.049079 -0.089856 0.042910 -0.036930 -0.187187 -0.124830 -0.086385 -0.181042 -0.088562 -0.016955 0.040139 -0.072339 -0.167653 -0.112479 0.286608 0.181000 0.022741 0.146324 0.101679 0.019780 0.108399 0.033707 -0.045959 -0.009068 0.009596 0.063211 0.160636 0.150469 -0.011723 -0.155500 0.083531 0.015894 -0.104003 -0.005824 -0.025645 -0.006021 0.003544 -0.052206 0.023998 -0.052190 -0.180435 0.001130 0.243660 0.046115 -0.031838 -0.060744 -0.042892 -0.013073 0.168239 0.140412 0.099200 0.118930 0.058051 0.113556 0.049770 0.170842 0.010324 -0.081367 0.109105 0.102809 0.076396 -0.003667 -0.052594 -0.152180 0.028779 -0.130078 -0.043953 -0.183741 -0.285451 -0.072950 0.347149 0.223789 0.101494 0.116336 0.065345 0.054486 0.013932 0.012731 0.073870 0.022780 -0.028998 -0.034843 0.123306 -0.029058 0.004213 0.062929 0.121906 0.130471 0.112796 0.029673 -0.031834 0.057341 -0.093248 -0.160634 -0.078794 -0.165659 -0.179180 -0.207224 0.225899 0.144139 0.173733 0.181673 0.043832 0.054772 -0.034657 -0.091529 0.073236 0.115635 -0.009558 -0.029590 0.039314 -0.041163 0.009634 0.054638 -0.029323 0.054460 0.057327 -0.051145 -0.021971 -0.023685 -0.012889 -0.112553 -0.131225 -0.194686 -0.235366 -0.039109 0.139478 0.062591 0.326423 0.151700 0.107799 0.053724 -0.010790 -0.078223 -0.004787 0.088256 -0.073305 -0.001032 0.052279 -0.089771 0.073132 -0.047060 -0.060956 -0.124762 -0.096556 -0.079043 -0.087906 -0.103514 -0.066804 -0.184552 -0.150157 -0.230891 -0.138914 0.007988 0.161954 0.192448 0.230185 0.205226 0.041440 -0.001517 0.028271 0.058218 -0.058962 -0.061766 -0.078204 -0.139997 -0.143093 -0.077571 -0.047289 -0.092140 -0.096311 -0.122304 -0.151389 -0.083711 -0.094298 -0.132449 0.033437 0.038481 0.049579 -0.162902 -0.178855 -0.143306 0.133362 0.231773 0.163048 -0.037687 -0.002635 0.064977 0.106771 0.000475 0.055037 -0.025827 0.043169 0.018469 0.028199 0.105650 -0.031948 0.095441 0.071123 -0.029244 0.045921 0.123686 -0.023961 0.040932 0.089820 0.077948 0.091597 0.031022 -0.092953 -0.048422 0.251400 0.150578 0.160139 0.058447 0.001587 0.033517 -0.068916 -0.118913 -0.130074 0.099870 0.119067 0.079248 -0.043536 -0.001375 -0.014393 -0.046740 0.078931 0.128890 -0.005675 -0.132852 -0.034739 0.141335 -0.002912 0.042436 0.099739 -0.110500 -0.042705 -0.034857 0.234313 0.106247 0.162934 -0.102497 -0.156444 -0.086957 -0.133358 -0.075517 -0.116891 -0.181464 -0.240131 -0.130776 -0.041337 -0.145758 -0.093324 -0.033123 0.095604 0.028326 -0.118443 -0.058782 -0.021763 0.090455 0.072129 0.103981 -0.088138 -0.222098 -0.093202 0.023512 0.131685 0.053597 0.067567 -0.022890 -0.077671 -0.065850 -0.032433 -0.045460 -0.087642 -0.177411 0.027092 -0.055958 -0.214071 -0.053799 -0.074614 0.049857 0.021672 0.090648 0.007984 -0.027909 -0.023062 -0.014654 0.077352 0.094281 -0.035589 -0.054872 0.086704 -0.017064 0.190043 0.035423 -0.108480 0.034663 -0.105657 -0.044262 -0.082572 -0.027142 -0.121980 -0.037483 -0.061596 -0.113227 -0.183904 -0.179506 -0.028344 -0.054304 0.033386 0.132046 0.255391 0.018722 0.127784 0.122007 0.096662 0.107178 0.182754 0.088614 0.138366 0.064969 0.056375 0.038563 -0.017769 -0.052012 0.014221 0.132924 0.110747 -0.049339 -0.199201 -0.193124 -0.220850 -0.174145 -0.180257 -0.202645 -0.163404 -0.090822 0.154835 0.089277 0.078171 0.105545 -0.002172 -0.031580 -0.000775 0.174457 0.092276 0.100204 0.240664 0.185934 -0.073506 -0.037486 -0.121870 -0.002609 0.013574 0.028062 -0.044785 -0.161538 -0.254649 -0.299585 -0.253503 -0.136568 -0.194934 -0.194550 -0.308344 -0.246717 -0.092138 -0.117818 -0.123661 0.014428 0.122265 0.121973 0.109464 0.099738 0.028890 0.148595 0.164785 0.285500 -0.133239 -0.103691 -0.147259 0.034462 0.021676 -0.032455 -0.032132 -0.101530 -0.097663 -0.185536 -0.298433 -0.308020 -0.277494 -0.301367 -0.276106 -0.269900 -0.143670 -0.056671 -0.025815 0.084780 0.184490 0.249875 0.043747 0.083618 0.084164 0.137713 0.161237 0.233012 
-0.445507 0.026993 -0.014385 -0.123402 -0.237551 -0.175180 -0.124140 -0.023557 0.026744 0.034016 -0.115445 -0.146391 -0.239996 -0.215698 -0.281548 -0.207533 -0.068693 -0.151817 -0.025940 0.037299 -0.010670 0.075936 0.017694 0.054095 0.031416 0.106051 0.071331 0.421271 0.273989 0.037663 -0.038693 -0.138957 -0.099027 -0.092037 -0.173081 -0.148165 -0.069059 -0.096367 -0.112617 -0.076170 -0.137931 -0.174601 -0.120165 -0.110063 -0.166155 -0.084454 -0.040923 -0.111302 -0.027492 -0.099255 0.092575 0.062081 0.027924 0.133484 0.092260 0.127258 0.299953 -0.104235 -0.076361 -0.041887 0.048392 -0.069383 -0.146340 -0.227344 -0.276740 -0.112852 -0.123330 -0.168523 -0.135560 0.000785 -0.031462 -0.195328 -0.119520 -0.085451 -0.066300 0.085351 -0.051372 0.081049 0.064962 0.038216 0.171448 0.037642 0.227944 0.117573 0.254878 -0.031370 0.071445 0.123497 0.036206 -0.002890 -0.169338 -0.207290 -0.205240 -0.048776 -0.121645 -0.032823 -0.200126 -0.001556 -0.124882 -0.146786 -0.058465 -0.098510 -0.087504 -0.005637 -0.057457 -0.002603 0.024991 0.063643 0.024546 0.129731 0.201526 0.041354 0.008882 0.041774 0.008226 0.018353 0.053110 -0.072285 -0.072383 -0.131714 -0.176446 -0.192246 -0.056130 -0.024475 -0.148964 -0.140426 -0.027057 -0.051277 -0.227851 -0.139598 -0.003510 -0.015283 -0.084584 -0.086583 -0.097464 0.144449 -0.021194 0.074871 0.103071 0.043309 0.102250 -0.005714 0.065015 0.029243 -0.037212 -0.082111 -0.021422 -0.215330 -0.188332 -0.069077 0.045762 -0.109886 -0.024855 -0.087896 0.048967 -0.016252 -0.103778 -0.031930 -0.054282 0.057521 -0.178459 -0.062958 0.086216 0.051837 -0.040200 0.036880 0.072590 0.018791 0.102105 -0.016008 0.016446 -0.053479 0.031673 0.076080 -0.065601 -0.302196 -0.128565 -0.085736 -0.168698 -0.084970 0.009532 -0.044476 -0.036440 0.056103 0.008574 -0.060108 -0.156879 -0.049167 0.017215 -0.033418 0.053215 0.145403 -0.070014 -0.103417 0.110363 -0.031182 -0.033284 0.205227 -0.005917 0.154124 0.083506 0.053286 -0.182090 -0.011949 -0.047125 -0.142120 -0.139636 -0.043222 0.112556 0.038509 -0.070406 -0.075522 -0.164753 -0.163498 -0.253537 -0.053038 -0.046993 0.065157 0.042949 0.175006 0.135366 -0.066725 0.020985 0.003344 0.001596 0.109878 -0.058977 0.155144 0.120957 -0.058544 0.174348 0.046643 -0.090909 -0.073600 -0.047342 -0.015798 0.145998 -0.058313 -0.064755 -0.034183 -0.056902 -0.230117 -0.163256 -0.084975 -0.080124 -0.074548 0.058604 0.017191 -0.010867 -0.081158 -0.005658 0.009359 -0.127664 0.025995 -0.145547 0.125547 0.010970 -0.011025 -0.020670 0.032102 -0.061840 -0.136291 -0.100260 -0.008633 -0.040981 -0.010388 0.069701 -0.053685 0.045134 -0.210746 -0.029294 -0.070622 -0.008833 -0.081019 -0.067468 -0.020546 -0.001355 0.049552 -0.114227 -0.195674 -0.012426 0.020669 0.030484 -0.018520 -0.012582 -0.037382 -0.117178 -0.110987 0.038334 -0.103059 -0.082140 -0.014224 -0.079803 0.043674 0.026808 -0.000896 -0.044143 -0.044381 -0.038548 -0.006310 -0.069864 -0.080328 -0.141996 -0.029239 0.054795 -0.026460 -0.094140 -0.147480 -0.093915 0.137045 -0.051034 -0.096613 -0.030893 -0.016847 -0.066420 -0.107437 -0.047559 0.003418 -0.139525 -0.183374 -0.002397 -0.069997 -0.114075 0.052679 0.158369 -0.048286 -0.039843 0.129954 0.137241 -0.030060 0.073462 0.096273 0.017921 -0.022441 -0.125662 -0.227969 -0.161892 0.171249 0.013684 -0.033786 0.079713 0.108514 0.048062 0.044856 0.095702 -0.014501 0.010775 -0.219123 -0.132399 -0.125946 0.005154 0.107566 0.138072 0.037865 0.007496 0.136079 0.194853 -0.063395 -0.044078 0.039234 -0.044445 -0.004009 -0.027872 -0.246501 -0.078336 0.104205 0.018170 0.032672 0.006414 0.050534 -0.103550 -0.053571 -0.030342 -0.163279 -0.086788 -0.228286 -0.112918 -0.085597 -0.045762 -0.131655 0.042771 0.084853 -0.107023 0.147675 -0.029313 0.138045 -0.005347 -0.031483 0.037911 -0.067454 -0.109968 -0.141211 -0.246020 0.163383 -0.041500 0.172807 0.134002 0.091685 0.092911 -0.001710 -0.041040 -0.119922 -0.033117 -0.158424 -0.144529 -0.097046 -0.053086 -0.035489 -0.114787 -0.002007 0.047211 -0.008600 -0.010573 -0.063974 -0.034983 0.011327 -0.013737 -0.053605 0.028238 -0.058917 -0.215535 0.086824 0.092049 0.056408 0.187085 0.121995 0.171882 0.060243 -0.002879 -0.024458 -0.172944 -0.273130 -0.163131 -0.135960 -0.259990 -0.095406 -0.002993 -0.205732 -0.066508 -0.074342 -0.064595 0.087343 0.086251 0.124846 0.036507 -0.082123 -0.076058 -0.223418 -0.173550 -0.049403 0.036557 0.180535 0.076201 0.151234 0.059454 0.260472 0.216264 0.108914 0.096429 0.103975 -0.031276 -0.200222 -0.306146 -0.086410 -0.042367 -0.117513 -0.187503 0.070589 0.037389 0.045551 0.061569 0.098166 0.038108 -0.094105 -0.010391 -0.143857 -0.230185 -0.019705 0.199117 0.051523 -0.102836 -0.039523 0.008361 0.060886 0.259959 0.185654 0.094193 0.028811 -0.056206 -0.161418 -0.146848 0.048588 -0.111077 -0.007991 -0.147805 0.038749 0.103715 0.006393 0.065687 0.101401 0.043935 0.014205 0.030260 -0.038923 0.028060 -0.173086 0.096799 0.269105 0.022117 -0.070323 0.115373 0.053747 0.050651 0.014240 -0.133070 -0.008025 0.046821 0.016113 0.095307 0.127490 0.163965 -0.024914 0.096878 0.126162 0.155448 0.092027 0.061361 0.022608 0.005823 0.000567 0.065248 0.164826 0.158512 -0.141835 0.033605 0.062073 -0.012989 0.043608 0.008999 0.238651 0.117440 -0.045825 -0.144791 -0.139998 -0.010552 -0.049566 0.109171 0.124138 0.118401 -0.077951 0.107563 0.101387 0.150874 0.099814 0.060422 0.122424 0.000786 -0.079654 0.056635 0.060050 0.034991 -0.085612 0.048823 0.063264 -0.093743 -0.013003 0.025095 0.081361 0.109082 0.074925 0.098977 0.077530 0.096031 0.073434 0.047413 -0.023622 -0.066064 -0.078086 -0.048538 0.097306 -0.000554 0.001162 0.006282 0.128519 0.104504 0.073313 -0.069553 0.063295 -0.024194 -0.164964 0.002636 -0.116454 -0.098623 -0.047071 0.038004 0.066981 0.081904 0.151795 0.069480 0.077710 -0.001823 -0.015484 0.000987 0.110871 0.041263 0.055762 0.068713 0.079608 0.101736 0.019218 0.105300 0.192481 0.069691 -0.028906 0.050636 -0.007020 -0.003670 -0.228529 -0.117132 -0.118670 -0.158187 -0.076483 0.003653 0.065370 0.117661 0.058717 -0.055374 -0.129759 -0.080889 -0.024202 0.048867 -0.036793 -0.029534 -0.002296 -0.028493 -0.053648 0.077733 0.033102 0.125397 0.056378 0.122733 0.058183 0.033315 -0.055527 0.004936 -0.136943 -0.111842 -0.152188 -0.207637 0.024269 0.186051 0.073631 -0.065731 -0.105048 0.014042 0.054147 0.022379 0.039822 0.180826 0.089457 -0.012659 -0.064123 0.051498 0.057674 0.054845 0.134193 0.090732 0.069997 -0.008360 -0.057170 0.026882 0.098698 0.017228 -0.173261 -0.084249 -0.118345 -0.035332 -0.102739 0.068156 0.097163 0.181782 0.042956 0.100141 0.188637 0.113150 0.234891 0.236085 0.194429 0.051840 0.087302 0.027931 -0.036546 0.095810 0.032935 -0.005568 0.022941 0.142994 0.144687 0.015794 0.111740 0.044104 -0.310638 -0.124245 -0.224847 -0.128507 -0.007424 0.070435 0.085867 0.190153 0.218185 0.229205 0.292211 0.243249 0.226950 0.225580 0.191737 -0.010745 -0.017588 -0.011979 -0.077108 0.042018 -0.075318 0.013592 0.094676 0.100624 -0.008252 0.067917 0.049725 0.129544 -0.310325 -0.119028 -0.114567 -0.107776 -0.094387 -0.094820 -0.046202 -0.073930 0.271032 0.330041 0.500532 0.293630 0.297404 0.284934 0.205915 0.186183 -0.014110 0.075437 0.007778 -0.030712 -0.094931 -0.144556 -0.034545 0.088470 0.138862 0.066257 -0.004868 0.017962 -0.239070 -0.266224 -0.141185 -0.167589 -0.153709 -0.297646 -0.203142 -0.004198 0.059273 0.187050 0.336348 0.292759 0.394710 0.397035 0.477112 0.365970 0.175616 0.038449 -0.100996 -0.134104 -0.178305 -0.047981 0.056169 0.100016 -0.007400 -0.015042 0.050042 0.065759 
0.437575 -0.391562 -0.189325 -0.053284 -0.054023 -0.086676 -0.026984 -0.182974 -0.079285 -0.076970 -0.046023 -0.019162 0.054861 0.002003 0.038713 -0.034616 0.060488 0.030234 0.083072 -0.058665 -0.011935 0.034076 -0.056397 -0.069427 0.017712 0.179902 0.018646 -0.127325 -0.266838 -0.385755 -0.183414 -0.108928 -0.010189 -0.098128 -0.041483 0.032387 -0.144174 -0.031391 0.050719 0.085728 -0.133794 0.003017 -0.057261 -0.059271 0.016331 0.025178 0.003673 0.117900 0.183851 0.174317 0.122429 -0.093785 -0.139735 -0.006444 0.178292 -0.048741 -0.145591 -0.225368 -0.197737 -0.189035 -0.100486 -0.233067 -0.064375 0.017678 0.060482 0.023740 -0.022525 -0.050263 -0.105246 0.052934 -0.020374 0.027624 -0.056605 0.062910 0.082460 0.017757 0.005064 0.019257 0.092006 -0.021796 -0.157918 -0.116794 -0.091926 0.093277 0.000224 -0.249621 -0.180651 -0.286360 -0.244424 -0.166916 -0.082433 0.061374 0.007917 -0.190733 -0.072565 -0.123531 0.003222 0.103686 0.013433 -0.002377 -0.033285 -0.061828 -0.019722 0.027230 -0.044361 0.062769 -0.101409 -0.055332 0.078012 0.034689 0.030373 0.003375 -0.069416 -0.276855 -0.364739 -0.220975 -0.068878 -0.082702 -0.157563 0.045337 0.100395 -0.073348 -0.177229 -0.036431 0.063308 -0.038159 0.010486 0.003842 -0.071415 -0.085815 -0.002686 -0.101701 -0.040076 0.090693 0.048332 -0.037099 0.074548 0.066862 -0.062039 0.010472 -0.090651 -0.219761 -0.146103 -0.213086 -0.132726 -0.130206 -0.062859 -0.031719 0.087066 -0.037069 0.062777 0.027848 -0.010446 -0.085231 -0.026713 0.062451 0.020001 -0.034674 -0.060107 0.035983 0.093996 0.124154 0.008008 0.085399 -0.004832 0.080922 0.095903 -0.000185 -0.159297 -0.237262 -0.065032 -0.107936 -0.100917 -0.090906 -0.093390 -0.022505 -0.145510 -0.060216 0.007513 -0.041807 -0.030179 -0.014506 -0.076332 -0.077122 0.000344 -0.113349 0.060330 -0.065351 0.104183 0.055850 -0.101281 -0.055342 -0.069224 -0.085857 -0.141613 0.003305 -0.200285 -0.075260 -0.042526 0.016182 -0.090590 -0.292165 -0.169493 -0.092763 -0.100161 0.005317 0.015014 -0.098215 -0.089592 -0.085469 -0.030510 0.048777 0.009851 -0.129762 0.006284 0.107241 -0.077101 -0.094297 0.019660 -0.017172 0.016549 -0.034358 0.017793 -0.016307 -0.161125 -0.166962 -0.092599 -0.066996 -0.136767 -0.150971 -0.120238 -0.049510 -0.020737 -0.031218 -0.134191 -0.108856 -0.038890 0.071653 -0.117978 -0.075224 -0.057338 -0.063743 0.034942 0.037270 -0.094180 -0.067807 0.067639 -0.125719 -0.049191 -0.015397 -0.095483 -0.123910 -0.234328 -0.012242 -0.145443 -0.199580 -0.073834 -0.165612 -0.017776 -0.003814 -0.062317 -0.108009 -0.075542 -0.006902 0.075274 -0.010512 0.041704 -0.151733 -0.099550 0.004912 -0.159107 -0.054389 -0.002594 0.040378 0.018191 -0.138987 -0.095282 -0.139547 -0.074940 -0.086595 -0.160798 -0.102178 -0.125306 -0.005181 0.064935 -0.083785 0.007680 0.020843 -0.123967 -0.047008 -0.063022 -0.048001 -0.006165 0.171668 0.070791 0.004258 0.080637 0.010904 -0.099867 -0.065373 -0.127095 0.024572 0.013726 0.056107 0.018389 -0.118935 -0.097754 -0.122480 -0.338845 0.056629 -0.015292 0.004144 0.084235 0.120164 -0.021129 -0.041304 -0.220491 -0.130585 -0.023604 -0.061523 0.002529 -0.019425 0.067130 0.027570 0.087042 0.159354 0.048670 -0.028683 -0.047698 -0.083404 0.003679 -0.040026 -0.050800 -0.099846 -0.201399 -0.147267 -0.250681 -0.023861 -0.088615 0.058206 0.059625 -0.016248 -0.031996 -0.123686 -0.261453 -0.165295 -0.062403 -0.082880 -0.033407 0.084527 0.199145 0.065007 0.125140 -0.006738 -0.055997 -0.075407 -0.063501 -0.086261 -0.017508 -0.075916 -0.074042 -0.159864 -0.007042 -0.113868 -0.341258 -0.065116 -0.031953 0.079885 0.020327 -0.051203 -0.001980 -0.030767 -0.178472 -0.047116 0.025351 0.081724 0.010401 0.073060 0.035108 0.061288 -0.045542 0.062712 0.144411 0.168732 0.026403 -0.076472 -0.128103 0.037403 -0.003120 -0.084319 0.041441 -0.155922 -0.413453 -0.184164 -0.042171 -0.126403 -0.078606 -0.218677 -0.256705 -0.100190 -0.004057 0.019840 0.136948 -0.040730 -0.011502 -0.172246 0.084232 0.094691 0.174103 0.119834 0.051478 0.001251 0.095233 -0.118541 -0.056891 0.036671 0.039876 -0.006431 -0.003256 -0.170010 -0.258990 -0.096482 -0.014273 0.090396 0.015274 -0.148282 -0.198100 -0.113688 -0.110924 -0.077376 -0.096738 -0.029276 0.010170 -0.006226 0.035378 0.145406 0.237185 0.141737 0.098534 0.046875 0.193698 -0.056197 -0.016006 0.079007 0.075385 -0.056834 0.082024 0.049663 -0.211464 -0.150936 0.106770 0.013674 0.112371 -0.019405 -0.095290 -0.034545 -0.187771 -0.200007 -0.107231 -0.008627 -0.045419 -0.014188 0.039577 0.217726 0.294003 0.165053 0.164638 0.324555 0.225252 0.008606 0.053621 0.043038 0.066260 0.072855 0.058454 0.029960 -0.011534 0.007632 -0.020576 -0.035393 0.025391 -0.009715 -0.172324 -0.043095 -0.183416 -0.024287 0.106849 0.029305 0.109443 -0.078168 0.062658 0.175029 0.156146 0.235041 0.093687 0.164794 0.112640 0.088802 0.050564 0.133659 0.190773 0.095134 0.202162 0.103728 -0.071239 -0.034396 -0.056531 -0.224832 -0.062914 -0.036834 -0.165436 0.017264 -0.075226 0.109347 0.208097 -0.043083 -0.168791 -0.013673 -0.027471 0.108763 0.012640 0.040450 0.077521 0.174609 0.004110 -0.020058 0.035693 0.224247 0.170883 0.165116 0.229563 0.063387 -0.060786 -0.071342 -0.066380 -0.093472 -0.017764 -0.134201 -0.052644 0.117179 0.113636 0.146810 -0.046681 -0.101854 -0.025362 0.023300 0.103331 0.117122 0.031392 0.178642 0.259843 0.281508 0.138100 -0.033124 0.089550 -0.072274 0.036324 0.170150 0.195855 0.114189 0.029414 -0.070823 -0.115023 0.124147 0.049508 0.031033 0.058996 0.100488 0.102885 0.051998 0.001745 0.068731 -0.117789 -0.063195 0.253195 0.170702 0.093608 0.183706 0.095404 0.170644 0.172251 0.104265 0.108844 -0.005732 0.042599 0.256324 0.285792 0.187689 0.010698 -0.152462 -0.099705 0.099260 0.083013 0.173418 -0.039976 -0.084700 0.004126 0.056326 -0.039981 -0.038484 0.046914 0.161811 0.217291 0.177249 -0.058602 0.086598 0.054502 0.233433 0.234603 0.066146 0.104570 0.032847 -0.020044 0.243018 0.177728 0.264311 0.232888 -0.074741 -0.027595 0.055355 0.160818 0.067605 0.022304 -0.050842 -0.018571 0.064050 0.099576 -0.007767 -0.038234 0.068883 0.166600 0.155919 -0.067666 -0.178555 0.003945 0.126571 0.151503 0.025110 -0.042080 0.034757 0.131387 0.129392 0.179954 0.173086 0.204000 -0.071493 -0.103533 0.043996 0.002209 0.019808 0.084053 0.039926 -0.047302 -0.056557 0.069109 0.032607 -0.060791 -0.102759 0.049960 0.005294 -0.020745 -0.005194 0.186404 0.116916 0.037654 0.088053 -0.082181 0.127243 0.104223 0.100436 0.169638 0.215396 0.164004 0.082706 0.095914 -0.002206 0.155772 0.203848 -0.003821 0.029301 0.091605 0.032479 -0.070065 -0.028434 -0.002841 -0.081723 0.036804 0.160464 0.189474 0.115876 0.011241 0.108793 -0.003410 0.098056 0.039648 0.063977 0.047274 0.089386 0.182370 0.357633 0.385587 0.202692 0.178201 -0.029462 0.100474 -0.085306 -0.075293 0.004236 -0.027554 0.061393 -0.044945 -0.066442 -0.052893 0.085676 0.036406 0.152876 0.267625 0.051660 0.023977 -0.060953 -0.027386 -0.099667 -0.161866 0.039328 0.112488 -0.019516 0.239569 0.328442 0.246650 0.228676 0.021982 -0.047287 0.073508 -0.098080 0.036904 -0.071584 -0.165358 -0.213473 -0.294034 -0.194883 0.008756 0.079395 0.186834 0.193557 0.245203 0.162502 0.138537 -0.006370 -0.019723 -0.122100 -0.095499 0.099313 0.028178 0.006257 0.118433 0.179214 0.345648 0.110666 0.052745 0.055118 0.118920 -0.095632 -0.110815 -0.183232 -0.155497 -0.145379 -0.167621 -0.062627 -0.109190 -0.029515 0.149988 0.189635 0.266746 0.197424 0.075228 0.107517 0.082825 0.017330 0.055770 0.111390 0.101778 0.213354 0.107315 0.244102 0.333133 
-0.182290 -0.169193 -0.265506 -0.200074 -0.261119 -0.117261 -0.075834 -0.178218 -0.126629 -0.032827 -0.037044 0.107966 0.082628 -0.035909 0.003245 0.027199 0.066160 0.084809 0.137918 0.042332 -0.038045 -0.091630 0.005645 0.142690 0.118800 -0.024130 -0.044581 -0.062696 0.142547 -0.201007 -0.210511 -0.231117 -0.071872 -0.178182 -0.085276 -0.120639 0.048891 -0.027206 -0.005463 0.077464 -0.038730 -0.020390 0.043235 0.048998 0.038692 0.088988 0.129706 0.069714 0.035424 0.008959 0.130476 -0.058208 0.022566 0.041809 -0.034941 0.033224 -0.036661 -0.266732 -0.122745 -0.184191 -0.211284 -0.163383 -0.188144 -0.074349 -0.022487 -0.100794 -0.198774 -0.036597 0.027186 -0.017301 0.046403 0.077068 0.070084 0.159046 0.061325 0.056438 0.017104 0.117579 0.000478 0.059346 0.077340 0.067540 0.140370 -0.117778 -0.052111 -0.201460 -0.099795 -0.157955 -0.105535 -0.124649 -0.054600 -0.075453 -0.107388 -0.067393 -0.047311 0.050510 -0.029472 -0.020949 0.010778 0.023250 0.144877 -0.014436 0.040484 0.020697 -0.048348 -0.071938 -0.034082 0.131752 -0.022597 -0.019914 0.039301 0.059926 -0.027341 -0.199229 -0.158171 -0.167776 -0.134933 -0.009164 0.069488 0.000597 -0.076674 -0.121652 0.029270 0.068737 0.051308 0.050978 0.078801 -0.101601 -0.087247 0.094597 0.106725 0.119093 -0.057029 0.040282 -0.023852 0.125389 0.018753 -0.000473 0.027525 -0.080589 -0.072378 -0.219395 -0.153938 -0.103563 -0.028867 0.074495 -0.106037 -0.151696 -0.064595 -0.085026 -0.016088 0.098621 0.076906 0.050465 -0.027739 -0.036532 -0.036804 0.023153 -0.057208 0.040308 -0.102732 0.003608 -0.018374 0.138203 -0.019676 0.004776 -0.058793 -0.021485 -0.092046 -0.166560 -0.132634 -0.083745 -0.027833 -0.115790 -0.033880 -0.141197 -0.124249 -0.113572 -0.069742 0.020778 0.086878 0.061088 -0.035841 0.018755 0.006707 -0.058675 -0.055804 0.025153 -0.044341 -0.009606 0.114667 0.073923 0.040018 -0.079479 0.049329 -0.030653 -0.015131 -0.193114 0.002991 0.032158 -0.075593 -0.045484 -0.034611 -0.063716 -0.001480 -0.125621 -0.044858 0.032394 -0.041023 -0.015702 -0.109137 -0.032891 0.048947 -0.000907 -0.025704 0.120699 0.059899 0.091819 0.022052 0.020298 0.074741 -0.033981 0.016657 -0.005132 0.073324 -0.165792 -0.066416 -0.031138 -0.104464 0.037782 0.049444 -0.012469 0.058797 -0.046922 0.023807 0.026206 -0.065105 -0.231939 -0.191075 0.003578 0.053099 -0.003464 0.030897 -0.046258 -0.038254 0.063947 -0.030441 0.026664 0.063567 -0.082613 -0.044126 -0.001332 -0.086979 -0.181394 -0.120758 -0.128616 -0.152750 0.075692 -0.042291 0.019206 -0.055144 0.040556 -0.002687 0.100800 -0.042785 -0.127445 0.016054 0.016022 0.102195 -0.175955 -0.057773 -0.038227 -0.097891 -0.094345 -0.156344 -0.012169 -0.046215 -0.054796 -0.088417 -0.083687 -0.117501 -0.040144 -0.079363 -0.109214 -0.125356 0.066343 -0.114936 0.033691 -0.023865 0.001745 -0.026381 0.046281 -0.092053 -0.149099 -0.264155 0.021451 -0.078428 -0.126539 0.082391 0.013275 -0.145474 -0.020380 -0.110818 -0.062552 0.009701 0.006943 -0.226448 -0.132239 -0.077382 -0.009906 -0.023659 -0.077423 0.072364 0.007971 -0.028999 -0.063896 -0.079431 -0.119402 -0.030850 0.044960 -0.046739 -0.132056 -0.077427 0.044480 0.165174 0.015100 0.107319 0.117512 0.051851 0.052478 0.025530 -0.124843 0.009103 -0.133459 0.021968 -0.039157 0.018216 0.070951 0.053568 0.033466 0.126502 -0.059114 0.037278 0.013330 0.027736 -0.031849 -0.155347 -0.111748 -0.103207 0.005901 0.023834 0.172303 0.097788 0.184392 0.168472 0.081386 0.041722 -0.080884 -0.086208 -0.206271 -0.037912 -0.058592 -0.038147 -0.152879 -0.064570 0.057708 -0.012482 0.025624 0.081822 -0.078273 0.020362 0.067368 -0.056621 -0.258590 -0.131556 -0.043906 -0.124532 0.098899 0.069899 0.008514 0.088832 0.076704 0.121534 0.014365 -0.066126 -0.027309 -0.078646 0.033426 0.006303 -0.027079 -0.044637 -0.108173 -0.170665 -0.004797 0.061093 -0.031367 0.102927 0.109316 0.007842 0.008544 -0.076620 -0.025645 -0.067203 -0.029094 -0.094371 0.091660 0.159036 0.039795 -0.070509 -0.055144 -0.061987 -0.009869 0.040176 -0.007351 0.014235 0.065618 -0.098471 -0.055622 -0.149038 -0.154748 -0.113853 0.004028 -0.021943 0.091323 -0.000515 0.056898 0.073490 0.195547 0.177172 0.069759 0.018192 -0.116622 -0.069673 -0.054790 -0.053933 0.013378 -0.111776 -0.070189 0.120282 0.045956 -0.029193 -0.045217 0.140419 0.025299 -0.014518 -0.038145 -0.112634 -0.092917 -0.090942 0.089009 0.004735 0.002641 0.074087 0.054057 0.034400 0.111077 0.087698 0.130778 0.051476 0.060286 0.010621 -0.089750 -0.060611 -0.161711 -0.099671 0.043779 -0.000692 0.144381 0.046252 0.023132 0.099716 0.133997 -0.082480 -0.050501 -0.068936 -0.006603 -0.086843 0.077929 0.061725 -0.016170 -0.057749 -0.009214 -0.083575 0.076724 0.036765 0.127846 0.128112 -0.042772 -0.044911 -0.183757 -0.145249 -0.043333 -0.196048 -0.072823 -0.033788 0.056221 -0.060017 0.029801 -0.027676 -0.078198 -0.039655 0.042513 -0.094136 -0.051418 0.085485 0.051778 0.048619 0.157060 0.097628 -0.000199 0.089438 0.086698 0.216344 0.187658 0.102216 -0.053596 -0.119014 -0.223357 -0.100427 -0.165941 -0.035142 -0.092689 -0.002515 -0.067700 0.050481 0.134851 0.144135 -0.038950 0.086080 -0.038055 0.010113 0.177482 0.205899 -0.017182 -0.092164 0.016367 -0.018635 0.095293 -0.006952 0.099395 0.199856 0.011814 -0.011005 0.019967 -0.113427 -0.147310 -0.019573 -0.103344 0.035988 -0.114006 -0.021717 -0.091102 0.040716 -0.031926 0.063296 0.150416 -0.000135 0.041597 0.005750 0.167756 0.101979 -0.129504 0.013052 -0.124920 -0.026771 -0.067595 0.110532 0.123120 0.105824 0.092681 -0.024530 0.128529 -0.020980 -0.100878 0.027068 -0.100371 -0.147170 -0.051537 -0.002294 0.011548 -0.029729 0.007413 0.013318 0.100830 0.208086 -0.032125 0.061270 0.157046 0.025497 -0.017960 0.081174 -0.086892 -0.012271 0.042863 0.127208 -0.017477 0.052285 0.073291 0.141217 0.085568 0.047337 -0.140752 0.049650 0.053204 -0.064121 -0.117141 -0.032281 0.016759 -0.010377 0.024987 0.038739 0.023137 0.175944 0.196742 0.075019 0.021106 0.139450 -0.034090 0.010645 0.053676 0.050327 0.052466 0.159552 0.094224 0.057355 0.061322 0.057773 -0.101211 -0.032241 -0.023532 -0.016914 -0.144928 0.050476 -0.154551 -0.144417 -0.212178 -0.231433 -0.076893 0.072884 -0.011302 0.134403 0.214499 0.165551 0.103852 0.061231 -0.170638 -0.034392 0.054851 0.066217 0.249975 0.105931 0.111073 0.017756 0.011122 0.023624 0.092402 -0.037244 -0.024419 0.003235 -0.183737 -0.131412 -0.024694 -0.003230 0.031765 -0.109782 -0.074144 0.065593 0.108660 0.132097 0.079310 0.039322 0.121577 0.042769 -0.041226 0.027801 0.128932 0.120059 0.102977 0.037028 0.049738 -0.114468 -0.060803 0.082400 0.137557 -0.077151 -0.123056 -0.021600 -0.119801 -0.205417 -0.047963 -0.001900 0.027964 -0.146747 -0.068059 0.082733 0.060872 0.150999 0.136224 0.034517 0.124934 0.073379 -0.153261 0.075633 0.068702 0.030243 0.077057 0.057352 -0.009337 0.004909 -0.000205 0.050567 0.064414 -0.069133 -0.030271 -0.076518 -0.241198 -0.140956 -0.216673 -0.080863 -0.038210 -0.128127 -0.014864 0.141268 0.144688 0.106432 0.108656 0.154615 0.181021 0.279852 -0.038054 0.018752 -0.014327 -0.014665 0.035619 0.045681 -0.067825 0.109098 0.074115 0.080692 0.040064 -0.107997 -0.127630 -0.262629 -0.198339 -0.187321 -0.194358 -0.238532 -0.124767 -0.055031 0.072090 0.120593 0.068760 0.199029 0.194114 0.283984 0.317503 0.228437 0.066621 -0.028333 -0.057385 -0.050830 -0.050425 -0.001056 -0.049638 0.069179 0.004560 0.083276 -0.083627 -0.062984 -0.014492 -0.196132 -0.160295 -0.199864 -0.226658 -0.216614 -0.140094 0.044130 -0.045301 -0.003766 0.006286 0.028821 0.126503 0.019657 0.171039 0.250607 
-0.043632 0.152148 0.108770 0.240422 0.046830 -0.028002 0.034752 0.097819 0.055609 -0.032626 -0.035644 -0.006348 -0.115842 -0.213190 -0.096347 -0.117506 -0.016293 -0.029242 -0.004621 0.089177 0.059753 0.118685 0.173727 0.000655 0.013255 -0.069418 0.147930 0.289397 0.201373 0.225307 0.062109 0.099739 0.039623 -0.028785 0.142537 0.149413 0.013292 -0.006834 -0.078037 -0.112848 -0.081222 -0.141058 -0.205999 -0.168660 -0.087686 -0.042508 -0.068208 -0.007712 -0.042570 -0.118401 -0.084856 0.089148 -0.028416 0.062551 0.275538 0.202764 0.135381 0.223226 0.128440 0.009904 -0.046421 0.043188 0.084434 0.138120 0.158396 0.139696 -0.020297 -0.140624 -0.131252 -0.058514 -0.044916 -0.069129 -0.064371 -0.120555 -0.065641 -0.213001 -0.173849 0.019739 -0.092580 -0.025902 0.006721 0.144168 0.069806 0.144545 0.140691 0.095830 0.120063 -0.027219 -0.063254 0.133132 0.045664 0.139418 0.159230 -0.034565 -0.078710 -0.158773 -0.219042 -0.157046 0.011944 0.036061 0.103784 0.171248 -0.050037 0.038014 0.012055 0.080924 -0.031505 -0.113025 -0.075433 -0.126608 0.002436 0.144315 0.069887 0.135479 -0.089474 -0.110180 0.045030 0.079212 0.021979 0.072663 0.103389 -0.002208 -0.053708 -0.094242 -0.078875 -0.144559 -0.099136 0.029587 0.048241 0.193948 -0.009481 0.014986 -0.017364 -0.048822 -0.142648 -0.099287 -0.281895 -0.087366 -0.089403 0.034719 0.079988 -0.029795 -0.125824 0.074869 0.109916 0.085331 0.097895 -0.027625 0.018705 -0.032870 0.030460 -0.064145 -0.050601 -0.039815 0.065329 0.015093 -0.019287 -0.002264 0.041029 -0.002942 0.075188 0.160656 0.004191 -0.073173 -0.100297 -0.165668 -0.250665 -0.050128 0.016046 0.004265 -0.045099 -0.024572 -0.011921 0.031724 0.101594 0.005711 -0.009154 0.077311 0.153266 0.051256 0.153344 0.136949 0.020774 0.182048 0.015296 0.015145 -0.055413 0.055380 0.162611 0.041038 0.104633 0.003254 0.010533 -0.048594 -0.075561 0.025742 -0.015873 -0.103134 -0.095027 0.031969 -0.046152 0.022406 0.044680 0.009624 -0.017228 0.056470 0.189201 -0.010435 -0.000487 0.121521 0.008441 0.102519 0.130321 0.062643 0.052331 -0.073849 -0.012830 -0.049397 -0.158584 -0.094099 -0.151377 0.070743 0.013190 -0.098679 -0.021344 -0.126747 0.017727 -0.012369 -0.083457 -0.085262 -0.031446 0.060329 0.164819 0.036896 0.082411 -0.081591 0.060702 0.224871 0.112189 0.101117 0.064798 0.119938 -0.036893 0.017075 -0.141117 0.027463 -0.046227 -0.165852 -0.211164 0.032299 -0.036108 -0.141264 0.006990 -0.102001 0.060107 0.122973 0.134695 0.016540 -0.164181 -0.016500 -0.018467 -0.026768 -0.074051 0.020897 0.205987 0.322685 0.109199 0.225701 0.129273 0.134771 0.009352 -0.001455 -0.102326 -0.130514 -0.143125 -0.091629 -0.188726 -0.012390 0.035789 -0.057109 -0.055452 -0.027648 0.026343 0.197438 0.089744 -0.162985 -0.186599 -0.039673 -0.082842 -0.074533 -0.061736 0.048968 0.117673 0.210545 0.198464 0.125981 -0.042297 0.038649 -0.063512 -0.074743 -0.201538 -0.064419 -0.110668 -0.096464 -0.323700 -0.006628 -0.121550 -0.067851 -0.135381 0.037683 0.144448 0.108264 0.112751 -0.159358 -0.096675 -0.032703 -0.093928 -0.005067 0.062515 0.165026 0.238909 0.165657 0.212533 0.286435 0.172658 0.080403 0.100578 0.003832 -0.205585 -0.052987 -0.095213 -0.038703 -0.296124 0.048275 -0.101897 0.021903 -0.116559 -0.034772 -0.010742 0.165900 0.027645 -0.127445 -0.093852 0.014345 0.024627 -0.102872 -0.039777 0.217716 0.088334 0.215475 0.196412 0.117698 0.112894 0.069609 -0.010275 -0.069632 -0.103299 0.040327 -0.055680 -0.238037 -0.175735 -0.005840 -0.159233 -0.095100 -0.165084 -0.124442 0.010007 0.032981 0.122735 -0.080073 0.053640 -0.013531 -0.056883 -0.084036 0.034270 0.181501 0.149099 0.112559 0.053892 0.161430 0.125482 0.028857 -0.130585 -0.052919 -0.135120 -0.076221 -0.289192 -0.136463 -0.295093 -0.173265 -0.231787 -0.269881 -0.198700 -0.034134 0.133424 0.096085 -0.039912 -0.176386 -0.008887 0.035354 -0.046838 -0.009328 -0.005180 0.260511 0.245187 0.241103 0.206779 0.122206 0.005769 -0.084004 -0.218193 -0.160506 -0.135663 -0.145871 -0.290796 -0.204499 -0.299065 -0.025886 -0.144356 -0.143083 -0.124999 -0.073305 0.000097 0.019685 0.050937 -0.089332 -0.006288 -0.019381 0.074195 -0.030633 0.093688 0.191109 0.326902 0.399790 0.336883 0.248902 0.054791 -0.008081 0.024774 -0.069100 -0.136823 -0.186595 -0.274323 -0.045165 -0.066084 -0.172771 -0.082429 -0.005081 -0.197051 -0.112241 -0.013632 -0.021787 0.087568 -0.040468 0.180490 -0.022277 0.064383 -0.025196 -0.117182 0.044441 0.375161 0.432433 0.291187 0.136513 0.176984 0.014661 0.138411 0.005228 -0.189404 -0.257459 -0.270958 -0.148477 -0.149190 -0.187427 -0.026656 -0.052515 -0.144000 -0.128464 -0.132850 -0.058767 -0.010255 0.016108 0.023041 -0.005858 -0.047800 -0.189562 -0.115258 0.168412 0.297891 0.262194 0.020600 0.042533 0.119729 -0.056869 -0.054573 -0.039060 -0.294881 -0.191655 -0.183433 -0.133454 -0.094457 -0.025055 -0.115928 -0.000737 0.030363 0.010873 -0.007539 0.109306 -0.011422 -0.161094 -0.072773 -0.030846 0.079391 -0.017682 0.041720 0.162035 0.194421 0.224376 0.153504 0.076956 0.097678 -0.053602 -0.002888 -0.186342 -0.163164 -0.156761 -0.006397 0.002916 0.029350 -0.105871 -0.047629 -0.015394 0.012695 0.009681 0.026834 0.097339 0.006388 -0.153092 0.122399 0.025923 0.096982 -0.073977 0.029015 0.040399 0.138909 0.158270 -0.001315 0.144349 0.136325 -0.094269 0.056884 -0.055183 -0.133338 -0.019360 0.075359 0.065201 -0.129754 -0.064584 0.021329 0.009137 0.125696 -0.085017 0.080600 0.000325 0.059531 -0.190792 0.034240 0.120016 0.081792 -0.009649 0.087168 -0.024122 0.191093 0.220797 0.054315 0.207216 0.074359 0.020130 0.015403 -0.028383 0.134201 0.010148 0.108340 -0.043273 -0.189520 -0.023201 0.135962 0.049625 0.139066 -0.079099 0.008734 0.032022 0.035688 -0.002474 0.042343 0.006443 -0.029943 -0.059681 0.075002 -0.057125 0.124518 0.143555 0.142930 0.276692 0.182854 -0.032673 0.088927 0.074619 0.043286 -0.047609 -0.032016 -0.026380 -0.092139 0.022503 0.064091 0.056240 0.138703 -0.143634 0.028223 0.066237 0.118349 -0.051600 0.027712 -0.007693 0.073699 -0.056188 -0.044428 0.032947 -0.112891 0.044053 -0.084151 -0.107333 0.144922 -0.049271 -0.052655 0.039156 0.050370 -0.031448 -0.030210 -0.001417 -0.051195 0.109051 0.002711 0.058327 0.021600 -0.022015 0.020013 0.074419 0.087215 -0.118366 -0.109301 0.046243 -0.038475 0.049195 -0.100947 -0.088868 -0.000814 0.090459 -0.097131 -0.052697 0.102454 -0.041276 -0.029265 -0.143464 -0.013907 -0.052253 -0.003169 0.021121 0.022516 0.113303 0.121814 0.084160 0.055797 0.087300 0.019234 -0.093641 0.039471 -0.102069 -0.083828 -0.017510 0.219103 0.195571 0.067040 -0.004309 -0.086365 0.106793 -0.026308 -0.138763 -0.003728 0.059922 -0.022723 -0.161496 -0.049244 -0.013579 0.056382 0.072838 0.049568 0.243698 0.060592 0.138470 0.120407 0.082566 0.003337 -0.069864 0.138036 0.054556 0.052210 -0.130698 0.158632 0.075597 -0.003208 -0.073238 -0.115571 -0.029675 0.048177 -0.041577 -0.118800 -0.000052 -0.059178 -0.019160 -0.049874 -0.066906 0.036429 0.151056 0.116272 0.029110 -0.073681 0.062441 0.019991 0.051219 0.079316 -0.000309 -0.053848 -0.050756 -0.039893 -0.048439 0.136192 0.124628 -0.070366 -0.105726 -0.266242 -0.255690 -0.267933 -0.275316 -0.185409 -0.082146 -0.053458 -0.023555 -0.179882 0.020182 -0.130815 0.047478 0.060454 -0.046969 -0.058061 0.048871 0.026242 0.043133 0.080000 -0.125168 -0.114839 -0.163143 -0.187412 0.001229 0.135048 0.065175 -0.125809 -0.038247 -0.293503 -0.219871 -0.403733 -0.570799 -0.334790 -0.232985 -0.151736 -0.045178 -0.046984 -0.043594 -0.062630 -0.096004 -0.104264 -0.197550 -0.049032 -0.038864 0.077078 
0.059753 -0.094567 -0.173277 -0.165986 -0.042673 -0.053080 -0.068507 -0.159167 -0.064420 0.079459 0.096903 0.071822 0.167524 0.264957 0.186292 0.186838 0.069427 0.050764 0.082964 0.032635 -0.063869 -0.068026 -0.162198 -0.160667 -0.011028 -0.030994 -0.136838 -0.248607 -0.264947 -0.147156 -0.047946 -0.053154 0.019375 -0.051607 -0.127543 -0.151877 -0.050870 0.138904 0.123449 0.206861 0.080544 0.052826 0.101201 0.048290 0.021723 0.046217 0.046857 0.099888 0.161148 0.113147 -0.025510 -0.178711 -0.123688 -0.180027 -0.208648 -0.258856 -0.202398 -0.045851 -0.022739 0.149462 0.014603 -0.013130 -0.117849 0.068894 0.026518 -0.044415 0.159732 0.094826 0.124466 -0.059810 0.069435 0.018537 0.103738 -0.126607 -0.024940 0.011168 0.097572 0.135252 0.064863 -0.112317 -0.154934 -0.089194 -0.130106 -0.063899 -0.155839 -0.128609 0.102494 0.028096 -0.092957 -0.095908 0.074935 -0.056794 -0.009567 -0.000157 0.000766 0.096205 0.018540 0.077606 0.095605 0.114880 -0.025944 -0.120476 -0.117590 -0.135885 0.030046 -0.020404 -0.039962 -0.002730 0.099860 -0.007209 -0.031555 -0.030315 -0.238258 -0.133544 -0.024737 -0.068643 -0.132501 -0.095770 0.052476 0.016845 0.013011 0.132304 0.096648 0.109845 0.168475 0.170754 -0.001273 0.000184 -0.008449 -0.000968 -0.028670 0.097155 0.098211 0.128018 0.120426 0.130300 0.149295 0.080867 0.026428 -0.049807 -0.113143 -0.016195 0.039253 -0.077238 -0.035640 0.023429 -0.096064 0.017314 -0.024166 0.038228 0.030197 -0.059854 0.086270 -0.020434 -0.021372 -0.012367 0.065655 0.080954 0.017366 0.063908 -0.106927 -0.041540 -0.044828 -0.022495 0.113262 0.047249 -0.002241 0.045828 -0.071023 0.055565 0.033385 0.063126 0.017034 -0.102851 -0.004699 0.053996 0.039187 -0.013062 0.175305 0.153295 0.069102 -0.024440 -0.010203 -0.025211 0.097669 0.072661 0.110908 -0.043551 -0.087861 -0.041721 -0.162719 -0.119962 0.000590 -0.022308 0.143200 -0.119932 -0.107775 -0.059666 0.050424 0.106989 0.166248 -0.061783 0.011051 0.006965 0.073201 -0.009893 0.037828 0.022978 0.140846 -0.014704 0.085079 0.016164 0.054992 -0.023659 -0.016739 -0.094478 -0.077978 -0.135565 -0.080391 -0.057449 -0.030045 0.000254 -0.003151 0.029005 -0.040719 -0.063131 -0.076732 -0.036033 0.101581 0.055776 -0.101851 -0.035153 -0.029812 0.071926 0.120710 0.072515 -0.060902 0.039895 -0.018793 -0.029264 -0.048229 -0.036895 0.020102 0.008140 -0.061035 0.047181 -0.065877 -0.005243 -0.110489 -0.045101 0.027689 0.006945 -0.082797 0.036608 -0.062107 0.081113 0.082253 0.061666 -0.035947 0.033339 0.033047 0.102304 0.126863 -0.104321 -0.022829 -0.156909 -0.147829 -0.166870 -0.024739 -0.052108 0.122428 0.145511 0.041313 0.099109 -0.047379 0.037457 -0.112889 -0.111008 0.018747 0.167614 0.114350 -0.121026 -0.083190 -0.088052 0.084839 0.021628 0.031943 0.027943 -0.014424 -0.025122 -0.059456 -0.070456 -0.141294 -0.033764 -0.079281 -0.073823 0.056437 0.024832 -0.015696 0.020616 0.014278 0.059182 -0.049300 -0.033240 0.129538 0.021017 0.039656 0.029021 0.077253 -0.102850 -0.183702 -0.040971 0.016068 -0.055562 -0.046690 -0.069757 0.021804 0.057431 -0.081553 -0.107357 -0.098293 -0.169719 -0.135655 -0.170370 -0.025331 -0.089069 -0.121125 -0.097021 0.139114 -0.003586 -0.042336 0.014783 0.160503 -0.001237 0.089702 0.084167 0.073862 -0.069423 -0.154378 0.071485 0.023142 0.058382 -0.051114 -0.002837 0.022866 -0.044807 0.013806 -0.169648 -0.144156 -0.113984 -0.065694 -0.089768 -0.086825 -0.143017 -0.144994 -0.002818 0.053262 0.032001 -0.011585 -0.012219 0.114490 -0.038373 0.173838 0.054563 0.027344 -0.111989 -0.028760 -0.128261 -0.173107 0.006071 0.004684 -0.054443 -0.159507 0.056406 -0.069527 -0.163225 -0.066782 -0.237148 -0.100883 -0.095081 -0.155252 -0.064785 -0.020971 -0.128632 -0.169132 0.000562 0.090990 -0.077679 -0.055737 0.071709 0.056875 0.084154 0.081799 -0.161340 -0.003636 -0.071107 -0.000318 -0.014268 -0.025655 -0.127317 -0.013649 0.010770 -0.153126 -0.323241 -0.204148 -0.278703 -0.204489 -0.105319 -0.126771 -0.128876 -0.074554 -0.057208 -0.093110 -0.113259 -0.076466 -0.096632 0.003841 -0.089173 0.126372 -0.012627 0.061613 0.009919 -0.110264 -0.113066 0.100837 0.052623 0.007620 -0.068635 -0.107109 -0.116646 -0.062734 -0.208738 -0.061040 -0.134311 -0.028821 -0.102458 -0.085913 0.023869 -0.265188 -0.165974 0.018444 -0.057332 0.043371 -0.013039 -0.079463 0.011120 0.075636 0.073607 0.053274 0.007678 -0.066191 -0.028751 0.056239 0.034737 0.045029 0.071340 0.063535 0.017190 0.004528 -0.122522 0.001910 -0.045163 0.024688 0.028757 -0.044855 -0.021919 -0.131355 -0.007799 0.071188 -0.000493 0.102431 0.114197 0.123518 -0.025578 -0.049782 0.101350 0.174466 -0.042483 -0.099100 -0.058536 0.047415 0.019261 -0.013851 -0.008695 0.009130 0.052497 -0.001214 -0.136218 -0.089895 0.028318 -0.035106 -0.043361 -0.019189 -0.016869 -0.151076 -0.066754 0.069249 0.097015 0.115019 0.181580 0.088620 0.005636 -0.085729 0.033730 0.091173 -0.005602 0.028804 -0.019023 0.125077 0.114620 -0.055702 0.055826 0.011414 0.065778 0.091288 -0.089994 0.020619 -0.164996 -0.100500 -0.117482 -0.037742 -0.063910 -0.068372 0.073541 0.182386 0.123185 0.133452 0.081403 0.005695 -0.124278 0.077713 0.130773 -0.030207 0.067437 0.133702 -0.007402 0.064246 0.096664 -0.118606 0.104805 0.043638 0.137071 -0.010268 -0.103256 -0.015975 -0.164384 -0.099146 0.017837 -0.055727 -0.101309 -0.054424 0.031547 0.034750 0.175374 0.127091 0.142348 0.127677 0.200181 0.044649 0.069961 -0.103555 -0.024599 0.086899 0.132700 0.131826 -0.021355 -0.046087 -0.089992 -0.021268 0.058016 0.035500 -0.121245 0.004783 -0.064975 0.137918 -0.030313 -0.122198 0.081181 0.074570 -0.043155 0.063383 0.144032 0.153674 0.115504 0.021220 0.119262 0.004166 0.082705 0.087829 0.042434 0.033305 0.132212 0.050736 0.016627 -0.121377 -0.116675 0.085713 -0.029248 0.065246 0.087854 -0.044051 0.111422 0.047139 -0.078572 -0.084034 -0.027786 0.108087 -0.088656 0.167343 0.217281 0.205376 0.010560 0.071533 -0.007438 -0.017757 0.031457 -0.067265 0.101058 0.014420 0.042393 0.004254 0.015860 -0.136408 0.059743 0.094858 -0.059726 -0.009030 0.032443 0.140642 0.037207 -0.060663 0.123394 -0.090470 0.071854 0.089187 0.086963 0.068664 0.136524 -0.089808 -0.032903 -0.006389 -0.003646 -0.088443 -0.106248 0.033251 0.056875 -0.032378 0.095377 0.090028 -0.008599 0.026918 -0.083304 0.014685 -0.069585 -0.000095 -0.030078 0.033560 0.017334 0.149426 0.059450 0.002064 0.069689 0.001476 0.039190 0.024106 -0.014386 -0.029243 0.046931 -0.120604 -0.137652 -0.101971 -0.125526 -0.109194 0.038799 0.099779 0.029871 -0.061293 0.050169 -0.053624 -0.049040 0.038106 -0.128598 -0.114227 0.017202 0.115888 -0.011642 -0.020158 0.119258 0.012246 -0.097251 0.079920 0.151981 0.024676 0.060872 0.028934 0.048767 -0.145927 -0.155674 -0.128886 -0.004975 -0.086953 0.040089 0.009465 0.035485 0.033707 -0.167070 -0.149597 0.066479 0.053651 -0.134831 -0.176677 -0.006308 -0.017454 0.079853 -0.048109 0.179405 0.058844 -0.024204 -0.027899 0.035457 -0.061180 -0.016851 -0.034046 -0.127800 -0.055943 -0.140438 -0.144760 -0.011848 -0.072581 -0.039255 -0.009775 -0.066539 0.084671 0.042984 0.071467 -0.026342 -0.165806 -0.067550 -0.022982 -0.070870 0.106272 0.124402 0.020532 0.133666 0.138806 0.123007 0.111112 -0.074506 -0.105057 -0.024703 0.063725 -0.066519 -0.144203 -0.081838 0.033002 -0.090014 -0.130563 -0.036185 -0.009741 0.035815 0.079709 0.081296 -0.043049 -0.193676 -0.077818 -0.038883 -0.076518 -0.046225 0.051805 0.112558 0.129270 0.143827 0.094668 0.204661 -0.004825 -0.102797 0.004577 0.037096 -0.026866 0.027937 -0.003963 -0.010690 -0.062966 -0.094826 0.030429 
-0.105928 0.145402 0.049364 0.002738 0.032126 0.000718 0.062553 -0.007790 -0.006001 -0.010248 0.000554 0.018403 -0.078290 -0.043125 0.027421 0.055955 0.016505 0.046671 -0.064018 0.050653 0.026553 -0.035248 -0.133298 -0.104805 0.038367 0.063437 0.035418 0.069378 0.081532 0.095096 0.163049 0.042511 0.102462 -0.033817 -0.085742 -0.044216 0.003098 0.043937 -0.082889 -0.029882 -0.072922 0.000273 -0.018391 -0.058983 -0.068495 0.035407 -0.070783 -0.099369 0.028013 -0.001840 0.040149 0.010468 0.001174 0.038644 -0.026775 0.068258 0.177353 0.172958 0.066063 0.092555 -0.004173 -0.067548 0.044903 0.033378 -0.080296 -0.017025 0.049181 0.052693 0.027158 -0.077985 -0.001672 0.038124 -0.049425 -0.087054 0.025802 0.005353 -0.046044 0.022453 -0.036538 0.050925 -0.047323 -0.014632 0.065044 0.117072 0.108415 0.067302 0.127456 -0.051920 0.008208 0.006861 0.031869 0.003881 0.039695 -0.094358 0.064030 -0.011296 0.058473 -0.002406 0.001517 -0.052494 0.012709 -0.023921 -0.064809 0.003977 -0.006425 0.017878 0.092082 -0.021145 -0.048307 0.081029 0.095340 0.058605 0.121328 0.090211 0.121076 0.117738 -0.027529 -0.053041 -0.069972 0.052791 -0.006761 0.080388 -0.046973 0.013879 -0.011933 -0.035982 0.060410 -0.044665 0.085376 0.013052 0.071206 -0.020274 -0.023247 0.105492 -0.031275 0.063601 0.085427 0.070712 0.112814 0.125803 0.007605 0.051468 -0.029014 0.031933 0.001260 -0.067748 0.078492 -0.039541 -0.015798 -0.067602 -0.029703 -0.036662 -0.021477 -0.052300 0.043720 0.008324 0.094359 -0.020505 0.166909 0.006138 0.085961 0.078972 0.108736 0.044012 0.075750 0.038324 0.067467 0.069789 0.013705 -0.033261 -0.024046 0.064265 -0.065671 0.078350 0.005283 0.100039 0.086295 -0.029494 0.122239 -0.045733 0.077785 -0.086810 0.010838 -0.056527 -0.039047 0.035819 -0.040039 -0.015744 0.120543 0.005983 -0.015769 -0.011952 0.008205 0.079579 0.078886 0.018936 -0.066339 -0.042407 -0.038921 -0.015715 0.024295 0.002739 0.033323 -0.010796 0.060682 0.059997 0.067180 -0.090175 0.053169 -0.044801 -0.043660 -0.054432 0.066809 0.045957 -0.004757 -0.042599 0.131323 0.011942 0.071969 0.024616 0.083800 0.027975 -0.002893 0.129190 -0.051095 -0.020395 0.025457 0.090066 0.113169 -0.006156 0.059772 0.023120 -0.007842 0.041768 0.054722 0.055673 0.049659 -0.011359 0.034817 -0.067245 0.028321 0.005740 -0.030480 -0.030150 0.039946 0.116584 0.025033 -0.037861 0.096402 -0.017734 0.075362 -0.045206 0.032347 0.053207 0.043057 0.010062 0.074433 -0.031675 -0.014041 0.043280 -0.043676 -0.050612 -0.073517 0.058274 -0.080619 0.086977 0.030673 0.059054 -0.050402 0.043284 -0.056490 -0.031597 0.039746 0.056356 0.110762 -0.013702 -0.013704 0.050559 0.091509 0.016534 0.028553 -0.072675 0.060983 -0.043734 0.018534 -0.054102 -0.016878 -0.027187 0.031009 -0.112246 -0.041608 0.004217 0.015978 0.026690 0.046956 0.053184 -0.038243 0.018847 -0.021719 0.106019 0.017769 0.035133 -0.033590 0.056399 0.055797 -0.021979 0.019921 0.000672 -0.032814 0.000790 0.062401 0.081061 -0.016588 -0.007087 -0.018132 0.047552 0.010980 0.032819 -0.035689 -0.060059 -0.018032 0.064743 0.043493 0.126647 0.029269 -0.031914 -0.001387 0.066712 -0.036251 0.059450 -0.070315 -0.074398 0.078742 -0.051777 0.077603 -0.026830 -0.080701 -0.014013 0.088989 -0.080209 0.037121 0.099649 -0.040876 -0.069275 -0.104643 -0.015240 -0.030052 0.037972 0.038034 0.051580 -0.008451 0.048005 0.043220 -0.073941 -0.028533 0.000993 -0.027903 -0.048034 -0.069839 -0.044304 -0.019394 -0.070688 -0.044973 0.018497 0.054762 0.012953 -0.057094 -0.074847 0.030657 -0.010516 0.046679 -0.040352 -0.135805 -0.098434 -0.022439 -0.123956 0.033095 0.058959 -0.003678 -0.017358 0.009799 -0.120454 -0.099879 -0.049053 0.015304 -0.098903 -0.012241 -0.015789 -0.129296 -0.103331 -0.043340 0.076586 -0.093953 -0.102938 0.083666 0.055649 0.109633 0.017048 0.028863 -0.014568 -0.056786 -0.014980 0.000928 -0.094153 0.013847 -0.137721 -0.020008 -0.018343 -0.052346 -0.043564 -0.037444 0.006027 -0.048191 -0.162500 -0.172788 -0.114010 -0.127478 -0.062243 -0.037788 -0.046860 0.000941 -0.007538 0.130186 -0.032585 0.018865 0.098566 -0.084153 -0.092656 -0.102087 -0.038734 -0.155350 0.005087 -0.085748 -0.016786 0.031646 0.054761 -0.027042 -0.134790 -0.110043 -0.018573 -0.130320 -0.053258 -0.046465 -0.111642 -0.045514 0.009100 0.022761 -0.000931 0.014083 -0.047712 0.038498 0.076506 0.112740 -0.051251 0.052221 -0.071083 0.033809 -0.139887 -0.009308 -0.096560 -0.124316 0.043000 -0.059250 0.010670 -0.034918 -0.110621 -0.084404 -0.106062 -0.020302 -0.005730 -0.016089 -0.059072 -0.034165 0.007814 0.028835 0.022674 -0.015412 -0.047870 0.060493 -0.011888 0.031492 0.100019 -0.024559 0.080863 0.041385 -0.042349 -0.055689 -0.119543 -0.070308 0.064452 -0.001573 -0.014185 -0.011288 0.087431 0.048691 0.060940 0.012884 0.023486 0.007415 -0.057501 -0.045544 -0.029603 0.086466 0.079682 -0.012126 -0.109505 -0.041867 0.057322 -0.027880 0.054376 0.060351 0.029156 -0.083739 -0.101397 -0.085345 -0.013595 -0.065326 0.004901 0.061343 -0.001848 0.004821 0.058959 0.057578 -0.039856 -0.059366 -0.069602 0.005085 0.049367 -0.101423 0.096154 0.008039 -0.018941 -0.081362 -0.019773 0.049382 0.134807 0.089424 0.017642 -0.043730 -0.032666 -0.115750 -0.107680 0.013302 -0.079305 -0.020008 -0.030468 -0.017425 0.078208 0.038641 -0.046049 -0.032008 0.011116 0.061012 -0.010200 -0.093045 0.039804 -0.051983 0.090034 0.008204 -0.053625 -0.009165 -0.076343 0.097394 -0.035014 0.036619 0.032117 -0.045534 0.048062 -0.116872 -0.101651 -0.130355 -0.105531 -0.109761 0.006699 0.039711 0.063573 0.039535 0.020185 0.068008 -0.015527 0.047703 -0.118127 0.034475 0.025696 -0.097790 0.008574 0.057724 0.030402 0.059977 -0.047120 0.017802 -0.028406 -0.040138 -0.029097 -0.037864 0.070181 -0.040410 -0.102798 -0.008308 -0.077809 -0.006681 -0.130593 -0.120051 -0.037657 0.030503 0.016975 0.038882 -0.061285 -0.114402 -0.038619 0.006818 0.033914 0.057794 0.106139 -0.033302 0.066687 -0.023661 -0.011492 -0.020717 0.037526 0.136789 -0.017184 -0.051117 0.032393 0.042733 -0.057552 -0.053748 -0.142979 0.001379 0.011332 -0.057558 0.022744 -0.054669 -0.023807 0.053810 0.051644 0.029853 -0.005695 -0.029758 0.046077 0.048777 0.017881 0.096783 -0.040134 0.023894 -0.007725 0.007461 0.100571 -0.011578 0.002845 0.019912 -0.089971 -0.108284 -0.149837 -0.127717 -0.147088 -0.129495 0.056229 0.003929 0.023273 0.067105 0.037533 0.084525 0.069568 -0.071611 -0.075692 -0.031909 -0.059559 -0.011542 0.010101 0.084037 0.068923 0.051346 0.007355 -0.071665 -0.047379 -0.006619 0.006748 0.052425 0.006640 0.008273 -0.045282 -0.019687 -0.096235 -0.102522 -0.015275 0.076423 -0.043035 -0.015430 0.010648 0.028067 -0.059850 0.055749 0.060457 0.003348 -0.015681 0.052109 0.051844 0.012068 0.075860 -0.017142 -0.043696 0.045934 -0.051957 -0.036508 0.101019 -0.006044 0.076639 -0.017169 -0.141713 -0.078216 -0.058047 0.018292 0.044844 0.097579 0.027830 0.136937 0.048252 0.039488 -0.055951 0.073911 -0.046116 -0.006951 0.017932 -0.018512 -0.049846 0.067083 -0.066159 -0.033824 -0.057356 0.007807 -0.032340 0.012223 -0.009465 -0.040325 -0.013282 -0.080621 0.013570 -0.111702 -0.100267 0.037435 -0.077068 0.088657 -0.000070 0.019315 0.036075 -0.024127 0.045047 -0.045986 -0.051570 -0.078537 0.020035 -0.060560 -0.062345 0.007953 -0.015829 -0.001039 -0.010529 0.043337 0.011911 -0.018426 -0.120795 -0.186665 -0.028458 -0.032085 0.008136 -0.037676 0.023882 -0.003635 0.039388 0.077332 -0.037837 0.033555 0.013088 -0.067339 0.017825 -0.023007 -0.120948 0.035966 -0.062423 0.029510 -0.107627 -0.037801 0.037899 0.040042 
0.221204 -0.179139 -0.058447 -0.033860 -0.002078 -0.052227 -0.195637 -0.077785 -0.135493 -0.066812 0.036519 0.019559 -0.000227 -0.001369 0.015159 0.000770 0.005915 0.048013 0.029279 0.045172 0.019852 0.094279 0.062848 0.085715 -0.028847 0.019127 -0.059019 -0.108148 -0.157377 -0.127735 -0.166341 -0.003772 0.011447 -0.028104 -0.135187 -0.168754 -0.045950 -0.141620 -0.027254 0.037938 0.204504 0.078393 0.029337 0.022925 0.038307 0.190601 0.234147 0.232005 0.289220 0.160944 0.130729 -0.098216 -0.069089 -0.139463 0.025734 -0.173635 -0.262586 -0.216563 -0.109611 -0.006261 -0.000521 -0.187091 -0.202659 -0.188824 -0.086469 -0.048990 0.036381 0.124276 0.127955 0.062578 0.021102 -0.064987 0.007922 0.036399 0.069936 0.167120 0.234771 0.154529 0.160066 -0.044814 -0.071983 -0.132949 -0.198804 -0.099079 -0.130663 -0.261002 -0.057145 -0.065300 -0.176929 -0.062593 -0.045632 -0.016937 0.036402 0.008458 0.008324 0.051097 0.086593 0.070508 -0.001098 -0.039688 0.018410 0.042892 0.055525 0.096382 -0.000308 0.071583 0.070072 -0.008486 -0.059479 -0.106511 -0.158276 -0.174611 -0.218982 -0.217118 -0.133270 0.003214 -0.074411 -0.043702 -0.008020 0.063868 0.080081 -0.048560 0.009783 -0.003148 0.030114 0.025602 0.119632 0.074874 0.055206 0.040623 0.182576 0.089689 0.031105 0.064650 0.058273 0.045199 0.138322 0.127143 0.059559 -0.101217 -0.020219 -0.068962 -0.102643 -0.007746 -0.019533 -0.027279 -0.077472 0.109299 0.102269 0.069078 0.007563 0.028457 -0.074275 -0.124631 0.042494 -0.074149 0.032810 -0.059130 0.050835 0.184837 0.073617 -0.019076 0.009530 -0.187939 -0.011235 0.159810 0.032990 -0.013154 -0.168183 -0.148310 -0.020912 0.030884 -0.141450 -0.216485 -0.138862 0.085695 0.048754 -0.064795 0.125614 0.160759 0.027463 -0.100362 0.026462 0.050490 0.090738 -0.042086 0.111972 0.030943 0.055105 -0.018026 -0.122883 0.017658 -0.089815 -0.055765 0.088330 0.024643 -0.113382 -0.106694 0.062087 -0.029522 -0.045301 -0.115191 -0.081696 -0.121314 0.026927 0.067820 0.136553 0.057831 0.018483 0.040478 -0.013891 0.037196 0.078510 -0.025362 -0.026077 0.004704 -0.006704 -0.161153 -0.041321 0.070467 -0.008845 -0.156465 -0.029755 0.089145 -0.123090 -0.091290 0.095242 -0.067700 -0.117978 -0.160579 -0.069992 0.061549 0.125651 0.015811 0.001065 0.108424 0.021560 -0.036593 0.070539 0.004227 -0.015877 0.007793 0.052221 0.048641 -0.095912 -0.096669 -0.023762 0.008499 0.023852 0.054805 -0.054083 0.029862 -0.137772 -0.000579 -0.000519 -0.145360 -0.006973 -0.177259 -0.096847 0.086990 0.038284 0.129530 0.080197 0.105350 0.034495 0.016564 0.022751 -0.118937 0.148251 0.022760 0.051503 0.119784 -0.085335 0.034405 -0.010895 -0.044276 -0.011944 -0.048361 -0.044851 -0.102163 -0.030729 0.016520 -0.041433 -0.125731 0.026481 -0.087123 -0.033833 0.204988 0.043525 0.043809 0.130450 0.089187 0.015741 0.186046 0.033733 0.076115 -0.011154 -0.014518 0.058345 0.101730 -0.015738 -0.086312 -0.073112 0.037144 -0.027499 0.018409 -0.016590 0.095679 -0.089201 -0.057487 0.132768 -0.107551 -0.177340 0.018588 -0.028292 -0.040757 0.054393 0.017530 -0.056009 -0.068130 0.083418 0.026426 0.030138 0.071740 0.113808 -0.021997 0.057613 0.186609 -0.070772 -0.112814 -0.038359 -0.047755 0.151373 0.023391 0.030872 0.067171 0.151495 -0.188636 -0.004457 -0.003977 -0.010321 -0.039620 -0.167761 0.030591 0.015107 0.010622 -0.036690 0.110416 0.104293 -0.009225 0.007158 0.174661 0.111297 -0.019073 0.177232 0.038504 0.079732 -0.022533 -0.058307 -0.009112 -0.052969 0.004052 0.193910 0.211500 0.165573 -0.263428 -0.100157 -0.186708 -0.150243 -0.040744 -0.125252 0.027564 0.076010 0.043733 -0.037367 0.093942 0.094678 -0.154551 -0.174652 -0.006799 0.038325 -0.180456 0.090060 0.026276 -0.076469 -0.000400 0.034060 -0.005841 -0.100671 -0.016616 0.143674 0.173966 0.113298 -0.142616 -0.176243 -0.039539 -0.104243 -0.042904 -0.120272 0.122917 0.115334 0.164399 0.047890 0.001900 -0.030615 -0.129853 -0.006017 -0.047113 -0.140343 0.039889 0.051119 -0.077152 -0.054160 0.000205 0.098535 0.042983 -0.092360 0.060661 0.132294 -0.044758 -0.016029 -0.286552 -0.063490 0.054047 -0.060727 0.057420 -0.022310 -0.028545 0.231567 0.091341 -0.106647 0.043902 0.004066 -0.077543 -0.064861 -0.050927 0.156566 -0.068924 0.036466 -0.048658 0.069188 0.058120 0.109373 0.020167 0.044442 -0.006206 0.128224 -0.051246 0.008222 -0.276050 -0.178124 -0.029556 0.099845 -0.045810 -0.096184 -0.058985 0.111428 0.047811 -0.016007 0.100261 0.027651 0.033678 -0.040012 -0.098891 0.112515 0.051193 0.112924 0.110390 -0.025612 0.090975 0.135469 -0.087343 -0.082253 0.033005 0.054141 0.050367 0.107896 -0.261180 -0.035779 -0.048932 0.065732 -0.021042 -0.113297 -0.072763 0.137329 0.201058 0.145187 -0.003433 -0.041506 -0.059703 -0.042556 -0.030283 0.084211 0.168607 0.019941 0.122837 0.030454 -0.004189 -0.042705 0.033274 0.077501 -0.026419 0.153830 0.048587 0.106112 -0.206060 -0.074221 0.003410 -0.058895 -0.129457 -0.053269 -0.007508 0.105413 0.098363 0.056347 -0.012471 -0.218158 -0.074618 0.060053 -0.051694 0.113831 0.060148 -0.081720 0.047006 -0.040184 -0.003178 0.119595 0.149694 0.255899 0.065795 0.142418 0.091508 0.061659 -0.085047 -0.056076 -0.038858 -0.041805 -0.101860 -0.038058 0.028811 0.065461 0.064434 0.066676 -0.045662 -0.016871 -0.021792 -0.033463 0.056137 0.081482 0.021433 -0.059250 -0.045810 -0.030626 -0.035275 0.058108 0.165247 0.054858 0.104598 0.230529 0.154365 0.138955 0.001395 -0.001585 0.043953 -0.191177 0.003822 -0.035013 0.008605 -0.045366 0.039527 -0.020555 0.130065 -0.017616 -0.156843 0.060683 -0.075902 -0.105719 -0.148823 -0.025963 0.036942 0.081833 -0.064746 0.019185 -0.012772 0.121661 0.190239 0.180484 0.169609 0.309791 -0.082733 0.012423 0.060551 -0.066243 -0.136158 -0.153696 -0.064637 0.021560 -0.149894 0.033304 0.007364 -0.025793 0.071130 0.066604 -0.103430 -0.108403 -0.126429 0.077514 0.086794 -0.012502 -0.054969 0.098000 0.088263 0.120464 0.169955 0.116178 0.317029 0.306082 0.122448 -0.103398 0.028042 0.095198 -0.062051 -0.060557 -0.193573 -0.019778 -0.037381 -0.037922 0.026808 -0.091254 -0.123440 -0.097071 -0.175253 -0.133532 -0.125726 -0.003689 0.170005 0.026852 0.009823 0.033548 0.109352 0.059790 0.164116 0.174221 0.137609 0.413813 0.102052 0.015073 -0.094547 -0.048732 -0.012642 -0.030708 -0.039466 0.001676 0.035053 0.044561 -0.128375 -0.146633 0.037792 -0.003485 -0.107144 -0.126566 -0.110906 0.067486 0.069117 0.001742 0.072935 -0.006008 0.068498 0.022471 0.044555 0.189497 0.261901 0.386977 0.180417 0.051838 -0.045865 -0.005682 0.067849 -0.072013 0.078069 -0.065453 -0.050428 -0.178652 0.017579 0.036470 0.078622 -0.077295 -0.007481 -0.115808 -0.119238 -0.111160 -0.007493 -0.085000 0.064384 0.102869 -0.044561 0.078047 0.149605 0.162951 0.422671 0.546310 0.235319 0.061533 -0.008962 -0.035819 -0.126588 0.043201 -0.032338 0.014089 -0.097700 -0.116871 -0.017544 0.020679 -0.101433 -0.045950 0.084245 -0.089430 -0.189673 -0.039621 -0.174102 -0.085105 -0.110331 -0.053368 0.008976 0.066523 0.132295 0.241525 0.429305 0.521299 0.354192 0.196407 -0.102096 0.018044 -0.011323 -0.008502 0.013888 -0.110689 -0.233414 -0.158546 0.013106 -0.024893 -0.060135 -0.066489 -0.042494 -0.164980 -0.191436 -0.119632 -0.170168 -0.019749 -0.052472 0.141409 0.120862 0.025246 0.245906 0.305886 0.447182 0.409089 0.364135 0.261078 0.216586 0.086594 0.043967 -0.056467 -0.138196 -0.058940 -0.065561 0.069794 -0.012456 0.003534 -0.036851 -0.008991 -0.017924 0.055285 -0.048299 -0.108201 -0.139288 0.031823 0.136090 0.155342 -0.009348 0.193678 0.393245 0.388078 0.337663 0.429104 
