-0.2953684953884964 -0.4313029807988262 
-1.8085193702081772 7.035890451535928 
-0.15105074380781158 -1.4589641838977174 
-4.256452739919106 2.9872570554752524 
5.38175414002571 20.981402251469824 
7.448904732540118 1.751715912568539 
-5.2214504920141955 -2.1328092495129938 
0.570087263686165 -0.4906369195145554 
0.09808307380077486 -6.161723078433801 
-0.8889643725651122 -0.049862099154991534 
-0.3515092216896183 8.980169454962889 
4.6445447966610995 1.5538810930223228 
-0.01567651811053814 -3.925512311124997 
-0.06806364525700839 0.10052832962126777 
-0.2462532124273464 -5.895929620899562 
0.9811999712306033 0.10269620490770344 
0.2484571578532658 -7.770808116920996 
-2.810824771424068 -0.7278131833715497 
-0.26561194864457605 4.636036349693779 
-2.133970893652987 0.6288639760318512 
0.7948628636789444 -3.782560647166097 -0.45029755508772934 1.5632921890509763 7.67525444091127 3.1457943639896713 -3.9072221948653247 1.5739308883259 -4.799719693009224 -0.874982105042728 -1.8544460494203994 1.2770351702879126 2.060721014371849 -1.2596350343589602 -0.2934810095713241 -0.8954597883989455 1.044259969209031 -1.3995755203873528 -1.795367706197848 0.705674265074134 -0.8521772644747126 
