0.210075 0.063822 0.002236 0.062907 0.008770 -0.036134 0.059496 -0.038286 -0.030262 0.020796 -0.053976 -0.037934 0.079400 -0.071577 0.051323 -0.001481 -0.001530 0.100788 -0.005756 0.010014 0.068418 0.073015 0.083101 0.037985 -0.053189 0.016876 0.075100 0.116902 0.093773 -0.003316 0.057458 -0.051775 0.046819 -0.069866 -0.079803 -0.053309 -0.057375 -0.027395 -0.010752 0.023403 0.033707 0.098723 -0.030894 -0.061763 0.072438 0.073681 0.052432 0.008010 -0.013054 0.004651 -0.056756 0.016339 -0.011801 0.066521 0.045641 -0.042306 0.057522 0.099320 0.084380 0.027080 -0.077403 0.090919 0.015052 0.017453 0.031949 0.037603 0.055459 -0.040532 -0.015987 0.012974 0.115998 0.050864 0.009210 0.032282 0.062086 0.069686 0.036056 0.057259 -0.026740 0.083442 -0.025046 0.087950 0.072575 0.052815 -0.041386 -0.047540 0.026265 -0.022971 -0.022467 0.010178 0.080902 -0.036941 0.088681 0.082144 -0.026730 -0.000152 0.099715 -0.049394 -0.020218 0.063054 0.002218 -0.040351 0.090452 -0.045552 0.070931 0.115235 0.028229 0.000654 0.043859 0.066621 0.128590 0.109736 0.003720 0.037965 0.042632 0.044734 0.103696 0.035766 -0.052666 0.085386 0.079708 0.018635 0.025732 0.110354 0.113714 0.023273 -0.018939 0.069589 -0.043448 0.013219 0.004241 0.031288 -0.007527 -0.042696 0.071967 0.001437 0.054447 0.061056 -0.010788 0.050053 0.010360 -0.068671 0.050162 -0.037127 0.001389 -0.008813 -0.005485 0.006599 0.016208 0.041292 -0.043006 -0.049267 0.074375 -0.019754 0.065004 0.032307 -0.036488 0.113882 -0.031162 -0.033940 0.060131 0.034686 0.089111 0.059235 0.071496 0.124324 -0.007595 0.045815 -0.003661 0.063011 -0.074041 -0.065563 -0.047349 0.004894 -0.055715 0.087078 0.075590 0.118199 0.096877 0.050401 0.105723 0.108691 0.091458 0.114044 -0.010062 -0.010443 0.073895 0.122073 0.106691 0.052820 -0.026513 0.075243 -0.033683 -0.047039 0.065380 -0.064481 0.115476 0.027865 -0.039019 0.092092 0.005297 0.107830 -0.051701 -0.061853 -0.018950 0.053026 0.015116 -0.060812 -0.049713 -0.035866 0.036121 0.068436 0.016431 0.051252 0.113420 -0.035312 0.092143 -0.038128 -0.046462 0.085182 0.074365 -0.024182 0.052891 0.047971 0.095302 0.019593 0.044396 -0.029477 -0.046412 0.103555 -0.057860 0.095910 -0.071553 0.025640 0.020350 0.106776 -0.066861 0.120204 0.055378 0.103178 0.066854 0.017084 0.010458 0.090942 0.048445 0.063933 0.063247 -0.041315 0.040531 0.046509 0.073495 -0.056404 0.106427 0.074775 0.065662 -0.030070 0.027856 0.013631 0.055358 0.029654 0.054522 0.010263 0.006673 0.082468 0.011754 0.090054 0.077639 -0.002903 -0.018315 0.066919 0.024073 0.058095 0.071475 -0.048756 -0.009032 0.065765 -0.036563 0.092344 0.090974 -0.025407 0.052226 -0.077692 -0.074249 0.056422 0.065834 -0.046986 -0.043064 -0.007904 0.047925 0.042086 0.038813 -0.038187 0.054293 -0.017168 0.069380 0.039634 0.114448 -0.025013 0.054042 0.010153 0.099348 0.025796 0.091747 0.067944 0.013038 0.093534 0.073902 0.012553 0.084624 0.106924 -0.020095 -0.009923 0.105827 0.050332 0.098734 0.105005 -0.058865 0.100765 -0.051010 0.107131 0.013443 0.094820 -0.045706 -0.007326 0.101052 -0.014891 0.058933 -0.033601 -0.072819 -0.076263 -0.067214 -0.045753 -0.000531 0.025472 0.049251 -0.088353 0.077992 0.073427 0.112053 0.115613 0.108221 -0.034026 -0.039785 0.033104 -0.038634 0.086101 0.083915 0.039821 -0.054356 0.044243 -0.015946 0.095987 -0.068541 0.028959 -0.046877 -0.033025 -0.063491 0.064730 -0.044870 -0.084875 -0.031122 0.001935 -0.071610 0.087809 -0.052863 0.037888 0.029938 0.064500 0.045177 -0.061719 0.070080 -0.020349 -0.065474 -0.036218 0.042484 0.104916 -0.028765 0.092058 0.093284 0.100157 0.007687 0.098002 0.102332 -0.009452 -0.001967 -0.073758 0.038016 0.057187 0.074627 0.052662 0.071107 0.062187 0.008851 -0.013856 0.021957 0.086051 -0.070129 0.075275 -0.013695 -0.020010 0.097859 0.049651 0.009751 0.064966 0.046295 0.003466 0.030604 0.108305 -0.014289 0.025184 -0.042157 -0.012607 0.105757 -0.037409 -0.031992 -0.017559 0.042785 -0.007265 0.052415 0.066672 0.075175 -0.011272 0.061513 0.001802 -0.038613 0.104739 0.107158 0.036619 -0.024420 0.098337 0.089924 -0.010761 -0.008561 0.004623 0.019858 -0.055720 0.056764 0.020844 0.114907 -0.048784 0.024488 0.022150 0.060020 0.088504 0.013699 0.090732 -0.058161 -0.036409 -0.003350 -0.063516 0.094786 0.049633 -0.063645 0.041041 0.012494 0.063078 -0.003944 -0.059675 -0.039599 0.114114 -0.005653 0.083757 0.045406 0.042433 -0.064528 0.077449 -0.050515 0.023983 -0.020916 -0.076869 0.094001 -0.057459 0.060208 -0.073434 -0.018170 0.034938 0.049427 0.111957 0.106974 0.044955 0.109535 0.008155 0.022894 -0.039179 0.039950 -0.023377 0.043592 -0.060975 0.082196 0.075608 -0.051288 -0.022955 -0.004227 -0.033177 -0.067959 0.064773 -0.002751 0.066951 -0.018957 -0.071937 0.092470 -0.020917 0.048147 0.001371 0.063112 0.009385 0.105482 -0.067147 0.089106 0.074518 -0.045481 0.108488 0.075824 -0.016041 -0.050929 0.046641 0.009907 0.068492 -0.034639 0.086135 -0.016781 -0.056594 0.060264 0.117128 -0.035499 -0.046125 0.055852 -0.071818 0.053634 -0.057109 -0.015261 -0.048399 0.056798 -0.068252 0.042350 0.078512 0.034735 0.053660 -0.016528 0.102956 -0.022388 0.043989 0.105549 0.085401 0.064177 0.083151 -0.044512 0.121325 -0.008733 -0.007894 -0.035458 0.054697 0.051250 -0.042645 -0.026356 -0.026231 0.106690 0.018224 0.058461 0.114856 0.007535 -0.021891 -0.038382 -0.056478 0.069818 0.107503 0.098814 0.069846 0.037586 0.069157 0.041145 0.111166 -0.003170 -0.061363 -0.049305 0.049260 0.033064 -0.011592 0.008431 0.051207 0.012098 -0.013680 0.037106 0.065529 0.022667 0.083308 -0.056158 -0.051322 0.026588 0.015651 0.036128 -0.048453 0.051108 0.092603 0.095291 -0.050768 -0.018320 0.054267 -0.007212 0.027102 -0.029071 0.053270 -0.009568 0.110908 0.078186 0.003337 0.009358 0.077147 -0.022495 -0.004829 0.019588 0.122775 -0.029490 0.070558 -0.016132 0.126743 -0.012637 0.105345 0.073557 0.071962 0.068549 -0.020622 -0.026022 0.089384 0.053516 0.069304 -0.065355 0.078388 -0.059588 -0.065162 0.115437 0.082424 -0.032582 0.016571 0.113338 0.119918 0.005777 0.122260 0.096668 0.010412 0.010760 0.098475 -0.006421 -0.028664 -0.042387 -0.032252 0.046123 0.007986 0.112018 0.086850 0.009023 -0.002015 0.009210 0.082248 0.064233 -0.022238 -0.032931 0.117105 0.027634 0.016763 -0.035845 0.038738 -0.048563 0.060421 0.050529 0.006807 0.081542 0.104396 -0.004110 -0.041222 0.126289 -0.024609 0.020195 0.010323 0.106860 0.006516 0.105230 0.080254 0.125259 0.031294 -0.026714 -0.009661 0.033211 0.046011 0.002129 0.103764 -0.047338 0.017328 -0.000902 -0.057601 -0.027921 -0.064323 0.033665 0.105566 -0.051165 0.048285 0.096473 -0.003274 -0.018083 0.044269 -0.027543 0.002735 -0.049820 0.037635 0.089113 0.059946 0.114324 -0.021771 0.054730 0.109351 0.080328 -0.027405 0.031620 -0.038044 0.105184 -0.080648 -0.028071 0.049491 -0.003518 0.088982 -0.037118 -0.012139 -0.041753 0.099173 0.104043 0.058798 0.047042 0.079493 0.110973 0.116534 0.057137 0.002534 -0.029468 -0.050632 -0.011715 0.044706 0.052270 -0.050683 0.002740 -0.038457 0.018058 -0.068587 0.095896 0.044654 0.045262 0.095170 0.067730 0.037767 0.031161 0.065212 0.093659 0.105714 -0.019158 0.068414 0.057581 0.083521 0.071216 -0.046502 0.116917 0.090939 -0.060849 0.043353 0.059300 0.092624 -0.001876 0.009821 -0.072554 0.044023 -0.035095 -0.066144 0.023857 -0.061789 -0.055480 -0.040933 -0.059330 -0.055444 -0.033206 0.076246 0.016082 0.072834 -0.038392 -0.028787 -0.068467 0.073570 0.118632 
0.044322 -0.087648 -0.024107 0.011334 0.024016 -0.041523 0.025183 -0.022016 -0.014791 0.094565 0.033139 0.001933 0.048608 0.048650 0.066700 0.013404 0.116472 0.077542 0.102041 -0.028834 0.036866 0.108265 -0.030232 -0.044354 0.030864 -0.010430 -0.011736 0.006588 -0.011618 -0.001339 0.063667 -0.073949 0.036916 0.058041 0.094423 -0.079563 0.033038 0.038016 0.164059 0.023904 0.136933 0.050191 0.052964 0.144302 0.086859 0.173650 0.135001 0.036954 0.142015 0.135750 0.082089 -0.010137 -0.025359 -0.092998 0.033494 -0.068462 -0.012808 -0.088915 0.048400 -0.064868 -0.040869 0.068117 -0.007389 -0.006798 0.041932 0.044279 0.095454 0.097191 0.090390 0.000943 0.136511 0.157170 0.089990 0.039699 0.096361 0.108087 0.160286 -0.008589 0.160314 0.081913 -0.042652 0.065846 0.022272 0.044526 -0.050584 0.040970 0.041877 -0.067044 0.011149 0.073288 0.026655 0.097153 0.013096 0.041438 0.169533 0.064986 0.022642 0.048191 0.134478 0.106133 0.006702 0.065471 0.011102 -0.014402 -0.017496 0.164781 0.037187 0.006792 0.001092 -0.050306 -0.064463 -0.057039 -0.077457 -0.058603 -0.063803 0.053351 -0.039072 0.044875 0.058793 0.145711 -0.017766 0.087625 0.034164 0.109254 0.085147 0.148170 0.036297 0.000486 0.008212 0.035281 -0.017548 0.029066 0.030645 0.152670 0.058664 -0.016213 0.099691 0.062304 -0.020349 -0.034940 -0.075352 0.033066 -0.073543 -0.028482 0.037781 0.084679 0.141088 0.057187 0.152853 0.000189 0.080435 0.018798 0.069654 0.071840 0.020104 0.108015 -0.063987 -0.003983 0.038467 0.035091 0.061480 0.014947 0.038832 0.116944 0.071303 0.142506 0.097147 -0.047541 -0.010895 -0.079295 0.043773 0.076563 0.027100 -0.028753 0.013075 0.061071 -0.028744 0.062148 0.065450 -0.057496 -0.037778 0.064048 0.034479 0.026958 0.047313 -0.004389 0.050217 -0.001830 -0.041890 0.045318 0.019084 0.041592 0.057786 0.011332 -0.003544 -0.059697 0.019148 0.043489 0.039655 0.132104 0.060871 0.004594 -0.009476 -0.032173 0.029775 0.110571 0.034441 0.022062 0.028440 0.071272 -0.102564 -0.075274 -0.074277 -0.070746 0.025339 -0.083408 0.058355 0.071490 0.028642 0.067527 0.082651 0.085877 0.145687 0.030125 0.035817 -0.001420 -0.023800 -0.033022 -0.017608 0.017823 0.004763 -0.032791 0.052694 0.023968 0.031816 0.076554 -0.084355 0.051465 -0.018991 -0.067741 0.075317 -0.029770 0.011230 0.078447 0.057709 -0.075206 0.055853 0.037015 -0.029462 0.035499 0.078288 -0.021101 0.052245 -0.084882 0.110723 0.066202 -0.025584 0.137608 0.069801 0.096762 -0.072854 -0.056237 -0.090898 -0.031979 0.079748 0.024035 -0.037845 0.068070 0.074343 -0.033922 0.080055 0.050828 -0.062369 0.013050 0.090726 0.078557 0.032851 0.082969 0.061918 -0.007326 0.133144 -0.047350 -0.025910 0.126516 0.122465 0.108580 -0.003470 0.071722 0.001155 0.087213 0.035983 -0.020545 0.005171 -0.061537 -0.087565 0.011516 0.027449 0.075482 -0.098376 0.013345 0.064300 -0.075632 -0.001670 0.099918 0.124345 0.112781 0.000699 0.139469 0.106231 0.040794 0.019875 -0.030347 0.132209 -0.024020 0.027960 0.028800 0.015512 0.049465 0.082287 -0.075568 0.029391 -0.005361 0.034866 -0.041553 0.061443 0.032516 -0.041549 0.064544 0.074860 0.044016 0.103260 -0.039208 -0.063361 0.068845 0.132593 0.175193 0.033023 0.070391 0.131050 0.000166 0.051349 0.034730 -0.026695 0.008419 0.029083 -0.070248 0.002038 -0.096057 0.071598 -0.072505 0.035453 0.005420 -0.015579 -0.048003 0.050393 0.066944 0.047878 -0.014998 -0.065244 0.090045 -0.033393 0.033489 -0.006089 -0.008379 0.006788 0.088483 0.073275 -0.029719 -0.044998 -0.074412 0.031047 0.015719 0.095065 -0.045696 0.053441 -0.019725 -0.019753 0.071698 -0.034332 -0.039786 -0.072902 -0.075175 0.008223 -0.035630 0.012669 0.093678 -0.012980 0.021860 0.078765 -0.038397 0.127959 0.050223 0.063358 0.035098 0.057020 -0.000990 0.113158 0.050590 -0.072407 -0.012651 -0.033205 0.057525 0.029521 -0.054767 -0.002886 0.028431 0.052792 -0.083710 -0.030338 -0.013015 0.029262 -0.062758 0.043875 0.059391 -0.083086 0.027328 -0.066853 0.034100 0.128271 0.088842 0.049799 -0.000268 0.024892 -0.001656 0.083025 -0.003289 -0.089167 -0.032948 -0.077735 0.032050 0.033894 0.045511 -0.095252 0.030689 0.067261 -0.024530 0.062590 0.027911 0.091507 0.091060 -0.025783 0.084676 0.012303 -0.048518 0.100060 -0.024277 0.084083 0.168374 0.158886 0.049604 0.081199 -0.008691 -0.054408 -0.032012 -0.058504 0.085207 -0.035211 0.025956 0.044842 -0.046435 0.016556 0.027311 -0.000822 -0.091454 -0.055401 0.039874 0.011160 -0.089892 0.065687 0.008504 -0.048752 0.025914 0.065427 0.022257 0.061889 0.026119 0.167777 0.013430 0.102185 0.127586 0.112626 -0.070670 -0.041466 0.039679 -0.016359 -0.072042 -0.089906 -0.045514 -0.029202 0.057579 -0.025560 0.002012 -0.058207 0.038114 0.032553 0.052945 0.037796 0.007228 -0.073973 0.091491 0.055406 0.000117 0.082379 0.085461 0.058668 0.069172 0.079022 0.099358 0.017382 0.004133 -0.039948 0.058258 0.000371 0.051471 0.031550 0.081771 0.053749 -0.091288 -0.049485 0.038468 -0.048770 0.013580 -0.002753 0.044247 -0.085842 0.044254 0.018779 -0.040111 -0.067277 -0.034207 0.033554 0.130843 -0.007523 0.107225 0.029788 0.126370 0.085398 -0.017035 0.036822 -0.053563 0.058722 -0.096087 -0.034535 -0.017519 -0.038811 -0.096588 -0.071360 -0.055965 0.021900 0.080625 0.037359 0.089194 0.029985 0.039842 0.077343 0.068035 0.064730 -0.045762 0.118761 0.102869 0.029852 0.122586 0.019368 -0.041664 -0.033067 -0.041674 -0.074394 0.017978 0.012342 -0.085718 0.010500 -0.047645 -0.059481 -0.010075 0.068876 0.052074 -0.012301 0.077237 -0.080686 0.062454 0.041297 -0.015262 -0.004720 -0.057543 -0.033295 0.087537 0.055799 0.125759 -0.037576 0.070138 0.073263 0.079398 0.055949 0.097253 0.096299 0.076956 -0.078437 0.035351 0.066860 -0.010341 0.049073 -0.039800 0.023635 -0.028068 -0.077609 0.043951 -0.084441 0.035242 0.056714 -0.061856 -0.050707 -0.001827 -0.029815 0.050748 0.026138 0.062585 -0.012099 0.056642 0.107223 0.090921 0.061817 -0.046038 0.088221 -0.060132 -0.047571 0.043057 -0.093198 0.069961 -0.032948 0.046000 0.044189 0.048752 0.066146 0.016477 0.069978 0.090401 0.064609 -0.052785 0.088531 0.062759 0.083511 0.011450 -0.027104 0.038968 0.073558 -0.013082 0.115461 0.092467 0.124614 -0.037118 0.078507 0.033791 -0.057674 0.036428 -0.040847 0.071634 -0.028061 0.058901 -0.000424 0.027133 0.002547 0.086724 -0.042879 0.017219 0.067509 -0.055783 -0.045535 0.106001 0.049668 0.016157 -0.035361 0.053440 -0.064361 -0.070766 0.045630 0.035509 0.086574 0.137682 -0.040424 -0.058781 0.001521 0.090275 0.016837 -0.006394 -0.092972 -0.099608 -0.012530 0.066034 0.065779 -0.021351 -0.004431 0.013496 0.006662 -0.054876 0.119675 -0.008760 0.041494 -0.038260 -0.038554 -0.001794 -0.060481 0.093318 -0.021343 0.102947 0.128057 0.109851 0.036650 0.075536 0.045125 -0.051212 0.073015 -0.021848 -0.016215 -0.054645 0.021896 -0.037296 -0.006425 -0.072335 0.098583 0.091241 0.067775 0.044567 0.085060 -0.007392 -0.012769 -0.034196 0.011563 0.001740 -0.043059 -0.058866 0.014391 0.013975 -0.042923 -0.006601 0.133744 0.032037 0.048148 -0.032012 -0.071129 -0.068594 -0.082625 -0.015742 0.005413 -0.077341 0.080621 0.080619 0.098093 -0.027974 0.071778 0.074907 -0.026556 0.047206 0.021112 -0.034979 0.038596 0.019961 0.036206 -0.078062 0.104118 0.088464 0.089311 -0.026431 -0.067602 0.001663 -0.027312 -0.019463 0.072054 0.019525 -0.079855 -0.010990 -0.013733 -0.022618 -0.088439 -0.023339 -0.075612 -0.079156 -0.062025 -0.013009 0.088345 -0.046165 0.053882 0.041683 0.115832 0.038463 0.021443 
-0.066003 0.007808 0.071920 0.053905 0.100028 -0.051174 0.032145 0.016740 -0.006460 -0.050560 -0.000408 -0.181813 -0.170995 -0.108750 -0.233467 -0.240733 -0.099672 -0.104545 -0.067749 -0.168945 -0.017069 -0.034085 -0.042715 0.146332 0.061580 0.151469 0.149319 0.193716 0.238666 0.120402 0.045972 0.008593 0.102253 0.082873 -0.012444 -0.005184 -0.047472 -0.139407 -0.129635 -0.037894 -0.099703 -0.225400 -0.098197 -0.207311 -0.137791 -0.070698 -0.148773 -0.198447 -0.101903 0.049181 -0.078827 0.175523 0.089066 0.177740 0.119515 0.182170 0.200867 -0.045488 0.040423 0.000234 -0.084969 -0.032988 -0.153266 -0.053762 -0.039173 -0.026764 -0.180863 -0.077166 -0.084099 -0.066472 -0.175211 -0.061801 -0.029186 0.024132 -0.105998 0.037627 -0.032659 -0.098365 -0.027849 -0.089648 -0.046824 0.006985 0.202960 0.121816 0.323555 0.035896 0.133509 0.045965 0.065997 -0.069620 -0.032938 -0.048134 -0.085339 -0.163804 -0.089269 -0.028196 -0.003370 -0.024393 -0.168589 0.029695 0.029391 0.068981 0.018579 -0.059761 -0.086702 -0.055342 0.050396 0.002858 0.055948 -0.033331 0.065974 0.083569 0.240606 0.123195 0.095256 0.007714 -0.051359 0.008016 -0.010572 0.036278 -0.087966 -0.047949 -0.097256 -0.109130 -0.049901 -0.095960 -0.088909 -0.005260 0.056381 -0.026400 -0.021753 -0.071541 0.084681 -0.063525 0.048152 0.057962 0.076089 0.014069 0.054255 0.079876 0.101200 0.040396 0.076481 -0.050395 -0.127907 -0.171695 -0.140025 -0.099331 -0.156494 0.006997 -0.099058 -0.101705 0.078331 0.094918 0.045797 0.043181 0.062971 0.031186 0.022376 0.048878 -0.096492 0.020090 0.018027 0.063612 0.039060 -0.075977 -0.026146 0.068777 0.142572 -0.032674 -0.006916 -0.016480 -0.059369 -0.129522 -0.118398 -0.068337 -0.031795 -0.081333 0.016719 0.095244 0.137202 0.095460 0.124511 0.013891 0.085433 -0.016062 -0.038975 -0.038854 0.033129 0.070486 -0.033652 -0.023455 -0.014782 0.003159 0.054495 0.108272 0.061878 0.019123 0.060181 -0.037420 -0.030617 -0.003707 -0.091331 -0.197466 -0.157535 -0.017483 -0.029889 -0.021198 -0.023186 0.028846 0.029476 0.040091 -0.067189 0.048991 0.091900 -0.077940 -0.117180 0.056314 -0.072741 0.036799 -0.075148 -0.056944 -0.042331 0.027085 0.039596 0.015985 -0.042947 -0.057502 -0.114136 -0.110233 -0.048969 -0.037052 -0.152891 0.007147 -0.101256 -0.008845 0.053214 -0.034093 -0.020101 0.081202 0.024576 -0.039827 -0.082712 -0.059073 -0.015683 0.003532 0.004859 -0.081847 -0.127071 -0.069482 0.012516 -0.081692 0.033363 0.051952 -0.076766 -0.030085 -0.081900 -0.102209 -0.005354 -0.175471 -0.192090 -0.135626 0.003662 0.070200 0.021038 0.145787 0.056718 0.188560 -0.038079 -0.059623 -0.032361 0.011920 -0.002619 -0.143830 -0.047606 -0.070898 0.008119 0.003769 0.000322 -0.052432 0.006363 -0.042466 -0.055277 0.095442 -0.111715 -0.003702 -0.143044 0.009537 -0.137605 -0.065164 -0.048055 0.060517 -0.030200 0.078953 0.131152 0.078472 0.041930 -0.017317 -0.126901 0.007499 -0.003453 -0.076025 -0.127515 -0.072689 -0.108263 0.033571 -0.037018 -0.111997 -0.108143 -0.050900 -0.048559 -0.015849 0.053329 -0.094445 -0.121011 -0.153679 -0.145509 -0.040401 -0.002418 0.095907 0.112986 0.065202 0.040707 0.180656 0.096034 0.031090 0.000444 0.034732 -0.009335 -0.022022 0.034816 -0.002345 -0.036824 -0.100747 -0.003914 -0.092986 -0.106915 0.008421 -0.108147 0.031990 0.041514 -0.011472 -0.044225 -0.159753 -0.000600 -0.027489 -0.051039 -0.038713 0.094322 -0.001292 0.147700 0.028958 0.118255 0.047053 -0.000647 -0.075930 -0.059705 -0.134588 -0.054394 -0.085545 -0.012490 -0.203277 0.008511 -0.106894 -0.067897 -0.096993 0.001621 0.004838 -0.112485 -0.042574 -0.062689 -0.045195 -0.061245 0.005789 -0.062775 0.083367 0.049930 0.054524 0.010200 0.011588 -0.088730 -0.097062 0.050313 -0.075524 0.011440 -0.004053 -0.079441 0.020185 0.030752 -0.061605 -0.043677 -0.135918 -0.139070 -0.154740 -0.010539 -0.104960 -0.135565 -0.082134 -0.107664 -0.051718 0.029877 0.032621 0.019359 0.105366 0.101890 0.083479 0.010159 -0.063662 -0.046368 0.024295 -0.067850 -0.060202 -0.061500 0.085392 -0.078819 0.062144 -0.078907 -0.090744 -0.028475 -0.098657 -0.045076 -0.131210 -0.045656 -0.102035 -0.092223 -0.077569 0.078890 0.100763 0.033653 0.061685 -0.014470 0.014950 0.061464 -0.046832 0.052739 -0.085196 0.008320 -0.071564 0.042696 0.074149 -0.003006 -0.014330 -0.005113 0.101803 -0.020505 -0.028158 -0.071125 0.073586 -0.069802 -0.152629 -0.182759 -0.167294 0.038921 0.125274 0.059031 0.081068 -0.013870 0.001025 -0.028062 0.008852 0.007975 0.024539 -0.056578 -0.103264 0.022365 0.006479 -0.043664 -0.029228 -0.056279 0.084242 0.058786 -0.065634 0.026617 -0.036807 -0.059290 0.031633 -0.042893 -0.102979 -0.107645 -0.076447 0.029652 -0.092181 -0.103212 -0.070167 -0.100509 -0.093243 0.120510 0.044921 0.097786 -0.079506 0.064379 -0.044231 -0.026842 -0.005724 0.002093 -0.039872 0.136515 0.044983 0.059069 0.106441 -0.046968 -0.043395 -0.045986 0.016466 0.000701 -0.111514 -0.017638 -0.060988 -0.062345 0.045969 0.041860 -0.047984 0.044150 0.083786 -0.002881 0.028357 0.059347 0.041705 0.021904 0.052644 0.020125 0.133112 0.066406 0.052760 0.071995 0.015856 0.157396 0.098618 0.103856 0.042200 0.000123 0.008489 0.072385 -0.169725 -0.174349 0.009007 0.010736 -0.124881 0.074263 -0.025308 0.085654 0.057671 0.066193 0.086190 0.071344 -0.018079 0.050699 0.173043 0.063864 0.104135 0.158851 0.105260 0.027354 0.056213 0.160109 0.044108 -0.016837 0.024655 -0.078785 0.016188 -0.049908 -0.175438 -0.122028 -0.136762 0.038738 -0.000966 0.054729 0.054903 0.128497 0.147537 0.118061 0.198880 0.190127 0.204697 0.103436 0.204463 0.171503 0.102475 0.092773 -0.005249 0.078823 0.139734 0.082584 0.048378 0.023570 -0.009556 -0.067219 -0.061021 0.058689 -0.195030 -0.174886 -0.058358 -0.011125 0.085341 0.044170 0.022345 0.123652 0.157100 0.182258 0.179105 0.220343 0.119648 0.214212 0.106303 0.154525 0.118844 0.023210 0.104376 0.136400 0.140790 -0.013034 0.035717 0.042576 -0.095856 0.025100 0.082056 0.045021 -0.309164 -0.225471 -0.013470 -0.016762 -0.009294 -0.070350 0.081685 0.212832 0.036072 0.077180 0.241070 0.125219 0.184338 0.084505 0.110046 0.079731 -0.005143 -0.016410 0.180463 0.026294 0.108175 0.008494 0.046398 0.050100 0.068559 0.112317 -0.070982 0.006082 -0.237657 -0.186153 -0.133450 -0.009590 -0.023108 -0.022710 0.078240 0.162693 0.198577 0.252361 0.231605 0.051836 0.003128 0.003278 0.116498 0.092147 0.101455 0.165925 0.152232 0.006164 -0.046913 0.021819 0.046239 0.083417 0.024731 0.005895 -0.020822 -0.043566 -0.367594 -0.273913 -0.116272 -0.116032 -0.083889 0.080318 0.084103 0.092824 0.144437 0.159622 0.182618 0.130487 0.122358 0.112751 0.102213 0.082234 0.135200 0.028256 0.135882 0.092904 0.011388 -0.070701 0.130039 -0.003778 -0.082218 0.007286 -0.008277 -0.005450 -0.203429 -0.231479 -0.143200 -0.160790 0.031874 0.035143 0.146752 0.133069 0.150197 0.142757 0.250904 0.083711 -0.052490 0.128629 0.115835 0.149182 0.087587 0.163130 0.115621 0.069506 0.085850 0.104589 0.141112 0.085177 0.038746 -0.032684 0.034063 -0.080356 -0.284916 -0.230940 -0.243264 -0.172939 -0.060576 -0.020098 -0.048934 0.055572 0.113313 0.228965 0.140674 0.072643 0.089947 0.057581 0.100722 0.040795 0.202715 0.083215 0.154772 0.162040 0.051215 0.047459 0.010813 0.106330 0.022786 0.020614 -0.026481 0.023540 -0.194134 -0.243125 -0.158181 -0.140288 -0.034137 -0.008582 0.044116 -0.042659 0.091397 0.157569 0.053917 0.138051 0.123507 -0.061703 -0.038279 0.023398 0.050096 0.078084 0.035861 0.145417 0.058257 0.146966 0.014382 0.070000 -0.050237 -0.082677 -0.089844 0.050143 
0.151670 0.167612 0.095016 0.110483 0.049378 0.012053 -0.010975 0.038138 -0.070116 -0.005510 0.075878 0.018458 0.035632 0.053819 -0.042957 0.011636 -0.036952 -0.013779 -0.115200 -0.036028 -0.069832 0.053889 -0.117597 -0.024716 -0.015010 -0.075519 0.096303 -0.052595 0.084421 0.246952 0.170855 0.061169 0.085704 0.014113 -0.048258 0.074352 -0.060470 0.113356 0.001382 0.064931 -0.047965 0.079461 0.025925 0.071674 0.123833 0.028158 0.079790 -0.025963 0.019490 0.050340 -0.109457 0.034345 -0.000708 -0.054967 -0.120447 -0.034303 -0.031905 0.166505 0.150620 0.079546 -0.027449 0.016528 0.130936 0.031779 0.142286 0.130757 0.062779 0.001119 0.070726 -0.064828 -0.040331 0.041234 -0.066492 0.065642 0.002291 0.027872 -0.037004 -0.061546 -0.051026 -0.033898 -0.126516 0.013614 -0.120864 0.024850 0.051015 0.154165 0.074803 0.100875 0.080986 0.113338 0.031537 0.039214 -0.012322 0.094245 0.137837 0.092552 -0.030636 -0.062975 -0.052176 0.094715 0.042989 0.078835 -0.052384 0.058325 -0.056072 0.106116 0.053161 0.080822 0.008151 -0.046926 0.066141 -0.039862 0.082937 0.078408 0.104293 0.185895 0.089724 0.046224 -0.015190 -0.010336 0.077108 0.033323 0.089631 0.037289 0.106371 -0.007613 0.006209 0.117431 0.000399 -0.015479 -0.119835 -0.005377 -0.022025 0.038777 0.100921 0.090753 0.049490 -0.089953 -0.018745 0.070715 0.063346 0.012174 0.102884 0.039372 0.066123 0.011298 -0.037808 0.064955 0.170733 0.059257 0.113144 0.042142 0.053289 0.056418 0.139510 0.086467 -0.075057 0.079624 0.049496 0.082395 0.034081 -0.065241 0.018009 0.035916 -0.040223 0.042285 -0.051816 0.040593 0.017258 0.169566 0.050350 -0.023787 0.044921 0.064120 0.115818 0.002409 0.169539 -0.006781 -0.015312 0.063233 0.092376 -0.016576 -0.010259 0.113406 0.041288 -0.012112 -0.014075 0.093155 -0.051381 -0.079696 -0.029373 -0.117429 0.018066 0.021782 -0.046807 0.015559 0.022498 0.141218 -0.049355 -0.001048 0.055441 0.076491 0.007088 0.004236 0.038706 0.077407 -0.068159 -0.013502 0.057553 0.126952 0.045255 0.029504 0.053228 0.013615 0.057766 -0.056951 0.031951 0.003213 0.015912 -0.107895 0.004228 0.030096 0.027409 0.112639 -0.082169 0.067535 -0.076117 -0.003176 0.072730 0.043556 -0.019414 0.093957 0.058158 -0.013099 0.043514 0.049292 0.063842 0.098863 0.043715 0.086578 0.104318 0.023161 0.003658 0.026510 -0.068933 0.044324 -0.140054 0.037003 0.070243 0.117388 0.114043 0.036575 -0.017167 -0.097953 0.068095 0.095699 0.087095 0.115434 -0.067377 -0.017851 -0.045750 0.063756 0.079971 0.064378 -0.035445 0.006081 0.022291 0.034844 0.079648 -0.015803 0.014228 -0.061019 0.060745 0.043007 -0.082855 0.004160 0.044958 0.023824 0.079008 0.048025 -0.034787 -0.126099 -0.083997 -0.079375 -0.066695 -0.084025 0.017285 -0.000809 0.003414 0.047537 -0.014129 0.031372 0.009667 0.053883 0.110096 0.146476 0.092135 0.042753 -0.099128 -0.045029 -0.048144 0.009279 0.024720 -0.032039 0.024141 0.034026 -0.007076 0.131594 0.124886 -0.041034 -0.074679 0.034982 -0.127850 -0.013390 0.038383 0.003585 0.058302 -0.112689 -0.095046 0.015704 -0.081501 0.115557 0.142965 0.122616 -0.007335 0.031008 -0.122708 0.044960 0.028251 -0.011128 -0.032171 -0.020481 0.072564 0.071772 -0.003777 0.070462 0.028369 -0.121855 -0.190854 -0.149276 -0.065782 -0.046755 -0.022095 -0.126323 -0.083473 0.069281 0.068184 0.055638 0.010398 0.134100 0.114449 0.113873 -0.028888 -0.039403 0.019389 -0.073682 -0.097531 0.019423 -0.050551 0.020013 -0.082725 0.041995 0.129760 0.072235 -0.040847 -0.102203 -0.176537 -0.126113 -0.032565 -0.011299 -0.027927 -0.053589 -0.018013 -0.010071 0.091328 0.140886 0.025455 0.033263 0.096667 0.105174 -0.084279 -0.098202 -0.017144 0.041229 0.067346 0.109654 0.068304 -0.067119 0.069755 -0.004329 0.118601 -0.015880 0.025395 -0.223755 -0.206221 0.001602 -0.096748 -0.036336 -0.029292 0.090978 0.013849 -0.031010 0.102225 0.020704 -0.077301 0.061506 -0.120901 -0.113828 -0.003604 -0.055824 -0.103604 -0.039175 0.033716 -0.060960 0.062096 0.087844 0.067598 -0.011667 0.104705 0.155680 0.054798 -0.163911 -0.119250 -0.141932 -0.083352 -0.070906 0.032145 -0.027104 0.058434 0.081870 -0.021980 0.058764 0.053527 0.002977 -0.109718 -0.115941 -0.146985 -0.091297 -0.114333 -0.094744 -0.040143 0.076548 -0.054157 0.103040 0.060800 0.072639 0.022485 0.016689 0.048998 -0.102859 -0.157134 -0.067385 -0.012188 0.022705 0.060147 0.093937 -0.029639 0.086238 0.014029 -0.121202 -0.033247 0.019308 0.030716 -0.062712 -0.148118 -0.069430 -0.176828 -0.136618 -0.090409 -0.084255 -0.026517 0.081750 0.128694 0.065357 -0.021793 0.153689 0.020633 -0.185312 -0.220773 -0.032240 -0.109953 0.047970 -0.030158 0.069215 -0.049676 0.043128 -0.001097 -0.044418 0.025424 -0.013638 -0.067669 -0.188354 -0.200636 -0.177773 -0.098422 -0.045491 -0.078554 -0.021397 0.043322 0.005898 0.067263 0.025446 0.024823 0.062086 0.096820 -0.078693 -0.166240 -0.153337 0.020807 0.058156 0.037008 0.114590 -0.024933 0.079744 0.078545 0.016248 0.011296 0.017641 -0.010527 -0.068305 -0.061232 -0.126834 -0.195655 -0.095922 -0.114174 -0.144959 -0.027334 -0.101085 0.017026 -0.010989 0.053522 0.087883 -0.052359 -0.014189 0.015823 -0.108391 0.036093 -0.055082 0.053453 0.083539 0.024345 -0.032457 0.109089 0.149805 0.074259 0.008611 0.075091 -0.115494 -0.200949 -0.169286 -0.147639 -0.107796 -0.058521 0.001637 0.001282 -0.005342 -0.055202 -0.039140 0.073243 0.040272 -0.028408 -0.094761 -0.104607 0.004678 -0.064968 -0.039766 0.054775 0.177355 0.148889 0.153671 0.036753 0.169019 -0.013545 -0.095492 0.021708 -0.134108 -0.113859 -0.120405 -0.142389 -0.148965 -0.201243 -0.063682 -0.057406 -0.164213 -0.123124 -0.007993 -0.028208 0.014666 -0.093098 0.025444 0.029997 0.050190 -0.022237 -0.006130 0.112567 0.042674 0.133749 0.088171 0.211823 0.181179 0.086123 0.017329 0.011184 -0.113629 -0.143006 -0.044824 -0.046520 -0.053779 -0.117729 -0.028770 -0.144698 0.076553 -0.077535 -0.058772 0.017004 0.034309 -0.024848 -0.027664 -0.103786 0.028462 0.029929 0.069171 -0.025396 0.129280 0.125652 0.066583 0.129255 0.181651 0.052995 0.038706 0.009459 -0.145176 -0.085199 -0.166245 -0.094616 -0.061563 -0.184210 -0.104990 -0.000526 -0.072305 0.078736 0.097709 0.037133 0.009112 -0.069235 -0.084469 0.046360 0.044411 0.038834 0.061027 -0.051276 0.136630 0.194339 0.198495 0.133166 0.189062 0.061351 -0.045362 -0.195368 -0.114757 -0.198283 -0.071257 -0.255538 -0.131072 -0.033249 -0.011473 0.003080 -0.073699 0.087238 0.091379 -0.033789 -0.081302 0.001674 -0.080157 -0.082877 0.027601 0.005963 -0.018803 -0.109824 0.110744 0.066821 0.046112 0.146845 0.077514 0.083213 0.038543 -0.132400 -0.260377 -0.186670 -0.187895 -0.141532 -0.146342 -0.009087 -0.066812 -0.111004 -0.056984 0.018242 0.067171 -0.133049 -0.117624 0.010532 0.025372 -0.094694 0.083423 0.040719 -0.033356 0.037690 0.116361 0.159179 0.069800 0.152172 0.168307 0.050606 -0.160938 -0.046120 -0.159545 -0.215094 -0.187155 -0.167178 -0.110561 -0.103954 -0.051630 0.069400 0.011236 -0.014694 0.022796 -0.081512 -0.173210 -0.181036 0.009100 0.070363 0.053242 0.045851 -0.032795 0.011183 0.085608 0.100543 0.180305 0.098537 0.124423 0.005894 -0.182160 -0.079329 -0.238995 -0.137242 -0.141333 -0.200044 -0.086216 0.030718 0.091815 -0.047820 0.072330 -0.072647 0.031880 -0.110523 -0.171460 -0.026957 0.136538 0.035961 0.048771 0.088476 0.086685 0.067824 0.130589 -0.006731 -0.002151 0.033401 -0.006249 0.094695 -0.017530 -0.215538 -0.121125 -0.207016 -0.150584 -0.159280 -0.105634 -0.122946 -0.116942 -0.073756 -0.036893 -0.041433 -0.023635 -0.067610 -0.141578 -0.166891 
-0.108940 -0.225250 -0.200900 -0.136343 -0.081876 -0.121117 0.039647 -0.024447 0.025116 -0.108696 0.061076 0.072874 -0.058711 -0.029299 -0.039485 0.069938 0.027197 0.108589 0.080412 -0.018527 -0.026001 0.050006 -0.024643 -0.008015 -0.050550 0.058892 -0.068366 -0.111561 -0.062395 -0.137043 -0.201733 -0.162687 -0.031689 -0.025626 0.007646 0.053989 -0.113812 0.005034 0.065995 -0.097940 -0.042882 -0.030379 -0.012305 -0.077755 0.047489 0.055724 -0.024375 0.074116 -0.007428 0.085318 0.127361 -0.010661 0.051849 0.054954 -0.011854 -0.009325 -0.072313 -0.225189 -0.041304 -0.116253 -0.172500 -0.033986 -0.134027 -0.017275 0.019969 -0.048522 0.041742 -0.012908 -0.017166 0.050813 0.079336 0.037254 0.101996 -0.036847 0.017792 -0.018931 0.034374 -0.067511 -0.062658 0.021242 0.053934 0.126043 0.075251 -0.041987 -0.043599 -0.082364 -0.063048 -0.089330 -0.121951 -0.035492 -0.144956 -0.041789 -0.104751 -0.009668 -0.044473 -0.004065 -0.009828 0.093839 -0.059036 -0.044681 0.016325 0.054933 0.011106 -0.041963 0.021467 -0.077378 -0.076993 -0.002767 0.145849 -0.021743 0.020548 0.034765 -0.144669 -0.217004 -0.038225 -0.193382 -0.140437 -0.008469 -0.063502 0.036144 -0.063155 -0.079811 -0.100273 -0.070334 -0.034579 0.031194 -0.016357 0.043202 -0.102934 -0.020715 0.049670 -0.011708 -0.072561 0.024755 0.063950 0.131037 0.067652 -0.052764 0.038554 -0.003442 0.002479 -0.071435 -0.150135 -0.021894 0.006004 -0.109493 0.045567 -0.153810 -0.085179 -0.076000 -0.121532 0.041019 -0.068057 -0.115726 -0.151572 -0.077447 -0.038418 -0.050970 -0.080585 -0.073101 -0.053021 0.083991 0.107818 -0.031842 0.043183 -0.027419 -0.040348 -0.038885 -0.136592 -0.142747 -0.050801 -0.035458 0.009195 -0.046602 0.001834 -0.066675 -0.056928 -0.023790 -0.054326 0.067020 0.051871 0.049621 -0.072449 -0.002326 -0.026055 -0.075300 -0.035405 -0.086981 0.019127 0.082081 -0.022435 -0.041072 0.069647 -0.039859 -0.064023 -0.024896 -0.008207 -0.071470 -0.094715 -0.055240 -0.026414 -0.066989 -0.067786 -0.008882 -0.030670 -0.082531 0.032582 -0.068407 0.007512 0.027617 -0.156822 -0.043363 0.049411 -0.066565 -0.132371 0.078302 -0.019063 -0.007692 -0.031928 0.039838 0.051482 -0.105854 -0.030308 -0.125349 -0.111710 -0.051489 0.041561 -0.124985 -0.092160 -0.059637 -0.164323 0.001531 -0.021644 -0.103603 -0.058067 0.000382 -0.063171 -0.176855 -0.097563 -0.139640 -0.117512 -0.021434 -0.079401 0.031539 -0.119573 -0.026597 -0.000196 0.059694 -0.079784 -0.003764 -0.093911 -0.044109 -0.147641 -0.076714 0.053749 -0.057197 -0.087981 0.028270 -0.066126 -0.078195 -0.012353 -0.087948 -0.043094 0.068957 -0.102927 -0.128348 -0.135886 -0.083668 -0.017094 -0.014052 -0.078149 -0.091062 0.034517 -0.111259 -0.034751 -0.103683 -0.009688 -0.164564 -0.015089 -0.111195 -0.093495 0.028400 -0.019476 0.049996 0.008820 0.010602 -0.014742 -0.086602 0.039693 0.022700 0.091786 -0.019628 -0.017914 -0.077596 -0.164681 -0.174568 -0.047038 -0.124405 0.049390 -0.045532 -0.056960 -0.079227 -0.025386 -0.041000 -0.079211 -0.024896 -0.130718 -0.203414 -0.143301 0.097095 -0.020348 -0.000561 0.103419 0.041818 0.049313 0.043835 -0.049977 -0.055782 -0.070027 -0.046759 0.007099 -0.135159 -0.033386 -0.030200 -0.008491 -0.029134 -0.095622 -0.084486 -0.040531 -0.090243 -0.070120 -0.166848 -0.133558 -0.077153 -0.180787 -0.018331 -0.169910 0.008900 -0.019050 0.072302 -0.023599 0.083929 0.097062 0.049046 -0.067992 0.055325 -0.046172 -0.134722 -0.115257 -0.058358 -0.204403 -0.013573 -0.071306 -0.082253 0.062050 -0.075512 -0.116990 -0.057662 0.006720 0.017353 -0.007124 0.012244 -0.071388 -0.137686 -0.079321 0.067286 0.122281 0.040095 0.125946 -0.061762 -0.011748 -0.110424 -0.028387 0.046996 0.020813 -0.017880 -0.009809 -0.133917 -0.127528 0.023881 0.053363 0.041291 0.045447 0.030096 -0.104742 -0.127180 0.044977 0.052540 -0.085179 -0.040556 -0.076329 -0.141100 -0.168852 0.111418 0.052213 -0.006536 0.000744 -0.067155 -0.097328 -0.015419 -0.048357 -0.076402 0.008723 -0.158191 0.027291 -0.005628 0.050401 0.049994 -0.006646 0.140491 0.106119 0.008023 0.072183 -0.085583 0.005630 -0.106495 -0.103814 -0.007714 0.000142 -0.107096 -0.040773 0.157423 0.011852 0.019313 0.050523 0.086186 0.021288 0.030874 0.037862 0.050308 -0.018857 0.040033 -0.033024 -0.013855 0.034868 0.021831 0.131501 0.161846 0.125131 0.074323 -0.033442 -0.011522 -0.028413 -0.114000 -0.017124 -0.021688 0.024268 -0.188492 -0.143318 0.153263 0.130266 0.104315 0.095982 -0.022870 -0.088027 -0.027444 -0.081976 -0.002449 -0.097570 0.087565 -0.089623 -0.068408 0.024919 0.084041 0.082990 0.217360 0.155220 0.223472 0.191661 0.112990 -0.005597 -0.008611 0.032434 -0.078116 -0.066734 -0.076773 -0.150352 0.181276 0.136586 -0.009951 -0.068861 0.017228 -0.129703 -0.025939 0.007222 -0.040842 0.019668 -0.103707 -0.042465 0.034798 -0.038482 0.022260 0.124867 0.115635 0.265296 0.137250 0.109739 -0.015927 -0.008283 -0.032694 0.087207 -0.062755 0.056270 -0.087943 -0.092397 0.034031 0.055960 -0.037552 0.036946 -0.015870 -0.092254 0.010819 -0.008688 0.092466 -0.029027 -0.060635 -0.077540 -0.096725 0.071568 0.103286 0.206698 0.089686 0.087946 0.206227 0.157257 0.076934 0.121634 0.142350 0.001127 0.087212 0.039704 0.006632 -0.044478 0.049764 0.014156 0.053795 -0.074716 0.003532 -0.053721 -0.002618 -0.088573 0.023273 0.017212 -0.083431 0.015325 0.006319 0.071557 0.052301 0.125689 0.145440 0.272981 0.251334 0.140524 0.184011 0.082410 0.012692 0.070339 0.078571 -0.048006 0.058219 -0.024349 -0.012286 -0.025523 -0.031753 -0.012222 -0.079268 0.009440 -0.059246 -0.020909 -0.023211 -0.071849 -0.006689 -0.063686 -0.042646 0.111355 0.067371 0.054451 0.179684 0.150901 0.294716 0.182234 0.177119 0.119112 0.192422 0.122036 -0.011325 -0.025890 -0.002687 -0.052513 0.088911 -0.067862 -0.029555 0.071837 0.060453 0.055956 -0.027886 -0.021175 -0.034352 0.002141 -0.117698 -0.126426 0.061742 0.098417 0.058740 0.195896 0.085761 0.229166 0.243126 0.077553 0.141279 0.054043 -0.025589 0.114071 0.003336 -0.046214 0.113224 0.044583 0.017344 -0.062194 0.027675 0.049795 -0.060273 -0.018990 -0.060364 -0.014503 -0.100192 -0.155050 -0.165612 -0.136451 -0.061944 0.099282 0.182693 0.006752 0.163402 0.123003 0.224056 0.164544 0.109586 0.030440 0.078340 0.130892 0.024816 -0.027442 0.117391 0.140278 0.008093 0.007799 0.069287 0.013522 -0.050137 -0.009784 -0.078469 -0.080661 -0.164289 -0.143805 -0.139476 -0.021106 0.014421 0.003111 0.182783 0.226590 0.179321 0.108079 0.225628 0.064588 0.160842 0.064028 0.035580 -0.029680 0.029967 0.085315 0.086490 0.201738 -0.074047 0.020775 0.097826 0.003857 0.101840 0.043303 -0.146033 -0.055724 -0.000644 -0.153439 -0.158996 -0.073862 -0.023708 0.088356 0.133859 0.100666 0.153484 0.234164 0.172146 0.121071 0.068625 0.039032 0.064080 -0.011594 -0.021980 0.109096 0.094723 0.128469 0.029912 -0.046438 -0.057362 -0.109030 -0.003128 -0.104161 -0.041065 -0.136852 -0.221102 -0.148637 -0.163859 -0.018636 0.038973 0.179927 0.211304 0.106822 0.132047 0.138953 0.073081 0.014751 -0.033740 0.006440 -0.051418 0.099894 0.083241 0.177005 0.132079 0.108155 -0.083789 -0.116778 -0.052546 -0.117325 0.013590 -0.012767 -0.032795 -0.187298 -0.187700 -0.095072 -0.140629 -0.056747 0.098655 0.070067 0.220087 0.125345 0.127473 0.179011 0.136538 0.080576 -0.091635 -0.066475 0.054944 0.001839 0.128419 0.154936 0.160138 0.060919 0.010712 -0.150180 0.044525 -0.041534 -0.031441 -0.093366 -0.088376 -0.098864 -0.178216 -0.145326 -0.050956 0.046520 0.007866 0.120419 0.283588 0.229671 0.314218 0.232089 0.170990 0.043437 0.012262 0.046073 0.130270 0.143269 0.131353 0.096084 0.082919 0.133918 
0.115958 -0.110671 -0.206853 -0.132743 -0.033657 0.014826 0.041929 -0.049595 -0.119964 -0.073695 -0.003765 0.067833 0.175782 0.066361 0.213850 0.075384 0.205407 0.182433 0.068706 0.117483 0.177229 0.055106 0.074555 0.040266 -0.034094 -0.044572 -0.175554 -0.118369 -0.089242 -0.251792 -0.241984 -0.184139 -0.063475 -0.157851 -0.110604 0.012450 0.008058 -0.029344 0.165059 0.030061 0.113473 0.190373 0.148763 0.083142 0.169473 0.226434 0.118449 0.180035 0.035814 0.084449 0.050979 0.048576 -0.032261 -0.152213 -0.066959 -0.139254 -0.205979 -0.186840 -0.101532 -0.144110 -0.074186 0.003074 0.004870 -0.068306 0.132206 0.099807 0.035493 -0.017753 0.120275 0.171522 0.146639 0.019896 0.027836 -0.035007 0.116716 0.066675 0.070338 0.126428 0.002496 -0.035641 0.013302 -0.098284 -0.156971 -0.119682 -0.177461 -0.067280 -0.216105 -0.051495 -0.135209 -0.114299 0.042483 0.060757 0.026101 0.091768 0.054656 0.121372 -0.025606 0.001319 0.034671 -0.023747 -0.055051 0.002715 0.106462 0.049825 -0.041250 0.078136 0.113025 0.036193 0.029617 -0.082906 -0.143728 -0.154921 -0.179534 -0.165533 -0.155802 -0.122685 -0.132549 -0.085206 0.068428 -0.011774 -0.037885 0.066931 0.076762 0.125326 0.100096 0.089424 0.049216 -0.014612 -0.057682 -0.046588 0.031715 -0.083674 0.071358 -0.001941 0.051558 0.061361 0.057978 0.043698 -0.008719 -0.064435 -0.078119 -0.176241 -0.097092 -0.066531 -0.084058 0.002964 -0.018579 0.068360 0.024232 0.054330 -0.021439 0.128695 -0.023187 0.063546 -0.066683 -0.015504 0.074483 -0.028234 0.059485 -0.045599 0.008934 0.008138 0.019732 0.139427 0.105191 0.121773 -0.102699 -0.134330 -0.188495 -0.178639 -0.104373 0.052758 0.002720 -0.027474 -0.050109 -0.052025 -0.053911 0.110931 -0.041804 0.126621 -0.076279 -0.060919 -0.075357 -0.032228 -0.046307 0.022393 0.018176 0.107962 -0.000904 0.107598 0.133019 0.111010 0.081963 -0.060770 -0.103115 -0.030076 -0.096755 -0.137995 0.046177 0.053405 -0.060074 0.029217 0.041417 0.059903 -0.041422 0.036616 0.052416 0.047222 0.058465 0.004292 0.005620 0.075783 0.022746 -0.031263 0.006442 -0.018149 0.040867 -0.008159 0.050612 0.082799 -0.015145 -0.101037 -0.075210 -0.107512 -0.056478 -0.156740 -0.040428 0.054805 0.040158 0.048254 0.070858 0.054398 -0.043097 0.040125 -0.022773 0.039297 -0.088841 0.015337 -0.114528 -0.134148 0.035650 0.053868 0.016875 0.097672 0.022715 0.003152 -0.004489 0.059200 -0.095910 -0.099522 -0.081004 -0.096229 -0.104855 -0.057122 0.063208 -0.093431 -0.026122 0.087281 -0.018861 0.019277 0.108215 0.013932 0.112178 0.111196 -0.044124 0.011215 0.033200 -0.085299 -0.013149 -0.033699 0.077756 -0.074632 -0.005746 0.111361 0.023528 0.089973 0.000444 -0.054527 -0.043395 -0.017217 -0.094452 0.012672 0.005932 -0.067124 -0.044679 0.041050 0.035129 -0.060791 -0.021811 0.052001 -0.020248 -0.089119 -0.032687 0.055924 -0.044779 -0.124096 0.025219 -0.004150 -0.026102 0.013355 -0.020314 0.081469 0.055129 -0.055331 -0.052436 0.015438 0.020520 0.023708 0.094593 0.160311 0.185434 0.077806 0.019716 -0.009201 -0.020822 0.107854 -0.064607 0.073476 -0.015330 -0.048171 -0.059703 0.038536 -0.091527 -0.051805 -0.122418 -0.063186 0.049085 0.090191 0.034954 0.048285 -0.025547 -0.024356 -0.037982 -0.108018 -0.071871 0.023432 0.019725 0.107929 0.255549 0.216054 0.000481 0.038299 -0.047119 0.015089 0.047477 -0.091771 0.014184 -0.010829 -0.049713 -0.108185 -0.002535 -0.001199 -0.082105 0.053605 0.086491 0.027212 0.144637 -0.043476 -0.014926 -0.020334 -0.050387 -0.107506 0.007885 0.055354 0.120344 0.240404 0.171748 0.114837 0.010741 0.039086 0.078549 0.034883 -0.066399 0.040253 0.043951 0.094559 0.058824 0.076659 -0.053826 0.042525 -0.056553 0.090826 0.022358 -0.023302 0.069639 -0.000253 -0.093990 -0.091873 -0.082407 -0.068766 -0.061960 -0.065952 -0.053792 0.204733 0.190563 0.072937 0.190766 0.134952 0.031184 0.044486 0.116991 0.039585 -0.026376 0.066582 0.039625 0.045265 0.096446 -0.014198 -0.063974 0.090705 0.078566 0.000681 0.096962 0.007838 0.028791 -0.059283 -0.045131 0.006469 0.012453 -0.044612 0.058696 0.223146 0.136421 0.102845 0.004214 0.005825 -0.023181 0.098227 0.151234 0.148393 0.105710 0.043433 0.118153 0.018858 0.135406 0.034829 -0.011175 0.053949 0.108604 0.105637 0.036786 -0.014428 -0.108593 -0.020542 -0.057092 0.027123 -0.100461 -0.184868 0.006257 0.268145 0.218617 0.101265 0.090547 0.111370 -0.000747 0.015038 0.091403 0.122409 0.055305 0.010618 -0.013308 0.049299 -0.063015 0.055792 0.019505 0.018961 0.013074 -0.038961 -0.004095 -0.064484 -0.005795 -0.154602 -0.112743 -0.039649 -0.110818 -0.089372 -0.153431 0.217798 0.156339 0.083065 0.152640 -0.019029 0.074947 -0.027646 -0.010863 0.093172 0.094168 0.069721 -0.051618 -0.007396 -0.062126 0.010652 0.000421 -0.062128 0.026486 0.011114 -0.074909 -0.054853 -0.057195 -0.054239 -0.105911 -0.093656 -0.111961 -0.134392 -0.016116 0.188868 0.061680 0.166144 0.044828 -0.012253 -0.011207 -0.049719 -0.077588 -0.039954 0.071141 -0.090953 -0.022144 0.048691 -0.046495 0.077787 -0.087923 -0.086567 -0.100998 -0.063093 -0.085067 -0.112620 -0.094097 -0.048323 -0.145807 -0.133831 -0.152959 -0.040471 0.058078 0.194076 0.150180 0.093869 0.126487 -0.034601 0.006325 0.015776 0.039787 -0.071739 -0.021959 0.005262 -0.090507 -0.094897 -0.004869 -0.027860 -0.102754 -0.028057 -0.020598 -0.074175 -0.066684 -0.056635 -0.131040 -0.016621 -0.015545 -0.023088 -0.082812 -0.107854 -0.070476 0.101530 0.201274 0.068858 -0.042379 0.005050 -0.013962 0.044530 -0.047341 0.026223 -0.081688 -0.003529 0.020362 0.029560 0.058651 -0.102293 0.085828 0.110141 -0.000904 0.019538 0.107043 -0.053574 0.007174 -0.011042 -0.002947 0.024831 0.050502 -0.056132 0.028899 0.184731 0.075641 0.099835 0.056164 0.054484 0.008177 -0.124285 -0.159141 -0.148625 0.004053 -0.020011 -0.033447 -0.116540 -0.046294 -0.039597 -0.023421 0.081663 0.098946 0.060570 -0.061978 -0.036666 0.055151 -0.064302 -0.015744 0.066993 -0.085016 0.075189 0.074140 0.194325 0.080945 0.142770 0.000814 -0.096953 -0.029095 -0.136221 -0.092227 -0.142350 -0.168681 -0.210470 -0.191242 -0.025599 -0.115979 -0.092442 -0.019743 0.102141 0.042698 0.030341 0.081779 -0.029513 0.065474 0.072560 0.116922 -0.055646 -0.074283 0.035267 0.123896 0.092199 0.041129 0.057184 0.046644 -0.001115 0.031751 -0.014985 -0.078555 -0.080159 -0.168638 -0.013050 -0.121417 -0.150572 0.004307 -0.099545 0.008797 0.022612 0.111315 0.048508 -0.012403 0.002910 -0.018878 0.054679 0.078719 0.033700 0.016971 0.101447 0.041115 0.160283 0.119062 0.001342 0.077194 -0.024997 0.000264 -0.155339 -0.057116 -0.161682 -0.135625 -0.158305 -0.119682 -0.105912 -0.131336 -0.041164 -0.093433 -0.020417 0.021801 0.097544 -0.059328 0.056277 0.072095 0.073834 0.067161 0.168436 0.046418 0.151687 0.065317 0.077815 0.108784 0.030454 -0.014785 0.078264 0.089257 0.008757 -0.072530 -0.180884 -0.232144 -0.198836 -0.173197 -0.150904 -0.183809 -0.130478 -0.069557 0.042163 -0.045160 0.023517 0.048252 -0.051973 -0.046108 0.037488 0.192772 0.038886 0.096941 0.228284 0.115661 0.062615 0.079814 -0.046740 0.069621 -0.001786 0.008499 -0.093997 -0.141957 -0.250116 -0.297170 -0.244514 -0.159047 -0.180902 -0.122134 -0.207498 -0.174445 -0.100715 -0.137867 -0.132233 0.041711 0.098903 0.066945 0.109745 0.073041 0.096103 0.213221 0.128742 0.233259 -0.021792 0.080947 -0.048223 0.078114 0.029377 -0.041046 -0.053760 -0.109278 -0.077088 -0.148200 -0.229776 -0.248348 -0.232131 -0.238974 -0.157333 -0.179778 -0.116750 -0.053532 -0.049642 0.048649 0.099232 0.155453 0.015366 0.087553 0.108590 0.099066 0.065641 0.100807 
-0.057063 0.036927 0.005349 -0.064965 -0.134416 -0.071669 -0.042260 -0.012209 -0.010982 0.010592 -0.109860 -0.072069 -0.134115 -0.133566 -0.216195 -0.191384 -0.048039 -0.169954 -0.090780 -0.014121 -0.059066 0.073593 0.004533 -0.011401 0.002344 0.128299 0.058062 0.265692 0.164773 0.024913 -0.032614 -0.109398 -0.102161 -0.036237 -0.120215 -0.145736 -0.135043 -0.149591 -0.111355 -0.064538 -0.145757 -0.185365 -0.093075 -0.108713 -0.172298 -0.071462 -0.016702 -0.079598 -0.021780 -0.117714 0.031780 0.011664 0.028983 0.140871 0.121852 0.147622 0.175919 -0.111501 -0.078325 -0.049981 0.063317 -0.031541 -0.118679 -0.160514 -0.195947 -0.043863 -0.030940 -0.110632 -0.106383 -0.018684 -0.053799 -0.179440 -0.120840 -0.105278 -0.075634 0.045344 -0.086549 0.061051 0.061954 -0.029952 0.128794 0.030952 0.173170 0.166542 0.257431 -0.037720 -0.002514 0.040902 -0.002770 0.008088 -0.057953 -0.084116 -0.128340 -0.008986 -0.103125 -0.024872 -0.158043 0.009472 -0.093837 -0.053192 0.015021 -0.066168 -0.045289 0.038610 -0.011919 0.020533 -0.009398 -0.015149 -0.000556 0.147293 0.212453 0.115972 0.086066 0.055697 -0.042219 -0.011759 0.057434 0.033167 0.011139 -0.133307 -0.122600 -0.108113 -0.028727 -0.054240 -0.132415 -0.121797 0.002299 0.001254 -0.128063 -0.084450 -0.036002 -0.020245 -0.036422 -0.032693 -0.040611 0.090872 -0.015463 0.097442 0.112587 0.130279 0.183018 -0.010351 0.043341 0.049044 -0.004645 -0.045600 0.028268 -0.130841 -0.049895 0.002398 0.011271 -0.151827 -0.041057 -0.147413 0.019083 -0.011025 -0.079858 -0.037351 -0.084468 0.030367 -0.135075 0.020025 0.107662 0.016195 0.025710 0.091220 0.026900 0.032363 0.163699 -0.035484 0.058908 -0.008395 -0.034881 0.050284 -0.023950 -0.146393 -0.048295 -0.060628 -0.131989 -0.072376 -0.059359 -0.108114 -0.062489 0.010220 0.001184 -0.035921 -0.082030 -0.000695 0.027468 -0.049930 0.015744 0.107209 -0.001970 -0.005518 0.128277 0.059046 0.023388 0.157660 -0.000521 0.127218 0.034600 -0.038554 -0.115661 0.018097 -0.045908 -0.156736 -0.092939 -0.082537 0.046756 0.041100 -0.072957 -0.059449 -0.061841 -0.077839 -0.163131 -0.011340 -0.053397 0.025798 0.011900 0.106759 0.047653 -0.090710 0.004483 0.035928 0.029766 0.098317 -0.042370 0.133101 0.089312 -0.046196 0.116345 -0.024597 -0.112892 -0.042261 -0.045960 -0.030195 0.080967 0.000184 -0.011862 -0.041343 -0.080685 -0.151993 -0.141763 -0.066087 -0.073489 -0.105495 0.013973 -0.037364 -0.083214 -0.112961 0.025209 0.035994 -0.117404 0.097198 -0.060720 0.152439 0.090897 -0.003736 -0.088978 0.017728 -0.062684 -0.079512 -0.117304 -0.053275 -0.055506 0.031690 0.030695 -0.113804 0.014276 -0.126600 0.022179 -0.042036 -0.043813 -0.097433 0.016572 -0.035345 -0.047151 0.044991 -0.103636 -0.170395 -0.016215 0.085621 0.108429 -0.019865 0.047943 0.015250 -0.027602 -0.094370 0.020486 -0.027251 -0.045098 -0.001851 -0.103613 0.009401 -0.019932 0.031619 -0.061491 0.008390 -0.068493 -0.037163 -0.063005 -0.030268 -0.054782 0.013726 0.021233 -0.051089 -0.066765 -0.081918 -0.080574 0.146105 -0.001739 -0.014856 -0.017084 -0.003612 -0.060280 -0.105083 -0.088793 0.048865 -0.110659 -0.112470 -0.004357 -0.038166 -0.142170 0.013074 0.055954 -0.081581 -0.067902 0.061403 0.063466 -0.061105 0.082447 0.035822 0.028309 -0.001468 -0.127780 -0.146316 -0.167883 0.156489 0.046142 -0.001280 0.046376 0.059994 -0.024056 -0.010879 0.047982 0.003114 0.057826 -0.088224 -0.067311 -0.098355 -0.033426 -0.015143 0.037993 0.091101 0.018309 0.030398 0.137071 -0.011393 -0.007349 0.087211 -0.062843 0.015515 0.015087 -0.168894 -0.057119 0.034039 0.043247 0.036778 0.012449 0.075839 -0.070180 -0.066355 -0.039301 -0.072551 -0.006848 -0.114965 -0.080643 -0.136071 -0.056832 -0.169670 -0.000517 0.087146 -0.055107 0.137395 0.015311 0.114611 0.008547 -0.036006 -0.055681 -0.055740 -0.113292 -0.118001 -0.163984 0.125057 -0.019553 0.171767 0.110676 0.084225 0.100235 0.068171 0.050006 -0.025062 0.062309 0.018062 -0.008929 -0.105022 -0.090501 -0.084326 -0.139115 0.037676 0.108472 -0.033987 0.012114 -0.033429 -0.010208 -0.022645 -0.072679 -0.045681 -0.056604 -0.073266 -0.107521 0.081788 0.142544 0.040329 0.157488 0.140626 0.104426 -0.014648 -0.018069 0.046890 -0.079233 -0.094938 -0.046856 -0.098381 -0.233778 -0.087720 -0.018414 -0.108971 0.021908 -0.037221 -0.025029 0.086337 0.105083 0.087161 -0.050611 -0.071507 -0.056724 -0.158888 -0.114417 -0.086372 -0.023548 0.172701 0.088302 0.075872 0.040426 0.156875 0.135397 0.037024 0.015759 0.081843 -0.054796 -0.128289 -0.235154 -0.064216 -0.089440 -0.054905 -0.065169 0.065151 -0.025876 0.025484 0.031670 -0.006452 -0.005021 -0.089495 0.017763 -0.076197 -0.155092 -0.042041 0.057132 0.023824 -0.001128 0.051417 0.072619 0.008891 0.140024 0.118362 0.060822 -0.023635 -0.079577 -0.185912 -0.180389 0.005281 -0.119671 0.034499 -0.059393 0.054694 0.073467 -0.028590 0.043150 0.052019 0.081250 -0.020267 -0.005035 -0.079641 -0.002443 -0.111330 -0.005778 0.192131 0.049599 -0.047213 0.095209 -0.010911 0.085142 0.081167 -0.051242 0.021588 -0.064548 -0.014452 0.012630 0.063659 0.076412 -0.032668 0.088286 0.133409 0.132722 0.087238 0.024852 -0.016498 -0.000203 -0.039091 0.047201 0.088880 0.065746 -0.071300 0.000571 0.000199 0.016341 0.023237 -0.024828 0.115873 0.082344 -0.040788 -0.123365 -0.113171 -0.071982 -0.109841 -0.047239 0.003879 0.065454 -0.058893 0.114044 0.106720 0.132906 0.091945 0.055870 0.110212 -0.024399 -0.049840 0.071200 0.056727 -0.039850 -0.094238 -0.035887 0.012880 -0.014561 -0.020304 0.048324 -0.001674 0.053823 -0.022204 0.015960 0.005647 -0.040231 0.033937 -0.028790 -0.051994 0.002494 -0.038235 -0.040957 0.113902 0.038805 0.051965 0.064421 0.081016 0.054494 0.094745 -0.041119 0.046591 -0.060409 -0.177804 -0.073857 -0.085671 0.004417 0.011670 0.031271 -0.047740 -0.027710 0.077436 -0.023556 0.047571 -0.015725 0.009280 -0.024029 0.078135 0.034362 0.056824 0.092243 0.061388 0.119928 0.009352 0.066472 0.138212 -0.015318 -0.056622 0.065445 -0.070033 -0.025435 -0.202220 -0.158217 -0.028310 -0.009607 -0.015467 -0.061024 -0.035200 0.038166 0.059281 -0.037957 -0.041340 0.039061 0.027542 0.062773 0.002829 0.012974 0.098015 -0.025144 -0.026653 0.119009 0.032272 0.060745 0.008881 0.059686 0.061993 -0.010137 -0.078861 0.039119 -0.137127 -0.189464 -0.212591 -0.106542 -0.000459 0.047620 -0.024616 -0.049372 -0.050628 -0.018411 0.046739 0.074623 0.046369 0.170508 0.109075 0.028488 -0.029993 0.019537 0.022582 -0.004586 0.106044 0.104315 0.067147 -0.030879 -0.068764 -0.011642 0.132044 0.078380 -0.166422 -0.152012 -0.156113 -0.042434 -0.113553 0.035251 0.024272 0.131423 0.012875 0.020665 0.068704 0.041448 0.183621 0.159086 0.173901 0.054443 0.106198 0.052535 -0.025841 0.072105 0.032701 0.032690 -0.030570 0.091443 0.103091 0.010364 0.120396 0.125774 -0.199917 -0.139531 -0.211271 -0.102719 -0.127349 0.036186 0.073880 0.061851 0.141470 0.173282 0.239599 0.217152 0.159866 0.210875 0.191652 0.035647 0.030661 0.032207 -0.043512 0.073826 -0.072240 0.011010 0.049915 0.058710 -0.024898 0.047066 0.061313 0.170550 -0.148395 -0.128500 -0.098731 -0.129611 -0.060566 -0.001239 0.049892 -0.058959 0.194361 0.186905 0.340273 0.216437 0.228173 0.229017 0.202662 0.220301 0.030604 0.108783 0.051387 -0.015855 -0.103701 -0.161048 -0.083736 0.003501 0.047616 0.012842 -0.016522 0.023991 -0.108688 -0.146507 -0.056094 -0.122033 -0.037443 -0.162461 -0.115919 0.030970 0.067693 0.109526 0.259052 0.204463 0.288716 0.240420 0.315942 0.295344 0.197911 0.082218 -0.070969 -0.137393 -0.141915 -0.035860 0.000884 0.069935 -0.013955 0.031466 0.059803 0.075152 
0.124100 -0.252393 -0.122550 -0.049435 -0.105723 -0.130180 0.006745 -0.123857 -0.070129 -0.051631 -0.031687 -0.002529 0.022753 -0.002272 0.064282 -0.000070 0.080893 -0.035181 0.079659 0.004896 0.047017 0.073958 0.003322 -0.021372 0.002388 -0.011091 -0.080288 -0.052211 -0.167565 -0.299160 -0.161641 -0.083699 -0.071805 -0.139217 -0.055206 0.060128 -0.118834 0.005572 0.067846 0.083963 -0.084028 0.075092 0.004721 -0.003098 0.088746 0.028504 0.021924 0.147797 0.128076 0.087295 0.138844 -0.012410 -0.076461 -0.074312 0.054227 -0.134670 -0.121759 -0.185543 -0.154102 -0.193804 -0.098064 -0.170817 -0.043321 0.006653 0.044120 0.001980 -0.032300 -0.024424 -0.089110 0.097707 0.014579 0.077592 -0.041111 0.083701 0.010640 -0.048117 0.031987 -0.022205 0.089786 -0.006040 -0.079676 -0.087574 -0.101805 0.018615 -0.082807 -0.215425 -0.150876 -0.251760 -0.244602 -0.160814 -0.056649 -0.015176 -0.008721 -0.120847 0.034913 -0.072015 -0.008301 0.072792 -0.038042 0.026624 0.004763 -0.002712 -0.037591 0.048982 -0.035319 0.039035 -0.064927 -0.052175 0.034985 0.058361 0.007297 -0.091087 -0.174782 -0.214439 -0.241446 -0.155643 -0.090632 -0.048893 -0.174736 -0.013112 0.050590 -0.042164 -0.112398 0.018232 0.044743 -0.098635 -0.018122 0.041116 -0.084439 -0.113399 -0.030700 -0.097475 -0.063937 0.031802 0.023332 -0.068310 0.029371 0.025381 -0.082201 -0.006125 -0.153516 -0.176769 -0.121078 -0.192703 -0.149088 -0.111586 -0.090826 -0.108721 0.048155 -0.108453 0.015428 0.015137 -0.000126 -0.083057 -0.069200 0.060501 -0.008252 -0.034365 -0.092668 -0.032426 -0.009537 0.033048 -0.015762 0.080960 -0.006471 0.012890 0.009378 -0.050267 -0.147331 -0.230701 -0.028276 -0.123844 -0.060002 -0.027965 -0.005973 -0.038180 -0.117347 -0.042971 0.016360 -0.088778 -0.030378 0.039084 -0.079858 -0.058304 0.022250 -0.029781 0.076319 -0.076195 0.072311 0.036391 0.012843 -0.024929 -0.071933 -0.103903 -0.156920 -0.081770 -0.176363 -0.083634 -0.073913 0.011625 -0.048861 -0.161015 -0.114745 -0.041907 -0.097292 0.027242 0.033428 -0.021185 -0.038227 -0.013260 -0.074775 0.021027 0.020190 -0.062434 -0.028736 0.050516 -0.067512 -0.093051 -0.023985 -0.063278 -0.012473 -0.061122 -0.017886 -0.132399 -0.098543 -0.211837 -0.090677 -0.006473 -0.041935 -0.084888 -0.011045 -0.046766 0.004416 0.002741 -0.000652 -0.003728 -0.079000 0.023326 -0.136231 -0.033947 0.034682 -0.018858 0.033857 -0.011468 -0.068184 -0.025605 0.030451 -0.129840 -0.001174 -0.017861 -0.153572 -0.164645 -0.168448 -0.060074 -0.114023 -0.150793 -0.085361 -0.134212 0.026303 -0.022535 0.005325 0.007524 0.039659 -0.010794 0.018525 -0.054421 0.035840 -0.085877 -0.108426 0.050026 -0.073294 -0.005177 0.053493 -0.075285 -0.028436 -0.129367 -0.098081 -0.080733 -0.055286 -0.047844 -0.073572 -0.149266 -0.116402 0.006653 0.021063 -0.076599 -0.072113 -0.033726 -0.045866 -0.045669 -0.061599 0.019501 0.025349 0.088393 0.003680 -0.009050 0.007774 0.000921 -0.020310 -0.096287 -0.124080 -0.006915 -0.021245 0.037050 -0.053284 -0.028946 -0.090700 -0.136374 -0.193840 0.016476 -0.045425 -0.066527 0.037810 0.053955 -0.030317 0.038052 -0.101367 -0.089216 -0.003629 -0.007298 0.023279 -0.072199 -0.001539 0.009923 0.041829 0.072067 0.043824 -0.019893 0.010964 -0.061095 -0.027453 -0.027450 -0.138852 -0.101016 -0.200668 -0.177186 -0.117653 -0.037522 -0.112310 -0.064668 -0.064754 -0.069954 0.031545 -0.058243 -0.052907 -0.039341 -0.045671 -0.049030 -0.031774 0.032961 0.088592 0.016003 0.078404 -0.016246 -0.065002 -0.065429 -0.066483 -0.091393 -0.042791 -0.038041 -0.030968 -0.120163 -0.082764 -0.142427 -0.170024 -0.042428 -0.051180 -0.006953 -0.077072 -0.078885 0.041567 0.031603 -0.112551 -0.106066 -0.050755 0.093009 -0.025335 0.071895 0.051308 -0.002293 -0.040632 0.141729 0.091205 0.127170 -0.020899 0.015386 -0.098026 0.031029 0.016515 -0.046597 -0.004589 -0.161059 -0.223428 -0.153991 -0.075583 -0.128681 -0.067902 -0.121617 -0.169862 -0.060277 0.018183 -0.079931 0.109036 0.030615 0.017111 -0.018186 0.155062 0.126767 0.170564 0.077002 0.082103 0.037898 0.113530 -0.057131 -0.062312 -0.020733 -0.011422 0.022126 -0.036056 -0.142629 -0.103590 -0.130197 -0.121710 0.045158 -0.031379 -0.135378 -0.125667 -0.092148 -0.060759 0.014505 -0.041722 0.052194 0.097099 0.112682 0.082876 0.147265 0.194641 0.078854 0.133288 0.057738 0.157573 -0.048069 -0.010591 0.064429 0.054374 -0.042156 -0.019698 0.021620 -0.141158 -0.172999 -0.033275 -0.051240 -0.021733 -0.045207 -0.151767 -0.062039 -0.144523 -0.062756 -0.061734 -0.031984 -0.034567 -0.006846 0.029814 0.153750 0.228644 0.127849 0.144008 0.262909 0.169553 0.031799 0.004823 -0.002568 0.002122 0.042168 -0.003497 -0.036563 -0.001871 -0.036049 -0.148043 -0.003808 -0.006411 -0.039953 -0.124378 -0.002614 -0.117471 0.003317 0.024100 -0.024442 0.120813 -0.012166 0.082174 0.128274 0.196642 0.244691 0.168936 0.181108 0.128081 0.151876 0.029488 0.059977 0.122880 0.012010 0.080718 0.016425 -0.008886 -0.080368 -0.075245 -0.089902 -0.038476 -0.013348 -0.177630 -0.018386 -0.074164 -0.006763 0.087858 -0.059477 -0.073606 0.056474 -0.008087 0.188537 0.089890 0.100718 0.173937 0.212052 0.140333 0.069453 0.098459 0.174920 0.119857 0.124532 0.098533 0.020442 0.053396 -0.130268 -0.049096 -0.076688 -0.012597 -0.118686 -0.137041 0.000335 0.022167 0.002561 -0.089472 -0.078040 0.056696 0.083469 0.129479 0.141789 0.081103 0.221086 0.259936 0.290487 0.218835 0.062054 0.171458 0.007908 0.089070 0.117449 0.074955 0.115182 0.114918 -0.053208 -0.117567 0.088903 -0.018255 -0.080020 -0.038404 0.045311 0.014824 -0.050689 -0.003443 0.035310 -0.105623 -0.002227 0.213551 0.057514 0.155327 0.216272 0.109175 0.127899 0.180591 0.172333 0.198537 0.043146 0.066844 0.168659 0.205113 0.144155 0.027493 -0.043450 0.027479 0.111179 -0.006464 0.079006 -0.074247 -0.062856 0.007744 0.038076 -0.015142 -0.115687 -0.067408 0.157903 0.165376 0.164590 0.048495 0.202797 0.178435 0.241563 0.204034 0.052478 0.174742 0.065498 0.002310 0.168125 0.091880 0.219635 0.242617 0.015898 0.076719 0.022089 0.102425 0.019939 0.008111 -0.012172 0.029508 0.075479 0.080422 -0.045047 -0.097916 0.020173 0.093223 0.143199 0.057057 -0.011272 0.139159 0.133384 0.152882 0.060470 0.049438 0.074364 0.130088 0.026890 0.116817 0.099388 0.184832 0.075199 0.062832 0.145747 -0.000933 0.032800 0.054192 0.058718 -0.047796 -0.059805 0.045097 0.024016 -0.087103 -0.078166 0.053543 0.002662 0.044649 0.045519 0.215409 0.170199 0.125338 0.147384 -0.056177 0.111550 0.072671 0.123273 0.088771 0.134142 0.133734 0.131500 0.161686 0.051310 0.135599 0.150566 -0.024338 -0.036414 -0.018206 -0.096126 -0.130281 -0.012972 0.039139 -0.032975 0.064429 0.095472 0.168139 0.182859 0.092271 0.186377 0.081208 0.150774 0.018550 -0.003784 0.034712 0.148348 0.104700 0.235034 0.302512 0.195359 0.201312 0.032101 0.111192 -0.028196 -0.115535 -0.159392 -0.180290 -0.028808 -0.141941 -0.102406 -0.078911 0.048823 0.033661 0.122016 0.230339 0.114594 0.090405 0.023637 0.068873 -0.001910 -0.073398 0.030584 0.143750 0.006227 0.217048 0.292229 0.148128 0.189443 0.087769 0.037774 0.088201 -0.098606 -0.076956 -0.171602 -0.138393 -0.159769 -0.243718 -0.190806 -0.044309 -0.016245 0.080736 0.134220 0.194208 0.105552 0.118904 0.021080 0.101525 -0.009616 -0.022162 0.123033 0.039930 0.029796 0.167313 0.155525 0.330566 0.149895 0.079300 0.056132 0.122292 -0.071617 -0.084036 -0.048034 -0.052874 -0.087951 -0.118074 -0.025156 -0.099374 -0.052782 0.065411 0.092072 0.160959 0.110684 0.084886 0.152185 0.131020 0.026287 0.111689 0.111319 0.051847 0.168234 0.076169 0.240902 0.304089 
-0.077138 -0.063380 -0.167797 -0.080818 -0.175211 -0.049262 -0.053958 -0.152082 -0.101810 -0.064660 -0.111710 0.052409 0.058344 -0.047280 -0.014514 -0.018982 -0.003355 0.024398 0.051121 0.025751 0.030252 -0.061490 -0.024257 0.094642 0.064573 -0.074618 0.028119 -0.067281 0.125457 -0.058875 -0.088374 -0.147641 -0.015870 -0.132907 -0.034305 -0.117388 -0.004877 -0.091101 -0.026943 0.068433 -0.031402 0.003085 0.026930 0.017933 0.013595 0.004752 0.106967 0.055117 0.054378 0.012201 0.129947 -0.067506 -0.005645 -0.028141 -0.036849 0.078182 -0.057100 -0.125633 -0.043026 -0.138949 -0.166243 -0.083820 -0.158847 -0.078538 -0.002710 -0.076011 -0.130677 -0.001210 0.038838 -0.052980 0.021766 0.062031 0.039165 0.118954 0.083444 0.039287 -0.004746 0.115311 0.028856 0.098252 0.047033 -0.005619 0.141792 -0.074211 0.007145 -0.085823 -0.065003 -0.114142 -0.034725 -0.107753 -0.062395 -0.076399 -0.081255 -0.040929 -0.036761 0.023704 -0.061241 -0.084839 -0.011220 0.004972 0.110199 -0.006725 0.028408 0.019833 0.021067 -0.012887 0.017245 0.138436 -0.039127 0.014746 0.102037 0.088850 0.036428 -0.114177 -0.129334 -0.115623 -0.145381 -0.074074 -0.001624 0.007435 -0.055075 -0.081762 0.033117 0.030428 -0.007086 0.009568 0.042528 -0.072120 -0.043542 0.051665 -0.010138 0.070193 -0.035189 0.074286 -0.008263 0.084021 -0.027559 0.031439 0.077956 -0.085489 -0.033749 -0.154260 -0.111446 -0.088638 -0.098102 0.028851 -0.053469 -0.122222 -0.011559 -0.042254 0.017367 0.066740 0.058953 0.004242 -0.046855 -0.022797 -0.069721 -0.045315 -0.098753 0.024428 -0.100155 0.033056 -0.041511 0.130890 -0.035813 -0.007555 -0.038591 -0.040100 -0.086638 -0.116045 -0.133577 -0.109638 -0.057606 -0.072574 -0.001455 -0.091546 -0.076905 -0.038396 -0.014457 0.008971 0.055702 0.015263 -0.082992 -0.097270 -0.091050 -0.060689 -0.036249 0.020971 -0.073746 -0.006574 0.057408 0.095585 0.087484 -0.059576 0.008302 -0.051643 -0.045266 -0.181480 -0.054711 0.004320 -0.053254 -0.042704 -0.008695 -0.013968 0.034565 -0.118870 -0.100448 -0.085406 -0.096553 -0.051655 -0.150206 -0.129483 -0.013647 -0.022482 -0.070691 0.046109 0.016667 0.104922 -0.023853 -0.021092 0.093731 -0.016996 -0.004761 -0.047114 -0.023746 -0.139966 -0.096219 -0.004007 -0.064028 0.043741 0.045327 -0.083182 0.010223 -0.094887 -0.061891 -0.064946 -0.071647 -0.167014 -0.183943 -0.063089 -0.026222 -0.022990 -0.010831 -0.089044 0.017720 0.067976 -0.036211 0.012061 0.054551 -0.112812 -0.050673 -0.027275 -0.150889 -0.167835 -0.060538 -0.043448 -0.117013 0.089377 -0.060836 0.028282 -0.080399 0.038147 -0.003518 0.057305 0.019129 -0.019360 -0.015535 -0.054414 0.038893 -0.164000 -0.076887 -0.020810 -0.017912 -0.002230 -0.094898 -0.051111 -0.055106 -0.072504 -0.081394 -0.080297 -0.115594 -0.075458 -0.012208 -0.047505 -0.088272 0.078260 -0.063782 0.052316 -0.054001 0.013398 -0.045462 0.044952 -0.071370 -0.077896 -0.187537 0.033035 -0.100756 -0.093605 0.092065 0.024829 -0.060813 0.072702 -0.087411 -0.061490 0.049489 0.039833 -0.173666 -0.073537 -0.059429 -0.044506 0.052887 -0.036039 0.086658 -0.019015 -0.023603 -0.041634 -0.078668 -0.106521 -0.012072 0.039637 0.005396 -0.055869 -0.063372 -0.021524 0.099560 0.001481 0.107630 0.139355 0.075654 0.071511 0.033505 -0.083905 0.073705 -0.127030 -0.004638 -0.027912 -0.013867 0.058268 0.072145 -0.022290 0.095697 -0.046831 0.052261 -0.000510 0.024388 -0.014775 -0.078969 -0.007732 -0.005969 0.045093 -0.040385 0.078839 -0.017097 0.153364 0.176196 0.030809 0.033836 0.001264 -0.012202 -0.104910 0.018992 -0.062918 -0.020967 -0.088388 -0.060730 0.029528 -0.011733 0.029706 0.098234 -0.073816 0.044024 0.090922 0.013536 -0.066787 0.023117 0.069477 -0.064162 0.002656 0.005541 -0.007837 0.061644 0.022730 0.158240 0.027312 -0.044852 -0.022586 -0.035619 0.069174 0.035563 0.021378 0.008332 -0.026994 -0.106471 -0.025138 0.081536 -0.001945 0.111433 0.087190 0.025750 0.056522 0.039056 0.111609 -0.016755 0.094615 -0.041344 -0.000949 0.068219 -0.025367 -0.054233 -0.034330 0.021879 0.079040 0.060806 -0.042993 -0.029293 0.055819 -0.066830 -0.067404 -0.124791 -0.128086 -0.059922 -0.015659 -0.016710 0.103615 -0.037078 0.014203 0.042367 0.168293 0.172113 0.126766 0.063205 -0.041211 0.015765 -0.073639 -0.094486 0.015616 -0.046320 -0.009713 0.144551 0.130190 0.059065 -0.060228 0.112848 -0.010487 -0.035298 -0.039490 -0.107321 -0.055838 -0.076670 0.069184 -0.003572 0.038275 0.085883 -0.005936 0.068197 0.132383 0.130612 0.154148 0.086765 0.084042 0.056593 -0.025442 -0.036443 -0.092595 -0.056403 0.083632 -0.013230 0.095746 0.081721 0.061741 0.078311 0.078459 -0.080729 -0.055407 -0.131471 -0.009238 -0.128203 0.039869 0.020053 0.006242 -0.037391 0.029544 -0.005480 0.126820 0.012212 0.126691 0.135552 -0.034175 -0.039122 -0.140895 -0.126895 0.017026 -0.101390 -0.014163 -0.001933 0.089034 -0.014401 0.030286 -0.043405 -0.096482 -0.025425 0.024643 -0.133322 -0.117878 -0.027237 0.060989 0.023243 0.105623 0.063740 -0.022241 0.121821 0.097628 0.144375 0.154675 0.118002 -0.015150 -0.080612 -0.109311 -0.012731 -0.125009 -0.038240 -0.081547 0.027971 0.008456 0.077843 0.106992 0.092870 -0.038753 0.072839 -0.050888 0.011458 0.076994 0.105688 0.023053 -0.100403 0.022744 -0.046963 0.071323 -0.004617 0.000054 0.118194 -0.010487 0.013640 0.076400 -0.072124 -0.089920 0.003436 -0.126183 0.067164 0.000204 0.045433 -0.058584 0.060609 -0.061904 0.004619 0.095807 -0.070695 0.042056 -0.017139 0.092218 0.047718 -0.102977 0.013864 -0.098567 0.019000 -0.031417 0.112463 0.086229 0.111429 0.095439 -0.016718 0.078508 -0.035599 -0.020880 0.039320 -0.081050 -0.106054 0.042965 0.020970 -0.008031 -0.037325 -0.027167 -0.021458 0.030600 0.118573 -0.071639 0.028456 0.132740 -0.002941 0.031886 0.048020 -0.090995 -0.023428 0.002818 0.100955 -0.041786 0.059768 0.050670 0.111663 0.023335 0.074226 -0.076736 0.050520 0.051499 -0.051829 -0.064624 -0.028870 0.069780 0.048044 0.048534 0.063187 0.047306 0.105137 0.117908 0.052886 0.011613 0.130975 0.017069 0.028983 0.029035 0.004233 0.003248 0.101744 0.009424 -0.007136 0.037929 0.080673 -0.044544 -0.002785 -0.017560 -0.050002 -0.093656 0.087925 -0.094773 -0.081253 -0.104848 -0.110659 -0.006150 0.084685 -0.062792 0.036943 0.132843 0.129007 0.164686 0.085691 -0.130342 -0.069828 -0.027696 0.004673 0.107943 -0.002478 0.013081 -0.026401 0.057356 0.032374 0.037423 -0.066340 0.029251 0.054993 -0.066822 -0.052093 0.008462 0.026889 0.058224 -0.082936 -0.047888 0.046118 0.034090 0.063637 0.051641 0.024467 0.177361 0.064155 0.018741 -0.030430 0.029226 -0.005320 -0.039614 -0.049888 0.027895 -0.095543 -0.102568 0.004243 0.059029 -0.095779 -0.070031 0.043834 -0.013198 -0.096161 0.008970 0.005210 0.038337 -0.108549 -0.063758 0.087047 0.019290 0.097326 0.119327 0.034079 0.159482 0.051262 -0.079531 0.092259 0.024051 0.010220 0.038218 -0.018311 -0.058443 -0.026228 -0.070114 -0.007121 0.029676 -0.072629 -0.029073 -0.017398 -0.147848 -0.035928 -0.164914 -0.025783 0.001264 -0.111669 -0.093986 0.068895 0.131894 0.041824 0.044710 0.122628 0.133564 0.169250 0.031793 0.082237 -0.011634 -0.024385 -0.010910 0.009106 -0.097139 0.031520 -0.049332 -0.006318 -0.033345 -0.112161 -0.048844 -0.105767 -0.033634 -0.044738 -0.085877 -0.149019 -0.096448 -0.104269 -0.046061 0.055129 0.047575 0.127541 0.130729 0.204696 0.219145 0.100886 0.068368 0.051108 0.022426 0.004930 0.004365 0.014996 -0.080042 -0.007668 -0.085660 0.039480 -0.096346 -0.047889 0.029475 -0.115553 -0.060641 -0.107541 -0.106848 -0.141893 -0.126831 0.024817 -0.096481 -0.054972 0.018712 0.058972 0.104386 -0.006906 0.047024 0.097142 
0.094916 0.044792 0.025542 0.158265 -0.028897 -0.038290 0.083972 0.087438 0.032831 0.011778 -0.002626 0.011599 -0.129546 -0.185756 -0.039706 -0.092252 -0.018150 -0.080122 -0.049936 0.005989 -0.043055 0.030980 0.113273 -0.058810 0.082802 -0.019784 0.155716 0.274299 0.168431 0.163931 0.019258 0.057237 0.059360 0.007559 0.160501 0.082628 -0.060129 -0.028928 -0.085979 -0.056432 -0.077532 -0.100477 -0.149178 -0.140071 -0.086985 -0.097128 -0.098054 0.025370 -0.017113 -0.074820 -0.050501 0.075139 -0.025328 0.023384 0.221863 0.160024 0.124260 0.186827 0.094359 0.084805 0.004851 0.081440 0.080328 0.067253 0.030863 0.077906 -0.053713 -0.092049 -0.048143 -0.045897 -0.080789 -0.115343 -0.072014 -0.101455 0.033903 -0.131487 -0.150663 0.002805 -0.079719 -0.061217 0.006329 0.088532 0.003715 0.091730 0.100967 0.005930 0.123445 0.068959 -0.058174 0.101718 -0.071779 -0.000901 0.102572 -0.028421 -0.069501 -0.102509 -0.150692 -0.090671 0.016453 0.010968 0.055656 0.084970 -0.058405 0.027425 -0.003842 0.036394 -0.056142 -0.130449 -0.027833 -0.014711 0.093543 0.090691 0.015163 0.124174 -0.008539 -0.052108 0.033960 -0.036863 0.003289 0.079070 0.105164 0.058833 -0.039693 -0.024747 -0.019431 -0.036069 -0.045352 0.029585 0.021707 0.122002 -0.020642 0.029550 -0.024248 -0.088712 -0.119106 -0.047993 -0.196305 0.006693 0.019702 0.038001 0.078523 0.034117 -0.058330 0.129155 0.081888 0.032047 0.085227 -0.037593 -0.000988 -0.037741 0.060446 -0.054779 -0.035973 -0.007925 0.083189 0.048186 0.029173 -0.016351 0.046545 0.035567 0.032601 0.091969 -0.032560 -0.106967 -0.062093 -0.065500 -0.144691 0.017338 0.049924 0.077723 0.057952 -0.001722 0.007677 0.049405 0.092881 0.016439 0.013643 0.060802 0.102495 0.028313 0.161944 0.146977 0.038332 0.189707 0.018799 0.040917 0.004041 0.059530 0.061435 -0.009364 0.113115 -0.038467 0.022405 -0.069311 -0.030472 0.067260 0.009055 -0.021175 -0.022362 0.031354 -0.009276 0.036457 0.001899 -0.035975 -0.047153 -0.047722 0.105516 -0.015264 -0.011264 0.091131 0.021155 0.112772 0.136458 0.098928 0.088464 -0.082627 -0.069452 -0.079250 -0.042800 0.006296 -0.030909 0.007737 -0.019205 -0.061188 -0.044094 -0.043040 0.027276 -0.082228 -0.055734 -0.090651 -0.069151 0.013202 0.069379 0.004141 0.069327 -0.088717 0.020409 0.172931 0.100734 0.079988 0.070105 0.102054 -0.027561 0.081115 -0.098065 0.046090 0.043821 -0.142710 -0.150500 -0.032160 -0.085184 -0.067642 0.014703 0.001051 0.034352 0.034578 0.104063 0.001272 -0.133731 0.001445 -0.071532 0.017066 -0.060611 -0.048143 0.082556 0.228539 0.063610 0.184555 0.104234 0.109062 0.070437 0.031285 -0.052114 -0.113769 -0.102133 -0.044693 -0.052979 -0.055898 0.039755 0.010983 -0.000111 0.068030 -0.047506 0.102872 0.036250 -0.153157 -0.135232 -0.013508 -0.111471 -0.031536 -0.000525 -0.024810 -0.014878 0.156585 0.195837 0.106027 0.058833 0.042386 -0.047216 -0.001621 -0.078491 -0.017862 -0.046211 -0.075101 -0.186003 0.017505 -0.102986 -0.062796 -0.037080 0.049320 0.031716 -0.002024 0.021701 -0.164377 -0.115932 -0.002310 -0.109789 -0.018778 0.054105 0.037550 0.129221 0.116225 0.187460 0.195970 0.192424 0.031383 0.029392 0.022317 -0.106017 -0.028061 -0.129982 -0.037170 -0.194659 0.028007 -0.065161 -0.003677 -0.016402 0.002586 -0.071300 0.114092 -0.097673 -0.148795 -0.099463 -0.016910 -0.000460 -0.065195 -0.055171 0.108011 0.070932 0.199400 0.229681 0.099078 0.106324 0.007507 0.004485 -0.009493 -0.045752 0.017314 -0.059177 -0.117352 -0.032348 0.044897 -0.063268 -0.012431 -0.072939 -0.063598 -0.028940 -0.008204 0.031520 -0.004124 0.038715 -0.064312 -0.083307 -0.009478 0.080744 0.151343 0.189153 0.124809 0.151416 0.242566 0.173785 0.095228 0.049827 0.065884 -0.090071 -0.016623 -0.149697 -0.048359 -0.130637 -0.089305 -0.088713 -0.199824 -0.176098 0.020340 0.060751 0.044665 -0.008999 -0.064569 -0.039996 0.042234 -0.044906 0.072257 0.017791 0.159886 0.138732 0.158158 0.255865 0.167222 0.038262 0.084591 -0.046345 -0.061958 -0.082443 -0.079149 -0.182087 -0.151465 -0.170123 0.040843 -0.018238 -0.103281 -0.150528 -0.005101 -0.074356 0.000942 0.052524 -0.079306 -0.068876 -0.024370 0.055076 -0.013290 0.127283 0.132715 0.272157 0.293594 0.304919 0.222535 0.063585 0.059462 -0.005036 -0.092327 -0.084545 -0.072781 -0.179495 -0.027011 0.022094 -0.096366 -0.028545 -0.036408 -0.209350 -0.060378 -0.039287 -0.056275 0.058920 -0.081687 0.098399 -0.066182 0.028141 0.036059 0.030369 0.119022 0.282783 0.315562 0.257281 0.121205 0.184329 -0.007350 0.054119 -0.015462 -0.142605 -0.173308 -0.198644 -0.157697 -0.142040 -0.123300 -0.041762 -0.108514 -0.158381 -0.121913 -0.114258 -0.081871 0.004569 0.009066 -0.064902 0.012374 -0.027151 -0.064129 0.092789 0.221326 0.190211 0.262573 0.073298 0.163428 0.146322 -0.068052 -0.100741 -0.019837 -0.217939 -0.092996 -0.091636 -0.129370 -0.082189 0.005352 -0.104173 -0.028601 -0.004977 0.027734 0.007140 0.035420 0.057862 -0.034473 -0.110536 -0.058275 -0.045733 0.016366 0.160152 0.204592 0.179409 0.206719 0.227039 0.152940 0.074221 -0.065875 -0.038727 -0.176245 -0.158446 -0.183348 0.009105 -0.054991 0.036512 -0.119615 -0.086103 -0.071024 -0.049743 0.042037 0.033853 0.021957 0.069318 -0.014995 0.065366 -0.037819 -0.023544 -0.010676 0.155697 0.107517 0.230597 0.177430 0.066146 0.178492 0.132752 -0.049780 0.034689 -0.078564 -0.134062 -0.088985 -0.002692 -0.021261 -0.111359 -0.068534 -0.073078 -0.072412 0.048038 -0.079222 0.063115 -0.047665 0.058800 -0.117854 -0.040168 0.021700 0.035382 0.064098 0.138737 0.055724 0.228702 0.194112 0.049789 0.134543 -0.005231 0.058290 -0.011552 -0.091173 0.031143 -0.087554 0.024621 -0.052080 -0.131608 -0.078572 0.046909 -0.012256 0.026475 -0.037305 -0.034702 0.023074 -0.073467 0.018165 -0.061209 -0.067688 -0.012081 -0.043211 0.087090 0.017016 0.159590 0.134878 0.078465 0.159892 0.137947 -0.030638 0.023446 -0.043006 -0.063992 -0.045870 0.005044 -0.010799 -0.053771 -0.042882 0.017751 0.034585 0.047080 -0.046746 0.024362 0.051337 0.007612 -0.052039 0.019444 0.047438 0.088358 -0.012243 0.062980 0.101155 -0.029425 0.069731 -0.042058 -0.036582 0.112364 -0.056739 -0.083789 0.045809 0.068949 -0.019505 -0.033097 0.054625 0.003799 0.026510 0.005783 0.034778 -0.009530 0.053429 0.035912 0.047164 0.099841 -0.026566 -0.021992 0.055762 -0.020159 0.064254 -0.041618 -0.051955 0.017709 -0.016516 -0.027032 -0.024313 0.021660 -0.104625 0.005019 -0.093430 0.022021 -0.060433 0.041986 0.047689 0.055904 0.065588 0.105867 0.052436 0.005678 0.085445 0.007448 -0.115763 0.009444 -0.054524 -0.104337 -0.081283 0.112671 0.068463 -0.000848 0.065327 -0.073051 -0.058523 -0.119120 -0.172251 -0.065989 -0.035062 0.006766 -0.124904 -0.026661 0.051903 0.025225 0.025271 0.009495 0.188497 0.050165 0.099732 0.072954 0.140040 0.049488 -0.096065 0.006203 0.023733 0.040338 -0.107910 0.076303 -0.046870 -0.029294 -0.075276 -0.181770 -0.207166 -0.105299 -0.060802 -0.115371 -0.023444 -0.070173 0.022888 -0.040128 -0.075019 0.046239 0.126932 0.120442 0.031872 -0.025689 0.068890 -0.012203 0.079676 0.060193 -0.088586 -0.087667 0.015456 0.036443 -0.021851 0.003039 0.027523 -0.097202 -0.075768 -0.270875 -0.258195 -0.269658 -0.262839 -0.179761 -0.084678 -0.071689 0.000025 -0.119871 0.083752 -0.060216 0.024619 0.056251 -0.047004 -0.004296 0.013007 -0.028610 0.032307 0.066187 -0.026588 0.008042 -0.038307 -0.073920 -0.022277 0.083740 0.042990 -0.153711 -0.036482 -0.269349 -0.148014 -0.230547 -0.386555 -0.225934 -0.167541 -0.162883 0.013560 0.040172 0.027486 0.008786 -0.010991 -0.067429 -0.132402 0.000358 -0.043572 0.075614 
0.065311 -0.079168 -0.153460 -0.146559 -0.056318 -0.073524 -0.082962 -0.092972 -0.013904 0.089494 0.099137 0.071386 0.125085 0.185061 0.119780 0.160620 0.064862 0.082256 0.136922 0.100947 0.038793 -0.003750 -0.081403 -0.114729 -0.004868 -0.058588 -0.073936 -0.155466 -0.226854 -0.137712 -0.082789 -0.111112 -0.045712 -0.056648 -0.072983 -0.093397 -0.087441 0.085737 0.078725 0.166069 0.037299 0.004886 0.069589 0.074247 0.057048 0.075908 0.008785 0.021804 0.126760 0.077314 0.041040 -0.075372 -0.067032 -0.173919 -0.206762 -0.238042 -0.145135 -0.054886 -0.076514 0.065275 -0.061213 0.009685 -0.089481 0.037093 0.000236 -0.051733 0.140144 0.071368 0.095210 -0.031591 0.126966 0.056575 0.128213 -0.066355 0.002837 0.000358 0.099359 0.105747 0.060747 -0.078445 -0.104664 -0.063439 -0.122809 -0.088954 -0.128862 -0.102971 0.062019 -0.001030 -0.081170 -0.056580 0.079247 -0.074680 0.020585 -0.013494 0.014058 0.102731 -0.007252 0.067280 0.103579 0.102490 -0.002840 -0.028179 -0.058166 -0.075721 0.052676 -0.048229 -0.052876 -0.031611 0.123632 0.014982 -0.057643 -0.030064 -0.244323 -0.112245 -0.077876 -0.057372 -0.133848 -0.109990 0.027474 0.009800 -0.017454 0.066981 0.100704 0.121395 0.140608 0.139178 0.020580 0.009277 -0.036615 0.018280 -0.027185 0.107669 0.120147 0.112316 0.052365 0.123750 0.108424 0.088411 0.040607 -0.068329 -0.129676 -0.029265 0.018264 -0.089204 -0.081188 -0.016678 -0.068259 0.039990 -0.057968 0.003105 0.009237 -0.077741 0.044341 -0.031453 0.005450 -0.017526 0.038334 0.086346 -0.037720 -0.004505 -0.068933 -0.030472 -0.075191 -0.031327 0.067808 -0.042420 -0.012373 0.035140 -0.130532 0.060968 -0.029429 0.010405 -0.098562 -0.134780 0.027637 0.018105 -0.003921 -0.065379 0.091476 0.066942 -0.003726 -0.065979 -0.038256 -0.043025 0.047414 0.053202 0.085493 -0.061909 -0.013848 0.018383 -0.075537 -0.020664 0.058869 -0.060616 0.112481 -0.073611 -0.144985 -0.071424 0.012522 0.032251 0.040641 -0.097367 0.022363 -0.001062 0.081177 -0.045694 -0.027712 -0.031351 0.107743 -0.051132 0.050001 -0.052326 -0.044644 0.001178 0.068147 -0.085798 -0.029839 -0.070797 -0.062779 0.013772 0.005026 -0.036306 -0.061739 0.024406 -0.055348 -0.033868 -0.034063 -0.111461 0.004063 0.048012 -0.044669 0.013572 0.004772 0.023665 0.116376 0.094998 -0.072935 0.048470 -0.025612 -0.006997 -0.094249 -0.023352 0.054300 -0.021274 -0.063849 0.080257 -0.055178 0.089716 -0.002480 0.010939 0.035750 -0.027478 -0.087354 0.043840 -0.079055 0.010362 0.047604 0.084890 -0.037944 0.037463 0.031963 0.050785 0.100941 -0.080368 -0.045079 -0.156024 -0.117394 -0.152404 -0.092102 -0.082950 0.063397 0.099871 -0.031714 0.066943 -0.050372 0.093056 -0.074046 -0.037401 0.050857 0.137364 0.105941 -0.088832 -0.063746 -0.138394 0.057072 -0.002252 0.026072 0.028876 0.001384 -0.055369 -0.051656 -0.012319 -0.142089 -0.012186 -0.059934 -0.087020 -0.026083 0.028351 -0.019701 -0.008017 -0.044291 0.024178 -0.047840 0.005541 0.097522 0.066469 0.040301 -0.015611 0.055979 -0.046696 -0.144437 -0.083656 -0.009159 -0.067544 -0.037904 -0.037203 0.084471 0.066010 -0.098094 -0.041745 -0.055301 -0.167635 -0.114880 -0.169289 -0.040318 -0.034076 -0.066301 -0.086006 0.078534 -0.054782 -0.043682 0.028013 0.112553 0.023418 0.085745 0.038302 0.103023 -0.042777 -0.141562 0.051868 0.023954 0.034440 -0.044135 0.046103 0.059019 -0.067909 -0.043253 -0.080259 -0.157414 -0.100487 -0.090254 -0.182807 -0.202365 -0.170792 -0.145085 0.049320 0.030414 0.026320 -0.039572 -0.030956 0.118002 -0.052934 0.105786 -0.009327 0.096022 -0.085604 -0.001654 -0.097617 -0.084064 0.010249 0.070840 0.017151 -0.112785 0.047181 -0.031385 -0.032941 -0.037107 -0.199198 -0.107066 -0.105212 -0.134607 -0.015477 0.021611 -0.037219 -0.102021 0.054577 0.061640 -0.032044 -0.022328 0.091471 0.003281 0.071614 0.158064 -0.138019 0.033196 0.004484 0.010365 -0.067482 0.015173 -0.096300 0.016886 0.023586 -0.078659 -0.187501 -0.163269 -0.219035 -0.201153 -0.080446 -0.105895 -0.114522 0.018863 0.050446 -0.025840 -0.053013 -0.000799 0.031578 0.110274 -0.053222 0.103272 -0.007252 0.113696 0.015353 -0.061666 -0.098226 0.032031 -0.033546 0.050443 -0.080944 -0.089074 -0.104262 -0.066741 -0.159100 -0.122897 -0.167867 -0.077157 -0.161538 -0.136471 -0.006038 -0.123296 -0.056848 0.069382 -0.054959 0.117822 0.080525 -0.001726 0.016216 0.078906 0.128266 0.063932 0.013220 -0.011025 -0.046763 -0.014625 -0.034869 0.025565 0.041160 0.063693 -0.045818 -0.066182 -0.171494 -0.104729 -0.125144 -0.020831 -0.077063 -0.096867 -0.015311 -0.015510 0.078146 0.132377 -0.004203 0.090695 0.083332 0.137876 -0.031643 0.010875 0.150494 0.165562 -0.005608 -0.064821 -0.084151 -0.004063 -0.002761 0.018460 -0.018612 -0.051326 -0.035216 -0.067943 -0.134562 -0.180214 -0.040199 -0.049357 -0.095871 -0.038825 0.034557 -0.043475 0.007643 0.074294 0.036336 0.029892 0.140613 0.124809 0.086715 0.008387 0.041893 0.103918 -0.007022 0.014968 -0.046739 0.019479 0.017592 -0.002115 0.020037 -0.050377 -0.036538 0.051166 -0.108790 -0.080727 -0.201177 -0.110041 -0.158999 -0.008154 -0.006305 0.003019 0.058653 0.165132 0.076714 0.019332 0.067013 0.047410 -0.035313 0.111534 0.145133 -0.007630 0.039412 0.059254 -0.081440 -0.030066 -0.004894 -0.056091 0.126048 0.055750 0.075310 -0.054849 -0.100549 -0.107362 -0.146152 -0.142802 -0.038412 -0.003656 -0.069136 -0.019996 0.025157 0.010652 0.131734 0.043221 0.157793 0.123511 0.170687 0.019276 0.060600 -0.074051 -0.059298 0.014880 0.025023 0.069250 -0.045320 0.057852 -0.021868 0.009435 -0.033474 0.020764 -0.147521 -0.024452 -0.105746 0.050203 -0.054803 -0.083040 0.107895 0.143995 0.009407 0.068925 0.090102 0.121401 0.109368 0.031297 0.074447 0.018581 0.043527 0.111139 0.019500 -0.022966 0.000648 0.022584 0.044295 0.013405 -0.033307 0.062196 -0.024133 0.085012 0.056036 -0.105325 0.027537 -0.002782 -0.060556 -0.047374 -0.030883 0.150695 -0.004318 0.158880 0.140306 0.182535 0.046392 0.074388 0.017256 -0.037804 0.006922 -0.010495 0.043201 -0.027008 -0.037408 -0.004524 0.044466 -0.048580 0.095996 0.100599 -0.054695 -0.051989 0.002559 0.081699 0.046388 -0.069530 0.088686 -0.088898 0.085078 0.094750 0.131440 0.012065 0.076119 -0.033293 -0.004109 0.015899 0.086428 -0.085616 -0.085031 0.096758 0.023975 -0.030618 0.091971 0.102719 -0.035626 0.011095 -0.050173 -0.000840 -0.059289 0.020118 -0.061354 0.001123 0.099237 0.148933 0.012546 0.024509 0.081450 -0.010618 0.013719 -0.027839 0.016112 0.006921 0.047241 -0.079197 -0.091708 -0.063943 -0.047488 -0.051652 0.017631 0.126793 -0.015971 -0.059736 0.047700 -0.040779 -0.053603 0.004661 -0.109474 -0.075708 -0.005298 0.093816 0.037858 0.012015 0.056568 -0.019966 -0.059736 0.045177 0.059684 0.006314 0.044185 0.009445 0.057095 -0.106567 -0.116743 -0.072680 0.082577 -0.025509 0.026636 0.038088 0.068383 0.074625 -0.084618 -0.056738 0.067514 0.022718 -0.137354 -0.149472 0.000691 -0.034235 0.135838 0.029968 0.161996 -0.006338 -0.056000 -0.068593 0.025574 -0.032148 0.003654 0.005534 -0.070010 -0.007548 -0.093859 -0.071752 0.066201 0.010510 -0.024182 0.055301 0.013088 0.129784 0.027067 0.072121 -0.032282 -0.123083 0.021091 0.015852 -0.087452 0.051178 0.076246 0.015696 0.128159 0.100298 0.050809 0.083144 -0.066104 -0.066588 -0.009645 0.088716 0.022597 -0.038723 0.014813 0.102028 -0.008443 -0.060118 -0.008952 0.039674 0.051710 0.099780 0.111696 -0.047543 -0.125327 0.020436 0.017212 -0.018208 -0.009663 0.050996 0.096754 0.080059 0.065129 0.019568 0.166357 0.022333 -0.076905 0.042769 0.065285 0.023493 0.079584 0.043775 -0.022595 -0.046563 -0.069886 0.042016 
-0.009294 0.105794 0.000189 -0.052104 -0.009237 -0.005652 0.090611 0.018519 0.013545 0.023657 0.050349 0.058313 -0.074122 -0.037501 0.054289 0.078621 0.024470 0.054197 -0.041031 0.076637 0.020464 -0.038188 -0.099995 -0.051884 0.085139 0.087827 0.022744 -0.017183 -0.020625 0.035331 0.103305 -0.005348 0.089696 -0.033117 -0.074727 -0.022522 0.024944 0.068800 -0.060850 -0.016309 -0.095970 -0.016088 -0.014840 -0.045752 -0.051229 0.069489 -0.049872 -0.079001 0.052133 -0.001625 0.055999 0.044977 0.019690 0.053950 -0.060582 -0.001236 0.091596 0.116704 0.006107 0.099791 0.009872 -0.067756 0.063317 0.065195 -0.054197 0.011381 0.063204 0.066075 0.032401 -0.070456 0.007182 0.072765 -0.019098 -0.043728 0.060780 0.037839 -0.009938 0.053189 -0.034459 0.039007 -0.075980 -0.027002 0.039518 0.068829 0.046180 0.005650 0.105394 -0.046571 0.010906 -0.002047 0.049026 0.032832 0.078630 -0.083739 0.073690 -0.003704 0.057735 -0.018261 0.003560 -0.038214 0.041940 -0.003822 -0.046026 0.015606 -0.010800 0.010081 0.067699 -0.050533 -0.084461 0.080929 0.064668 0.004036 0.078716 0.062736 0.123250 0.119638 -0.055544 -0.058899 -0.068591 0.035813 -0.023098 0.072047 -0.051452 -0.006425 -0.038487 -0.058055 0.070502 -0.053794 0.069245 -0.026935 0.034344 -0.064470 -0.069514 0.066955 -0.087195 0.035967 0.047992 0.014387 0.063696 0.099544 -0.008638 0.046947 -0.047717 0.038056 0.000221 -0.065595 0.078053 -0.050332 -0.019594 -0.075088 -0.058953 -0.068821 -0.043473 -0.046710 0.059820 -0.006274 0.069659 -0.067363 0.105698 -0.065506 0.056963 0.052770 0.080551 0.007440 0.026044 -0.014100 0.043348 0.056912 0.029720 -0.028560 -0.023964 0.101203 -0.059535 0.091249 0.010846 0.104310 0.086794 -0.066841 0.085563 -0.070334 0.099705 -0.068728 0.028274 -0.065145 -0.046981 0.026582 -0.065341 -0.044364 0.098502 -0.023946 -0.044982 -0.053851 -0.032997 0.035213 0.068962 0.001960 -0.046711 -0.030608 -0.028301 0.001668 0.030105 0.015899 0.057102 -0.014339 0.049661 0.044470 0.081615 -0.066611 0.095865 -0.018989 -0.042938 -0.048144 0.092391 0.071712 0.027737 -0.042072 0.093156 -0.039436 0.045626 0.015843 0.058498 -0.030908 -0.043074 0.100306 -0.027736 0.009496 0.049577 0.100098 0.101449 0.003995 0.064157 0.009328 -0.042508 0.030174 0.102426 0.099210 0.059838 -0.004646 0.043118 -0.052163 0.063270 0.050852 -0.001152 -0.027865 -0.005050 0.081630 -0.009804 -0.053311 0.080852 -0.063989 0.057607 -0.057591 0.079754 0.128398 0.069896 0.000395 0.063932 -0.041583 -0.033192 0.011986 -0.064824 -0.039662 -0.039374 0.104166 -0.077824 0.099956 0.028645 0.069815 -0.031174 0.072655 -0.064187 -0.046302 0.010723 0.009678 0.086331 -0.044477 -0.021893 0.032897 0.094849 0.037088 0.090937 0.012913 0.084386 -0.070044 -0.009371 -0.081820 -0.046923 -0.044373 0.060702 -0.085537 0.003663 0.039860 0.024572 -0.007541 0.008172 0.042713 -0.045139 0.019114 -0.039683 0.096761 -0.004190 0.007987 -0.043602 0.061916 0.053290 -0.036925 0.018572 0.011088 0.012849 0.072911 0.050935 0.076031 -0.044918 -0.026343 -0.026266 0.077395 0.060570 0.090185 -0.009198 -0.026936 -0.031185 0.017060 -0.010248 0.104235 0.045793 -0.005564 0.019478 0.077773 -0.055882 0.080367 -0.045993 -0.066628 0.079615 -0.065771 0.089623 -0.020493 -0.046959 0.039992 0.079924 -0.083646 0.023150 0.074920 -0.029632 -0.019381 -0.038054 0.054418 0.019204 0.089913 0.042879 0.014141 -0.042174 0.017812 0.063152 -0.024354 0.001819 0.033869 0.004182 -0.008000 -0.049909 -0.013208 0.013714 -0.073700 -0.039632 0.043926 0.100650 0.060703 -0.077547 -0.075824 -0.000855 -0.010551 0.076270 0.022527 -0.057135 -0.034020 0.045324 -0.064654 0.062276 0.081093 0.014181 -0.051128 0.025246 -0.069134 -0.057731 0.006129 0.084400 -0.047245 0.054744 0.063156 -0.077272 -0.072588 -0.004623 0.095938 -0.074478 -0.074803 0.073887 0.035334 0.079064 0.019904 0.049547 0.056403 0.033522 0.050203 0.073461 -0.049640 0.057641 -0.095668 0.015351 -0.016307 -0.035061 0.006493 0.010123 0.082864 0.028725 -0.090654 -0.084938 -0.017662 -0.049274 0.005531 -0.000616 -0.047400 0.023940 0.010543 0.111290 -0.067142 -0.028225 0.089471 -0.069805 -0.016277 -0.010123 0.037243 -0.076605 0.087900 -0.047139 0.038774 0.080744 0.075652 0.013255 -0.076904 -0.030541 0.088338 -0.047765 0.055268 0.093984 0.018952 0.042708 0.049535 0.033910 -0.008453 0.025059 -0.040193 -0.001263 0.053270 0.077789 -0.088184 0.062559 -0.043216 0.081909 -0.075274 0.069813 -0.024134 -0.086572 0.093803 -0.037863 -0.011760 -0.030425 -0.052961 -0.016832 -0.043709 0.033287 0.083010 0.094887 0.016391 -0.001477 0.013933 0.031577 0.003660 -0.013126 -0.012494 0.044046 -0.033739 0.005827 0.085067 -0.058582 0.078676 0.076830 0.007806 0.025523 -0.072726 -0.023589 0.096497 -0.014561 -0.071572 -0.025640 0.103395 0.074793 0.093602 0.025269 0.079084 0.067809 -0.035727 -0.027711 -0.038441 0.089695 0.064609 0.009404 -0.080473 -0.068088 0.045332 -0.040265 0.042243 0.042372 0.029117 -0.057545 -0.064413 -0.010191 0.061432 -0.023024 0.005861 0.040287 -0.038437 0.000401 0.071463 0.068408 -0.038055 -0.041049 -0.026901 0.028342 0.072636 -0.089476 0.069301 -0.024673 -0.058459 -0.072282 -0.002125 0.018591 0.119720 0.097682 0.006383 -0.075421 -0.023786 -0.100492 -0.094738 0.068486 -0.022418 0.003972 -0.037819 -0.033101 0.039702 0.026677 -0.067665 -0.048527 0.020828 0.089612 0.017711 -0.088429 0.066152 -0.055337 0.051717 -0.048291 -0.097591 -0.006739 -0.071710 0.059178 -0.069365 0.028125 0.033884 -0.052393 0.070063 -0.100745 -0.093788 -0.090225 -0.039608 -0.091365 0.011264 0.063202 0.057579 0.062007 0.031071 0.088601 0.025487 0.079950 -0.070427 0.092810 0.067015 -0.078045 -0.025082 0.019363 -0.011027 0.061296 -0.005639 -0.001946 -0.040196 -0.071489 -0.036269 -0.032610 0.091542 -0.001860 -0.062417 0.056419 -0.011698 0.042419 -0.091738 -0.086074 -0.020999 0.050447 0.014856 0.072755 -0.048774 -0.088456 0.018084 0.074596 0.083420 0.085470 0.089151 -0.061175 0.023513 -0.021247 0.064377 -0.027562 0.020995 0.104192 -0.028580 -0.044317 0.074113 0.093217 0.000615 0.013174 -0.091143 0.077897 0.071008 -0.027520 0.031358 -0.051520 -0.024365 0.076183 0.092734 0.072022 0.041534 0.016113 0.090299 0.053023 -0.012565 0.071847 -0.087006 0.030574 0.072260 0.020030 0.059252 -0.067045 -0.024015 -0.000762 -0.072810 -0.051003 -0.079804 -0.039024 -0.062831 -0.067434 0.101396 0.030145 0.019518 0.077415 0.026688 0.110332 0.115265 -0.059753 -0.061457 -0.029157 -0.082605 -0.056707 -0.058158 0.033255 0.035663 0.052244 0.060599 -0.050949 -0.081245 -0.045456 -0.004410 0.029737 -0.010898 0.042482 0.041543 0.086402 -0.007594 -0.044124 0.019051 0.121762 -0.051421 -0.017240 0.026637 0.075269 -0.036907 0.072156 0.070906 -0.011429 -0.053732 0.009917 -0.006217 -0.038962 0.049858 -0.020896 -0.009239 0.052069 -0.070968 -0.077362 0.089303 -0.018144 0.094465 0.023211 -0.062958 0.015283 0.042068 0.106533 0.097005 0.129373 0.023110 0.139988 0.063452 0.064999 -0.044165 0.100394 -0.024322 -0.002913 -0.001790 -0.036694 -0.081927 0.063683 -0.076188 -0.029492 -0.047779 0.008032 -0.016214 0.033432 0.024057 0.012558 0.063942 0.005143 0.089190 -0.055486 -0.035807 0.111271 -0.036938 0.103334 -0.015365 0.002631 0.021107 -0.027404 0.068891 -0.028961 -0.036809 -0.075003 0.018760 -0.066561 -0.072041 0.029857 -0.018383 -0.012461 0.021732 0.067858 0.090123 0.064473 -0.031700 -0.088529 0.082465 0.065771 0.096850 0.030461 0.098296 0.056487 0.076303 0.090791 -0.040063 0.054400 0.034575 -0.035328 0.071941 0.012770 -0.095181 0.084112 -0.044001 0.055677 -0.087013 -0.018496 0.053920 0.062418 
0.076498 -0.154396 -0.028024 -0.010828 0.009882 -0.007818 -0.153548 -0.021330 -0.104132 -0.067527 0.011166 -0.005958 0.003783 0.045065 0.102302 0.089135 0.060130 0.042128 -0.004217 0.014351 -0.005504 0.045085 0.024350 0.119051 -0.014340 -0.007768 -0.061396 -0.076639 -0.083047 -0.062134 -0.175589 -0.006906 0.006720 -0.007627 -0.045774 -0.079705 0.051711 -0.061763 -0.013768 -0.031665 0.136772 0.032966 -0.007614 0.029646 0.063012 0.173755 0.120403 0.099945 0.209071 0.029232 0.108433 -0.055986 0.040635 -0.091014 0.004734 -0.133339 -0.147562 -0.183108 -0.121940 -0.015130 0.024376 -0.098162 -0.154860 -0.141733 -0.003455 0.004956 0.040096 0.096835 0.091711 0.018261 0.073151 0.058296 0.098810 0.061212 0.022858 0.117890 0.182439 0.052477 0.124725 0.041000 0.030995 -0.046061 -0.091032 -0.062087 -0.095251 -0.180727 -0.064337 -0.046935 -0.113770 -0.038558 -0.024069 -0.025229 0.065974 0.052941 0.029765 0.071121 0.082634 0.058214 0.039708 0.057140 0.078880 0.074300 0.002848 0.059281 -0.000840 0.045025 0.073964 -0.002257 -0.049721 -0.054125 -0.064611 -0.117909 -0.184877 -0.132961 -0.143338 0.041236 -0.094889 -0.026205 -0.024221 0.016992 0.071199 -0.055198 0.033051 0.038128 0.069865 0.013318 0.104051 0.080691 0.049773 0.037524 0.154320 0.013741 -0.061033 0.009403 0.062220 0.069702 0.113830 0.037455 0.082457 -0.052185 -0.013612 -0.023077 -0.120553 -0.018420 -0.000136 0.028831 -0.069365 0.042606 0.051646 0.060447 -0.011213 0.047012 -0.027405 -0.064223 0.048506 -0.038346 0.081249 -0.040343 0.016692 0.124780 0.031373 -0.025232 0.020101 -0.089107 0.003812 0.077938 0.028653 0.012802 -0.159743 -0.115711 -0.082772 0.052280 -0.023156 -0.110019 -0.082700 0.008907 -0.008886 -0.055341 0.046085 0.078169 0.099264 -0.028730 0.028905 0.104304 0.100516 -0.035949 0.096374 0.053749 0.045240 0.024730 -0.023396 0.086810 -0.084686 -0.047133 0.080204 0.060217 -0.073810 -0.065651 -0.020938 0.075019 0.046323 -0.016419 -0.040243 -0.077747 0.018287 0.023050 0.068545 0.042646 0.077094 0.115592 -0.012169 0.026450 0.100479 0.061009 0.044698 -0.003245 0.056005 -0.076459 0.001607 0.054031 -0.024615 -0.110966 -0.073901 0.050387 -0.071493 -0.116113 -0.023778 0.011342 -0.059161 -0.127248 0.009573 0.034842 0.078187 -0.024518 -0.019807 0.087965 0.017785 -0.048439 0.064208 0.057550 0.018863 -0.006087 0.018843 0.024078 -0.034790 -0.002192 0.005214 0.032133 0.036567 0.064287 -0.077389 0.009458 -0.131656 -0.062647 -0.077652 -0.049049 0.006970 -0.107667 0.035296 0.056147 0.051115 0.109205 0.024446 0.073802 0.046019 0.009722 0.017169 -0.083724 0.105148 -0.037816 -0.019274 0.070694 -0.040406 0.088899 0.001758 -0.008336 0.013105 -0.017928 -0.041436 -0.084318 -0.002391 -0.057131 -0.126477 -0.100601 -0.026887 -0.070989 -0.023527 0.122802 -0.000303 -0.038730 0.088950 0.059574 -0.035687 0.098430 -0.030565 0.099489 -0.011426 -0.002958 0.005890 0.046549 0.011082 0.009948 -0.011364 0.057109 -0.046450 0.093215 -0.033731 0.075519 -0.098136 -0.088486 0.015655 -0.160488 -0.164206 0.042241 0.022800 -0.062716 0.060390 -0.025531 -0.045366 -0.083955 0.093094 0.026437 -0.058564 0.022942 0.082139 -0.065586 -0.037853 0.089335 -0.067974 -0.032552 0.029900 -0.027334 0.088021 0.039269 -0.019569 -0.023085 0.070539 -0.190706 -0.110599 -0.052666 -0.002077 0.014796 -0.086033 0.029646 0.017859 0.032587 -0.020449 0.093190 0.017047 -0.050613 -0.067156 0.073419 0.035877 -0.076909 0.007274 -0.043104 0.082502 -0.027672 -0.038475 -0.010986 -0.063255 0.045662 0.081441 0.086997 0.100723 -0.208577 -0.136456 -0.176529 -0.074482 0.042104 -0.057261 -0.016744 0.034382 -0.005836 -0.068830 0.037391 0.052346 -0.106975 -0.143981 -0.052672 0.032419 -0.130576 -0.006034 0.002679 -0.042286 0.024589 -0.009946 -0.018767 -0.082786 0.006819 0.052070 0.068665 0.072204 -0.097050 -0.212872 -0.024835 -0.081263 -0.048261 -0.105459 0.100507 0.015193 0.050221 -0.001585 -0.077047 -0.063234 -0.026066 0.011376 -0.045920 -0.146199 0.034745 0.071357 -0.025171 0.023623 0.044847 0.106503 0.075547 -0.064730 0.102159 0.088240 -0.018603 -0.000853 -0.260812 -0.124032 0.014076 -0.073541 0.006845 -0.011143 -0.073795 0.104166 0.018072 -0.115155 0.071760 -0.018823 -0.039125 -0.028373 -0.012108 0.081343 -0.073762 0.063148 -0.026282 0.066472 0.036037 0.123395 0.050427 0.078242 0.091746 0.129174 -0.025824 0.029344 -0.237957 -0.193664 -0.040859 0.061363 -0.068983 -0.054074 -0.052906 0.031216 0.006749 -0.055837 0.092515 0.012951 0.043240 0.003790 -0.078302 0.030750 0.015299 0.084557 0.043551 -0.009276 0.093081 0.081456 -0.043031 -0.031240 0.095168 0.073764 0.085971 0.130983 -0.158339 -0.061228 -0.079712 0.043556 0.007432 -0.002706 -0.008246 0.079571 0.080881 0.003002 -0.028933 0.013682 0.006360 -0.066126 -0.086136 -0.027379 0.106224 0.016631 0.138922 0.028214 0.012115 -0.029665 0.003816 0.051864 0.030748 0.149879 0.089222 0.168886 -0.096581 -0.103359 -0.005693 -0.031324 -0.100840 0.044514 -0.017318 0.017217 0.006347 0.011462 0.051962 -0.148556 -0.051475 0.019489 -0.112156 0.025709 0.024052 -0.060270 0.025033 -0.005563 0.085295 0.132913 0.054054 0.163135 0.112013 0.129453 0.146315 0.144442 -0.057549 -0.071381 -0.075598 0.033465 -0.082463 -0.046053 0.020060 0.015068 0.005278 0.044722 -0.022842 -0.013184 0.004164 -0.087072 0.018043 0.008131 0.016359 -0.068749 -0.051471 0.031867 -0.015186 0.062348 0.138931 0.004521 0.059344 0.196148 0.168474 0.178420 -0.018553 -0.057037 -0.033601 -0.131618 -0.011350 -0.037479 0.064853 -0.039551 0.015405 -0.027408 0.053945 -0.026019 -0.134823 -0.045351 -0.137368 -0.123619 -0.147466 -0.031656 -0.000148 0.073947 -0.068643 0.055821 -0.032608 0.125736 0.176863 0.137820 0.139422 0.304026 -0.095431 0.022454 0.020317 -0.061968 -0.104104 -0.063146 0.049392 0.076287 -0.081043 0.078459 -0.032567 -0.047815 0.054512 0.041680 -0.017191 -0.035894 -0.130797 0.044125 -0.027812 -0.092845 -0.043309 0.124116 0.086271 0.122545 0.158987 0.077752 0.312783 0.265998 0.105284 -0.054555 -0.003218 0.067110 -0.083008 0.029251 -0.109697 -0.011026 -0.022586 -0.015226 0.071242 0.026604 -0.033849 -0.086466 -0.103982 -0.056209 -0.103492 -0.053617 0.031539 -0.050098 -0.028059 0.006362 0.108580 0.044790 0.174137 0.143064 0.138569 0.357563 0.135436 0.104892 -0.039454 -0.046760 -0.030440 -0.020455 -0.056228 -0.039250 0.061614 0.030494 -0.090436 -0.103528 0.059906 -0.031463 -0.080349 -0.072313 -0.107092 0.002060 -0.006076 -0.025018 0.060707 0.014507 0.088633 0.050341 0.046069 0.168387 0.234208 0.273148 0.189083 0.129915 -0.021632 -0.009880 0.086542 -0.078048 0.037067 -0.078251 0.021264 -0.144636 -0.004985 0.069443 0.077804 -0.082606 -0.038955 -0.162615 -0.135842 -0.177645 -0.085883 -0.102001 0.058487 0.093194 -0.036321 0.116440 0.181562 0.153173 0.373155 0.424655 0.184800 0.123341 0.012176 -0.022566 -0.036270 0.074927 -0.045339 0.029599 -0.021716 -0.054936 -0.057332 0.016746 -0.083001 -0.026321 0.048133 -0.153556 -0.209193 -0.068624 -0.170456 -0.024916 -0.048193 0.007843 0.057790 0.086111 0.200275 0.257180 0.362718 0.397960 0.232045 0.103748 -0.052207 0.070356 0.004857 -0.052958 0.012995 -0.059724 -0.137371 -0.107979 -0.004514 0.001053 -0.047237 -0.063439 0.006982 -0.146380 -0.131338 -0.090879 -0.143334 0.040017 -0.029085 0.124990 0.109096 0.053004 0.233146 0.200878 0.337669 0.266521 0.217022 0.142905 0.172511 0.091181 0.039842 -0.004958 -0.077351 -0.007148 0.012181 0.097550 -0.033540 0.024277 -0.046854 -0.044941 -0.045415 0.007522 -0.063825 -0.126039 -0.128367 0.030385 0.092079 0.138148 0.010574 0.134468 0.266258 0.252305 0.199662 0.285063 
