-0.14422178581724182 -0.41784709787012775 -0.3779671199765968 -0.4033693069412666 0.07619629943188222 0.17548022393202345 -0.36297051621188914 0.14775107522982744 
54.430531099081655 150.79814752146765 -213.7513358700602 -164.88143219752644 65.62336593348714 39.51853580284915 -163.78693213817337 54.21726589379872 
-63.770318372164716 -3.6722546738791966 -61.74237075661904 -0.6362072187748997 -64.56105076700611 -59.0509479678107 -4.118063514942455 -67.51786137377556 
47.65678244188793 4.495041627345249 48.400497045123444 42.398827750035004 54.22892995231132 45.045933549991155 45.85858946644628 53.24110358152505 
-6.509475500689523 -0.08955925090322399 3.0364052081235364 -13.087512769633504 -6.682357843231393 -4.202624871829861 -52.69009276799262 -55.57033433955663 
3.3489039177702864 6.9263578205708765 -2.691126618815047 4.923481912065705 -0.5589693487744739 -0.7097557848204654 4.076220611253631 2.0958679343640148 
10.42298653020777 6.89976336306012 2.5282740843712084 0.529665088364937 13.026081734812628 10.225919199039733 4.630033408356946 2.5988312291972453 
0.08044035546189232 -2.4721249269440886 0.027690992835459873 -2.569822740039409 2.140958354636923 0.70439859930266 -1.0932539157257486 3.027466763102512 
120.0762752927934 34.83962015755956 6.7608592548644815 115.98650039527084 77.4429423537995 105.79073044451138 -5.325417739330538 -7.463996808123472 
2.717106844236679 -0.12717258795179692 -5.774498576616817 2.239015088084522 4.38895145142337 1.0295371325353007 -1.0608517018781167 -1.8226876074599296 
-104.96574073516778 -65.89381331073537 -110.88680157610337 -71.7059087553826 -118.090237031036 -106.80175627969506 -71.44144652665089 -94.13168361148185 
0.5846033083356075 -2.868493576058053 2.3070300107368733 0.6072381135878975 -1.4697184687606295 1.2114121974574896 0.3145729912143797 1.1345705764993366 
161.42937508983056 39.77313933887396 19.939793367046335 121.29439360618004 155.6296731031568 152.21701853506323 3.3800057540448103 -11.60398340032094 
-0.6957839098879537 0.9622924107698393 -0.39007677196577534 -1.187751441569454 -0.4553536895936683 -1.153015565819808 -0.35620371029730646 -0.7471551258284017 
29.062638991773404 9.78037442753811 7.3730839556590055 17.95263738982937 26.664551934516464 31.03842068744625 -2.1473005614973135 -3.493708696294102 
1.1249255630549684 2.366377764672601 0.5989471477508821 3.3787831632927956 -1.883556944064513 1.0596916046284892 3.0607194202511203 1.4679542249381596 
-36.29075679875585 -1.5172395687226314 7.258888099714413 -14.953564498458205 -37.65275130756006 -35.66479416803957 0.2852658392873889 7.502741802111712 
6.864505653227701 -8.557831912614594 -4.957376265119431 5.189451751578405 0.8694323318567109 3.35929044912233 -4.848767532499694 -5.821916087632937 
-1.0689026919591835 2.051883644267202 10.31967597041764 1.421644463869579 -2.3858888984882154 0.17655175514527804 -0.9212517903468513 -1.5686526233031393 1.4097002591667716 -1.1144867466600654 5.466134636849604 -1.106246982495638 -6.008195303641513 -1.935877304788115 1.049375207535792 0.4248451214900271 -9.082407554280872 -1.1133602088499857 6.174416970070516 
-0.2988460982917448 -0.2701279838226596 -2.4228091223625396 -3.3614938771216925 1.2947994758125678 -2.296061609847895 3.5294351013697507 0.7741408084467585 4.163927094305543 -1.4404801334168125 3.356665340525198 2.0476190059766064 -21.142730703633738 0.4800560114197412 2.713331104424801 -0.26223912776731306 0.7653364497896539 -5.063026102634518 -5.769927985784672 
-9.803874142858872 1.2148406941834498 -10.804443310584734 -4.565889749694477 -5.590075965087719 -4.091820380678874 -7.776963979127616 -8.128332863389764 21.985946154339015 -9.415797613302209 13.640852092086773 3.732810658644273 10.781561334296025 -9.483332795655883 -3.502764697372286 -9.515661640687783 -2.7408609702829665 0.5731930668447108 22.815260630777747 
-4.246181951973932 4.47788331384049 11.77845131148066 -7.107094889027336 3.150343138098103 -3.632549389069 -13.578992043325519 -3.492047580089641 14.913688988331538 -3.180205449763126 -5.1146912700750615 -1.5616486546451434 14.465826130593651 -5.7285153141612115 -2.3349681944886664 -3.185143817997205 6.199880302637368 3.4023228665370655 -11.836985483072327 
-1.3978346290180315 0.2839442221763804 -10.313643315783239 1.884138698566926 -0.1259461709501207 -0.6364681170677332 -0.31416184735852587 -1.949444004257692 15.066475621639245 -0.5503307943736686 -25.437335469110334 2.0010917476064196 4.3945825623554935 -1.333812003704221 -1.5952683523861884 -4.814861513448938 0.6264913885574446 5.253251143397071 9.04748673809697 
-0.6202309728028134 -3.6009215788625335 -1.9741130891444685 0.2896359063198281 1.6274705766925264 -0.33332502611757253 2.4087904926073156 0.6248447485784332 -17.80884067717929 1.2194713831723558 -13.509594702164952 -0.7669502080222563 3.367813466794493 0.6947053379954906 0.5923068293223496 -1.1816655782284609 1.1482111868054639 0.900496858582277 -9.301741321562547 
0.7132724362088105 10.077683009393718 -7.642976194826313 5.534008809286512 -10.540694897180336 1.7465322461093598 1.9055855136958169 -1.4907446884896067 -20.037398457351113 0.21761035489075817 4.397951044615956 -0.39147473091854834 -13.354576399436796 0.5603337613564527 0.5103241187627406 1.4832759441511802 1.2182078606929125 -3.8574052177905944 23.323092436489375 
-4.3259909628681426 -10.293452839509332 -5.131712949640165 -2.6311482247342983 2.165514353440359 0.056138001308351844 -3.5022448248633125 -2.666199354574521 14.741554121028912 -3.6959684860224535 9.396485599064194 -1.8358919506978992 13.747895554635331 -3.0048842090018577 -2.7197454067077866 -1.6629378073673533 -2.7164035218649145 -2.37617932295369 -28.456833138801997 
-7.313093755690287 -15.002086046849657 -21.22862124432369 -3.571116195971671 1.210176382145129 -0.403148493612886 -3.516229936414666 -5.8537754943001 34.60061051151322 -6.133493176327122 0.07794798045979051 0.3753597866722553 22.368335907255908 -6.417545002363917 -3.6606706077053834 -5.730894868842143 -3.3229143585170733 3.9825673731571243 -13.33532974767203 
-2.4870461410847136 -6.113100586084973 -0.4896229584366377 2.5096768003893524 -0.6267843626297934 2.292610455648908 -3.355182353629336 -1.0895583989761628 -26.30239023998538 -2.3053518852701904 14.489776684778592 -2.9392842770458416 8.667295574224944 -1.1370866521396086 -1.0272095207024403 -0.5368551178026466 -0.9835879365009269 -4.285359032266576 2.0389544805582545 
