0.193027 0.05371089786097481 -2.3058485057659486E-5 0.05279528385014362 0.005698328119874098 -0.03526314904463649 0.04727565898946637 -0.03765258455873645 -0.03061686430551812 0.01343541062692959 -0.05325741432150754 -0.03832031985519784 0.06536023666614656 -0.06767761441444131 0.03901879979840278 -0.0064265919396118455 -0.004506012288350957 0.08525394464964227 -0.009719151451803472 0.003753729213344816 0.056164704979194104 0.06054389559972791 0.06748546037229416 0.026882350496388003 -0.051594321086723786 0.010249496608129642 0.06256439535290534 0.10030825308166168 0.07920589617306036 -0.005045004376573745 0.04975828921400771 -0.0455328218271916 0.03987292451574691 -0.06469826599094955 -0.0738668961120014 -0.04860824727175694 -0.05149055790396438 -0.026185792093604554 -0.012936770887557708 0.016447425237586362 0.026945761330296573 0.0845919739744453 -0.031005976240866123 -0.058731882982280194 0.060688011131338274 0.06194373779677 0.04248910179958056 0.002683431198585123 -0.015146542372250068 0.00113563038908973 -0.053218983513078084 0.010064067957457632 -0.0140608720341186 0.054873429815965144 0.036566914220605 -0.0396625158395958 0.04756485082289787 0.08501086978632609 0.07373430982291988 0.02217649800420401 -0.07010836304760294 0.07732855118128251 0.011030602789457857 0.01332396128248424 0.026088754302320234 0.03039492638683813 0.045751877435239355 -0.03905819137704296 -0.017691622660489237 0.008138684455143064 0.09910536877782045 0.0409403402198744 0.00442722913107062 0.023796356579504588 0.05006669645165389 0.057365667742613834 0.028498365990845653 0.047088308798372856 -0.025308608891202757 0.07177626013344031 -0.022861527164458648 0.07600364906067787 0.06138168722348958 0.04270143201615315 -0.03987100297532545 -0.04352000823570007 0.02220147802968314 -0.02177777836674864 -0.02119939469988569 0.007447890673624012 0.06889106719060065 -0.03559461476734035 0.07456537605520634 0.06937433460660075 -0.026180988242550864 -0.0038882370428478326 0.08379933855058827 -0.046726098428925465 -0.01989947260476013 0.052713618382231035 -0.0016064077923502774 -0.03933873627857783 0.07491990026296787 -0.04377365157133431 0.05913540647078922 0.09923026890521608 0.024073058400196506 5.45717479697941E-4 0.03731535421476818 0.055670869090875874 0.1109238031400817 0.09358958699798618 -0.001989755106433866 0.030324790161454427 0.035697417179889106 0.03803401033239857 0.08955146980226353 0.02922470827016192 -0.04987262086908524 0.07071172673994501 0.06588962105226202 0.012492895050197756 0.018755195283773774 0.09286804856972358 0.09626821434551756 0.016811557147455223 -0.019394107473913104 0.05778168124386247 -0.04166572172897994 0.008633481113672003 2.6805488879529153E-4 0.02332750071666551 -0.009708582979485379 -0.03984698372005705 0.06105214304120719 1.863894208827475E-4 0.04564523194184769 0.05176533818423479 -0.011287128435724318 0.04217877302151287 0.0028707813896786056 -0.06433509485129146 0.041993344370840846 -0.03454257138658464 -0.0012297858697418397 -0.01173388658371647 -0.009256060210228808 0.001735151000588877 0.010819233343095976 0.03306971065352664 -0.041064279577059326 -0.04748510689540676 0.06172179987808999 -0.021547193516172063 0.053714740941817773 0.02561893766927042 -0.03426202648504978 0.0977900743593231 -0.029151689734145992 -0.03176978855840108 0.04978903386075124 0.02735024558901636 0.07610356916259436 0.05115428833020682 0.061217395517453706 0.10752171582386619 -0.008889045989727727 0.03704826009618362 -0.010116910319048098 0.05031265362560224 -0.0679101208054394 -0.06018552831112347 -0.04469118712258701 0.0013325882822905718 -0.050615296241984034 0.07358827275088804 0.0638537489757128 0.10164852752563813 0.08165009558917222 0.039381010167850186 0.08820735227744418 0.09038157526433932 0.07599308058835978 0.09625860664341024 -0.012049979983048546 -0.011480243248082217 0.06254806225932281 0.10545221678994125 0.09034218368569913 0.04338453963598631 -0.025066494798097336 0.06442540725110062 -0.031916786400643694 -0.042457396382626286 0.05581402385227551 -0.06107616229647556 0.09422273456686103 0.019558399179948924 -0.03694641845384565 0.07781470090791485 0.001529546175491412 0.09199662998858614 -0.04696148713055573 -0.05607631411980638 -0.01897232935140009 0.04375635770754108 0.010076557970197195 -0.056954458092418905 -0.04834019238296164 -0.03685034143277208 0.027199404665930835 0.05579480844806079 0.01179921895804651 0.04294450687946931 0.09640176140480987 -0.03405161780889865 0.07848724005542994 -0.03584057194128871 -0.04200006976231601 0.07275816728881233 0.06371347652494537 -0.021842149970867947 0.044784381833028394 0.03905338752598927 0.07750917598090089 0.011952942191764241 0.03651599339943596 -0.02892975181546602 -0.043687182252368076 0.08786147500157927 -0.05275973535234637 0.08190758200564939 -0.06533045278961373 0.019846630243169662 0.014583531028758888 0.08960719447448626 -0.06257208151459126 0.10087030365494218 0.04476228411818147 0.08803345286930095 0.057472313236005525 0.012715793739088472 0.006814743104749114 0.07738907970455892 0.040585816012112905 0.05446318093598095 0.05313731804516557 -0.038244419008549704 0.034082362455642175 0.038872762726370934 0.062309791247060264 -0.05158951723567015 0.08761647859784163 0.05996743347328644 0.05487535135638661 -0.028544482960960973 0.022335985859186166 0.010520433807557138 0.047080622636687 0.023453361614271896 0.045375255512630934 0.006049009246792671 0.001640034749726031 0.06717705313464793 0.0058808744599139024 0.07445969133202544 0.06543998059363769 -0.004675107845440459 -0.018730215258294637 0.056642207773929795 0.02034334844212007 0.04947774431247284 0.06187744465222922 -0.04383610163503217 -0.010538688441561122 0.05578039689489975 -0.03469341230967019 0.07881678423771231 0.07752454830427268 -0.024897399241007832 0.04118629739382279 -0.07446065210223617 -0.06866048234002405 0.047724338677879966 0.05547102888704283 -0.04287148834345339 -0.04078853852657817 -0.010010264825656423 0.03894193818154393 0.03355682115036969 0.029441842337788217 -0.0385067092760806 0.04325003180648332 -0.018551511999097787 0.05862331594846705 0.031073230155617644 0.0970224189609452 -0.024815733773095292 0.04522633612996686 0.006628353683866366 0.08492536123757062 0.02125415860189764 0.07859772862966459 0.05581402385227551 0.0075237915202721415 0.07960653735093715 0.061718917567457864 0.008600814926506991 0.0700266975796904 0.08808245215004852 -0.020102195119225393 -0.010863428772789828 0.09060063087238703 0.041849228839230514 0.08411254963928814 0.08947749049603693 -0.05453812101241835 0.08596107152474379 -0.046735706131032825 0.09122897459020826 0.008753577390013983 0.08042319203006257 -0.041462999214514705 -0.008713225041163078 0.0857717997932289 -0.015582732047924137 0.050010971779431215 -0.03173039697976093 -0.06574742706107309 -0.0685999538167477 -0.06079273508430851 -0.04292817378588681 -0.0043753475396908865 0.018057676110779575 0.03969614279697154 -0.08008211860525138 0.06399306065626945 0.058904821620212634 0.0957935938614141 0.09650072073651564 0.08994058173761156 -0.03326282546588455 -0.038732490275603514 0.02416913542127008 -0.03769389767779809 0.07247762238727745 0.06968562415487918 0.031225992619124607 -0.05202858922197641 0.03539093148266435 -0.016068881774556457 0.081970992839558 -0.06214838185165676 0.02216016491062151 -0.04466332478647569 -0.03213199892784849 -0.05949569529981516 0.05378391639699075 -0.04171183869909526 -0.07729492422390676 -0.032325113740206406 -0.0035394774563507307 -0.06703774145409129 0.0731866708028005 -0.051554929508083665 0.02840517128040426 0.023223737533906032 0.05147134249974966 0.034396534314552786 -0.05967247701859055 0.056053255634748736 -0.023409166184578063 -0.0624779260339391 -0.036393975582672544 0.03177171009882256 0.08738877605789722 -0.030993486228126574 0.07571926107830008 0.07808179502649945 0.08383488704838545 0.0037421999708159865 0.08168948716781241 0.08381086779311704 -0.013271118920893764 -0.007559340018069371 -0.06840972131502203 0.029459136201581464 0.04495924201138231 0.05918824883237969 0.04088941939870542 0.05718504294299552 0.04897333995183652 0.0027756651388157606 -0.016551188420345826 0.01643589599505753 0.07137754049598491 -0.06552260683176091 0.060835969743791594 -0.016630932347836906 -0.022491630633325353 0.0811322404455856 0.03886507656468506 0.003812336196199703 0.053308335142676515 0.035028721113216955 -0.0022222614974319317 0.022389788990987362 0.09065731631482045 -0.01546263577158215 0.018210438574286576 -0.039961315375134636 -0.013455586801355047 0.08878093209325344 -0.03633729014023914 -0.03200709880045285 -0.02137713718887182 0.030742725203124505 -0.01209609695316387 0.04062712913117455 0.05365997703980583 0.06262204156554947 -0.014931329845045251 0.05130224694266014 -0.0033982442353725673 -0.03860182552694344 0.08768085020196092 0.08996556176309063 0.028188037212777975 -0.0259725011068212 0.08229957625162965 0.07419163644323012 -0.013882168774921747 -0.012351661829219597 -6.350691092963711E-4 0.012617795177593415 -0.05347070530829087 0.04596036457096902 0.01370442628593562 0.09781121130395938 -0.045045711330348535 0.017487939375813256 0.015108111563820643 0.04838630935307694 0.07202125653717795 0.006284397948422943 0.0752725029303079 -0.055701613737619435 -0.03515169970019117 -0.006780155377162625 -0.061395138006439844 0.08099292876502893 0.04071936307140518 -0.058877920054312013 0.03415249868102591 0.009304098720765604 0.05385213108195298 -0.006089361595643575 -0.0545256309996788 -0.03759013449503863 0.09727894460721168 -0.007987843532057542 0.06955495940621913 0.03552255700153517 0.03502391726216329 -0.0580920100219301 0.06615095054958212 -0.046305281076623205 0.019559359950159665 -0.020983221402470133 -0.06901212423715337 0.08139549148332725 -0.0511158575217774 0.05216790090253313 -0.06584734716298961 -0.017632054907423627 0.0289182225729372 0.038860272713631364 0.09165555656377498 0.09140383476856216 0.03591166893688318 0.0925452297789163 0.006066303110585915 0.01898866244498259 -0.036338250910449885 0.03302263291320059 -0.023769455013603984 0.03327531547862412 -0.05748960709979877 0.06787072922679921 0.06310819129218183 -0.04863034498660383 -0.021597153567130305 -0.00568872041776674 -0.03226362444671929 -0.06253845455721548 0.055937002439249726 -0.0032915987419808914 0.0595802430783599 -0.016246624263542588 -0.06390370902667108 0.07917803383694895 -0.019677534686080158 0.040449386642188404 -1.2682166781712722E-4 0.050873743428671986 0.002447081726744112 0.09104834979058993 -0.062354947446964924 0.07471525620808112 0.06541692210857994 -0.040372525025329536 0.0940949521288332 0.06440523107667516 -0.017238139121021945 -0.04852273872300145 0.036752342871277 0.0048451641727407 0.05914021032184289 -0.031079955547092773 0.07403599166909093 -0.017874169000529044 -0.051428107840266524 0.05333523670857713 0.10363155724059693 -0.03145177361864754 -0.04128717826595003 0.04779447490326368 -0.06419962625157767 0.04537621628284164 -0.0503482021233995 -0.01425302607626577 -0.04294354610925861 0.04597765843476228 -0.06526896349612665 0.036280604697805724 0.06676776502487448 0.027797003737008504 0.04608334315794324 -0.015195541652997606 0.08856956264689157 -0.021690348277571693 0.03603656906427883 0.09020287200514243 0.07184831789924549 0.05371858402266073 0.07071653059099867 -0.041480293078307945 0.10422723477125306 -0.00938960726952109 -0.0069050555045582825 -0.030804214496611602 0.047637869358913745 0.04304346621117512 -0.039375245546585766 -0.024615893569262234 -0.024106685357572242 0.09226276333696001 0.015841179234612066 0.05115332755999608 0.09999984584401547 0.0029370745342193775 -0.023797317349715328 -0.03361254582259238 -0.05111105367072373 0.05901242788381504 0.09221376405621248 0.08613977478394068 0.06057464024647148 0.03181302321788423 0.05981178869914722 0.03577427879674796 0.09560143981926696 -0.005903932944971565 -0.05661530620802916 -0.04609487240047204 0.04202024593674145 0.027919982323982673 -0.010757744049608891 0.0061095377700690285 0.04398213870706399 0.0081530960083041 -0.015081209997920043 0.031051132440770693 0.055510420465683025 0.018460238829077883 0.07213750973267699 -0.04947486200184062 -0.045466528682650824 0.019804356353897278 0.007649652417878532 0.030589962739617508 -0.04278405825427644 0.04389566938809775 0.07923568004959311 0.08202191366072703 -0.045265727708607026 -0.016483934505594326 0.0470143294921462 -0.008318348484550661 0.0217816214475916 -0.029417823082519834 0.043697750724686193 -0.011300579218674622 0.0953305026198394 0.06796776701808352 0.001640034749726031 0.006630275224287836 0.06666111953148285 -0.022968172657850318 -0.007277834346323774 0.014608511054238018 0.10529945432643426 -0.02770188748614566 0.06038921159579946 -0.01463349107971715 0.109566234832312 -0.015258952486906171 0.08612536323077961 0.06370579036325945 0.06336087385760532 0.060337330004419695 -0.019565124571424074 -0.024367054084681646 0.07672230517830828 0.0455702918654103 0.05930738433851092 -0.05850898429338948 0.06830115428120889 -0.05522026786204076 -0.05936118747031213 0.09936285519429768 0.07116424950920153 -0.028835596334813925 0.013115474146754572 0.0979706991589415 0.10308872207153112 0.0023817493524140765 0.10524565119463308 0.08205361907768124 0.006791684619691453 0.008145409846618212 0.08543072636841764 -0.006445807343826563 -0.02623479137435208 -0.040860596292383346 -0.03290926202833378 0.03995362921344875 0.008117547510506879 0.09857598439170505 0.0771258286668173 0.008336603118554636 -0.003695122230489932 0.005361097775905831 0.07148706830000884 0.05589280700955585 -0.02096496676846614 -0.03078499909239687 0.10127094483281897 0.02281829250497553 0.012769596870889676 -0.03298516287498187 0.032228075948922075 -0.04515043528331874 0.050699844020528774 0.04190687505187463 0.0025835110966685986 0.0688468717609068 0.09034218368569913 -0.004186075808175932 -0.03644873948468446 0.11052508350262635 -0.021934383911098594 0.014593138730866243 0.004642441658275442 0.09213113781808918 0.005965422238458655 0.09154506798954035 0.06953478323179363 0.10915694672253853 0.026420220025024085 -0.023805003511401204 -0.009098493895668136 0.027502047282312616 0.038618158620525964 1.7678171877538937E-4 0.0895697244362675 -0.043816886230817455 0.013484409907677122 -0.003800806953670873 -0.054039481273046475 -0.027378107925127706 -0.05873380452270164 0.026084911221477294 0.08940927581107466 -0.04693842864549808 0.04073089231393399 0.08301246774799562 -0.003800806953670873 -0.015965118591796983 0.03796675641764709 -0.02728875629552927 -0.001380626792827361 -0.04588638526474238 0.03198500108560592 0.07638219252370781 0.0510889559558768 0.0985932782554983 -0.021399234903718742 0.04616596939606651 0.09388262191226054 0.06811284331990469 -0.0264845916291434 0.025314373512467164 -0.034762587764843145 0.09055547467248246 -0.07287730279494356 -0.026816057351847243 0.04125547284899575 -0.004918182708756621 0.07646866184267398 -0.03512960198534421 -0.01263412827117593 -0.03847884693996926 0.08455738624685882 0.08912777013932908 0.05073635328853675 0.040396544280597954 0.06780731839289066 0.09436108547720698 0.09960689082782456 0.04789823808602314 6.417945007715223E-4 -0.02816978257877399 -0.04798182509435716 -0.014109871314866133 0.03710206322798482 0.044845871126515495 -0.045536664908034534 0.001653485532676332 -0.035311187555173276 0.013411391371661203 -0.06174581913335843 0.08177307417614643 0.03680326369244603 0.03942040174649037 0.08334489424091016 0.05801226609443906 0.03085129223693765 0.025946560311131333 0.05686702800324195 0.081058261139359 0.09103009515658596 -0.018125890795741832 0.05926991430029222 0.04942009809982869 0.07088562614808826 0.05967247701859055 -0.04314146477267016 0.10048887788128003 0.07622750851977932 -0.05766350650794194 0.03260854095237345 0.046757803845879777 0.07774360391232046 -0.00485188956421585 0.005600329558379047 -0.06663325719537147 0.03530734447433034 -0.03401414777067994 -0.060943576007394015 0.016845184104830994 -0.0580699123070832 -0.05153571410386893 -0.0380734019110387 -0.054445887072187726 -0.05217943014506195 -0.03224344827229384 0.06406031457102096 0.011318833852678598 0.06024989991524275 -0.03687147837740827 -0.027268580121103808 -0.06216375417502843 0.061473921163720184 0.10010841287782862 
-0.015193506584563962 -0.07842556399010282 -0.019676708561180426 0.008013790026329067 0.01726441935202157 -0.04466452945408606 0.009666937543027245 -0.032541305706256234 -0.0251803271199009 0.06994429604811203 0.015279812342035856 -0.01121390610564335 0.03164803228843594 0.029931943101462494 0.045687607880734345 1.63245249651248E-4 0.09243516556620429 0.058559486084710205 0.07399377508433948 -0.03938885509175014 0.022659910947496937 0.08661369787372608 -0.04289615883323342 -0.0625538418979034 0.004966591713532358 -0.027375608359477336 -0.014307010822856295 0.01114545086904847 -0.00465791739681106 -0.0012291992266591555 0.058500816492498636 -0.06319084022911399 0.028905852833583292 0.045483986715342234 0.07800512118679034 -0.07294809756109522 0.026730215246264833 0.03210134772447647 0.13927221004803683 0.010604815735572929 0.11218272714859748 0.04169655205880717 0.04447103912894374 0.11751282372328284 0.06833034089055989 0.14367715165322192 0.11297601122953246 0.025403343962879913 0.11688097479961444 0.11092980025184776 0.06009001928215033 -0.023013033582789166 -0.035776608417187064 -0.09675156425330837 0.021868408061744078 -0.0580516961262035 -0.013238513980612158 -0.0805349395336642 0.040720850420733666 -0.06346268936292326 -0.042063981383093585 0.05606187245947637 -0.007549691439802579 -0.008994876061959561 0.032756772512562864 0.032077003373037295 0.07967562134443724 0.07845270300516316 0.07060862869279443 -0.008584625869804045 0.1148951945353338 0.1300431965508562 0.0711416485295011 0.021176438098438662 0.07270205176085333 0.08315532101519092 0.12846222946795627 -0.0193379547578092 0.13671585614676182 0.07510765836909294 -0.033465213784142564 0.050603577760062725 0.013756711652338242 0.03553471729618264 -0.049813920816561885 0.032967719882920715 0.03306565583545792 -0.0646279612248792 0.00843772263770121 0.06313698758124899 0.020210056638528484 0.08263068434738828 0.002671405477893975 0.02791134882887365 0.14446301455595897 0.04946282175449325 0.013228366618361319 0.0320033601957447 0.11337384259836354 0.08554144859059645 -0.00621827768448447 0.046362462720947926 -0.006630615988605803 -0.02678748416660502 -0.021109175511184214 0.14244399707709868 0.03615553760688251 0.01159729605483258 -0.0029209548313540437 -0.05202289232597297 -0.05849395872872358 -0.05318639132596259 -0.07826756033600223 -0.058488579148479686 -0.06105945331076101 0.0459093803790551 -0.03313089696919002 0.0373623119910144 0.04853614095163547 0.1208041012224829 -0.024676747163128374 0.07043115734818424 0.022572153243829825 0.08989041140138272 0.06462300424818461 0.11871748215853765 0.02321977135719687 -0.011563584828244884 -0.010902474933221573 0.013584219803207058 -0.03420695908559251 0.010831290086813865 0.02277598712768124 0.13371246233892098 0.04932389547537409 -0.021066844951306302 0.0793015940369416 0.05306089977623803 -0.02143826410716535 -0.03333985731950431 -0.0800865958979484 0.018601519958715274 -0.06687719849004359 -0.022884849551020905 0.0342757794574987 0.07160454968255112 0.12142743148079142 0.041113664339218384 0.12692889323023185 -0.0044372266953044415 0.06389624399669523 0.004362541136837798 0.04924486423900236 0.04720108578382805 0.0038213038858777378 0.08190967193144834 -0.07430627402893775 -0.019057823997106572 0.02413320273658654 0.019939509946265657 0.0455906948948749 0.010229567890078922 0.027485706952471285 0.09804924007086765 0.05799904951093292 0.11943556643227146 0.07109270490062426 -0.052727950946986936 -0.023147260697322498 -0.08061667264380773 0.03717489736507277 0.06697819648141935 0.023043598410634476 -0.027016816727860292 0.00985401134013251 0.045074823142650586 -0.03136282900834026 0.04991374778265924 0.047337037167384355 -0.06882866782130918 -0.05181524579660737 0.036918816719561195 0.0139465095510954 0.0030856860563979634 0.02278600965501177 -0.01279277757354636 0.036936112826852094 -0.010157102945205696 -0.05253904493452922 0.027250976627929992 0.005786114228144444 0.026275898076898445 0.04098374776640397 0.00693369396815953 -0.016619482146432808 -0.06629144795826045 -5.844050919963763E-4 0.026934100779860037 0.03274770513590954 0.11491611840691139 0.05321033325797322 -7.993513743617245E-4 -0.01287085450045082 -0.03428156722699126 0.019497606023237215 0.08863377324501776 0.012657806167641505 -0.006482124540141595 -0.001505952262213856 0.03934227473197986 -0.10573668019639461 -0.08656346021328863 -0.081684716062401 -0.07574407519333137 0.007296665717696987 -0.08762082094346256 0.03764877937153163 0.04754818432568661 0.014879495544451742 0.04853309122750918 0.06656788451382104 0.07847821498214352 0.12021167192187741 0.020537596146796823 0.013942512797564017 -0.015187704488895542 -0.025418972208539264 -0.0337337076506314 -0.020428138021834914 0.008172655603658778 -8.95508827847196E-4 -0.03693776291559102 0.034753711280593964 0.006724038626865152 0.0056953534231132105 0.043783331256551344 -0.09141947639885536 0.031190622611297913 -0.02796568942192328 -0.07826812001092456 0.04787210817359956 -0.03930670180724372 9.727813532151224E-4 0.06051611340399773 0.04067087342891781 -0.08296810038653991 0.03528072482866703 0.027460807552780304 -0.028016507354258768 0.02862342770241496 0.05873335317494825 -0.02218205937080632 0.027574309805267507 -0.0901713299616647 0.09170132981616273 0.05183946399670368 -0.029072173380794115 0.11619267065327714 0.056748661185762765 0.07828538096024511 -0.07813046302046527 -0.06654654905653493 -0.1016207495004208 -0.053563582204708346 0.05295415170521782 0.005461188563102867 -0.0455744780290495 0.04307110513080274 0.04691401362486458 -0.03370964037635725 0.07091536678566987 0.043689757010505634 -0.06469455905893735 0.001856730726701688 0.07149880271108869 0.059182823984509046 0.023412769124364127 0.06294848763643893 0.04663020237941888 -0.010772299284814945 0.09558794343818801 -0.05957318196863215 -0.03254632373987165 0.10403376733876202 0.10223088836973135 0.09239126257727633 -0.0065369760186137745 0.05612021472422272 -0.016673320867102333 0.061941141020571765 0.008424586156485234 -0.044640695584337635 -0.015924911119367544 -0.06530504300593903 -0.08280338815260811 -0.006280204665887475 0.009482217937437957 0.060008858888637884 -0.0905230990244955 0.004588134626285827 0.0457280609902501 -0.07025586007199874 -0.008502676112695428 0.07331299090625036 0.09588589460780181 0.09185687507884154 -8.856461613609413E-4 0.12035075024977475 0.07059223719620121 0.021364687246459818 0.012526841195399744 -0.03220799577796442 0.11392753361009476 -0.026055199204873897 0.02252818229364899 0.023986580308970617 -5.988831269813985E-4 0.02700259363546234 0.05829792222359082 -0.0854300741661457 0.01216276720956786 -0.009895368070353315 0.023995512271624005 -0.05209547575286699 0.03995526325540241 0.022060547804938577 -0.04138756441893117 0.050759797205794294 0.056334702615422456 0.02723974992098504 0.07929614122869857 -0.04614695445129586 -0.07024902228810424 0.0487962552106594 0.10596656428498243 0.1454096666489685 0.0031324217603732334 0.04775052154552855 0.11132825215289256 -0.011162400229406498 0.0324622214915471 0.024289195025161827 -0.03368868928084739 -0.007696765052994685 0.011309969762242723 -0.07988611671059484 -0.015628643068197796 -0.09932726816819747 0.04703723476591764 -0.07271926869674572 0.02243621974608165 -0.006741578662695114 -0.02059690953453394 -0.050659348771331505 0.03038546017939631 0.043596103886936285 0.02862246749822563 -0.020513762604012883 -0.06234270512168289 0.07083347677169312 -0.04641787258695845 0.0164394942959314 -0.02014288580081022 -0.02492536948952447 -0.02081369014776356 0.06320822701358883 0.056590736810416556 -0.03807762252705042 -0.05037570517730807 -0.0848251266586675 0.0028799577422348697 -0.010098103659382086 0.05998065240126257 -0.05773367868010829 0.030282172601444883 -0.034748002094080084 -0.035448241979676866 0.03887449781643687 -0.051410429123431814 -0.05262227378065507 -0.07779183945067351 -0.08611436799106749 -0.014258100246252157 -0.04336856784378899 -0.0014231002779547084 0.07309601377972591 -0.02041007211557403 0.0011476753905181737 0.04743053561825227 -0.05427159685398865 0.08904466662518083 0.01579313067937935 0.030285799574546305 0.016335033374186753 0.04516728933629712 -0.004253435914565965 0.0891361798066044 0.024104884316581678 -0.0812351107266296 -0.03251986954630192 -0.05173912789090321 0.03361397140040698 0.011559572668876106 -0.05407365769668243 -0.016842585633117534 -0.008664270626686588 0.010988683688353216 -0.10033320018936508 -0.04152071171126854 -0.026540972185469865 0.021644782625575867 -0.05375236947389141 0.02739822800937179 0.03743609088826227 -0.09033287402201096 9.960264244459928E-4 -0.08319250493204916 0.0017539135084203206 0.07792409852655449 0.05030269304102336 0.02663880003096031 -0.01583028184526855 0.024053165745000375 -0.007254593051842138 0.06103738866876684 -0.01918834360141435 -0.0943277460829107 -0.04654247092034844 -0.08804725982505013 0.017939603148344304 0.01894765854684395 0.02662502028290094 -0.09966851983400113 0.0031067150247976265 0.03365562373769785 -0.039294951536050476 0.04524060067623259 0.01889315570971754 0.0756932912123654 0.0795186721950462 -0.030763418000765954 0.0554338132722125 -0.010750370623588728 -0.06852828660877384 0.06457605326411527 -0.04428954325048758 0.046472984026538905 0.13401182377810297 0.12513266964391379 0.031286430177611416 0.07293572298555565 -0.008535834344657127 -0.052711867862785186 -0.036840189588383615 -0.05686625959853018 0.0768046623800503 -0.029861578508625107 0.018686202030649777 0.03241439776360226 -0.05114356362836807 7.159070349551715E-4 0.007127361351701786 -0.008442195887072127 -0.08138428184035623 -0.05153081772876176 0.03651222466286763 0.006047316425520724 -0.0849354554565308 0.054715788151712734 0.003150246250555871 -0.05258064110941542 0.015695648111486767 0.05493093539722869 0.009838913010768648 0.04580305252497902 0.021442058696846573 0.13416835292772192 -0.003051771986410841 0.08447040674778136 0.10860811771549371 0.09178517132037213 -0.06549355932916641 -0.033502803485941354 0.03978053324575748 -0.01128852306921307 -0.06329055140855364 -0.08803786436615665 -0.050757391859919614 -0.0413412540496071 0.036386296282373984 -0.032382888176420835 -0.0011640221193640527 -0.055996735619108326 0.02597160943246959 0.017365324740131742 0.047778952710511496 0.03812258781553694 0.009915254839887196 -0.06355687112462657 0.08205086139240463 0.04598084994322428 -0.004988539028918728 0.06978349948431352 0.07612882269625806 0.038661360478244707 0.04716325451174184 0.06621361211657684 0.07787443149484291 0.005512226030555908 0.002897074750616803 -0.029029555493297002 0.05837528387077638 -0.0013510747080825948 0.040320597655888905 0.022435644967731608 0.06725658794303323 0.034491741642466094 -0.08461176720677474 -0.04603604040060198 0.020217701605011535 -0.061147547590014915 0.007345122041823642 0.002491152152690857 0.05153111539248603 -0.06510408088628221 0.04035780468337035 0.015357995116971938 -0.03206803341556707 -0.05724698562606656 -0.021012705667981618 0.035369291436367564 0.11920899848772278 -0.015376811662860205 0.08092452166611974 0.02463609483314893 0.10191076831547463 0.06665782203365335 -0.016340174521405654 0.04027684622884697 -0.04869672357728815 0.04674316869187814 -0.09028461205346609 -0.03239577578747338 -0.024434529428759177 -0.04633179349517698 -0.09700145786994824 -0.07690484633146862 -0.06488380694806493 0.005954371681223119 0.07417956854445332 0.0390640792668629 0.08719201339280401 0.03081263407037056 0.033841198546996985 0.06904479073607087 0.06198687475291344 0.05964122693203952 -0.02860604303427518 0.11032606071409502 0.09599459237114892 0.02254668845292651 0.09416003511177211 0.01335104719238485 -0.04399488300979361 -0.026872198138738528 -0.037283703531610556 -0.06729721181402806 0.015360837719243051 0.010792589267972446 -0.07877556741291845 0.005731724505668141 -0.06327638194008764 -0.07141723048561563 -0.021829713428208667 0.045678439272446136 0.03586178962230198 -0.016667200586908973 0.06625812835739031 -0.073524620784913 0.056327981897233675 0.03704483483898817 -0.016667267439551228 -0.004814730869289792 -0.0526799772051619 -0.02526446172269903 0.08400387720581458 0.05552498333724178 0.1208467222445771 -0.03413906661353809 0.04198259887811311 0.05327530225625843 0.06532606181260153 0.04987088152971589 0.07962157294318477 0.08051130215211312 0.06729313021806863 -0.07293255804443285 0.027428432495483494 0.04539776451287381 -0.027638515601721453 0.028918371929085366 -0.043085950490299556 0.013833228601501388 -0.03386494833593334 -0.07457350857748547 0.03612408888505582 -0.07841085233300327 0.031078967297998937 0.04794474417386717 -0.05474545563477916 -0.04399484330392706 0.002270868858372275 -0.022124290052590218 0.04770080378511049 0.030610731399417637 0.06565841812447683 -0.013321192600491978 0.024397399840343496 0.08394645562759014 0.0725649202631138 0.051347902380706446 -0.0440785592719196 0.07423219956552722 -0.05905143420473128 -0.05015567548613304 0.03020192767095085 -0.09066726478116446 0.0563835447611201 -0.039293079882355066 0.03197671103443045 0.03392581828881462 0.03885199311812996 0.0523907322498924 0.010068093855874755 0.057074866122639796 0.07404418285235081 0.05222440861943741 -0.04963145306531431 0.07348341567540956 0.05651886272074804 0.07417686395650107 0.013021233966092033 -0.02272977978856287 0.04059506026252554 0.05882551641529264 -0.03460062441331808 0.09001272396353069 0.07375301673951591 0.10405234756609777 -0.040575237865136 0.06033663042746077 0.015985796089227493 -0.06552276870407413 0.03255964092944778 -0.03578211909976833 0.059266941581961885 -0.029817500772419382 0.05247260581245579 3.555432345792285E-4 0.021782761137522096 6.201130304481148E-4 0.06981433109163057 -0.05118606073341581 -6.200387736251953E-4 0.048141365499783255 -0.05551447359469955 -0.04371090226969427 0.09527891194962064 0.05145473666207257 0.020352655553648437 -0.02516334147911078 0.0545900160289279 -0.061590242171360686 -0.0845646934595138 0.020788695537801584 0.01822282402060791 0.061574089610733566 0.10619764083615742 -0.04832355820914895 -0.062408947069794767 -0.0030325649883312057 0.07918573850455413 0.014626912876785489 -0.007204030435605571 -0.08143202197861367 -0.08469089462186191 -0.00948896929726285 0.060225307156282396 0.05012767357693957 -0.032323076873166746 -0.01816164347618458 9.63688690320398E-4 -9.408342303443704E-4 -0.051199290033231364 0.10224976064670403 -0.0058359607270930995 0.043831254768539864 -0.026805864521132098 -0.024612234869583176 0.0038938625293387986 -0.05585879040049827 0.060550369859961865 -0.03927406355307185 0.08217908736948386 0.10526410094004486 0.08913941033459546 0.01954692975096126 0.05391738017029986 0.034847779926248976 -0.048361568314936654 0.061273188147585166 -0.022399836777418514 -0.017699863959226382 -0.05045332217707557 0.01742215203506032 -0.03807134584706385 -0.012050685609256696 -0.06858936554790959 0.08194243617457496 0.07905118336117296 0.05595720118531753 0.033025141285730315 0.06881249859102728 -0.00767679412495166 -0.010649779166033086 -0.025330747344129306 0.01511208352053159 0.002046520077244142 -0.03842355126470733 -0.06230239579917569 6.446023967630748E-5 5.08780960710139E-5 -0.05092696783049728 -0.022652740292080885 0.10134107467153433 0.020357815595257976 0.039344853062611734 -0.02879659812551989 -0.06110298645581545 -0.06359788238371175 -0.07542899234652542 -0.013413289800721371 0.009615185187359227 -0.06522499967736592 0.07741279731802678 0.07879018829092495 0.09256283353781436 -0.019906480760046225 0.0641106733073019 0.06442974296117705 -0.02186881439366465 0.04619475206426041 0.020711999873951357 -0.02805280175105503 0.03546092775069681 0.02231578874203686 0.03712474109790656 -0.07585390237313343 0.08804821207579111 0.06205502038794987 0.05645027869561026 -0.04326427221281135 -0.07343312393988692 -0.010392633454413923 -0.036051127073702546 -0.024578669620964014 0.059980725262674464 0.017072855829137357 -0.0678735062975994 -0.008093514122045538 -0.008420267186909882 -0.021943944977785883 -0.08131734330459964 -0.01990963157995686 -0.06526327957353359 -0.07076371262930907 -0.05892917963868155 -0.015238970336739278 0.07482518325607286 -0.045457200640712236 0.04410857913093987 0.03484819397965244 0.1029977008823716 0.038215419639342205 0.020905432943905476 
-0.06065024052075756 -0.052837645050616784 0.07990764885394079 0.08342223728276263 0.10441668058682618 -0.06654842491825919 0.0072603573074483275 -0.010931579894883973 0.010319958484999985 -0.08975240895279511 -0.013843237336546316 -0.16385838207046513 -0.16794101308298146 -0.16073219066046598 -0.2938703244263754 -0.25630274793872954 -0.06530771581499108 0.001846153697953707 -0.007117729251475708 -0.1481962747335568 -0.04473200445345387 -0.04243457274969374 -0.08964798789594998 0.13374372118009173 0.15080287309810303 0.26080830473065525 0.27818997854457866 0.3325959704998215 0.3247159794299981 0.0940699796945502 0.02202236465990757 -0.0533520918032437 0.055188953679099165 0.05424913915822181 -0.002974543730611494 -0.007318523578018872 -0.022285497828023335 -0.14791415470349925 -0.1697491112157566 -0.08051417427425289 -0.08167831683166517 -0.23553944391804743 -0.14044423262988454 -0.19599579083122703 -0.053594790794046734 -0.013443101064697425 -0.16590484368401634 -0.2703946389057876 -0.14423802330840857 0.03408631452980528 -0.09815959946941166 0.1872932374629469 0.0740386443835015 0.22207851146543367 0.18952112873665436 0.2711003721489172 0.36262411539371064 -0.12357976226621072 -0.012636208842931219 -0.038205151239497546 -0.09592409887585807 -0.05682550632281931 -0.20467307377438257 -0.14669971374842544 -0.09586489071900614 -0.1203088474943719 -0.20874981353005131 -0.10364890923356616 -0.10112686723973073 -0.054831237160538004 -0.12844138928767013 0.0021693043812312115 0.029773697112239737 0.1738206462382468 -0.06588260678617934 0.001929548791478479 -0.0408654260906822 -0.12703550759497106 -0.07852475978706008 -0.10397353601708523 -0.12980321202078882 -0.06527183126657315 0.25060663032272323 0.18671729545935684 0.3864386240852563 -0.01871766323987558 0.15814558910331403 0.10555670852968248 0.07883072606330443 0.007318288919195634 -0.040216884513119715 -0.09816280757854952 -0.1284509072463567 -0.1935277588593746 -0.09000431991303964 -0.08231031029474584 -0.08594168667651932 -0.043856623716150546 -0.1966705992777426 0.02287932099530104 0.1118069731595321 0.23189727622892442 0.07380836088583982 -0.004955231091968196 -0.041416774335742396 -0.030429553655660923 0.030239267320884826 0.031653910839833904 0.12994288073205185 -0.047748504780685146 0.118400060524715 0.194260924904117 0.251846624249055 0.013226451000708612 0.08367494487384984 0.02407083417680815 0.016629472270311325 -0.03225936514587268 -0.057615107770309745 0.005549965767310786 -0.10423207371051538 -0.14162418013694986 -0.1575698285586168 -0.1200635033453956 -0.04718140626769558 -0.10564048346778165 -0.137516094431634 -0.014863319935099019 0.060825601816829625 0.03579939067750226 -0.010561696828265622 -0.010193654917630628 0.2022160980091154 0.025881583004316797 0.08155152867688234 0.13064933060053235 0.14303940924710867 0.07747021900774079 0.0432499621255976 0.16460442198853595 0.13115211737819046 -0.03701022952156756 0.14087792367803748 0.06674108929038237 -0.09494637800214119 -0.27113344181702065 -0.14110499639083973 -0.07877774792341562 -0.19235974630750532 -0.11260296089095567 -0.1132158311607396 -0.07038688173495629 0.08857889218674737 0.05770425299384594 0.0011467081903662928 0.03479583536594718 0.011307992966543418 0.04039790368212321 0.04639705662221824 0.12410949301626116 0.035954637421137754 0.13769296190087033 0.1592948743131484 0.17417216312688813 0.02807848991902004 -0.09561757451587087 -0.013404454799304012 0.11572496127592162 0.1320724050897985 -0.04893670357963681 0.08283363778433199 -0.012622462180593336 -0.05027704415415551 -0.13879911118974797 -0.03183672391999357 -0.0848101741175899 -0.04963539733364878 -0.02055389304784099 0.022642919038602015 0.09360361468981425 0.14323747918889215 0.040356258541858925 0.04182710419008731 -0.018245297940122498 0.05042406218220136 0.06339881881324982 0.0297566242015668 0.03171297398646759 0.0761979007864275 0.10771656582421844 0.025707991823069952 0.0706973433134005 0.04892010420651331 0.022414917440163468 0.09461941297425429 0.12329448040732882 0.04272806555058647 0.04140424995667778 0.14855533593441086 -0.014111047514492174 -0.05565552511782614 -0.08298479289521231 -0.1069373592700132 -0.22877630278475886 -0.18748439237607983 -0.019861492497433793 0.06220640234538108 0.07836266525591906 0.009936525171601469 -0.057689396908821335 -0.05514261447490645 0.0018148445887181145 -0.08911654633234732 0.11548600469762302 0.17095819122985548 -0.05332272452482998 -0.13088733675748948 0.05409451366485879 -0.029121022690988464 0.12464423783620843 0.0524739350852087 -0.022225617244753353 -0.04240018853241681 -0.006254291688567231 0.025790836227756672 0.036910537788644664 0.06951872344160467 -0.03578876227879409 -0.12992169810811297 -0.2444411303202827 -0.09407018415270905 -0.0601775011750905 -0.16524975623846141 -0.006318947386727877 -0.05745417363856154 0.04177369674500159 0.04862277493543146 -0.10084229948296854 -0.12204837714441434 0.11147714201816215 0.048231370851833044 0.10519823489497691 0.0023036049468333156 -0.08970359676283791 -0.06315182764438625 0.0024370031569386523 -0.018167274884858153 -0.035102522288111865 -0.06549616037917379 0.022535953264018783 0.04692477054966918 -0.056688095263133564 -0.0060064882786558076 0.061435502715333726 -0.013218935864158236 0.041806468013953144 -0.04796414265281663 -0.1320005376368749 -0.04340827041842614 -0.27208671925718564 -0.22615501380180147 -0.15588372852692098 0.01896700021246574 0.06117367978785204 -0.03385894316395838 0.1121754670418589 -0.045504504420068245 0.20176425086700472 0.04126684115999455 0.05331942238181685 -0.01226131287948343 -0.012714668253497293 -0.10595648323835695 -0.20944551377881904 -0.1463785579940191 -0.046764780617615555 0.03483624946688905 0.0676664844086507 0.024516449038723395 -0.11341748021245601 -0.04012315885336089 0.01659281544984002 0.037855031725279126 0.17323281954345757 -0.07784446384401143 -0.0984048158236028 -0.16763987003214315 -6.844845604791725E-4 -0.0590773238735785 0.018717944608972345 0.038936089533208165 0.12490545745399208 -0.02906039302177523 0.06349249922508879 0.058902477950942646 0.09340659995321685 0.08485842981370853 0.07709019447345467 -0.097315716817211 0.07271548178803945 -6.579462887185812E-4 -0.07871466732867366 -0.09971685530407651 0.06781719168054585 -0.046226658100960265 0.04489699345683431 -0.04397400744513708 -0.2151662951319987 -0.14797949011151956 0.05434104707854576 0.03173065485527819 0.05275310032981678 0.06519903439047513 -0.13042160772690387 -0.07743366957174416 -0.10814621241988803 -0.13075788283379347 0.0492645875590754 0.10974955181771737 0.1378164168421521 0.052280658690008634 -0.022125775040221726 0.038137513594062436 0.30593063914025465 0.24596710176450462 0.14202553106325758 0.05029306098153876 0.09474916251300207 0.03567568536520994 0.0016592273214166863 0.15514668407616897 0.19477430588570457 0.036810607895795565 -0.05294846725716636 -0.03318492432097297 -0.2168113058461702 -0.13212289635387303 0.01991282931127124 -0.06068771461236326 0.025363445945775078 0.04099956265793653 -0.01232143205765718 0.026413705064659787 -0.18468208750194237 -0.09915422354107319 -0.029203841587600383 -0.040365120125092704 -0.024190354622094123 0.007616509986134841 -0.13512248096849566 0.1641056111373597 0.1361546463896404 0.2020230909174476 0.0360875428486204 -0.015351690071867536 -0.03931556938322113 -0.032030719536166465 -0.09968856504702267 0.06045782838777854 -0.013606684699387998 -0.0029517775750873246 -0.27406058477216994 -0.09858803902189942 -0.19076790050259593 -0.12981836154850326 -0.13637363368133365 -0.007902165719399681 -0.1004900109282395 -0.16881492150179636 -0.044365785730338635 -0.08613800199907447 -0.08838204564940191 -0.15627536818582896 -0.06700584942571712 -0.08498496027031281 0.031189752460833532 -0.01204279699119956 -0.03660432547533815 0.02075197164630117 0.03065549579277179 -0.10649655726061205 -0.06003234049221797 -0.023491564257901346 -0.07088769915651648 0.06892927693340786 -0.018484825935084243 -0.12946465866957863 -0.04346443711235283 -0.06751485385014751 -0.18421956311568624 -0.1232478918009019 -0.13559342640478023 -0.21137797144848386 -0.10544166066760033 0.026452178268996495 -0.15958129399281434 -0.14407572345340083 -0.06402253422538452 -0.1017870697951665 -0.07093355103868837 -0.0742375553182294 -0.03601813027952449 0.07420983834423234 0.14455021303541407 0.10653261769862156 0.09877365670131857 0.0923571108542956 0.043591413422628886 -0.008226273211192865 -0.01674728658212208 -0.14369331096986013 -0.06676469064463124 -0.024058923962634378 0.08441645987412531 -0.11274460690097707 -0.027354415892142932 -0.1403251443380815 -0.11660084777241936 -0.03549192032056972 -0.056235206781131065 -0.08250207692999907 -0.036887235936522364 -0.006991914139005768 -0.13349067956795804 -0.0349596138480975 -0.01909495763865902 0.056035422987796894 -0.00903270727114401 -0.06441174782554293 0.009866162016529394 0.04763369236279233 0.07149717247676202 0.13667369280660419 -0.013134781659445167 -1.2201025566064315E-4 -0.04479551193932217 0.09199388718100722 -0.11380586908730021 -0.017005581624150876 0.06913997757823975 0.05978593906656819 0.011240208073124104 0.03393853805536257 0.03438475292269117 0.005097719761412491 -0.02088311345794127 -0.08142510160353923 0.09556633060389855 -0.026523033013062313 -0.10778825889613887 -0.16615932300075667 -0.21345430015689013 0.065147596050901 0.19482162963234398 -0.03133806061565586 0.04647952087523621 -0.018297207935534493 -0.01195939000672293 0.03472334596358557 0.037832190781423046 0.03393229714394582 -0.09997482143602104 -0.20885686661090658 -0.03308726198765357 0.03392224134691831 -0.0453719781967935 -0.12515120554841208 -0.06760187727540384 0.0027536533157906293 0.07437730990635903 0.05077875544149016 -0.05331029982865136 0.012119019098024321 -0.0573354110219072 -0.08399075301027069 0.016104345323869916 -0.03683300536977412 -0.032493717200516165 -0.04273115182000945 -0.13524360135553024 0.022226878854367853 -0.12099600781875798 -0.1605759784793739 -0.1378734681246784 -0.10095960071790797 -0.19499291002613378 0.11369027772716715 0.049096533119386575 0.0826919936615483 -0.10283884380053983 -0.01595470657807655 -0.0015119928631061059 0.04212392368466167 0.00725434698595926 0.0011042635463877695 -0.008038171133671949 0.1186239587501395 0.061963539588114125 0.08798893036915997 0.09870342771313605 -0.06306039114137231 0.011368059874464516 -0.0757292697445442 -0.0014254195329343724 -0.06615839154313966 -0.05500886071948011 0.059001195714691285 -0.17173868114995214 -0.11913508761669117 -0.020367849176870578 -0.02552520907190048 -0.03286507896474494 0.036317529283236935 -0.03207994462134433 -0.009569907692588638 -0.07296224401754141 -0.01633834674360432 0.07704971452926321 3.0482266147919998E-5 0.10702962462328569 0.15320447120333236 0.24053800922205704 0.18846400892295678 0.05871864728086095 -0.0014172027041888316 -0.032540697744180405 0.16519116929886735 0.10927059293747787 0.08720186456688851 0.015462908230359512 -0.045797387064650925 0.01292606586554987 -0.008191260361219956 -0.194942084581032 -0.07977613294889328 -0.09439117528914757 -0.07033261571378827 -0.20569914285782437 0.09076997069476739 0.07717653028665819 0.14136652473149156 0.02434768131194933 0.07010924900646827 0.12845570266945464 0.04936617372158177 -0.020267916965921624 0.06637097965138888 0.1934806243421676 0.10938652024367466 0.1509460962807142 0.15552191701883716 0.08850374457619659 -0.06700360704462677 -0.0012941259038507537 0.1022734228358428 0.04007305165490868 -0.0520450688199981 -0.07489060803678922 -0.08650185178439844 0.043259202424958 -0.0614007314497444 -0.2869795048662162 0.014546573831702556 -0.15464442396955205 -0.030652938860766275 -0.0302773378274977 0.036115220731944474 0.0481264507566264 0.05448362208337126 0.11571525645348844 0.11010409208408892 0.1951953560305113 0.1676476384759769 0.23426639845531025 0.0614564057734799 0.15234887325031032 0.13592292134886264 0.06439011171138319 0.09467762549305075 -0.04323010687860996 0.03775410111101419 0.05875783724545378 0.0564850784484006 0.02298530489045625 -0.05003245233865548 -0.11330494385897921 -0.09647386748049214 -0.014862283045186367 0.03627858488602887 -0.3739568524364495 -0.1179772500890771 -0.10532127754744122 -0.058772174207490036 0.06432808421420098 0.011896642665577987 -0.1425491940435345 0.03598840768290069 0.18334274932595934 0.08184476142854223 0.08815153511543365 0.22190177087674806 0.20278656128184683 0.21170235908170865 0.13626753813181017 0.12140811904561431 0.05659065717018268 -0.05264082572373071 0.029806254265529998 0.14283159415720262 0.11189370131794243 -0.039888737189246036 -0.016077936070611854 0.01115936423947798 -0.11843018806243365 0.0027253078683537463 0.10014934776359476 0.014210795103345575 -0.5229333321849179 -0.22478062768303952 -0.10240053014238222 -0.002737590166992873 -0.016723204244358365 -0.05272588194055392 0.06560869018571615 0.18544929919514097 0.0072977103154163595 0.02673365786511565 0.2957606911150402 0.16680662430061255 0.20041999630804117 0.06703910252648308 0.13763148999825653 0.08592100608424537 -0.05804615284694382 -0.08338530722938471 0.22486741424251044 0.06159673390275062 0.08974712593749157 0.0522564122759693 0.1208356849164553 0.08908190691476095 0.1398420180753654 0.20984212126172347 -0.003736067980176183 -0.06299804835207105 -0.4725259834149632 -0.257236909033195 -0.16220901042897995 -0.0611678395639028 0.006975129581510849 0.020762501703087972 0.11097940961642729 0.1161069211570021 0.16583104367790116 0.21467883037746818 0.16750921993183504 0.09392637545961117 0.04833922403686475 -0.006297615830238529 0.1590898597016367 0.194703896494877 0.1727249512167007 0.20637175602542204 0.22479783618160037 0.007483787751613794 -0.05439333418006788 0.044463585427697974 0.0588683057246786 0.10228013911609003 0.025081086592844783 0.09144848365786734 -0.00673038680752128 -0.19108465153498827 -0.5816677204698276 -0.297975817473868 -0.11738312374039733 -0.1363050793503027 -0.04592106863083601 0.07041563247783958 -0.03134744775531861 0.013347336860770467 0.13712060607461868 0.14377970111395966 0.10102369035844999 0.08431834127564039 0.17745548493651242 0.20853067704809927 0.1377305290861992 0.1805493077949955 0.21795338335757727 0.07049623286119384 0.1335409273779436 0.08357880708571258 -0.0691850900743751 -0.13326939496720766 0.12917451660043613 -0.03677304167596052 -0.13690362502468278 0.03860769283901262 -0.01987221156799367 -0.13616287293929036 -0.37123187405366737 -0.2953307063128064 -0.22435950003951577 -0.1515063854750607 0.0521538828086159 -0.08986876320386795 -0.017245157142065627 0.045035304519345405 0.11373459523398251 0.12045170375828557 0.229486033735506 0.00754296921785906 -0.04560368268116197 0.14865849820693153 0.11137639502265712 0.16127606795825788 0.08389512096084861 0.13344213024272492 0.14995852401443444 0.08805910977496162 0.07622817411126338 0.11888370691191272 0.10350629174799286 0.03146624990167975 0.001241554311742209 -0.06577602236706277 -0.04180003576329359 -0.15850357572143123 -0.38583714152029464 -0.27975653052585375 -0.2944122097453553 -0.1536217211299302 -0.12959635125296512 -0.0542205408934058 -0.11977426973104593 0.08739920797843165 0.1320830982770221 0.28472040388825925 0.1177388408651489 -0.02895269868201639 0.00571148295391508 -0.021775478203988535 0.06172200139918496 0.11277020043133247 0.24002026754546207 0.07183194551163805 0.1443135002668619 0.16526752042297216 0.05412594744978886 -0.024636817834472233 0.00910728542867902 0.12353903108344491 0.08733861133704504 0.018764441875319504 -0.0202664497972385 -0.028684947673099776 -0.3083901858438729 -0.3087410484814332 -0.20354579015568916 -0.11754387761794939 -0.05452210779519624 -0.017967624881162617 0.05369598144513502 -0.0010690526203618563 0.11370060702459689 0.18674113767938286 0.07300106000747902 0.1133482372537755 0.07679781777836309 -0.17921911425090845 -0.12497607833958992 0.055444501019399864 0.10981004764934364 0.09524211980721052 0.021362992382766562 0.1099311733337898 0.025736955281933215 0.14715826265791002 0.09612743477941098 0.10432068083026518 -0.00397132592460951 -0.05732374858004978 -0.10297243626151562 -0.0035028206992818627 
0.2558244122262363 0.20593009764720405 0.1606727985360719 0.16484074687531267 0.09304946640292926 0.038305165476737416 -0.005787201697927763 0.039291513604196804 -0.002047007531592497 0.053438931182467155 0.1391825285934626 0.10271003450794329 0.09894339776108946 0.08851133851657986 4.610536975157537E-4 0.023714643824385657 -0.03691351853675752 -0.015020422122982022 -0.1530309998672978 -0.07143993601535252 -0.096065441470647 0.027954164781603254 -0.1358763900973032 -0.03527782598357961 0.034565405398827805 -0.001854638384400009 0.1580565588547944 0.04268343867649372 0.13547366044274664 0.29258758658782247 0.1497103147714774 0.024572328852393396 0.08234664152177341 0.06448634843375127 -0.01599198957548929 0.09148093518806488 0.026392090990426432 0.1180342257559303 -0.01783515448078592 0.06107369642969455 -0.036876442362841946 0.12219691975721661 0.07459718355696254 0.1135132626166728 0.17961824170491303 0.03106182047835538 0.09668098604892918 -0.003929377529915869 0.04247691276660458 0.06050826220276557 -0.14033766216492854 0.031160714180952228 0.028598949971733 0.05940460476753287 -0.0329474518491611 0.051867161215775275 0.06344868910808504 0.18381513285216347 0.10728589640515869 0.03160555101560235 -0.03729684057545983 0.03509751431869433 0.12467236973236201 0.1116135157679141 0.16653933364951007 0.08629214966360285 0.07191751895287843 0.05037871106336896 0.010907644849150825 -0.11865690995526254 -0.05556812946791175 0.002068325700120992 -0.043071537444043656 0.09210281290781903 -0.03628663363744145 -0.07668972507586218 -0.05666770638559639 -0.07008784741658006 -0.06683836136470378 -0.08299345110352851 -0.2253629473423655 -0.11762078191601998 -0.08358259681690727 0.038210950948395654 0.10993205229960162 0.17526705855993308 0.11101832988445573 0.10479350952283101 0.05190620549822965 0.08765510861467332 0.07629041993691853 0.02880553598066717 -0.07149710721513423 0.04488051780898187 0.09792492866532816 0.05439070297285895 -0.08455825905912513 -0.10367645347062551 -0.059142522038018654 0.11614026235613417 0.07124631558155914 0.16556772234959216 -0.04916896434110509 0.04936351687139719 -0.06522227474211158 0.0718552291327384 0.04154117487880746 0.08312873746531067 -0.07879268560704242 -0.12875471355439427 0.07978713482318149 -0.009156048787164086 0.12643789051173945 0.10664848082000489 0.1203573971816438 0.12166702589946275 -0.013434031733771664 -0.03378564759408492 -0.08147113335039079 -0.07414252490550417 0.028964087573263235 -0.009948869287078433 0.0703367455388646 0.03429079981961828 0.08399902512015116 -0.041591350728095285 -0.05279307048652656 0.09965549802855024 0.046554889130575386 -0.00492397551874423 -0.19335541452524158 0.008575524190680658 0.07993633049404565 0.06324324780133307 0.07632572269083204 0.03517201108847229 0.03907969819012385 -0.11082501240363359 -0.06338700993295429 0.13434059370566329 0.12485342585905328 0.0692136171994628 0.11656478592154189 -0.021588259925880454 -0.02824843625509425 -0.07478389206048856 -0.07721691566270526 0.054799584050595554 0.11512299112793647 -0.0013598260624191935 -0.0319836384367384 -0.05499793351042423 0.0061872741781627775 -0.06784478968484786 0.06164437013781886 0.042386880016743914 -0.13540824562580256 0.017227927490112413 0.013409235159172767 0.12880535791531364 0.08086071618956034 -0.053413502899671735 -0.02209944965008227 -0.025422025216766855 -0.0701569535554961 0.058325081973496964 -0.10075073756350794 0.06340497126688413 0.09883450259550279 0.22914350893660623 0.01084814109626609 -0.14025105364046192 6.312954095511102E-4 0.03678661441027976 0.1291814007699704 0.042766092593238776 0.2139461916998062 0.034274028317132346 -0.027597244052493898 0.03173371488330036 0.04443364357853545 -0.0371818278953094 0.006909779009140565 0.07149837027307776 0.02132763739341536 0.09854609536435154 0.11373226453320026 0.1536301026308093 0.015510504688078085 -0.059263297032395246 -0.07191703488262056 -0.13957984075239113 -0.02488968793497693 0.0074507353373191795 -0.021232749317488826 0.0043462844223252275 0.0716135758042963 0.1667973254377547 -0.16842101790558806 -0.12303031035370626 0.025747524138194526 0.04388436889272848 0.001858387738988235 0.05386132619502218 -0.0072291581721718986 0.05882469558924702 -0.03866045834930427 -0.014353648012151811 -0.023144413372921776 0.08425701368527194 0.09834275617512435 0.08831599222303765 0.12621796957308284 0.12110373976709819 0.1550040337221242 -0.0716596572677475 0.014886316183322437 -0.025634880064771774 -0.051728525050849905 -0.14416175355203265 -0.008030054303679953 -0.01358665193959566 0.07354246954820898 0.10959033025111353 -0.06628998130045781 0.04953065172097564 -0.1724285589338001 -0.03665633826468622 0.09250443101105764 0.0019007780860929014 -0.05518640639380537 0.03199680509497901 -0.017194355315240807 -0.07769956114754006 0.004356927850283274 0.022192683250415006 0.01644851685394257 0.12728779528055834 0.1289491152527947 0.19713276895897347 0.1796116997824688 0.19429836177222615 0.12943394801863725 -0.01919060638094095 -0.12578916191164 -0.004785119911023556 -0.22677249591196807 -0.01087462058929015 -7.524600017385053E-4 0.08652748160722291 0.0861033033973229 0.04181793040961304 -0.031063645806774145 -0.11033502828259922 0.03364313037153635 0.14376277570183488 0.15796273977507488 0.07090634619531537 -0.049075196703791894 -0.04852128433268499 -0.13069736582577376 0.003272084468395343 0.033507928724845065 -0.012698767991372067 -0.03935716804310786 0.0173054999511223 -0.04695517258853734 -0.02123782212474112 0.052539224552201794 0.06961323540929251 0.09184239878389158 -0.058242471552609885 5.094972724588952E-4 -0.05507989208456422 -0.14756880778220652 -0.038727009396168494 -0.0820338107036787 -0.02228149953866526 0.028774512028032207 0.06571020973160134 -0.009686133390776874 -0.1424172448681883 -0.08211832261579521 -0.027537142238742898 -0.046235763974306454 -0.05638588645993535 0.09229457032299564 0.023823465449027394 0.018837587863256202 0.047780621300999956 -0.10068218979734933 -0.03930022761036675 0.00429153516862594 0.008203355234761513 0.09207582995708302 0.15043168725462883 0.0932614437606985 0.06384840636653662 -0.09800300668578574 -0.026497993917905315 -0.08470784412393882 -0.11003223888255545 -0.08276189122876262 -0.04107072162764882 -0.030335874638988666 -0.03790139903230873 -0.047230652717348345 0.11558758111163814 0.18285715179328949 -0.10194551086287333 -0.06694182302712869 0.09131818666453419 -0.058036186770921844 0.038600864760666126 0.08316907466219117 0.03103460325345517 -0.008190178149306547 -0.09527819030267713 -0.08218293187126194 0.02430906597058727 -0.10046689170162847 0.09178481106076707 0.14738527989270603 0.12045437635981801 0.01882310574173723 -0.02876639826081348 -0.1761410397332228 0.03029620247005555 0.002672790168932428 -0.11864344946611806 -0.09659534904402309 0.07685971809741445 0.06383657883568696 0.01582598110160157 -0.07628313155135347 0.05075143957249187 0.041607396345967274 -0.22435032215425094 -0.17231637610748177 -0.12585456836325243 0.003217020518481647 -0.06768551747339868 -0.04042015145914833 -0.18288197834283162 -0.10930167263912033 0.04910746059361085 0.043076049220234905 0.05370216784370244 -0.006502931829840105 0.1115932274104852 0.1179615613723878 0.09736415830486922 0.020023412715487604 -0.09230684606761887 -0.11996855285013487 -0.2201574624075237 -0.10405793984728252 0.04877379448907442 -0.03918342643919464 0.039083732958616085 -0.0879720430842665 -0.060748004337819815 0.09981559079459336 0.11371810948860793 -0.02474824898370572 -0.22120310749424246 -0.061564249128508976 -0.06427563058558654 0.02215913002356413 0.019436638110588413 -0.041819031853466325 -0.08504324842088909 6.191324225757542E-4 0.02784749640245161 0.07684651968989177 0.10596979217662889 0.013900890431313323 0.006173390139115011 0.134228652909545 0.08852652232640872 -0.02875635416958633 -0.09481617273036709 -0.13480196640449016 -0.01007325928006758 0.06219296869841102 0.12877905554656158 0.11740949183749447 -0.06638442997303573 -0.02899932337071496 -0.06854157567619748 0.13834779658875657 0.05336223637688764 0.025008978487692998 -0.28745678247248113 -0.050969327743870974 0.07695450256334573 -0.05451620402376867 -0.03774076474271832 -0.041149862060296576 0.03635607401164071 0.02216576036430832 -0.08144185701717885 0.06349446902530458 0.032659531332341986 -0.07568553818404236 0.03672210097151225 -0.10486450318632315 -0.12924022242381797 0.03306707177750707 -0.20596633320338298 -0.20533919469687498 -0.053432551443657 -0.010018896483758722 -0.057533905244853516 0.013797661533213544 -0.009834206432877987 -0.007049141910992355 -0.030634841903965013 0.14410139792345356 0.2602478613669802 0.07102593615052182 -0.2198351941120842 0.018745433245535688 -0.06376053636931164 -0.0030668597016190844 -0.06452235910574025 -0.05638610768329685 -0.11114654632284672 -0.0073976738731172985 0.04734959635252087 0.018509728841279903 0.027744318005222795 0.02252607958895421 0.0010606984682857484 -0.1272055997308452 -0.08316354120600142 -0.09998373761927347 -0.22809160563742403 -0.25241108427882836 -0.06362070927230551 0.02152607501274488 0.04688525941410593 -0.07892942593011187 0.08086575240212672 0.10516608456259245 0.07130860510504755 0.08173562331217148 0.1499633357213741 0.11228864288074271 -0.21243256014785442 -0.13808645343197132 -0.045819246764421714 0.040603748637691915 0.1023116217690763 0.1062816639764207 0.06730316083312855 -0.06668401869285262 0.10568060720537366 0.029563868022131297 -0.18367401784379248 -0.05067524448305269 0.021175977562865142 0.020450503111129267 -0.017393075495494053 -0.16300106221353183 -0.10122373523023048 -0.27536742332402686 -0.27211936053997654 -0.1398591720823051 -0.1055289209954259 -0.052674455626104004 0.1645656828343289 0.2448008860245524 0.0936062885377039 0.0630775693129286 0.24274763048539708 0.07491746576236653 -0.23121722234035963 -0.27144658826268675 -0.037624802209356274 -0.04389907982558709 0.09502472557213094 0.131481982029303 0.05985991911516569 -0.010411004567630652 0.05302662261130518 -0.04609823263877418 -0.12186688718215999 0.02824226482846024 0.033688990557939655 -0.12886352860895783 -0.28259297692480423 -0.17304003323896971 -0.17747717785854394 -0.17397305665387985 -0.14234181696109133 -0.1174512560040803 -0.04841413755992758 0.04916654908629388 0.12613722715707112 0.18497583039610935 0.055969576553513256 0.049343902764402744 0.1081015430419944 0.06326615599771462 -0.06850372808707031 -0.19177349464472312 -0.21549427550181946 0.04764689597228143 0.05982035470953287 0.03628139721937764 0.11029708279953947 0.022667616146883986 0.014556401127095922 -0.00875483686104419 -0.09590837675288257 -0.027634404993864752 0.020534376322886003 -0.08945518007446304 -0.16743534730194176 -0.13366689307836888 -0.14728646718113136 -0.2145535401519056 -0.1721479708291619 -0.13390184204386776 -0.15898611192142045 -0.047063447442770925 -0.008732418542126467 0.10501432579574815 0.1078905778453187 0.12335699616245599 0.11382489464820793 -0.05062551000525882 0.015693560435950066 -0.0175987719639296 -0.14050132272463914 0.07895401838994144 -0.010969853957641806 0.0992896605397479 0.05628676860824575 0.038917923872890905 -0.10013368947271074 0.06920635021601876 0.1438727193740809 0.0941827266372404 -0.03318490977658187 0.05739152447803347 -0.21322541083193042 -0.23857903385778956 -0.15581843496951467 -0.16711122699330097 -0.20655941998600552 -0.11263984424854945 0.04611382693725552 0.005809077826577166 -0.02499274906672219 -0.013977430101646648 0.029472980639034713 0.11181156870077058 0.07492686457440821 0.00946025958241699 -0.0503246627749791 -0.05192475704622416 -0.019221333447930596 -0.015129535289425284 -0.02264920235799042 0.010090940676449337 0.16589172338616365 0.168848257594617 0.15149391611607643 0.07646525928235584 0.1367331024029384 -0.04892885159414002 -0.10667220707794058 0.003530993217635197 -0.22183072508834695 -0.03968577327406609 -0.11021606565075348 -0.12147988621038062 -0.19181075177021809 -0.18363261970209618 0.014785962712711131 -0.03848299172718289 -0.1385289279347085 -0.08368525622918134 0.007514983467513004 -0.039620749927181925 0.030250704640132752 -0.06848814552068075 -0.011695468672056163 -0.009502394845510019 0.038695833333026515 -0.025788311370245922 -0.11835484734000956 0.058953669424847685 0.06426954764462355 0.19344319693167306 0.09648718678264309 0.19929222856959447 0.18307262411792483 0.042925767061147375 2.8498356385855804E-4 0.016408374732515708 -0.16353247713016347 -0.02276662112807856 0.04005900566080982 0.016940768369837614 -0.02064751719603874 -0.04931106070484895 0.03354418996860172 -0.13009556123000524 0.17152614519370477 0.013381375932853006 -0.005095787283235603 0.07961049005946366 0.034412506055881496 -0.06653595336241139 -0.0993450161944187 -0.10730039632469189 -0.019223785453059326 0.04182943436861653 8.448592225395824E-4 -0.08069551330310312 0.0684793549685736 0.10591775527697861 0.04567538160460909 0.1843955135305385 0.2953749869686003 0.06359278837454665 -0.029373231285214175 -0.07899809513408444 -0.17449529339434963 0.04801034440954013 -0.0027301265977474867 0.03042338494498405 0.04731922085132499 -0.12199493063169155 -0.051265121179941094 0.01118841179884085 0.05418014266220503 0.1303034503320641 0.0815373011618962 0.06515739125679448 -0.02832212805313061 -0.1449000303657978 -0.13408100663980804 0.005720398795973761 -0.009483717058638095 -0.025898691181132465 -0.03862621342115648 -0.09112598433028143 0.09609058728087197 0.1418360323661709 0.19663047293116212 0.14719349195281065 0.19461265593608443 0.08471546531358075 -0.06802051981940595 -0.2201018788647674 -0.13487570257535111 -0.06845631077870404 0.06219694898136856 -0.2052029766328986 -0.13598742363248903 -0.041678573032794056 0.03674247517574876 0.023721504236498926 0.010382145338589359 0.08645253638063095 0.113251981537441 -0.03799435495208782 -0.12316060643080204 -0.03530011362874967 -0.19098823367120052 -0.07554034093038699 0.04936591228396641 -0.028314720554100378 -0.054219523170488684 -0.07234765262988666 0.0799501466232382 0.06911622023001276 0.08740866885880154 0.12090241475585636 0.09387660240126418 0.10392313385620196 0.042715769763501804 -0.12989756165173708 -0.25415171303282125 -0.09325374310267136 -0.0449254359646936 -0.11234719538704226 -0.1637513077720919 0.007309622793233592 -0.042342488049405255 -0.11987852025253357 -0.05359870750926479 -0.012930300855629268 0.0012043976533480125 -0.12689172266661825 -0.13532802875402325 -0.04732084262758622 -0.0934050409565522 -0.16819691133699566 0.1096293909135228 0.1573060788607019 0.01823941906017579 -0.026259485275671367 0.031805509540687164 0.17009442159726504 0.15265031098882206 0.21600027523891469 0.2890481598217233 0.06252815827760105 -0.21178675734644184 -0.10481126161828813 -0.1322347522723216 -0.07189918488906712 -0.037335733611871154 -0.10846771502868352 -0.06684204538768003 -0.01675985560067111 0.02886548392547188 0.08808727813022021 0.03796114356132205 0.02388934124086858 0.0019398802353691705 -0.1051177277738818 -0.23761763797158517 -0.23893685347029547 -0.04303490802932121 -0.013722348292203937 0.07435640351214061 0.13400150912962253 0.0034027470141574073 -0.015757546577485414 0.050987775452176406 0.22498837334951177 0.25423900893965407 0.1913550737536486 0.13351867396207984 -0.036498807834348945 -0.23668155325346324 -0.13521827421098787 -0.21488234244387774 -0.05943772404433664 -0.07240827852579246 -0.22714708543501852 -0.09051430968663353 0.09147871962235023 0.11635500299018484 -0.10257066139742485 0.09921798195564063 -0.02080344522287094 0.11102893462579322 -0.05467703857322722 -0.18756139669836006 -0.08785583982352485 0.19050141307843416 0.09292780428197285 0.04386759479982583 0.05348179974795671 0.10422568102213389 0.10258701588505234 0.20038893695979443 0.05392158438819544 0.03991970901068772 0.05461984061259004 0.024451782387930866 0.11870028254785564 -0.04816484325856819 -0.3136209589281509 -0.2280850488931466 -0.2895973723181584 -0.24797468227995115 -0.2820303475007617 -0.22723329560648767 -0.1515220854522157 -0.1082294708918402 -0.07121504809542376 -0.03550355794824518 -0.032810607436705004 0.03392956990503576 -0.04612159208771436 -0.16863679686546051 -0.26645873250988805 
-0.28974199144390533 -0.3177436205736666 -0.27753605754630345 -0.18880683417847038 -0.09354628839452857 -0.09656000020736936 0.053878613202174616 -0.03163695233483776 -0.011723037019062164 -0.14737033743786238 0.004079466733138128 0.007244982033095728 -0.09252717391260494 -0.03605234964262418 -0.03405289700105878 0.09313008805869397 0.08092369317675646 0.19077055493883435 0.15972821545003277 0.007823218400855382 -0.028556745503430316 0.019342528370254193 -0.03975123158577532 0.023904876606026467 -0.011899115636687697 0.08305074116886732 -0.09783395705829297 -0.11391316809213185 -0.01910804456766975 -0.2431299048905 -0.21097704787885685 -0.15375764862629954 -0.01841160423121444 -0.03440920349150273 -0.013741335531484792 0.035176736831881585 -0.1179405939083508 0.011357079612537232 0.07275814171283963 -0.058120112016901676 -0.0259416705831333 -0.047283563431101405 -0.04996224159361786 -0.09767659387981169 0.020044846480055487 0.05741303786006723 -0.08450211088499145 -0.01398499105942806 -0.07017408735108606 0.08259012311083262 0.16766832426969208 -0.017939817884996857 0.03078685176890685 0.0397503278484776 0.035561512384133076 0.0011419238476570574 -0.04095644643720632 -0.28537342592870746 -0.02824772821899779 -0.06711530596044936 -0.11382054741543664 -0.02802927786817328 -0.14348220937402875 -0.06313007707431464 0.023146484321286603 -0.0020079677389920033 0.0379231251658735 -0.0186427107486661 0.04592568388744896 0.09378390387498074 0.10838355021857635 0.04690298470285845 0.07064860989431623 -0.06525945905253186 -0.025981111453006724 -0.013555514040027068 0.013354340570795735 -0.03217439870158207 -0.014665654580780889 0.05009053714332453 0.03786464633870143 0.1282912590382899 0.11988405710901073 0.02976537566450112 -0.028609733442085453 -0.13681303972970188 -0.07213276484636655 -0.08116237398191326 -0.07586581611322223 -0.024853668907358392 -0.15242925673660732 0.005066960272608392 -0.056157927372770935 0.00802848639869029 -0.04411947413714933 0.05062085473745179 0.03972897838023957 0.14651006837237962 -0.02214288983590009 -0.10676838715233647 -0.07162533815046694 -0.05774245347591024 -0.07347683048617173 -0.12910260038786764 -0.025256230481709392 -0.0777591033096909 -0.09197427670945832 0.011852518249683282 0.17981869669228012 -0.03739359702470917 -0.011220896965458351 0.06198761913338099 -0.11386606484030863 -0.27026130383458996 -0.07043262445049135 -0.17836808115694724 -0.0913955137431315 -0.008480474389969782 -0.03972519101075435 0.03896794247194218 -0.05622008301106216 -0.07040454843132227 -0.11088321617882942 -0.047660989327230924 0.013367457259307157 0.05130223981548883 -0.08100444771830974 -0.07903545314265499 -0.15750292767308738 -0.03794840040398542 0.05904043062657262 -0.07025214602908184 -0.11335355475548979 0.02921145268316717 0.06233055810653207 0.19424666808584523 0.13936296851947017 0.008416816075668134 0.01351683666886512 -0.061500649162159866 0.005738874443065083 -0.1324115290051992 -0.12742162851183722 -0.03225711387845499 0.02011703274593977 -0.07562601198416606 0.04170869465450713 -0.16863625913183092 -0.10916041139484993 -0.03907758098013996 -0.03513937657358988 0.07872889758408755 -0.025766732317237875 -0.0656719947344032 -0.21163857713795778 -0.13059521183238937 0.024830805528743 -0.008896531717466799 -0.04806573530068864 -0.055716720696469935 -0.05412596824393445 0.08473502545777319 0.1577279291348802 0.07771705763314081 0.1075519122698717 0.004599320108927495 -0.01677130341260153 -0.061248906466916456 -0.14177151312222266 -0.19036394482364288 0.0017488266586824393 -0.010643736451885011 0.014627904972796304 -0.03737598940656469 -0.03379266394170139 -0.1245892681285385 -0.12136745408671874 -0.06426277368806825 -0.057911531122849226 0.050142664094558635 0.026920896096371636 0.02459571651243698 -0.11460135844115324 -0.0036028963056788823 0.0350162928939518 -0.1203656014674883 -0.08803951274767752 -0.07928885925616638 0.01577420064425582 0.09068869259337697 0.01260359769510668 0.012585663525034383 0.07600433235697464 -0.0870840045690344 -0.09501767874593613 -0.023395913259950673 -0.0797580249604332 -0.08081808490010693 0.0042160092407587035 0.0018032655867214246 0.009566870752605896 -0.01630691142300596 -0.08286779161449197 -0.09588829666365163 -0.011671325290311908 -0.04249272262171243 0.03159511684880023 -0.04872575203182419 -0.0013752405715070784 -0.023917796973752955 -0.185322842662076 -0.043771541317629115 0.10077734830272936 -0.06161883788418633 -0.12040047274895455 0.13950776112237523 0.036333025334457494 0.043481538819858716 0.03357115458923091 0.0783683718802578 0.04484322066556343 -0.10962478158549566 -0.041606959487634904 -0.11026996885899178 -0.15155218632167639 -0.04243211550522821 0.054939825817639176 -0.10070390830294866 -0.07815144587099804 -0.030923303769586515 -0.1887329708081721 -0.0015172293322679115 0.023886288496524362 -0.05307153646003359 -0.07165776205824946 -0.013559977356085565 -0.03543112536404138 -0.19171353800220228 -0.14918654245489885 -0.17782193132527904 -0.043598816626575325 -0.02019595796050121 -0.053061230164008766 0.09174459289413739 -0.0714347281639811 -0.01123022271215819 0.03556151603087504 0.03649110278541537 -0.053596393498156356 -0.011006622510795048 -0.0730795651880005 -0.06957808233955606 -0.15892815815741018 -0.07922618912260906 0.01687888101758484 -0.07655800623126738 -0.0977880348664594 0.033788011353522794 -0.055738581356783494 -0.044948225220301806 0.05393551080901524 -0.09408437030385132 -0.07085692468933992 0.07982816678333905 -0.03131368049387403 -0.10676531396579572 -0.13983484624624865 -0.07086081384099291 0.05344634704197389 -0.04167616702472383 -0.07159696727081452 -0.10446253187009549 0.031368675705380634 -0.043294956562920865 -0.030371881855435986 -0.09418153659425386 0.009982289860878325 -0.19578106214522248 -0.031045172733432123 -0.20261857796611846 -0.13763629904291425 0.012717287745597081 -0.05551274471186283 0.057585846467543764 0.021281052123686237 0.02425608901914391 -0.008803344363451374 -0.036267250457781355 0.05524475079359175 0.01629380455540638 0.12351757123348793 0.01050802592528518 0.016981505937275123 -0.04754812717606081 -0.20903234929681677 -0.18985141014520765 -0.015502463404747048 -0.10244265050984688 0.07586684824226377 -0.0603046818241112 -0.08237506450878733 -0.05479226585554729 -0.03468757746785355 -0.09533336368138569 -0.05269647620931514 -0.09589162236380117 -0.15814305000759885 -0.2712873181933421 -0.2101171957810102 0.07149805117149104 -0.04364337307864135 0.03138802919499761 0.12286754531545654 0.09204607133508443 0.107043090218852 0.09087494854396308 -0.0016506064416595822 -0.019785896218159144 -0.05928404983392278 -0.08116097065276855 0.031837017039944376 -0.11711012616094027 -0.09528861020326639 -0.07829847750670353 0.00425217068287426 -0.03914274214757703 -0.10939208262883941 -0.14608738464111307 -0.09988944030158826 -0.12249173992074845 -0.08178096572238677 -0.24174978325381197 -0.10852964478394343 -0.07571632364376968 -0.19453520765632656 -0.07501907193017125 -0.18847767415426472 -0.004492078354782945 0.013666735067539543 0.18154510502745966 0.05429758202551018 0.18758520121300018 0.18371384952297126 0.10687539461179787 -0.08631047927364899 0.005137436778375794 -0.06833016358803289 -0.2289781267056478 -0.14340595014970609 -0.0785612378471269 -0.23793207428834084 -0.04130656187441201 -0.040897235338205204 -0.11244273371974524 0.01097403328084386 -0.0706153569530618 -0.19355997951375944 -0.19352760154277243 -0.06137123707524115 -0.06184176765372839 0.01519340404315537 0.0070545264190641195 -0.1646096501012453 -0.19767414135325165 -0.13172167579529595 0.05180204032605329 0.15615169305096438 0.15128980562733801 0.1635432837307745 0.019062185707375688 0.06685761326200171 -0.09331456892134436 -0.07209293337796129 -8.508796066084877E-4 -0.016304016614820765 -0.1392041217635214 -0.0775849680292008 -0.11542645183814307 -0.1586176203095896 0.010426261931056934 0.020911199188637593 -0.013340010289747902 0.024996618192571887 -0.012173739938601437 -0.21029176563865876 -0.23346685666505868 -0.04512298477464823 0.017986836570986056 -0.04783703314436416 -0.09226467650316728 -0.15801912508849608 -0.18651124356408763 -0.24461718315670478 0.09010635786159744 0.07710097709419048 0.052101462018605285 0.041826089677918406 -0.02872068103837638 -0.024175404229046186 -0.03370323038566633 -0.1076948374810669 -0.12621619156088115 -0.04195702657453922 -0.29660219384615993 -0.0443550879378716 -0.014220827338548079 0.036645693058453985 0.026877621749932776 -0.08548073070282199 0.08526297539293122 -0.02809637917760956 -0.0994279188236231 -0.03870491515115353 -0.15382029640219963 -0.0636074380960555 -0.14123774323131102 -0.11923749332511534 -0.06361045520012672 -0.07971748102622946 -0.1917443795172169 -0.1397147876033036 0.18403176380965164 0.016725988968208014 0.05004711809043124 0.09831634088152419 0.12317453177738698 0.08267267019371088 0.044271897180954964 0.030819663502855844 -0.04171951403357962 -0.12185113931367357 -0.08068983552901642 -0.06496215984966927 -0.014198081781555323 0.004849664971827398 -0.02632821921862492 0.0552237082048192 0.11553158424194801 0.0159811892359209 -0.05357331284478482 -0.1424947494929755 -0.09893062214491558 -0.12869806456373772 -0.20218770133082542 -0.08891019061074634 -0.08309453526779341 -0.04739858832235518 -0.2630184101751912 -0.19000220058649406 0.22181815818911205 0.15339321525761446 0.10423626865550582 0.16028613465580946 0.04030084360629274 -0.060912586742707185 -0.014022144086916582 -0.071507415298473 -0.09794544427111755 -0.16177250973607185 0.023186801771458845 -0.08134149028601521 -0.041082775533145245 -0.016650566871983873 0.04395797437824295 0.11760353121845901 0.20794676564368256 0.17319745560237446 0.2566122088054249 0.18696822954100348 0.025024103350119453 -0.04120576865771942 -0.08090652851951609 -0.0827320862275656 -0.13156039023561797 -0.12062997256191232 -0.13134935722252652 -0.1692832831023776 0.21003942637925305 0.1684383888389441 -0.019717772433350343 -0.0787383143665039 -0.005628704783917737 -0.19625515321110087 -0.04604768445535826 -0.05488227063950682 -0.1166226126780594 -0.05949694193578598 -0.15251124341458036 -0.005914898541152011 0.06932941686221032 -0.017004050787241248 0.0633921069751458 0.12188178462998872 0.0955178892777592 0.23431520897429592 0.14929078166226753 0.09161672812305542 -0.018292192609568592 -0.016477955246006384 -0.06697292614114522 0.015406728628171305 -0.04911979990567582 0.10972090108368926 -0.07552098842409276 -0.11266694132197874 0.02542575635629238 0.01707993283147907 -0.07022944012253145 -4.2077336931397913E-4 -0.024238641329852408 -0.12129939196742588 -0.022798289101543117 -0.02263877752840759 0.10324247078961202 -0.058462173604438276 -0.08701498595074961 -0.01687354636183453 -0.0546771452260211 0.06258101071940873 0.10809306904534186 0.19682788837179066 0.042740132636354906 0.0900218442824552 0.23159816753541548 0.1403679327302905 0.12219284722241121 0.1324435518181325 0.14819548396061458 -0.006153780258390366 0.05846731776248743 0.10407791071823012 0.029291053079989908 -0.11970756999292878 -8.670484304942249E-4 -0.07044169381527252 -0.010858712111850848 -0.11564304548861086 -2.949170384358481E-4 -0.03492573009849309 0.01552992221092683 -0.041439242468940256 0.07893553145014998 -0.007647171809960442 -0.14963780142841873 0.030145666442491642 0.07494724627550632 0.03466182897619979 0.08122970650255909 0.11065983832427256 0.08899083272462933 0.2995787303952642 0.31175865064556973 0.18897239937382668 0.1638444819453723 0.11117711734778281 0.049288719830244125 0.09904418426254342 0.08815449364745204 0.008792262129942599 0.021365104771313388 -0.12919536839400236 -0.051733406446815816 -0.08243951426650908 -0.07125522714305035 -0.05743037193475859 -0.07980256120689079 8.772943528310398E-4 -0.10485490929552213 -0.037830989656598764 0.003693366181455527 -0.10383871869172981 -0.060420674565388875 -0.04432509409799644 -0.02364162851442463 0.10163660165037494 0.16164246119555448 -0.010409267565594627 0.14672616578275896 0.2021950315625435 0.3250986867345208 0.19366893343283614 0.15721963101320507 0.1449884359348136 0.21424479706806518 0.12993992181937158 0.04229313409025294 0.004555607580275003 -0.06324126066477542 -0.11256183930270133 0.03661919960916934 -0.009820759502704324 -0.03800129132088005 0.05398094833253292 0.11219101541605281 0.04374582391419974 -0.10313087892292126 -0.10447741076704065 -0.059664964906809566 -0.03282893874305724 -0.13729795836562786 -0.09533576649430789 0.060293448951730444 0.040898206534938676 0.13186971270554362 0.13411232067374204 0.042918231781850995 0.24913539965579923 0.25642371860327573 0.10437127546499633 0.19428176793449506 0.13155410922393146 -0.03768100036282403 0.10784171872632821 0.08924894278898607 -0.05813075165102957 0.055655304112960206 0.0032245927214232892 -0.0019452809170593538 -0.016728640046004422 0.018426159222302552 -0.012228754474190116 -0.030001461906077866 -0.03057874779621313 -0.13889261183061594 -0.04598719031469894 -0.08464390063941996 -0.17207917254061583 -0.20398904548935287 -0.10315661074347325 -0.017319405213983854 0.10551357452429082 0.16922419770960656 -0.03905085776491023 0.07755588303464167 0.11089297784125732 0.19098412991670774 0.15919906947874074 0.11319939779599607 0.058486400172417394 0.055965781794545415 0.1898607736425592 0.09181212099166987 -0.0074886235009927115 0.07852677963927839 0.10983516884573456 0.001387208090768092 0.0034894221369027776 0.057306534856063684 -0.014563415958154914 -0.026267936429313337 0.01043480924434549 -0.11065792387666977 -0.10594758785641993 -0.19147530422765338 -0.19164027639004824 -0.154503533885627 -0.01986209313768091 -0.006975555697773853 0.0022445174797997187 0.1489389480064943 0.18816115959214355 0.1572623083897788 0.15873025014776165 0.25535877384587474 0.11362224229550594 0.1823617499918114 0.11393805373712663 0.08872262714483006 0.05937988701297425 0.01780178288961862 0.08482174263361453 0.06520790050548257 0.14608037718495448 -0.030199001436106803 0.04448805452570563 0.09941021633249725 0.07750412963367005 0.17850298236057188 0.08168261136780235 -0.170808365874534 -0.09755078652916542 -0.05638628219862881 -0.1763092691321818 -0.16728317773761928 -0.04453445270732763 -0.028334052603162425 0.07036360940551155 0.1267865694791211 0.09867097274728573 0.11941801414724441 0.2394359160305859 0.2258402621680992 0.15399429528758382 0.14171923888446203 0.11649935985530321 0.13666876867105118 0.05622823502324077 -0.0023620761644480154 0.11234526157413975 0.0935289345298787 0.1376014603053774 0.059406382613920464 0.04926635611793631 -0.02075619486001831 -0.07317784738829405 0.07834346772592336 -0.042211249821083915 -0.03391267675486587 -0.14928636229394723 -0.30600580204467676 -0.21912085672642065 -0.2359489472531775 -0.020988351975851142 0.07266316765521452 0.15753320126704912 0.15389535123005865 0.03977663277823792 0.06540151138960985 0.07636762959323642 0.0430274472630411 0.03081478968468126 -0.018201734606344357 0.009795252923639421 -0.06317649825733221 0.06744004113510357 0.06601451648889992 0.180178593903629 0.19990559800198374 0.18302741656084917 -0.09335302262705872 -0.1012375532201426 -0.05727443369397204 -0.09666589514780759 0.0537212656121641 0.014487664042981898 -0.0184050656017206 -0.243880454624428 -0.2490429779759184 -0.15984493242920372 -0.1600230121607738 -0.01713516215975989 0.10791965244097226 0.08280692608547434 0.16664724660028293 0.06319750348913575 0.073051867251666 0.12162518463634794 0.049613849944184336 -0.00408112002390182 -0.09550987889041475 -0.04552587580686353 -0.006349900102650052 -0.038183443309685414 0.07892627159841929 0.16392538020597747 0.21607992318189934 0.11839257382641427 -0.06269692514149312 -0.22756610084241535 -0.01046029402909645 -0.02250488222226366 -0.02201357576752844 -0.0858589329113973 -0.12179766686282688 -0.10612808265684752 -0.17767846955970681 -0.12773330965487906 -0.06831078179307631 0.041163873297653746 0.012813080457348115 0.17363246755096345 0.3395298707849447 0.3001643910380201 0.33574018448381715 0.2180714714992205 0.16819958803395527 0.04860204138230454 0.03563179654430228 0.05602824778228346 0.15890273009533862 0.1920410427151208 0.1647389514486873 0.14156342857710738 0.17462396129010732 0.2487827883920221 
-0.170028099772653 -0.14270552850349946 -0.257521465519614 -0.16321975692012297 -0.024723768174018685 0.008356966953491085 0.049661007240058716 -0.03662770816671285 -0.10945893225937305 -0.03452585081009492 0.015827254859938352 0.0812080133933533 0.1848086320069573 0.08882677057631694 0.21105396704540785 0.08015951517523788 0.21335102354416982 0.18839822164477432 0.10053007772231747 0.12444535509181574 0.15567691413245538 0.10175640378736828 0.16218952791451277 0.08920877204803766 -0.011636796404219179 -0.004302344727454598 -0.19999021481731427 -0.1875478203419255 -0.08382167085774435 -0.31433275371197456 -0.2578584068653817 -0.13106212079174265 -0.05267391137206224 -0.20408917832288673 -0.1997684761503354 -0.026429203587040265 0.01027995768366271 -0.005916816517505033 0.19346221329542376 0.03599427992276095 0.11861750598662958 0.15755512461849852 0.09023468790261135 -7.626353823545447E-4 0.0684613506050804 0.22345017983534982 0.13824442873456344 0.23603598886712207 0.06948452298715038 0.05200364152983754 0.06119093475385835 0.03423086737260146 0.016782597858211457 -0.0809434137528928 -0.016544333004618623 -0.12068699865909419 -0.25454135132223793 -0.21488131617261866 -0.045812960291957486 -0.0670624178225818 -0.01610942846921767 -0.044089334561713406 -0.06527506109723993 -0.07616329045665557 0.10505731346963754 0.10679605584281758 -0.014004894887155526 -0.0977273201169812 0.10801295283901569 0.19524959441080675 0.09160455640957096 -0.01930874677750905 -0.028827077460183554 -0.11138932514000441 0.07554943480996643 0.09359091087020918 0.05442975551382824 0.13387775959091341 0.006899847012763381 0.027555388986433615 0.15170617867603947 0.06107076858320367 -0.10291946555862551 -0.07291478633984956 -0.22418646737777828 -0.06928419245947533 -0.18883819812773614 -0.04251051343227053 -0.10526550838509317 -0.1599923923519469 -0.015266076141972878 0.033757754430400064 -3.8662106786858144E-4 0.1007571876600708 0.04609717771847984 0.10395616532370187 0.015927040880239027 0.055500107797476494 0.07407570066182567 -0.010316330279489716 -0.05126656621939317 -0.062205826011939545 0.07891686677835276 0.009064738889483389 -0.06788820177944534 0.02513385298466866 0.03667217222712723 -0.011096654357164507 0.05455907133425566 -0.014401082664891712 -0.15757275685789984 -0.06812241304721084 -0.1651952914317418 -0.1319541254770315 -0.09929641695013743 -0.07311490696277233 -0.10041878608034681 -0.012571884894474528 0.09599195430410828 -0.07867794699224827 -0.06317587505927941 0.09039132976594393 0.064837652639112 0.08997129671439111 0.11722258484136841 0.09752410413135378 0.08031441950132588 -0.02089377100248797 -0.06688790227288467 -0.021291103219708757 0.06534482347289619 -0.11261011214719191 -0.0434359113897469 -0.038759598448682805 0.04888641761236459 0.024004457643955507 0.054114407343878894 0.030957144467629424 0.013525072563111227 -0.04741530017360542 -0.08088272560245265 -0.1511308371989498 -0.04689736876010782 -0.044987031752994636 -0.002499679558662999 0.05429204233703741 -0.12978410045612487 -0.053185234418157035 -0.007120292613279091 0.06034744897309705 0.008810544359334004 0.10789555054500344 0.011124937692352996 0.12159278829245715 -0.06338436899663111 -0.022326575581913748 0.08139842394247325 0.004522153534591398 0.06964509535458034 -0.10326564027896432 -0.04681436237180751 0.0477669625039784 0.06943929649465402 0.18909957037685302 0.1336234194883434 0.13059351643113937 -0.09304053279893347 -0.19756717824782316 -0.182231959407607 -0.14365835482420722 0.007957099522010177 0.17102074174839446 0.04517824498453134 -0.05422312674053097 -0.13155843764644906 -0.05916537729550171 -0.10594000833882278 0.012441345940152827 0.01041696965899365 0.21038916838830127 0.013141827743793487 -0.008060991522773347 -0.030251063659346128 0.03378701746943937 0.011736337756363117 0.01751219424482997 -0.02118851026176368 0.057005975285094594 -0.011967172354988944 0.13134907095477882 0.22303758028597334 0.1389787380294725 0.05803948210150059 -0.09554253428557385 -0.14365055076922628 -0.1151735056246251 -0.08717199538276897 -0.11287243572029969 0.18593678288551502 0.09428438586964294 -0.03298803164067828 0.04190130370281323 0.05824378751833266 0.024993064968145982 -0.08382407829191604 -0.016127744492703277 0.0477440512395903 0.04820956085982527 0.03251262260470705 0.011992617636199092 -0.004132934194113462 0.078063728053768 0.03740770482768537 -0.07424142658173562 -0.09219088507253548 0.013368671531780358 0.02382021501701913 -0.04756467479752233 0.10090250165866761 0.11223834543210677 -0.08278994094783315 -0.1473459187572897 -0.15516086833196446 -0.15319344392959802 0.03655496006482825 -0.13934499558295804 0.02317424734312516 0.012447018201854431 0.06094033793724185 0.12185956505067772 0.0980149114228516 0.06246987255365083 -0.018642896559128163 0.05684872868688779 0.04430624811839194 0.08004870584568845 -0.12184214468302966 -0.04147922248684005 -0.09461350654413354 -0.14851614005665678 0.041049436758982774 -0.04206193105311649 -0.05416066564389614 0.14140836505089907 -0.011249914319269786 -0.03820304410153803 0.020822692345095768 0.07983576857742443 -0.09257966243061562 -0.13286611420739522 -0.16738493141279417 -0.18529303946896697 -0.041885120627926146 -0.02740809686679957 0.04172567483808697 -0.16028306076906623 -0.014484168898185268 0.14902591164735882 0.09319928750348422 0.10199296239260715 0.13996082033786314 0.05205193005459922 0.12680173268380712 0.1167398483922442 -0.01791322402002408 0.030037042519877002 0.08233323444414845 -0.08045102380501781 0.02952121462918404 -0.11806946792639521 0.035444323004684544 -0.056537891102729824 -0.04650803823106959 0.12433653330503654 0.1294638808331261 0.13607831620834224 0.03025324289662735 -0.05418195321534857 -0.07938638831079678 -0.051801962636341854 -0.09234118773590262 0.047816787612453567 -0.05493617954471163 -0.1039920189095919 -0.008763639711761397 0.1629339377281352 0.10531720258112126 -0.03529245368316865 -0.045326318218593446 0.10225725749201416 0.07114774310930241 -0.06077197656646316 0.057211303120926316 0.08177688910921406 -0.07863015407734332 -0.1061510894327271 0.028151374548942357 -0.043921185390730554 -0.026215694281386898 -0.01990302910765481 -0.059752243148190026 0.06884472306637912 0.039186707479123735 -0.10427729434283096 -0.0963144129714546 0.03184680253070274 0.030997326591110805 0.006378222647298504 0.04424204779588764 0.20227069139971887 0.14777575398766316 0.06366640833562927 0.07908832532139437 0.09464290671709326 0.06734500693633774 0.12216975590329904 -0.04272890207988829 0.10055941972190674 0.032225691973265615 -5.340146019171486E-4 0.0045111810434557715 0.06736368034577445 -0.07679221401071762 -0.055806794380576424 -0.1475800679448732 -0.012388524274488914 0.10010518237896546 0.06803543354660077 0.008098477799624542 0.027847274332907568 -0.0926291648435959 -0.17709718455098197 -0.08949674574808765 -0.12248533235379497 -0.016732357730391348 0.1021596150312961 0.022557476296192754 0.19312001125634212 0.23468265037484928 0.23034297143369784 0.028077781315197288 0.07574144936826949 -0.009216210182735479 0.03885777942799992 0.025088275489933382 -0.13302732772891027 -0.01679342139435405 -0.051843898345987696 -0.035330607760381647 -0.07366548031011462 -0.028277433382366927 0.012523861579601517 -0.03486015419495584 0.16230136887500715 0.15779528472193338 0.010518319738497768 0.0361170051590074 -0.18951725814567721 -0.18713258668356142 -0.08632709033496974 -0.04660204032801177 3.2733998425137735E-4 0.013450372222504624 0.011247439290148521 0.07441569202877943 0.3480612161155464 0.17904621339496715 0.1432024151649243 -0.009790256705455663 -0.009108021178110144 0.03436052099057347 -0.015284100091507699 -0.14661114953742058 -0.0754358026716255 0.0031025189946428016 0.031427394211850444 0.00694921922188508 0.13507908887615522 -0.01328988996627549 0.047997082161697506 -0.08536189708435701 0.042658969926295844 -0.03384091326184102 -0.1783075622364415 -0.11858083750850545 -0.08125836383034458 -0.17290511520802238 -0.08421473939360073 -0.01563742939633901 0.03888522063335197 -0.06941952189389487 -0.1613971372498737 -0.10861632719333686 0.27578123283019185 0.17417963060072114 0.022491954656135404 0.14115408253748649 0.09854204740151146 0.01952907781140109 0.10497514480050846 0.03324580487626402 -0.04350311147103157 -0.007207109179588713 0.010179763799276108 0.06205482106787852 0.15609214007197833 0.14585275867922987 -0.010385147247762763 -0.14913910913559883 0.08113274255744517 0.01615124835161029 -0.09879351969720321 -0.0038996014100921234 -0.022482141551016254 -0.004145650797283077 0.0044435625810421864 -0.05019091892655822 0.02320829508562329 -0.0504183679922249 -0.17410406092759526 5.561992054260868E-4 0.23476036846961465 0.044668611938264595 -0.02983111997525746 -0.057707497515730316 -0.04027974227743712 -0.011733346697174123 0.16302775875284553 0.13639432047807074 0.09648772272801354 0.11545908899300118 0.05750781443228878 0.11089757943829728 0.049380168673829196 0.16519262691575967 0.010598914976218916 -0.07782774112475994 0.10561408351358796 0.10016108585741254 0.07475286926162776 -0.0019256497412819696 -0.0486325687363789 -0.1450675821314093 0.028315374483323268 -0.1250870512804703 -0.042322915556552536 -0.176845005376452 -0.27494595933593013 -0.07015816715724432 0.33432114058397994 0.21565070639248549 0.0984702360169306 0.11273408226281653 0.06395893994061558 0.053337783568172696 0.014572448933377911 0.013473775088719527 0.07207756800782922 0.023481946797558526 -0.02577492183693752 -0.031453985625988695 0.11977210278212772 -0.027093734937905324 0.004525629860039289 0.061783677344431374 0.11883131806611502 0.12734225250622222 0.11073590086283329 0.03017125116924518 -0.029105564177239997 0.05637773846642559 -0.08921749015468732 -0.15461634146375464 -0.07596308189865052 -0.15919193644651125 -0.1721975958075366 -0.19864955381803173 0.21766130156134933 0.1392520080486972 0.16785108097968288 0.17508093382516451 0.0428085828557139 0.05304934508757355 -0.032311269984509144 -0.08673124099838134 0.07177917628976163 0.1126528062735282 -0.008130706142788498 -0.027047440357229363 0.038688078381174454 -0.038812637157177886 0.009721471085887475 0.053131067750757564 -0.02724407333636025 0.0533039395989141 0.05651092108342155 -0.047821173129741906 -0.019658351010680544 -0.021692297631887576 -0.011793787765746905 -0.1076634630917674 -0.12575310328688444 -0.18654397809654347 -0.22583575884441576 -0.03683883014268608 0.13443832537435255 0.060212965202220886 0.31429773257630894 0.14600607107702385 0.1038857870958871 0.05189860527410577 -0.009891394246155729 -0.07379491675828186 -0.0030151123211602147 0.0858186391396285 -0.06950058425988974 1.6206412955948463E-4 0.0509113080755748 -0.08587802671419938 0.07063004823850837 -0.04468673157983498 -0.05786785309417872 -0.11917473565049382 -0.09232920843121617 -0.07457719531864017 -0.08281224607972543 -0.09821510174744755 -0.06338845474303548 -0.1767499551966169 -0.14397879052344864 -0.22128239648154793 -0.1328620540168513 0.008196928842724953 0.1557172838780925 0.18453830499081333 0.22127473187980953 0.1975398395575866 0.040247077822472256 -9.309695028498689E-4 0.027851421982906844 0.05704417350655946 -0.055307234882675034 -0.05867217867695193 -0.07469387029605568 -0.1334001420612085 -0.13607306913178313 -0.07381274039303419 -0.0449193909635708 -0.0879737030417312 -0.09218949888840468 -0.11648155794331548 -0.14451245034186636 -0.0792190144778968 -0.08957001066767892 -0.12629784513017675 0.03279446850203659 0.037280279583347835 0.04814486839315294 -0.15596981600939727 -0.17111122469684717 -0.13764316938917015 0.1283374097228205 0.2227439142280003 0.15678986269672518 -0.036035889439299855 -0.001770012549644126 0.06339122357599988 0.10346367163434733 0.001488511919002833 0.054000124085106266 -0.02422979408951616 0.042622537878001396 0.01913998822743045 0.028277128778914355 0.10293699656456926 -0.029331861072988855 0.09270514014607517 0.06933494529959615 -0.026609226157594968 0.045518241833664305 0.12005268983905458 -0.0217318441475634 0.04039124854518246 0.08725004615861817 0.07590185200697391 0.08928242225740114 0.031188054229622418 -0.08850572405264878 -0.0462451202030059 0.24213626906658672 0.1454874639084618 0.1548643500473231 0.057084455544963705 0.002389587320401936 0.03326597658011268 -0.06502220312450285 -0.11357285027419255 -0.12378361829835652 0.09743673072575836 0.11620051868226673 0.07798453077347162 -0.04056628897154578 -1.2122541461520254E-4 -0.011995574380484106 -0.04338859006924671 0.07693246608560607 0.12528321565104308 -0.004665647847938356 -0.12690652810168107 -0.03198926858356407 0.13714045340707595 -0.0021437262191459886 0.04222352713157951 0.09799823745986422 -0.10439833630693504 -0.04025343085122968 -0.0327722963858863 0.22596640472669086 0.10264362499884754 0.15785989992607732 -0.09713630015246694 -0.1493281783877329 -0.08272228840944117 -0.12720290831955675 -0.07129983809332022 -0.11061692325366196 -0.17300055094390215 -0.2295212368618424 -0.12371529688027265 -0.03756273095062432 -0.13828302722331548 -0.08813055696587924 -0.02986586106535793 0.09307000882404322 0.028331705568970546 -0.11313237481694656 -0.05581769283945203 -0.01945394995967651 0.08838784359835807 0.07061567085390659 0.10224708971204297 -0.08239777772685954 -0.21184308125252552 -0.08876221633306866 0.023283484445365744 0.12751705287646078 0.052687088468541365 0.06619360621947207 -0.020717006874337356 -0.07328704424797336 -0.06282233469738317 -0.03031888884530292 -0.04223294027956289 -0.08310405137425224 -0.1695668896482126 0.02726284729340258 -0.051958538624672576 -0.20406394988793033 -0.05032723270777581 -0.07039827589358487 0.04965780508725146 0.022639891054569282 0.08868734770578834 0.008999532036877957 -0.02527814963610168 -0.020542595933789525 -0.012250659804068679 0.07609606060747795 0.09250181608704904 -0.03266010203417652 -0.05156605561670321 0.0842089544171428 -0.015915313737634034 0.18375228162958496 0.035653645267858886 -0.10284705274666658 0.034910333167766594 -0.09995319420794672 -0.04172121105254225 -0.07905822884622797 -0.025645686590886004 -0.11614450960629939 -0.03477829088137226 -0.05777577623750448 -0.1070201733342531 -0.1749987406386571 -0.17098122700046303 -0.02582505367455726 -0.05057227779040373 0.03358053720597537 0.12871975083252005 0.24726161712589875 0.01935131194112472 0.12456354216700112 0.11887394731090159 0.09412096630448989 0.10457882857569374 0.17701328692617255 0.08641676681424397 0.13362185540925134 0.06299647761252619 0.05521112759775075 0.038281820500018604 -0.015711863770502665 -0.048771059096820654 0.014469908030823871 0.12817132894468217 0.1067702366450797 -0.047107261222820274 -0.1910423143195982 -0.18452013731430636 -0.21092294312867255 -0.16565581411663213 -0.17131276977181498 -0.19301970938027313 -0.15569499309822799 -0.08590257181530205 0.15022677526852096 0.08690615023427865 0.07600971391694396 0.10250899825268954 -6.34204722261844E-4 -0.029037993140312097 5.1442615751274276E-5 0.1688522605680525 0.09023825685126777 0.0974016259803944 0.2321430394887168 0.17974111455817948 -0.07003333786728211 -0.0354914734439858 -0.11651323866409784 -0.001834812818258229 0.013844802385317542 0.02746577601807641 -0.042485823825388645 -0.1547211422416503 -0.24423423843592243 -0.28741678756814243 -0.24259101093049415 -0.12964379734491288 -0.18590730986015302 -0.18595473804138243 -0.2955301863685412 -0.23629742352189384 -0.08789404377909424 -0.11266805856826109 -0.11846435163823366 0.014293088583756223 0.11848459725979546 0.1180131957007132 0.1054672061195858 0.09642392988978704 0.028068708148004908 0.1434267657829993 0.1592402765659573 0.2756044012814358 -0.12756060282484413 -0.09966098328381576 -0.14125307713184773 0.033652527527527946 0.02103874055398829 -0.031186559881607807 -0.03066766020437588 -0.09710735454765498 -0.09345341894548446 -0.17790168811288698 -0.2862199515214033 -0.2951809988817983 -0.2656826873466957 -0.28885138050719067 -0.2648738075931341 -0.2588327616953057 -0.13813857170050933 -0.0542041596174239 -0.024489740496215207 0.08149257713550305 0.17757895922161754 0.24036422372706567 0.04155521534133034 0.0801914461061474 0.08117027869878563 0.13302001020313595 0.15630335507060417 0.2255527155946626 
