-0.613205 -0.112968 -0.112287 0.035394 0.187124 0.141338 0.117560 0.334808 0.275282 0.264846 0.007583 0.005669 0.109152 0.066413 0.076878 -0.079588 -0.071225 -0.155274 -0.131288 -0.147221 -0.097985 0.263220 -0.001872 0.063669 0.074521 -0.167605 0.044638 -0.274716 -0.239952 -0.371831 0.010616 0.155464 -0.027175 -0.101339 0.135934 0.068374 -0.268374 -0.271854 0.067508 0.089083 0.523998 0.309424 0.183745 0.038634 -0.091724 -0.144838 0.078150 -0.012954 -0.266247 0.095434 0.222498 -0.109658 -0.054561 -0.294772 0.095204 -0.378333 -0.692412 0.207736 0.144332 0.025899 -0.442992 0.010175 0.203052 -0.108860 -0.322730 0.004674 0.275003 -0.125591 0.134318 0.181227 0.168973 0.243926 -0.024822 0.038400 0.329718 0.255805 -0.249785 -0.273672 0.044517 0.110421 0.504707 -0.006731 -0.262130 -0.109852 -0.398727 0.006072 -0.371011 -0.386367 -0.257190 0.031372 -0.108101 -0.187282 0.093633 0.037054 0.116549 -0.012398 0.369671 0.059843 -0.150057 0.219680 -0.002381 -0.091720 0.181300 0.382892 0.032022 -0.324638 0.304032 0.094908 -0.056068 -0.176814 -0.279750 -0.130762 -0.039767 0.132611 0.118504 -0.175363 -0.083391 0.049269 -0.120892 0.038166 0.029049 0.029385 0.110668 -0.132233 -0.155842 -0.167372 0.014848 0.267345 0.087288 0.173738 0.151408 0.321850 0.140716 -0.207352 0.009312 0.098825 0.128157 0.221481 0.289380 -0.231500 0.061528 -0.066352 -0.197575 -0.302407 -0.279989 -0.125934 -0.223243 -0.115342 0.146372 -0.083779 0.141373 -0.006857 -0.049844 0.029075 -0.083385 0.083643 0.176232 0.108227 0.085644 -0.023384 0.179036 -0.211019 -0.440321 -0.303172 -0.146703 0.038044 0.158282 -0.113389 -0.037256 0.093446 0.146459 -0.049702 -0.164262 -0.266485 0.010770 0.260248 0.218797 0.278303 0.316582 0.375456 0.363106 -0.162101 -0.137973 0.022301 0.106008 0.255661 0.223868 0.077083 0.100461 -0.225786 -0.366370 0.016420 0.333432 0.028517 0.494352 0.391731 0.269957 -0.138213 -0.011137 -0.290306 -0.224365 -0.129438 -0.077629 -0.619824 -0.071388 0.103377 -0.190430 -0.194699 0.105924 -0.431595 -0.378517 0.006523 0.185495 0.187400 -0.011271 0.181989 0.062053 -0.226385 -0.139745 0.256509 0.085586 -0.263449 0.090273 0.142283 -0.188040 0.276412 0.162866 0.265476 0.042626 -0.031054 -0.185743 -0.378127 0.087539 0.181053 0.203907 0.254438 0.097913 0.167240 -0.188233 0.013876 0.202856 0.114730 -0.182393 0.044974 -0.085318 -0.030872 -0.217975 -0.185281 -0.027102 -0.242051 0.035749 -0.121117 0.232522 -0.206816 -0.030208 -0.081438 -0.182618 -0.237774 -0.462972 -0.396844 -0.256993 -0.035545 0.021928 0.111183 0.021245 -0.038075 0.192411 0.001662 0.216487 0.238885 0.109687 0.165871 0.173204 0.302631 0.162168 -0.537487 -0.098057 0.304901 0.084352 -0.014985 0.217213 -0.230289 0.022580 -0.157087 0.215446 -0.057389 -0.141576 -0.404602 -0.242326 -0.229274 0.000230 0.313508 0.033265 0.015444 0.055853 -0.397440 -0.279021 -0.025272 -0.076309 -0.156186 0.217559 0.058042 -0.179436 0.024865 0.048284 0.504013 0.080878 0.191786 0.570719 -0.147515 0.309147 0.076952 -0.102921 -0.268986 0.158041 -0.061205 -0.219818 -0.000656 -0.124973 -0.171123 -0.060957 0.050180 0.217193 0.085502 -0.463990 -0.143946 0.123708 0.159306 0.332396 -0.299951 -0.431107 -0.003270 0.451750 0.205116 0.125856 0.283291 0.291963 -0.209748 0.129829 -0.301608 -0.511112 0.005305 0.280280 -0.039136 0.070379 0.244094 -0.189567 0.085462 0.009154 0.271304 -0.182524 -0.022002 -0.551180 0.241477 0.695264 0.308024 -0.147282 0.095954 -0.093673 0.200056 0.175404 0.233471 -0.053525 0.139088 0.319031 -0.039027 0.222600 -0.032108 0.088053 -0.076617 0.153322 -0.089428 -0.100518 0.228010 -0.369667 -0.110041 -0.198316 -0.127338 -0.182882 0.214150 -0.029258 -0.077433 -0.387564 -0.618879 -0.630478 -0.202568 -0.379370 0.157787 0.068551 0.705344 0.501720 0.366284 0.481498 0.014137 0.153130 0.294893 0.358329 -0.053254 0.173961 -0.167609 0.229700 0.186319 -0.350134 -0.068996 -0.364437 -0.433772 -0.158589 0.159771 -0.007629 0.028964 -0.078219 -0.244360 -0.416397 -0.127405 -0.277621 0.233257 -0.162813 0.405220 0.327124 0.055914 0.624503 0.277989 -0.172187 -0.117864 -0.107328 0.151460 0.134323 -0.265770 0.343533 0.247613 -0.356562 -0.187166 -0.149024 -0.407388 -0.313380 -0.274813 -0.224539 -0.000185 0.042261 -0.222572 -0.259728 0.035206 0.212810 0.388883 -0.299639 -0.032634 0.022481 0.181884 0.556959 0.482436 -0.107150 0.174616 0.289612 0.090218 -0.032205 -0.129994 0.163915 0.165412 -0.235598 -0.227525 0.331223 0.013785 0.092332 -0.226002 -0.114841 -0.365418 0.027381 0.021068 -0.481244 -0.216901 0.474670 0.454009 0.143376 0.115739 0.054658 0.483099 0.414267 0.090734 -0.463913 0.018912 0.134322 0.041310 0.041731 -0.037363 0.324191 -0.093006 -0.122436 -0.214187 0.341338 0.028583 0.196775 0.036208 0.115897 -0.447450 -0.141714 0.176694 -0.231308 -0.023627 0.143082 0.024983 -0.171213 -0.076893 -0.055646 0.435860 0.288118 -0.134986 -0.319865 0.133151 -0.102136 -0.243528 -0.390872 -0.023212 0.263713 -0.013197 0.013927 -0.275658 0.231380 0.075675 0.231751 0.008711 0.091416 0.046267 0.135360 0.110462 0.156823 0.280926 0.215260 -0.083718 -0.486320 0.140272 0.032372 0.281686 0.267446 0.107082 0.101132 0.243788 0.172479 0.335911 -0.299182 -0.289936 0.079315 0.003429 -0.159353 -0.600565 -0.071299 0.163647 -0.267395 -0.271111 -0.199987 -0.430078 -0.270386 -0.358684 -0.219484 0.192143 -0.075256 0.177432 0.106746 0.720302 0.154839 0.593207 0.259388 0.145490 0.149407 0.056733 -0.032119 -0.308872 0.054917 -0.270414 -0.033001 -0.273680 0.202973 -0.303567 -0.173897 -0.006087 -0.260257 -0.251855 -0.530693 -0.382937 -0.185535 -0.387995 -0.128066 0.016203 -0.090615 0.397898 0.131544 0.354541 0.384420 0.367919 0.108976 0.301426 0.248469 0.221102 0.104261 -0.344724 0.031011 0.087926 -0.160292 -0.127109 0.549345 -0.077840 0.089030 0.023834 -0.048228 0.126465 0.013861 -0.265956 -0.241854 -0.159005 -0.140443 -0.123920 -0.167831 0.067634 -0.163232 0.011963 0.301626 0.156410 0.039090 0.360182 0.011867 0.245086 -0.105439 -0.046129 0.216308 0.075760 0.218437 0.056703 0.107408 -0.098322 -0.328447 -0.112494 -0.538874 -0.439522 -0.001421 -0.212517 -0.361877 -0.053460 -0.001680 0.258890 0.337721 0.077659 -0.348216 0.035754 -0.003235 -0.026670 -0.038706 -0.015457 -0.388024 -0.178934 -0.012321 -0.179479 0.104877 0.209415 -0.300854 -0.048706 -0.031620 -0.017966 0.036139 -0.095051 -0.417843 -0.214593 0.218179 -0.008801 0.021498 0.077512 -0.103913 -0.100810 0.199534 0.354873 -0.142833 0.019950 0.052453 0.251864 0.115180 -0.040149 -0.628281 -0.463944 0.005890 -0.275332 0.238943 0.224044 -0.109611 -0.205945 0.017537 0.059394 -0.108710 -0.158580 0.004596 0.060194 0.015928 -0.237323 -0.042283 -0.094028 -0.002867 -0.104630 0.194702 0.262924 0.001073 0.181008 0.135949 0.296628 -0.122850 -0.051606 -0.086731 0.116696 0.104742 0.241217 0.570869 0.198387 0.089984 -0.057384 -0.096078 -0.128233 -0.188392 -0.022497 0.431202 -0.041145 0.080390 -0.077765 -0.066839 -0.185616 0.043524 0.100509 -0.159507 0.134977 -0.190080 -0.109495 0.029902 -0.124084 -0.385384 -0.405536 0.005902 -0.027902 0.360180 -0.060402 0.210499 0.603018 0.289009 0.002347 -0.131231 0.391248 0.123124 -0.042966 0.276490 0.017310 0.173958 -0.029538 0.115319 0.104480 -0.181361 -0.144773 0.101092 0.431413 0.365323 -0.095644 -0.169557 -0.052402 -0.382525 -0.339428 -0.306356 -0.208440 0.071560 -0.226892 -0.344727 0.042887 0.028324 -0.378337 -0.288212 -0.054436 -0.297821 -0.175097 -0.260018 -0.443609 -0.302394 -0.283067 -0.232030 -0.110885 0.213059 0.310938 0.430307 0.572796 0.267206 -0.072021 -0.020084 -0.123146 -0.259797 
0.174633 -0.205572 -0.120057 0.102719 0.117329 0.027628 0.065545 -0.134713 -0.352069 -0.337708 -0.058098 -0.084135 -0.378892 -0.154257 0.073812 0.365685 0.395548 0.310999 0.306575 -0.050206 -0.339594 -0.283332 0.080814 0.210949 0.041496 0.121208 -0.117384 -0.207408 -0.254564 -0.145776 -0.135675 0.080873 0.087781 -0.022648 0.010479 0.083753 0.092723 -0.028476 -0.061517 -0.038518 -0.352561 -0.305123 -0.045227 0.261132 0.283622 0.324421 0.144541 0.039755 0.101171 -0.133987 -0.196882 -0.089047 -0.062712 0.344323 0.235619 0.112830 -0.005799 -0.384333 -0.062517 0.142677 -0.027842 -0.231316 -0.067259 0.072732 0.108384 0.071991 -0.289382 -0.184815 -0.081711 0.008234 0.068535 0.053594 0.120214 0.134441 -0.159060 -0.122595 0.137627 0.271745 -0.065034 0.096025 0.035371 0.196863 0.273884 -0.061611 -0.213969 -0.081155 -0.053827 -0.126124 -0.212360 -0.255934 -0.000554 0.142592 0.183692 0.228346 0.140759 0.156912 0.030423 -0.162585 -0.135222 0.171368 0.270070 0.387479 0.093965 -0.057515 -0.054886 0.047184 0.122661 0.223751 0.168845 0.000507 -0.134750 0.109231 -0.210743 0.019659 -0.218166 -0.255214 -0.205771 0.082661 0.008152 -0.183477 0.036137 -0.155899 0.029663 0.195741 0.180649 -0.120675 -0.143398 -0.259940 -0.211080 0.058309 -0.067228 -0.305966 -0.015574 -0.190361 -0.070097 0.389750 0.303372 0.035183 -0.121634 0.280891 -0.283798 0.131264 -0.067997 -0.045927 -0.071656 -0.039611 -0.176535 0.104966 0.181758 0.269777 0.003509 0.233091 0.117153 -0.060956 0.066864 -0.234845 -0.082803 -0.007722 0.034747 -0.054490 0.057127 0.002293 0.033208 0.268999 0.211991 0.173895 0.002384 0.060412 -0.000055 0.179021 -0.028834 -0.005139 -0.011116 0.017410 0.052896 -0.183025 0.109782 0.009458 -0.070086 -0.064370 -0.074134 0.013536 -0.090415 -0.038689 -0.213519 -0.242832 -0.165730 -0.055370 -0.138053 -0.137543 0.210955 0.012910 -0.055277 -0.013563 -0.099298 -0.244640 -0.007479 -0.133271 -0.091103 -0.030210 -0.025742 -0.050244 0.187457 -0.007511 0.060375 0.021699 0.266292 0.266499 -0.080535 0.265920 0.145941 0.139343 -0.157861 -0.155705 0.274526 0.011279 -0.058626 0.122640 0.090403 0.024099 -0.156106 -0.166290 -0.119256 -0.185177 0.163717 -0.072332 -0.111409 -0.108053 -0.321826 -0.063874 -0.094036 0.077784 0.051908 -0.130321 0.090904 -0.052412 -0.270395 -0.239219 0.199880 0.241144 -0.175344 -0.022883 0.255740 -0.104722 -0.107209 0.154240 -0.071589 0.028720 -0.226517 -0.142318 -0.040216 0.003475 -0.019996 -0.022506 -0.071846 -0.081163 -0.051176 -0.075273 -0.013286 -0.184220 -0.065399 -0.097230 -0.045754 0.003831 -0.020102 -0.020466 0.099727 -0.034434 -0.044475 -0.048480 -0.164903 -0.186001 -0.302781 -0.127176 -0.173000 0.116495 -0.131947 -0.201317 0.095009 0.107921 -0.077929 0.150656 -0.076146 -0.127692 -0.233732 -0.179058 0.041944 0.072225 0.260009 0.147668 0.188775 0.045515 0.213662 -0.192545 -0.251246 -0.215906 -0.236253 -0.281873 -0.156930 0.055659 -0.271684 -0.232010 -0.068268 0.149092 0.333020 0.189904 -0.027265 -0.156515 -0.327738 0.168165 -0.192202 -0.031419 -0.042711 -0.000499 0.096655 -0.030497 0.082134 0.209365 0.114775 0.257916 -0.030701 -0.265744 -0.043242 0.020155 -0.116698 0.091881 0.020838 -0.054780 -0.255967 -0.281502 -0.068994 -0.209091 -0.008896 0.037068 0.000544 -0.324994 -0.215841 0.117465 0.004470 0.229841 0.058841 -0.311322 0.022669 -0.054557 -0.130971 -0.017971 -0.203247 0.218646 0.029485 -0.185595 0.179133 0.127740 0.123649 0.283889 -0.181929 0.068631 0.080232 -0.484299 -0.325552 -0.279013 -0.009684 -0.165489 -0.173029 -0.206051 -0.097042 0.016150 0.140168 0.224293 -0.044790 -0.076562 0.175863 -0.097257 0.007961 -0.128491 -0.003599 0.122057 -0.135659 -0.023035 -0.003937 -0.480174 -0.185311 0.036989 -0.287648 0.210244 0.153076 -0.316632 -0.160472 0.270347 0.219166 -0.283093 -0.176520 -0.321800 -0.214988 -0.000619 0.209381 0.010806 -0.143474 0.037111 -0.108858 -0.022472 0.102261 -0.018075 0.184966 0.086399 0.068138 0.299406 0.155265 0.027023 -0.221298 -0.254425 -0.279647 0.118378 0.177040 0.023773 0.004593 0.200117 0.279171 0.042039 -0.163424 -0.169449 -0.195542 0.057856 0.172306 0.058696 -0.239101 -0.169238 -0.200535 0.178836 0.095381 0.014465 0.420165 0.235403 -0.123070 0.216712 0.523160 0.399051 -0.172665 -0.021356 -0.007461 0.061429 0.016523 -0.078042 -0.004728 0.014930 0.157797 0.106915 0.056009 -0.143939 -0.027088 0.115400 -0.037477 -0.063576 0.032858 0.281757 0.327722 0.138143 -0.079098 0.252449 0.140029 0.188042 -0.146524 -0.058186 0.204713 0.025160 -0.035287 0.380086 0.060653 0.168386 -0.035798 -0.213341 -0.121994 -0.156338 -0.138790 -0.092320 0.359253 -0.086461 0.293569 0.226246 -0.100528 -0.010903 0.064510 -0.056732 -0.226504 -0.241218 -0.087235 -0.154279 0.196749 -0.048523 -0.146701 -0.360058 -0.066786 -0.375813 -0.165195 0.045939 -0.057204 0.112267 -0.205579 -0.141466 0.027184 -0.130489 0.113812 0.055608 0.176168 0.075536 0.461073 0.053239 -0.089150 -0.086126 0.123128 -0.074311 -0.048707 0.025708 0.166573 -0.026634 0.246318 0.087418 -0.050241 -0.194085 -0.263294 -0.266599 0.134364 0.240154 -0.018247 -0.103880 0.006911 -0.100515 -0.091875 -0.013744 0.136552 -0.199420 0.035291 0.142489 0.535267 -0.087501 -0.091963 -0.033919 0.155599 -0.310337 -0.352583 0.056971 0.419684 -0.099901 0.004915 0.004568 -0.157173 -0.217346 -0.144890 -0.334977 -0.050516 -0.187063 -0.206911 -0.189653 -0.170775 -0.026574 -0.121912 -0.016323 0.158394 -0.118769 0.070869 0.136269 0.271551 -0.211213 -0.224585 -0.123954 0.112966 0.071061 -0.131942 -0.013847 0.330337 0.143572 0.080415 0.076783 -0.169851 -0.368391 0.114171 -0.096410 0.210503 -0.034016 -0.143747 0.170822 0.181002 0.284868 -0.005921 -0.066994 0.133357 0.005951 -0.050311 0.092306 0.186043 0.071851 -0.051408 -0.010479 0.194149 0.295296 -0.042562 -0.139457 0.064756 -0.029310 0.175668 0.201756 0.069773 -0.030266 0.122174 -0.040569 0.139251 -0.112906 -0.078928 0.045516 0.234449 0.069886 -0.062702 0.108344 0.116973 0.256391 -0.102044 -0.052522 -0.064461 0.167899 0.112444 -0.147327 -0.091883 -0.097505 0.094147 0.165761 0.085452 0.059226 0.140425 -0.117620 -0.119554 -0.032221 0.119503 -0.032707 0.099535 0.053219 -0.135781 0.014024 0.109609 0.226521 0.169342 0.302547 0.146414 0.022848 -0.052259 0.135322 -0.120884 0.146924 0.031304 -0.107906 -0.131388 0.046661 0.007035 0.301748 0.065551 -0.181148 0.086751 0.003622 -0.004260 -0.282915 -0.078772 -0.035606 0.236778 0.073127 -0.155509 -0.121625 0.096947 0.268859 0.040368 0.184207 0.026438 -0.135705 0.244362 0.141575 0.014616 0.151034 0.297873 -0.084262 0.170692 -0.017097 -0.046391 -0.159222 -0.048578 0.457675 0.418179 0.040332 -0.134915 -0.175385 -0.255567 -0.204326 0.112628 0.291492 0.165002 -0.033371 -0.094041 0.060390 0.099780 0.313550 0.003789 -0.035094 0.143986 -0.162094 0.128923 0.086344 -0.249755 -0.297291 -0.078349 -0.031391 -0.167977 -0.015855 0.175372 0.368351 0.435644 0.090110 -0.243443 -0.229084 -0.469168 -0.298776 0.068558 0.306726 0.056447 -0.182579 0.063847 0.256176 0.192179 -0.002350 0.095534 0.054326 -0.155794 0.100437 0.377357 0.012845 -0.181549 0.038771 0.236521 0.081329 -0.087495 -0.064816 0.392260 0.331181 0.194940 0.054337 -0.055577 -0.003008 -0.274716 -0.113946 0.006772 0.100479 -0.208287 -0.118765 -0.042870 0.078386 -0.106401 0.138120 0.119275 0.038914 -0.022274 0.081067 0.140778 -0.013257 -0.046750 0.047728 0.087146 0.000663 0.149892 0.200178 0.066867 0.209339 0.177497 -0.030488 -0.002154 -0.071694 -0.417778 -0.085354 0.019457 -0.054742 0.179520 0.005549 -0.054742 0.149958 0.316520 0.158716 -0.176950 -0.103553 0.042282 0.196879 0.295751 
0.404500 0.732659 0.202873 0.154293 0.087771 -0.219518 -0.174021 0.078450 0.265304 0.123469 -0.098952 -0.124254 0.014872 -0.061257 -0.137934 -0.079836 -0.126376 -0.185385 -0.546169 -0.143032 0.124916 0.346867 0.087295 -0.164214 0.057646 -0.427879 0.248347 0.293234 0.501596 0.410449 -0.105604 0.124863 0.076769 0.053318 0.424580 0.210464 0.161083 0.127679 -0.144129 -0.584682 -0.272573 -0.086466 -0.019471 -0.069668 0.199784 -0.246131 0.119223 0.168206 0.331959 0.052172 -0.051201 0.262724 0.102460 -0.092824 -0.263387 -0.080529 0.394038 0.487121 0.099427 -0.013838 -0.294085 -0.024294 0.408183 0.476226 0.281575 -0.043216 0.254342 0.336643 -0.222192 -0.544784 -0.316838 -0.203414 -0.037278 0.162537 -0.149864 -0.647408 -0.018846 0.056636 0.002697 0.048033 0.207866 -0.776927 -0.049823 -0.231099 0.377804 0.597104 0.320211 0.142443 0.061957 0.260410 0.221870 -0.113594 -0.312873 -0.068405 0.134057 -0.034547 -0.052333 -0.347740 -0.216956 0.125836 0.235895 0.557799 0.157120 0.240685 0.101411 0.055269 0.133678 0.068748 -0.088416 -0.073662 0.179373 -0.294647 0.185006 0.485283 0.152279 0.167367 0.270788 0.113520 -0.029077 0.150911 0.182893 0.242153 0.631809 0.065635 -0.119338 -0.376977 -0.094041 0.576758 0.214682 0.028832 -0.337841 0.276623 0.638594 0.202546 -0.124071 -0.066785 0.025300 0.036775 0.064720 0.155773 0.108151 0.274371 -0.032134 0.146360 0.006271 -0.095380 0.155544 0.390693 0.213204 -0.053157 -0.248326 -0.229646 -0.001980 -0.358373 0.196018 0.332158 0.041088 -0.045562 -0.203559 0.406565 0.484145 0.116966 0.090910 -0.384388 0.071626 0.160468 0.042353 -0.043000 0.306519 0.206302 -0.434509 -0.437070 -0.079555 0.176423 0.335676 0.114047 0.503478 0.487694 0.088950 -0.083112 -0.038193 0.060622 0.417985 -0.176397 -0.298267 0.423890 0.345838 0.022778 -0.245263 -0.064474 -0.205492 -0.354184 -0.017196 0.235880 0.286513 -0.040300 0.277093 0.331803 -0.523033 -0.166184 -0.270068 -0.241506 -0.232638 0.038567 -0.137575 -0.177678 -0.096796 -0.188957 -0.092275 0.044291 -0.219273 -0.155410 -0.131719 0.409137 0.054072 -0.499574 0.241506 0.121638 -0.376975 -0.166467 0.138585 0.088767 0.412757 -0.058531 0.061089 0.272818 0.152378 0.244911 0.019371 -0.034639 0.225108 -0.089522 -0.200323 -0.239107 0.052879 0.004245 0.045172 0.121326 0.266441 0.451935 -0.128703 0.413826 0.001799 -0.185229 0.346670 0.207639 -0.346172 -0.055341 0.076681 0.092630 0.040982 0.102083 0.054752 -0.064631 0.147275 0.448302 0.123056 0.119818 0.047249 -0.146649 -0.595458 -0.222350 0.029849 0.249371 -0.154231 0.120439 -0.106415 0.208244 -0.158750 0.401147 0.384933 0.655168 0.467503 -0.192056 0.159035 -0.075956 -0.120995 0.503125 0.213784 0.510796 0.079183 -0.117588 0.239062 0.003575 -0.029341 0.053857 0.363055 0.122069 0.223754 -0.030317 -0.429260 0.168035 0.166914 -0.491995 0.207671 0.287933 -0.082763 -0.102213 -0.041494 0.023513 0.176126 -0.231708 -0.091087 0.001986 -0.018165 0.442336 0.338507 0.196087 0.537594 -0.149053 0.229284 0.353086 0.064143 -0.292150 0.076083 0.361003 -0.316706 0.008592 0.055492 0.457539 -0.065226 -0.218716 -0.075980 0.077286 -0.271260 -0.178354 -0.193508 -0.045782 0.002068 -0.403839 -0.109633 0.532756 -0.038130 0.163814 -0.129597 0.040261 0.187534 -0.373889 -0.151609 -0.151046 -0.041113 0.024396 -0.151200 -0.472269 -0.232598 -0.232843 -0.257973 0.441068 0.129108 0.174754 0.387595 0.249983 0.142424 -0.019091 -0.296186 -0.636709 0.073508 0.225781 0.118499 0.218762 0.085243 -0.210854 -0.031843 -0.096733 -0.074029 -0.470642 -0.163965 -0.161039 0.089672 0.165567 -0.011921 -0.148559 -0.240996 -0.016334 -0.123279 0.338254 0.233202 -0.334756 0.154501 -0.103527 0.359362 0.177333 -0.648586 -0.472284 -0.126424 0.276019 0.343329 -0.026619 -0.503219 -0.218452 0.283448 0.065249 0.393380 -0.315949 0.074890 0.100431 0.074972 0.325445 0.271721 -0.013140 0.406679 -0.119896 -0.190713 0.608264 -0.252106 0.093218 0.229225 -0.033546 0.461397 -0.234788 0.328167 0.305652 0.131186 0.215543 0.048890 0.197680 -0.059335 0.064470 -0.044757 0.339774 0.402687 -0.013137 0.237722 -0.080861 0.034778 0.232817 -0.013243 -0.315192 -0.268604 0.188928 0.095015 0.414184 -0.159268 0.146153 -0.086861 -0.047697 0.420939 -0.391574 -0.095735 0.225974 0.053406 -0.172357 0.024721 -0.052945 0.338497 0.020932 -0.052670 0.441161 0.086853 -0.164011 -0.355770 -0.242102 -0.192807 0.064361 0.101855 0.032897 -0.426838 0.445503 -0.051623 0.129670 0.090787 -0.032573 0.119742 0.109826 -0.155751 -0.339167 -0.548462 -0.847748 -0.357524 -0.093491 0.168852 -0.167745 0.242181 0.155179 0.281469 0.226388 -0.084645 -0.366650 -0.717237 -0.331520 0.183464 -0.164853 0.705902 0.218711 0.283560 0.349314 -0.522526 -0.034303 -0.068253 0.115405 -0.324332 -0.247154 0.312671 -0.162328 -0.002195 -0.259696 -0.194380 -0.102822 -0.303782 -0.423883 -0.003201 -0.027970 -0.303545 -0.268154 -0.144000 -0.422617 -0.177897 0.000961 0.086814 -0.240654 -0.051712 0.028385 0.163749 -0.135735 -0.415832 -0.179391 0.075080 -0.143223 -0.246578 -0.181679 -0.450887 -0.166346 0.154151 -0.056549 -0.057996 -0.424009 -0.440292 -0.213474 0.004676 0.421374 -0.148049 -0.091043 0.106496 -0.415325 0.172917 0.059765 -0.005397 -0.248626 0.124489 -0.110545 -0.105124 -0.478101 -0.125030 0.579777 0.865182 -0.088241 0.638238 -0.241486 -0.226072 0.075401 -0.017275 -0.124250 0.004106 0.354062 0.089833 -0.102069 -0.236010 0.013875 0.165051 0.199984 0.361301 -0.124958 0.267575 0.173751 0.314242 -0.161635 0.071185 0.196761 -0.129507 -0.325633 -0.153019 -0.207836 0.295366 0.202734 0.308602 -0.733006 -0.116733 -0.296263 0.120862 -0.154019 -0.101666 0.034335 -0.001142 -0.347591 -0.199452 -0.361323 -0.088456 0.308382 0.114925 0.053788 -0.485699 0.018838 0.228355 -0.508232 0.051126 0.392987 0.167091 -0.139404 -0.210514 -0.390975 -0.151433 -0.022697 0.268955 -0.506768 0.018976 0.025506 -0.057096 -0.033373 -0.047138 -0.048967 -0.475071 0.110686 0.261584 -0.354052 0.189134 0.184875 -0.115791 -0.058947 -0.085909 -0.292066 0.455384 -0.216481 0.127567 0.145413 0.116694 0.020605 0.372606 0.535867 -0.100206 -0.105290 -0.355952 -0.426003 -0.075197 0.305549 -0.010055 0.304001 0.042101 0.020410 -0.294210 0.081219 0.053726 -0.272610 0.022577 -0.301417 -0.273591 0.234954 0.040709 -0.310388 0.111460 -0.242339 -0.140057 0.082840 -0.197982 0.314235 0.310330 -0.101391 -0.126399 0.141789 -0.081323 0.044100 -0.075549 -0.196126 -0.562694 -0.269381 -0.335081 -0.236011 -0.033755 -0.049530 0.028466 0.297384 -0.274723 -0.196470 0.131573 -0.140622 -0.173106 0.358295 -0.250646 -0.406264 0.026932 0.162477 0.133924 0.016508 -0.187697 0.175207 -0.128324 -0.020393 0.183439 -0.095493 -0.163764 0.105725 -0.278142 -0.364016 -0.244424 -0.392467 -0.077322 -0.260462 -0.052344 -0.089459 -0.124350 -0.210349 0.070872 -0.105905 -0.377390 0.255046 0.346244 -0.007216 -0.245137 -0.254537 0.256492 0.480396 0.014966 0.293792 0.147543 -0.218586 -0.311769 -0.161707 -0.031227 -0.032806 -0.269788 0.101368 0.130638 0.155739 0.206585 0.048978 0.122493 -0.190315 -0.270770 -0.329471 -0.390009 0.288070 -0.356369 -0.190995 0.115206 -0.113293 -0.219903 -0.343296 0.442466 0.305904 0.530034 0.206305 0.072367 0.007011 -0.032113 0.313552 0.135964 0.116627 -0.323854 0.125475 0.612038 0.291694 -0.300231 -0.153717 -0.073288 0.052241 -0.006291 -0.139037 -0.354060 0.528499 0.529155 0.167362 -0.306292 0.043988 -0.210593 0.172518 0.077181 -0.005202 -0.076858 0.198398 0.364038 0.409302 0.013304 -0.329541 -0.873800 -0.633721 -0.307898 -0.232859 0.002497 -0.247641 -0.178981 -0.270414 -0.150272 0.095981 -0.144825 -0.484082 -0.822705 
-0.764112 -0.011770 0.043038 0.110740 0.048385 -0.049299 -0.092405 -0.018481 0.078952 0.063832 0.168471 0.055659 -0.079187 -0.069685 -0.311898 -0.301537 -0.401157 -0.372575 -0.028701 -0.048215 0.013939 0.076019 0.071049 -0.061978 0.326321 0.107303 0.182997 0.277379 0.225770 0.004526 0.068492 0.084320 0.052613 0.182096 -0.174618 -0.301572 -0.435689 -0.207701 0.046003 -0.034580 0.071720 -0.005654 -0.033533 0.047219 -0.191243 -0.248443 0.033669 -0.105277 -0.204932 0.037807 0.212612 0.243004 0.125500 -0.018079 0.211620 0.160507 0.292767 -0.090398 0.052762 0.278523 0.163506 -0.001450 -0.156507 -0.173400 -0.423389 -0.166033 0.007999 -0.017311 -0.024753 0.043499 -0.204679 -0.170819 0.062974 -0.028426 0.083525 -0.036694 0.032037 0.454574 0.116921 -0.277071 -0.015717 -0.099409 0.242508 0.011094 0.289713 -0.113551 0.004611 0.199355 0.115931 0.113776 0.066274 -0.120645 -0.182007 -0.148690 -0.015288 -0.038804 0.040828 -0.010975 -0.303630 -0.253018 -0.050396 -0.083743 -0.066767 -0.058650 0.062039 0.136771 0.129063 -0.328509 0.079165 0.046050 0.395988 0.146051 0.087663 -0.174841 -0.053287 0.063423 0.283078 -0.059745 -0.071840 0.205745 -0.179198 -0.168952 -0.071745 0.048493 -0.231149 -0.149877 -0.121448 0.109137 -0.020597 -0.053251 0.023525 0.334235 0.339364 0.116512 -0.128845 0.086958 -0.003915 0.173640 0.336998 0.352564 0.313560 -0.156264 0.010145 0.197073 -0.019807 -0.303943 -0.007008 -0.061516 -0.238258 -0.340092 0.017996 -0.127773 -0.175605 -0.145350 0.193091 0.151324 -0.107249 0.034747 -0.087055 0.021819 0.012541 -0.324570 -0.244971 -0.140533 -0.041325 -0.043520 -0.080470 0.359443 0.323453 -0.114676 0.011427 0.007789 -0.281699 -0.254329 -0.203916 -0.072480 -0.026034 -0.176197 -0.036940 0.140185 -0.053726 -0.003517 0.043405 0.182671 0.038273 -0.019846 0.291521 0.106637 0.086285 -0.146756 -0.020951 0.126212 -0.047705 -0.253362 -0.094534 0.057557 0.108814 0.033499 -0.016056 -0.036284 -0.214474 -0.049396 -0.139253 -0.198545 0.019586 0.020536 -0.011279 0.030994 0.043269 0.112308 0.150407 0.070851 -0.036939 0.235399 0.230925 0.129997 -0.027097 -0.039667 0.180512 0.179701 -0.016804 -0.232221 0.207027 0.084144 -0.080386 0.146972 0.350333 0.035212 -0.056098 -0.199374 -0.044023 -0.033865 0.049794 -0.124546 -0.115657 -0.027164 0.021618 0.043409 -0.069896 0.188686 0.000377 -0.043428 -0.072141 -0.064041 -0.158232 -0.148044 -0.121901 -0.265232 0.028456 0.181048 0.458932 0.160814 -0.062275 0.063402 0.048884 -0.222473 -0.101667 -0.115657 -0.237501 -0.033674 -0.229070 -0.105218 -0.100437 -0.084975 -0.067794 0.252415 0.360110 0.361447 0.083130 0.053178 -0.024612 0.008255 -0.175782 -0.095681 0.025849 -0.268225 -0.092168 0.282948 0.641142 -0.028577 -0.144282 -0.168135 -0.061774 -0.163885 0.032211 -0.056437 -0.231863 0.105715 -0.068281 -0.069462 -0.003723 0.188581 0.088725 0.079077 0.085883 -0.043195 -0.034903 -0.189007 -0.089805 -0.167194 -0.075486 -0.204101 -0.011149 0.061082 -0.146530 0.066918 0.313149 -0.142702 0.080901 -0.261061 0.088590 -0.291241 -0.010115 -0.199674 -0.307566 0.104019 0.047713 -0.105678 -0.005398 0.133533 -0.033844 0.067701 0.317551 0.562132 0.369120 -0.085120 0.019200 0.091528 0.050996 -0.376601 -0.330375 -0.120435 0.120039 0.283102 -0.119298 -0.083945 0.156066 -0.410156 0.012273 -0.337836 -0.107336 -0.148704 -0.202939 -0.054101 -0.390642 -0.246072 -0.190895 0.306241 0.120702 0.208675 0.265729 0.185396 -0.007497 -0.094103 0.054632 0.187229 -0.027627 -0.122089 -0.212625 0.007820 0.069315 -0.043025 0.002858 0.009652 0.110560 -0.363240 -0.037495 -0.158574 -0.055766 0.042764 0.017322 -0.006548 0.059459 -0.161445 -0.374534 0.268811 0.141133 0.002052 -0.178143 -0.050673 0.145464 -0.206816 0.102547 -0.165055 -0.001392 0.201175 0.078549 0.085164 0.187669 0.124743 0.164808 0.309075 0.042731 -0.187207 -0.013145 0.036753 0.218799 0.214935 -0.027107 -0.159062 0.060897 0.073688 0.017807 0.461127 0.219998 -0.026055 -0.004127 -0.064589 0.023409 0.105595 0.248563 -0.139891 -0.036038 -0.233933 0.022064 0.056132 0.331088 0.147200 0.138811 -0.008401 0.083558 -0.039520 -0.154194 -0.101743 0.131094 0.036651 0.088829 -0.232144 0.141707 -0.157290 -0.344687 0.005089 0.087461 -0.132117 -0.081408 -0.281984 0.078262 -0.118015 -0.087413 -0.228442 -0.267711 -0.250182 0.088617 0.200270 0.212298 -0.186197 0.101686 -0.086568 0.115748 -0.029745 -0.281647 -0.282818 -0.056669 -0.016507 -0.082255 -0.132793 -0.065696 0.008947 -0.179300 0.057601 0.199896 -0.055446 0.058442 -0.047050 0.096732 -0.067772 0.037027 0.218603 -0.043655 0.024746 0.205245 -0.087335 -0.022619 0.174415 0.053430 -0.178417 0.075373 -0.302049 -0.069056 -0.038744 0.044398 -0.052045 -0.205848 -0.122881 0.111122 0.275174 -0.026001 0.399719 0.134377 0.060339 0.130143 0.226295 0.043679 0.275951 -0.016519 0.048932 0.390654 0.301176 0.323123 0.210209 0.217779 0.422762 0.171221 0.024692 0.162432 -0.384114 0.013305 -0.006641 -0.084057 0.105374 0.000709 -0.214523 -0.209509 -0.379601 -0.365136 0.152131 -0.078862 0.101764 0.006156 0.026198 0.008690 0.017339 -0.252331 -0.050619 0.138369 -0.014985 0.159926 0.196645 0.380944 0.392357 0.528916 0.241974 0.498450 -0.126611 -0.049590 -0.128280 -0.127579 0.089598 0.163328 -0.247699 -0.146799 -0.047476 -0.073243 0.185913 -0.047910 0.264749 0.113563 0.089708 -0.079945 0.049835 -0.049658 -0.176593 -0.008497 0.068663 0.011310 0.100380 -0.017577 0.044597 0.518344 0.164747 0.323195 0.031412 0.065735 0.054656 -0.242085 0.048458 -0.071881 -0.347352 -0.075400 0.275184 0.132702 0.246545 0.094492 -0.005472 0.031473 0.028788 -0.022156 0.103463 0.080234 -0.155094 -0.057548 0.026867 -0.251203 -0.073454 -0.176235 0.110393 0.416434 0.180577 0.319855 -0.006803 -0.280912 0.064675 0.049856 -0.090703 -0.318257 -0.192049 0.023457 0.040258 -0.063432 -0.012840 -0.035012 -0.058712 -0.046445 0.070228 -0.069113 0.157999 0.026823 0.353271 0.246590 -0.044055 -0.128995 0.049829 0.091944 0.367800 0.454653 0.238390 0.426012 -0.125505 -0.254581 -0.164558 0.078880 -0.068143 -0.135444 -0.251109 0.257497 -0.017761 -0.272178 0.144743 -0.143265 -0.192107 -0.046414 -0.020060 0.075594 -0.008792 0.113693 0.401275 0.372055 0.138365 -0.042564 0.040057 0.195144 0.067466 0.412934 0.232521 0.323632 -0.014191 -0.044763 -0.496286 -0.135862 0.069339 0.014935 0.246839 0.080339 0.043833 -0.023675 -0.139645 -0.246762 0.259258 0.249866 0.104555 0.031145 0.218119 0.368836 0.321826 0.194901 0.194340 -0.140349 0.087646 0.006918 0.111231 0.221742 0.152549 0.452024 0.039100 -0.254162 -0.205957 -0.257946 -0.129405 0.115553 0.029189 -0.123525 -0.029913 0.001689 -0.126568 -0.345339 0.254525 0.255632 0.124220 0.227520 0.147914 0.392830 0.195421 0.270398 0.078689 0.205600 0.143323 0.109218 0.105849 -0.026550 0.320778 0.602985 -0.086096 -0.231533 -0.307286 -0.263677 -0.194986 -0.095776 -0.192382 0.095395 0.045240 0.243966 0.199225 -0.189170 0.111645 0.300554 -0.042216 -0.064019 0.132915 0.489871 0.121482 0.062977 0.162376 0.235648 0.170875 0.193482 0.133505 0.135548 0.447766 0.507723 -0.007271 0.145725 -0.288550 -0.351445 -0.079103 -0.222163 -0.328913 -0.158328 0.011267 0.331674 0.209701 -0.053504 0.175359 0.088501 -0.373956 -0.300557 -0.003244 0.460640 0.188031 0.138854 0.090368 0.268983 0.310132 0.423147 0.316090 0.282875 0.448689 0.443363 -0.227035 -0.210106 -0.292255 -0.451615 -0.152316 -0.280516 -0.077755 0.076824 -0.222999 0.157725 0.312299 0.098727 0.195690 0.026018 -0.244154 -0.047717 -0.102915 0.161825 -0.000814 0.224955 0.332039 0.348678 0.251485 0.261151 0.024435 0.013590 0.203611 0.232319 
-0.734683 -0.114317 -0.358464 -0.303238 -0.091133 -0.079102 -0.139850 0.163720 0.031404 0.169890 0.107133 0.081750 0.039671 0.067291 -0.086591 -0.171890 -0.122408 -0.079499 -0.071621 -0.024439 0.082066 0.175528 0.277590 0.301330 0.078811 -0.095753 -0.275761 -0.195908 -0.332803 -0.173068 -0.083666 0.201732 0.193102 0.004144 -0.022487 -0.068388 -0.070511 -0.010373 0.051948 -0.020260 0.144890 0.230662 0.146410 0.249878 0.274444 0.202086 0.343256 0.373758 -0.059514 -0.139628 0.041716 0.044150 0.093166 0.101672 -0.269833 -0.353119 -0.424613 -0.022868 0.237029 0.034425 0.219533 0.351966 0.131249 0.043921 -0.048171 0.047663 0.126629 0.260782 -0.002234 0.082122 -0.063898 -0.007022 0.045611 -0.062418 -0.175929 -0.113717 0.034386 -0.220362 -0.342672 -0.065351 -0.076303 0.004472 -0.070642 -0.159468 -0.424638 -0.023900 0.031138 0.066694 0.083050 -0.193408 0.083055 -0.180158 -0.241952 0.147855 0.102922 0.130970 -0.037745 -0.146257 -0.104293 -0.043491 -0.143027 -0.251692 -0.127452 -0.095726 -0.054577 0.023360 -0.025196 0.025429 -0.228370 0.014444 -0.150386 -0.094529 -0.232858 -0.043034 0.234644 0.276347 -0.031337 -0.024960 0.251662 0.030659 -0.108986 0.009250 0.077348 0.076497 0.013712 -0.017099 0.228441 0.028163 0.087607 0.211503 0.109546 0.328570 0.023983 -0.095724 0.086768 -0.109219 -0.349676 -0.235457 -0.032844 -0.007534 -0.400757 0.069819 0.025970 -0.078215 -0.129748 0.143392 -0.203011 -0.184591 0.024518 0.016294 -0.085072 0.052211 0.126583 -0.011320 -0.050054 -0.074900 0.024751 0.234123 0.113867 0.200550 0.151263 -0.137341 -0.144993 -0.008783 -0.140762 -0.363259 -0.254290 -0.166440 -0.255168 0.096825 0.028720 0.171345 -0.058574 -0.198119 -0.232023 0.019804 0.034401 -0.196427 -0.090531 0.061832 0.306803 0.114262 0.131509 0.139392 0.162301 0.177582 0.154259 0.166590 0.211645 0.072485 0.285014 -0.001036 -0.094063 -0.116959 0.151186 0.078275 -0.100815 0.039403 -0.064914 0.147435 -0.172212 0.033712 -0.152004 0.040965 -0.182287 -0.050975 0.137721 0.273697 0.092548 0.015856 0.038542 0.100227 0.197107 0.065585 -0.074894 0.031616 0.079413 -0.060745 0.001157 -0.080556 -0.333534 -0.030809 0.187927 0.343336 0.152212 -0.040107 -0.025331 0.000115 -0.052313 0.046005 -0.040837 -0.091656 -0.139212 -0.011365 0.300865 0.280322 -0.212553 -0.224525 0.140956 0.233368 0.200057 0.256989 0.069947 -0.193896 -0.249160 0.015091 -0.070881 0.058422 -0.072326 -0.184113 -0.011386 0.091089 0.239831 -0.096429 -0.046463 -0.069199 0.122864 0.110988 -0.064647 0.025436 0.028870 0.282239 0.232158 0.143893 -0.246587 -0.330437 0.133568 0.063080 0.161966 0.179427 0.272423 0.060977 0.190991 0.092842 0.175504 0.183117 0.138663 0.217896 0.039495 0.224405 0.309868 -0.037192 -0.116311 -0.079681 -0.115785 -0.072135 -0.221271 -0.056996 -0.081185 0.186102 0.116177 0.243257 0.069934 -0.182169 0.053759 0.019946 0.043983 -0.064038 0.439985 -0.087032 -0.146974 -0.074225 -0.027186 -0.037468 0.092614 0.109219 0.032290 0.272471 0.526226 -0.001174 0.146151 -0.017239 -0.184028 -0.034831 0.034105 -0.002032 -0.061620 0.085927 0.196621 0.166479 0.021206 -0.026237 0.127537 0.156646 -0.164236 -0.092699 0.289561 0.092573 0.077867 0.188822 0.002762 0.059818 0.005178 0.089293 0.071131 0.295884 0.316949 -0.227478 0.023491 -0.088261 -0.188729 -0.225286 -0.378644 -0.091479 0.042217 -0.035430 -0.073458 -0.078810 -0.211294 -0.151056 -0.124850 -0.143528 -0.026632 0.180975 -0.051664 -0.085128 0.047324 -0.026983 0.108228 0.119665 -0.092907 0.164916 0.087330 -0.039956 0.159817 -0.049189 0.167565 0.076871 0.071960 0.092442 -0.097857 0.123935 -0.010487 -0.271732 -0.303431 -0.281046 -0.373210 0.081668 0.241599 -0.019774 0.141418 0.014106 -0.268301 -0.038938 -0.330979 -0.169945 -0.261875 -0.083982 -0.023966 0.365049 -0.014724 -0.227743 0.111030 0.225024 0.200942 0.183787 0.066444 0.329300 0.227599 0.359478 -0.014873 -0.345799 -0.265661 -0.195756 -0.077200 0.451539 0.617808 0.071311 -0.058342 -0.188167 -0.296815 -0.202326 -0.014214 -0.061697 -0.214870 -0.017042 -0.232836 0.185231 -0.194811 -0.023995 0.185925 0.099084 0.063096 0.279423 0.066787 0.096748 0.297702 0.319893 0.069491 -0.063557 0.032970 0.050701 0.155268 0.394593 0.338709 0.182133 0.000021 -0.217080 -0.358760 -0.143718 -0.075088 -0.004747 0.086070 0.031669 -0.022870 0.022811 -0.147446 0.116330 0.045485 0.270219 0.035534 0.104944 -0.173363 0.119550 0.210575 -0.083847 -0.218560 -0.088879 0.029300 -0.045397 0.189716 0.294890 0.135632 -0.204468 -0.180846 0.202582 0.016799 -0.052375 -0.534728 -0.218292 -0.099415 -0.035528 0.162948 0.012811 0.185453 0.209901 -0.149632 0.043528 0.147040 0.126885 -0.177494 -0.043976 0.324941 0.077369 -0.228926 0.254754 0.142676 -0.034474 -0.098333 -0.287126 -0.235755 -0.607676 -0.137232 0.028840 -0.398734 -0.333987 -0.209954 -0.164692 -0.050878 -0.059562 0.050723 -0.049030 -0.042398 0.069580 0.026767 -0.083008 0.209513 0.323675 0.062446 0.212429 0.020815 0.087190 0.141530 0.254550 -0.022255 0.033414 0.186474 -0.033587 -0.127640 -0.250686 -0.243234 -0.020133 -0.313649 -0.332487 0.025844 -0.051376 -0.252119 -0.302683 -0.049284 -0.009289 -0.105102 -0.134820 0.143831 0.124252 0.026844 0.143139 0.234103 0.477857 0.044446 -0.289622 -0.035247 0.088314 -0.041922 -0.292379 -0.024796 -0.171735 -0.010795 -0.268844 -0.437783 -0.240792 -0.318280 -0.548821 -0.271241 -0.198680 -0.158224 -0.133189 -0.065861 -0.000191 -0.038726 -0.275151 0.161614 0.149019 -0.152776 0.164339 -0.011230 -0.001874 0.214667 0.073446 0.038970 0.087029 0.060752 -0.111262 -0.295335 -0.230919 0.097609 -0.208628 -0.130909 -0.226327 -0.321966 -0.353389 -0.309897 -0.083496 0.071265 0.139337 0.288534 0.275252 0.067048 -0.230822 0.090161 0.273975 -0.043999 0.145612 -0.020007 -0.210717 0.055940 0.033884 -0.090499 -0.112188 0.173915 0.061165 -0.140021 -0.065334 0.312491 -0.139795 -0.237505 -0.188071 -0.248524 -0.402526 -0.486527 -0.292383 -0.053976 -0.139315 0.191758 0.100271 0.062873 -0.283601 -0.129812 0.227344 -0.047286 0.180614 0.004069 0.124970 -0.020162 0.087084 -0.022061 0.051438 -0.052948 -0.185500 0.185902 -0.016861 -0.031170 -0.217992 -0.130499 -0.243439 -0.026149 -0.246559 -0.379543 0.030896 0.000510 0.184740 0.068151 -0.199989 -0.101588 -0.287249 -0.072493 0.466380 0.191774 0.187648 0.118651 0.027158 -0.069714 0.003110 -0.008742 0.079834 -0.092108 0.013554 0.202318 0.044465 -0.030762 -0.191882 -0.179203 -0.217265 -0.064182 -0.258476 -0.275283 -0.206286 0.131856 0.305854 -0.281337 0.070337 -0.173607 -0.177963 0.134931 0.325163 0.160207 0.133734 0.253346 0.078145 -0.101599 -0.024101 -0.155883 -0.058292 0.011776 0.359534 0.235089 -0.064582 -0.110711 -0.325038 -0.235144 -0.216577 -0.115106 -0.036831 -0.164800 0.208848 0.322378 -0.205850 -0.058080 0.089597 -0.230081 -0.114216 -0.015397 0.060014 0.002549 -0.024289 0.002134 -0.079103 0.209823 -0.030025 -0.092602 -0.045609 -0.023575 0.316328 0.224919 -0.314285 -0.211190 -0.378780 -0.214751 0.020360 -0.290325 -0.499753 -0.216626 0.127664 0.045310 0.065327 0.156586 -0.021527 -0.061059 0.040917 -0.063665 0.220893 0.051376 0.112035 0.041169 0.129435 0.037900 -0.042292 0.137014 0.136706 0.138134 0.144882 -0.047759 -0.465165 -0.553579 -0.570988 -0.627546 -0.328694 -0.473377 -0.327002 0.101367 0.180805 0.069503 0.128686 0.156781 0.390125 0.301952 0.035728 -0.063716 0.487870 0.144204 0.020815 -0.222343 -0.074737 -0.183894 -0.037236 0.054460 0.308634 0.136407 -0.107198 -0.273089 -0.310989 -0.452468 -0.595505 -0.762187 -0.541989 -0.434940 -0.396201 0.018646 0.109490 -0.048564 -0.232871 -0.137685 0.011282 0.054565 -0.115630 -0.090366 
0.253926 0.003621 -0.028127 -0.095869 -0.220780 -0.010123 0.180916 0.245652 0.005585 -0.173979 -0.260509 -0.150548 -0.014300 0.056783 -0.014527 0.153808 0.261751 0.162504 0.156800 0.139900 0.077744 -0.023376 0.034769 -0.001592 -0.186882 -0.232130 -0.356883 -0.088478 0.028933 0.216462 0.109450 0.140268 0.073189 0.096007 0.131100 0.039496 0.022416 0.157151 0.044928 -0.054442 0.025228 -0.026523 -0.083947 -0.071141 -0.005382 0.096755 -0.215047 -0.113699 -0.194625 -0.169209 0.097303 0.000515 0.018090 -0.065732 -0.031564 0.081680 0.241257 0.093833 0.033293 0.030498 0.044630 0.086433 -0.054597 -0.151418 -0.044579 0.021124 -0.063737 -0.137859 -0.037037 -0.373481 -0.175946 -0.083727 -0.155811 -0.052849 -0.100163 -0.018298 0.033223 -0.221419 -0.220920 0.084114 0.047073 0.195856 0.189416 0.108508 0.103617 0.075260 0.059138 0.073113 0.008826 -0.044632 -0.091368 -0.216063 -0.040246 0.040193 0.012802 0.096763 -0.049077 0.062573 0.106168 0.020658 -0.038763 0.107908 -0.039019 -0.000223 0.194447 0.101129 0.035906 0.133809 0.232100 0.119743 0.090344 0.070983 0.035025 0.058859 0.166535 0.057041 -0.067072 -0.061363 -0.099477 -0.069628 -0.120368 -0.018229 -0.174559 0.049029 0.161051 0.126897 0.038130 0.016705 -0.082707 0.024925 0.079564 -0.105186 0.005422 0.279647 0.218580 0.247226 0.159777 0.080884 0.100877 0.024757 0.062881 0.206219 0.154833 -0.192189 -0.130567 0.106749 0.174146 0.053941 -0.142170 -0.090218 0.047255 0.101846 -0.099479 0.091617 0.000348 -0.042896 0.073503 0.136497 0.082406 0.048109 0.118744 0.169256 0.064907 0.199674 0.007608 0.077575 0.081638 0.041646 0.003461 0.201616 0.049241 -0.102587 -0.169596 0.004023 0.053298 -0.279775 -0.226592 -0.047397 0.032324 -0.129192 -0.223077 0.004389 0.336203 0.294692 0.074240 -0.155810 -0.124886 -0.031471 -0.162535 -0.169622 -0.102370 -0.055994 -0.161972 -0.086397 -0.206668 0.108768 -0.058810 0.163864 0.183997 -0.045561 -0.221353 0.047375 0.025870 0.109152 -0.073387 -0.031981 -0.022833 0.054743 0.006394 0.206886 0.345214 0.272933 0.162757 0.095147 0.044323 0.081427 0.104560 0.245681 0.013594 -0.040987 -0.125974 0.079410 0.152673 0.221780 -0.024727 0.153076 -0.029422 -0.134884 -0.109528 0.038625 -0.007765 -0.111461 -0.074727 -0.146656 -0.232602 -0.136359 -0.009814 -0.073107 0.170247 0.110507 0.010367 -0.101608 0.025264 0.259280 0.193387 0.312887 0.117955 0.035731 0.083247 0.150882 0.224193 0.122038 -0.000210 0.257582 0.110605 -0.042259 -0.066747 0.028122 0.134629 0.069111 0.260611 -0.168411 -0.068351 0.070593 0.012273 -0.009537 0.296933 0.233893 -0.021020 -0.168291 -0.228772 -0.090701 -0.060445 0.116153 -0.006248 -0.057973 0.167918 0.217965 0.034529 0.034235 0.139535 0.009478 0.033918 0.160560 -0.142570 -0.042683 -0.001430 0.086244 -0.112197 -0.188754 0.028224 0.078668 -0.121017 0.003274 0.181963 0.058249 0.018351 0.292081 0.095161 -0.009594 -0.171946 0.180146 0.018173 -0.002999 0.084594 0.063470 -0.134595 0.003353 -0.061446 -0.052033 -0.072175 0.036219 0.100329 0.220242 0.117660 -0.014221 -0.000430 0.041532 0.119140 -0.015773 0.119878 0.005389 0.061391 -0.043362 -0.013364 0.097278 0.044709 -0.012554 -0.179037 0.026520 0.032306 -0.171151 -0.290711 0.160225 0.099866 -0.083861 -0.178752 0.228382 0.060739 0.061720 0.159133 0.021871 0.014428 0.063202 0.057558 -0.112432 -0.109361 -0.139038 -0.294990 -0.112108 -0.008978 -0.163906 -0.187165 0.189291 -0.064337 -0.086124 -0.002773 -0.279649 -0.197658 -0.203949 -0.056481 0.212337 -0.107901 -0.140930 0.084073 0.135467 -0.088740 0.012205 0.065662 -0.035348 0.188278 -0.032429 -0.082850 -0.168795 -0.146054 -0.148602 -0.107763 0.188472 0.103248 -0.033153 0.045179 0.096967 -0.167982 -0.095276 0.166388 0.026639 -0.134306 0.140648 0.000345 -0.139289 -0.173427 0.034690 0.080190 -0.148365 -0.331788 -0.100810 0.008533 -0.148507 0.217074 -0.016285 -0.366565 -0.083005 -0.205067 0.024304 0.386620 0.347380 0.030620 -0.095800 0.160574 -0.011450 -0.049207 -0.122295 0.298277 0.182796 0.142265 0.162721 0.060212 -0.062688 0.073336 0.228622 0.066538 -0.029585 -0.316400 -0.146764 0.125984 -0.091500 0.123268 0.092402 -0.246395 -0.241138 -0.347366 -0.024333 0.106643 0.029719 0.049654 -0.233580 -0.262685 0.006078 -0.215713 -0.353365 -0.144147 -0.134057 -0.350595 -0.097679 0.012123 0.305002 0.134905 0.178904 0.074378 0.000989 0.184100 -0.114300 0.067085 -0.085375 0.102002 0.114085 -0.224934 -0.256234 -0.176156 -0.044692 0.037901 0.006789 0.027139 -0.364441 -0.121171 -0.123544 -0.203370 -0.141313 0.196884 -0.201620 -0.243913 0.087909 0.126752 0.250357 0.120348 0.045247 -0.170005 0.071740 -0.000824 -0.095569 -0.029658 -0.123893 -0.030188 -0.103111 -0.416366 -0.104082 -0.404573 0.179645 0.160075 0.044564 0.167651 -0.047183 -0.193058 -0.076869 0.070633 0.104663 0.097251 -0.185360 -0.042817 0.086400 -0.220660 -0.040787 0.036623 0.042822 0.000098 0.027248 0.043774 0.066698 -0.045241 -0.078392 0.137709 -0.028700 -0.158488 0.105844 -0.238059 0.126933 0.084866 -0.074559 0.117833 -0.030949 -0.206608 -0.176260 -0.087728 -0.082549 -0.242119 -0.154168 0.025205 -0.151053 -0.203320 0.082470 0.042456 0.247073 0.237061 -0.070018 0.010210 -0.067066 -0.355957 -0.330165 -0.021627 -0.075228 -0.030387 0.166298 -0.024999 -0.151322 -0.082521 -0.060568 -0.127250 -0.147703 -0.104281 0.034347 -0.074781 0.120587 0.103912 0.089288 0.138134 0.081943 0.236631 -0.003416 0.100062 0.213463 0.174459 0.018578 -0.199659 0.024884 0.110440 -0.044477 0.120644 0.085170 0.001453 0.176594 0.087248 -0.340370 -0.115886 -0.066441 -0.240611 -0.061691 -0.180616 0.006442 0.048257 0.265153 0.067886 0.007235 0.172909 0.158409 -0.087118 0.132477 0.170201 0.171301 0.214258 0.168329 0.124045 0.043169 0.257997 0.152987 0.202896 0.210147 0.087447 0.238315 0.199131 -0.223556 -0.240811 -0.209169 -0.141541 0.170523 -0.110621 -0.018568 -0.050962 0.194781 -0.069081 -0.103159 0.082265 -0.093975 -0.198180 0.101363 0.047459 0.230177 0.276947 0.084116 0.233416 -0.068815 0.084197 -0.100280 0.026618 0.002952 0.118204 0.105109 -0.051935 -0.167880 -0.252408 -0.269568 0.128817 0.111679 -0.054359 0.064057 0.016283 -0.141517 -0.071910 -0.319175 -0.061073 -0.186654 -0.091449 0.172920 0.065652 0.303874 0.215224 -0.077633 0.280775 0.307967 0.054880 -0.165564 0.048509 -0.307239 -0.372942 -0.112516 -0.096447 0.030843 -0.203856 -0.259343 0.109249 0.152438 0.230680 0.201406 0.020215 0.023024 0.109942 -0.069036 -0.069455 -0.094792 -0.070089 0.013509 0.096506 0.050697 -0.007717 -0.137647 0.271397 0.009154 0.167211 0.103641 0.060643 -0.302139 -0.169177 -0.010387 0.083860 -0.068849 -0.050980 -0.073963 0.229808 -0.038151 -0.082099 0.085803 -0.037444 0.042955 -0.034746 -0.015898 -0.146363 0.080193 -0.093689 0.035235 0.032683 -0.216019 -0.138702 0.155081 0.160928 0.030771 -0.077164 0.142464 0.123563 -0.087728 -0.211787 -0.140921 -0.287118 -0.337457 -0.241510 -0.242675 0.097516 -0.063057 -0.252648 -0.114898 -0.049057 0.179403 0.084462 -0.280050 -0.208460 -0.191418 -0.231121 -0.000568 0.044605 -0.039492 0.109691 0.363498 0.023645 0.035207 -0.085642 -0.032173 0.084571 -0.030560 -0.382068 -0.294616 -0.155050 -0.093398 -0.040166 0.011819 0.244658 0.438287 0.165246 0.207980 0.027780 0.057637 0.154694 -0.011494 0.061640 -0.083741 -0.006214 -0.016282 0.052847 -0.020719 0.236561 0.159602 0.064075 -0.172505 -0.262914 -0.373145 -0.094864 -0.203252 -0.289636 -0.004218 0.052301 -0.026089 -0.073219 0.065005 0.410576 0.362616 0.102929 0.127547 -0.088550 -0.038816 -0.138713 -0.087497 -0.021478 0.131767 -0.089027 -0.146764 -0.077160 0.025468 0.154057 
-0.032795 0.006703 -0.010451 -0.008971 -0.052796 -0.062834 -0.055998 -0.016198 -0.082950 -0.028652 -0.021956 0.004411 -0.110694 -0.081232 -0.007914 -0.082545 -0.012853 0.018504 0.005504 0.032129 -0.000512 0.001415 0.059223 0.030405 -0.021760 0.020757 -0.006849 0.047708 0.030382 0.075997 0.034894 -0.002584 0.009184 0.022545 -0.051821 -0.031206 0.018137 0.040288 0.051406 -0.079050 -0.073535 0.010293 -0.027359 -0.005613 0.005306 -0.055599 -0.013776 0.015764 0.038193 0.028088 0.055114 0.035718 0.051316 0.046859 0.036930 0.038336 0.006377 -0.024182 0.014696 -0.038395 0.030697 0.027797 0.035645 0.050224 0.072973 0.081616 -0.040446 -0.015327 0.020792 -0.013678 0.018534 -0.037127 0.017326 -0.001897 -0.048243 -0.078117 0.009270 -0.009561 0.023816 0.029389 0.070085 0.039061 -0.001953 -0.002438 -0.000450 -0.012107 -0.045961 -0.025188 0.015267 0.006027 0.016354 -0.001467 0.001468 0.030118 0.062773 0.042455 -0.024098 -0.058425 -0.084958 -0.038023 -0.013680 -0.049892 -0.083619 0.004439 0.066737 0.008445 -0.016647 -0.011355 0.013668 -0.020463 -0.074561 0.001467 0.054761 -0.055155 0.030509 0.016633 -0.018389 0.016908 -0.003816 0.012021 0.074126 0.008231 0.001261 0.005937 -0.065530 -0.066468 -0.034190 -0.071086 -0.024021 -0.026814 -0.055353 -0.010113 0.022613 -0.047382 -0.027074 0.019452 -0.018490 -0.000239 0.040413 -0.027730 -0.002224 -0.059916 -0.007590 -0.035164 -0.032297 0.108497 0.048967 0.043946 0.057823 0.035206 0.064150 0.003366 -0.051520 -0.001898 0.052258 0.081028 0.085228 0.083495 0.027517 0.007809 -0.014145 0.056585 -0.028215 0.041562 0.012287 -0.069669 0.025856 0.058460 0.046070 -0.034563 0.002497 0.021364 0.036050 0.119585 0.030574 0.033626 0.063573 -0.020584 -0.004294 0.030183 0.038464 0.045838 0.086154 0.070551 0.092185 0.042122 0.000756 0.005026 -0.049291 -0.002093 0.003208 -0.061497 -0.062322 -0.032882 -0.012180 0.030216 0.051749 0.058469 0.037154 0.058779 0.000126 0.104768 0.001755 0.118991 0.004112 0.060954 0.005773 0.109515 0.043404 0.105709 0.070594 0.064027 0.084424 -0.035538 -0.073282 0.001454 0.029575 -0.037365 -0.010808 -0.047084 -0.040556 -0.052129 0.037904 0.014918 -0.024310 0.053200 0.033306 0.021973 -0.010505 0.027592 0.025194 0.027041 0.069094 0.032570 -0.066192 0.009623 0.043604 -0.016842 0.057018 0.053451 -0.008529 -0.079751 0.006707 -0.030557 -0.015776 0.067103 -0.023518 -0.032155 -0.096717 -0.024287 0.007977 0.049947 -0.013673 -0.003629 0.056957 0.028048 -0.024137 0.000491 0.020399 -0.013667 0.051991 -0.023853 -0.092417 -0.051492 -0.062398 -0.054866 0.034335 -0.008457 -0.011598 -0.020207 -0.006585 0.025450 0.061822 0.026552 0.019046 -0.010793 -0.062192 -0.119297 -0.057654 0.060218 0.101861 -0.016320 0.043954 0.078794 -0.037469 0.007661 -0.029524 -0.057861 0.021601 -0.004938 -0.046820 0.008861 0.014660 0.022764 0.022285 0.000854 -0.004933 -0.046978 -0.013449 0.003303 -0.037385 0.029113 -0.029089 -0.070774 -0.003946 -0.065251 0.070886 0.120099 0.068625 0.016334 0.048268 0.026124 -0.022776 0.020679 -0.027920 -0.044254 0.055002 0.000337 -0.021350 0.044698 0.064960 0.067826 0.034960 0.065373 0.066500 -0.012687 0.044902 -0.010174 0.034240 0.027423 -0.061476 -0.056256 -0.037991 -0.029476 0.044194 0.095871 0.038180 -0.022910 0.054225 -0.050762 -0.037074 -0.037607 -0.078428 -0.063815 0.014449 0.036344 0.016649 0.092409 0.012282 0.044537 0.036762 0.024371 0.067401 0.016998 -0.054266 -0.027711 0.041431 0.018433 -0.027491 -0.010850 -0.051605 -0.003193 0.076773 0.054242 0.012770 -0.007527 -0.079449 -0.120636 -0.112384 -0.190548 -0.165931 -0.099226 0.012534 0.053681 -0.002700 0.035890 0.016200 0.094370 0.064853 0.041219 0.104985 0.023684 -0.000210 -0.000524 -0.069822 -0.018665 -0.065077 -0.066166 -0.002053 -0.034730 -0.039168 -0.022358 -0.082564 -0.014443 -0.066305 -0.158966 -0.174410 -0.149908 -0.137699 -0.071587 -0.056206 -0.038217 -0.052942 -0.038531 0.071693 0.080622 0.173598 0.085767 0.044603 -0.111246 -0.133768 -0.044478 -0.040734 -0.051530 -0.001273 -0.036079 -0.001531 -0.077221 -0.093648 0.032836 -0.031149 0.004398 -0.000118 -0.122348 -0.092834 -0.064917 -0.049494 -0.025711 0.003729 -0.073382 0.011276 0.076550 0.051250 0.059992 0.140654 0.033534 -0.018261 -0.063102 -0.158125 -0.153085 -0.061234 -0.049827 -0.027816 -0.122756 -0.033404 -0.010041 0.001013 0.064031 -0.050271 0.005965 0.057766 -0.027953 -0.029216 0.077547 0.046407 0.026415 0.030054 -0.027826 0.038915 0.019913 0.022580 0.043161 0.059506 0.065296 0.022322 -0.063195 -0.127787 -0.139796 -0.005779 -0.014115 -0.058553 0.025257 -0.023658 0.009503 0.023167 0.032584 -0.031607 0.041697 0.098865 0.013860 -0.044622 0.009649 0.009244 0.012253 0.028930 0.053889 0.011671 0.040153 -0.036095 -0.018359 0.025820 0.044276 -0.036640 -0.064587 -0.043734 -0.055019 -0.009185 0.046588 -0.038172 -0.015670 0.014256 0.014946 0.030949 0.025024 -0.086860 0.019284 0.038681 0.035494 0.055683 0.087564 0.010677 -0.037921 0.093168 0.037090 -0.027824 0.043264 0.084876 0.043305 0.051431 0.129330 0.106433 0.078897 0.018333 0.044239 0.059145 0.028498 0.058103 0.003548 -0.031167 0.046157 0.048768 0.048025 -0.069660 0.032703 0.015257 0.048994 0.047487 0.008462 -0.039005 -0.098961 -0.020990 -0.033784 0.030573 0.014686 -0.004618 -0.004773 -0.044585 0.082680 0.084866 0.089922 0.017378 0.027064 0.095131 0.042645 0.016892 -0.001158 0.051241 0.024600 0.035248 0.040929 -0.120992 -0.031139 -0.034321 0.009828 0.072098 0.053473 0.027694 0.063919 0.092541 0.074403 -0.021231 -0.042790 -0.010347 -0.014518 -0.004951 0.027482 0.094901 0.127418 0.033492 0.043374 0.040313 0.014715 0.051823 0.048966 0.049579 0.057722 0.036144 0.019970 -0.093265 0.006119 0.024647 0.054764 0.051584 0.002329 -0.030407 0.121392 0.160334 0.038032 0.032237 -0.036332 -0.043005 -0.043288 0.016109 -0.003212 0.045342 0.111038 0.087291 0.028053 0.061888 0.085897 0.075859 0.089659 0.075503 0.015252 0.070755 -0.016135 -0.079256 -0.019483 0.000661 -0.009442 0.039525 -0.018009 -0.059408 -0.004166 0.039670 0.048181 0.045101 -0.022658 -0.075661 -0.002971 0.041765 0.028016 0.084265 0.106176 0.085938 0.044825 0.109445 0.120041 0.108781 0.116782 0.097365 0.000527 0.011676 -0.047965 -0.076331 -0.056109 0.060339 0.029375 -0.045197 -0.036342 0.014646 -0.053609 0.022471 -0.025200 0.027209 0.025930 -0.002658 0.007724 -0.035497 0.006098 0.055176 0.094863 0.065081 0.094048 0.161349 0.093702 0.103621 0.099304 0.101603 0.080054 0.066477 0.020760 -0.046890 -0.019549 0.037736 0.011109 0.054728 0.026544 -0.009160 -0.034133 0.018434 0.040970 0.053431 0.088838 0.048871 0.051109 0.008594 -0.006141 -0.024117 0.014036 0.042612 0.098813 0.117440 0.100666 0.099578 0.128781 0.043043 0.041210 0.046245 0.039430 -0.052693 -0.061818 -0.014955 0.051026 -0.016088 -0.060141 -0.024419 -0.015614 0.097983 0.028261 0.045300 0.014067 0.057355 0.031404 0.018401 -0.019255 -0.077374 0.032815 0.047878 0.029598 0.112615 0.049345 0.050033 0.053044 0.089069 0.007981 0.037039 0.014900 -0.042623 0.058239 0.016119 0.099264 0.128744 0.045686 -0.007339 0.021178 -0.019631 0.012286 0.051669 -0.037588 -0.021334 0.028357 0.038082 -0.001571 -0.023723 0.031067 0.022897 0.062295 -0.013832 0.042323 0.014476 -0.016054 0.039944 -0.044068 0.022215 0.061335 0.020199 0.076246 0.031239 0.020272 0.020549 -0.097146 -0.112381 -0.125966 -0.078868 -0.070497 -0.050651 -0.074936 -0.052902 -0.069059 -0.048380 -0.015414 -0.027647 -0.103991 -0.090672 -0.020317 -0.047139 -0.069393 -0.058993 -0.056101 -0.120813 -0.060724 0.032168 0.006011 0.008424 
-0.172941 -0.023873 0.017893 0.088461 0.097814 0.045477 0.097845 0.126188 0.066281 0.076600 0.012531 -0.009258 -0.004278 -0.001733 0.068520 0.103692 0.119467 0.127853 0.071362 0.038228 -0.045663 -0.013570 -0.109896 -0.039536 -0.066014 -0.002955 -0.040634 0.024881 0.086928 0.074622 0.040247 0.061174 0.094303 0.043467 0.042167 0.087875 0.112588 0.082070 0.016997 0.043102 0.075988 0.023352 0.091182 0.102056 0.097409 0.118687 -0.031182 -0.019296 -0.130513 -0.086411 -0.089232 -0.144231 -0.155274 -0.074910 -0.069908 0.043166 0.099451 0.101724 0.069567 0.052336 0.071455 0.027646 0.042317 -0.000848 0.034592 0.033159 0.074240 0.051756 0.072484 0.006115 0.061307 0.031082 0.035984 0.071645 -0.036520 -0.036907 -0.055608 -0.101035 -0.058184 0.034463 -0.094704 -0.104848 -0.057973 0.041339 0.093270 0.128892 0.100474 -0.011601 0.028782 0.009467 -0.088338 -0.021475 0.073194 -0.021495 -0.056617 0.049578 -0.043196 -0.020191 -0.050363 0.027370 0.044382 0.063393 -0.035925 0.056081 0.005683 -0.000615 -0.072237 0.041203 -0.042679 -0.042349 -0.068707 -0.008445 0.122843 0.061653 -0.024466 0.006213 -0.041450 -0.108303 -0.062063 -0.015779 0.061255 -0.110819 -0.030989 -0.054959 0.008343 -0.026303 -0.093941 -0.053647 -0.027803 0.018319 -0.062702 -0.021754 0.024413 0.034837 -0.063678 -0.017307 -0.095444 -0.014716 -0.053621 -0.056195 0.005183 0.081451 0.028560 0.000137 -0.037885 0.095713 -0.005743 0.094583 0.026748 -0.001867 -0.048705 0.063613 0.039339 0.079468 0.049690 0.081324 0.113074 0.079314 0.024095 -0.026723 0.015612 0.053783 0.087034 0.154929 0.023801 -0.003415 0.024702 0.011873 0.037952 0.049942 0.013203 -0.130193 -0.098678 0.096450 -0.001791 -0.089443 -0.023918 -0.040624 -0.047530 -0.037827 0.014236 0.037401 0.131916 0.064877 0.057002 -0.019637 0.000441 -0.040952 -0.074380 -0.038512 0.014459 0.013633 0.086448 -0.031795 -0.114107 0.002166 0.008272 0.104236 -0.021707 -0.098431 -0.061819 -0.042614 -0.145690 -0.045555 -0.028051 -0.109964 -0.057456 0.048935 0.058746 0.022913 0.050236 0.080510 0.080468 -0.042909 0.023904 0.014577 -0.047141 -0.052339 -0.031854 -0.048490 0.095825 0.054796 -0.083518 -0.018035 0.066895 0.143186 -0.067363 -0.113472 -0.153369 -0.058890 -0.188072 -0.036401 -0.062455 -0.021086 -0.013955 0.037845 -0.032496 0.014056 0.084702 0.023975 0.020642 0.026779 0.086064 0.059264 0.019656 0.139375 0.077667 -0.025913 -0.065310 0.011395 -0.051422 0.015538 0.052970 0.174162 0.041955 -0.033552 -0.162824 -0.091429 -0.085665 -0.044307 0.102706 -0.025231 -0.058083 -0.024057 -0.070320 -0.027805 0.003004 -0.023514 0.013102 0.060132 0.109502 0.045310 0.059659 0.147614 -0.034932 0.039544 -0.069734 -0.091529 -0.111864 -0.043467 0.061572 0.118156 0.000674 -0.019254 -0.126877 -0.034016 -0.097101 -0.019282 0.104306 -0.020945 -0.018799 -0.094171 -0.025094 -0.033082 -0.012442 0.000256 0.033021 0.046715 0.090267 0.015685 0.011025 0.077855 -0.028938 -0.016301 0.070820 -0.045073 -0.043963 0.002745 0.087096 0.080324 0.019508 -0.035828 -0.123877 -0.059686 -0.074525 -0.069117 0.049038 0.015013 0.012477 -0.002027 0.005341 -0.042118 0.039711 0.021890 0.027089 0.024028 0.041075 0.029119 0.067122 0.108264 0.003785 0.023467 0.032359 0.057978 0.088326 0.041609 0.114331 0.070902 -0.025035 -0.023798 -0.067641 -0.050188 -0.052799 -0.005844 0.119150 0.029304 0.076106 -0.030668 -0.054125 0.008242 0.064070 -0.028498 0.045553 0.037218 0.117989 0.066554 0.160901 0.162874 0.053280 -0.078295 -0.025347 0.027097 0.054253 0.025583 0.099391 -0.004083 0.016960 -0.094826 -0.153170 -0.086459 -0.124476 -0.084788 -0.009693 -0.110674 -0.015732 -0.016622 -0.047819 0.009253 0.055285 -0.069273 -0.006878 -0.039323 0.002658 0.039720 -0.015277 0.072498 0.065604 -0.035897 0.010926 -0.010269 -0.059681 0.010311 0.029612 0.037680 -0.062259 -0.181970 -0.118895 -0.083619 -0.010914 0.051958 -0.009878 -0.075859 -0.072766 -0.020793 0.021499 0.099173 0.083512 0.021156 -0.013327 -0.060656 -0.071040 -0.084885 -0.043490 -0.018439 0.062579 0.003047 0.022970 0.012162 -0.026154 0.050692 0.000008 0.009636 0.038339 -0.087409 -0.056432 0.061660 0.071839 0.153293 0.025587 -0.064205 -0.025186 -0.070647 0.068444 0.082476 0.047224 0.102329 0.056561 -0.077755 -0.170580 -0.142944 -0.075292 0.006867 0.061805 0.020781 -0.021593 -0.038163 -0.023212 0.058794 0.047494 0.030108 0.067285 -0.080400 0.068455 0.211796 0.133618 0.068453 -0.039172 -0.048168 -0.085073 -0.024109 0.071215 0.057565 0.050209 0.008385 0.051960 -0.048062 -0.135583 -0.065216 0.031157 0.012924 -0.028113 0.038966 -0.039331 -0.000771 -0.061134 0.004569 0.110007 0.009810 0.060614 -0.070769 0.043943 0.091597 0.039140 -0.012454 0.033924 -0.078967 -0.077945 -0.028046 0.061809 0.053865 0.101675 0.051333 0.045497 -0.057841 -0.057764 -0.055967 0.041665 0.083062 0.098524 0.040939 -0.090417 0.012226 -0.090801 0.089953 0.057019 -0.005402 0.037427 -0.106421 -0.004953 0.061450 -0.034681 -0.038120 0.043336 -0.040721 -0.092431 0.027028 0.150996 0.072424 0.074477 0.114085 0.079281 -0.004131 -0.090482 -0.087582 0.002454 0.056066 0.071986 -0.065214 -0.058089 0.003934 -0.049370 0.160869 0.077550 -0.006624 -0.102595 -0.068955 -0.008251 -0.019231 -0.078199 0.035129 0.065366 -0.014082 -0.035997 -0.022621 0.062602 0.046026 0.100831 0.131216 0.013389 0.022517 -0.033382 -0.035952 -0.031829 0.092055 0.062218 -0.045676 -0.064888 -0.015423 -0.034994 0.065597 0.000525 0.004844 -0.178611 -0.068981 0.022060 -0.017426 -0.084547 -0.019028 -0.023376 -0.017828 -0.092243 -0.049015 0.024244 0.028628 0.008190 0.081365 -0.022634 -0.037161 -0.019672 -0.066670 -0.063025 0.052522 0.051033 -0.079841 0.019942 0.030198 -0.043537 0.031396 0.028309 0.013256 -0.113064 -0.101474 0.011819 -0.026529 -0.120658 -0.082300 0.029843 -0.010082 -0.060735 -0.041609 0.116789 0.075633 0.071545 0.069921 -0.038760 -0.091371 -0.078782 -0.032265 0.026367 0.018736 -0.000662 0.005753 0.070002 0.062748 0.088889 0.173523 0.020640 0.086569 -0.015882 -0.065177 -0.009885 -0.051222 -0.093472 -0.047338 0.041977 0.034434 -0.039685 -0.021432 0.036717 0.074572 0.068995 0.032819 -0.031825 -0.018203 -0.001044 -0.008481 0.017862 -0.022825 0.059603 0.023812 0.077938 0.077999 0.155830 0.137460 0.065636 0.060665 0.030435 -0.051039 -0.109747 -0.005507 0.055056 0.002385 0.039662 -0.027664 -0.073505 -0.044756 -0.057222 -0.037784 0.029245 0.000363 -0.053746 -0.007754 0.049434 0.021212 0.090683 0.055469 0.031536 0.025966 0.017895 0.107100 0.155906 0.088719 0.062171 0.090092 0.066031 0.008849 -0.062182 0.006921 -0.013509 -0.108534 0.088830 0.037786 -0.045186 -0.042508 0.030298 -0.078476 -0.004124 -0.007946 0.002411 0.053127 0.055606 0.062638 0.014196 0.075671 0.033056 0.093008 0.092223 0.114376 0.139686 0.076196 0.034765 0.148947 0.095076 0.063132 -0.010455 0.007343 0.021481 -0.014741 0.053634 0.062947 -0.044858 0.044047 0.007209 0.052089 -0.044710 -0.034266 0.061271 0.069808 0.014466 -0.004449 -0.026559 0.022835 0.004781 0.065685 0.163233 0.101962 0.073309 0.112830 0.108692 0.166857 0.088622 0.132864 0.076773 0.048856 0.018438 -0.019451 0.008338 0.055031 0.047541 0.050761 0.070471 0.004988 0.005863 -0.003323 0.044210 0.046007 -0.035956 -0.036153 -0.009996 0.037052 0.052826 0.082774 0.137995 0.169190 0.087891 0.068905 0.036343 0.281444 0.222108 0.085907 0.010615 -0.046350 -0.059729 -0.064524 0.003121 0.103182 0.073080 -0.024902 0.018765 0.040388 0.088411 0.100001 0.022644 -0.020429 -0.037235 -0.028485 0.061857 0.082479 0.064550 0.100908 0.035804 0.083761 0.123310 0.085472 0.052783 
-1.308858 -0.152041 0.119832 0.042218 0.108368 0.203998 0.190437 -0.234305 -0.053004 -0.197259 -0.023553 0.079201 -0.042018 -0.193908 -0.212998 -0.231998 0.019312 0.284245 0.096731 -0.094300 -0.138786 0.015639 -0.020625 0.006577 0.183778 0.228297 0.079222 0.213257 0.222636 -0.045941 -0.181596 -0.491488 -0.328827 -0.115149 -0.099703 -0.070453 -0.062925 -0.266283 -0.118801 0.134737 0.204023 -0.123092 -0.220711 -0.179107 0.115623 0.132156 -0.417081 -0.552571 -0.109111 0.160004 0.015163 0.136972 -0.137512 0.010191 0.289418 0.291328 0.421965 -0.416126 -0.035377 0.105963 0.067444 -0.066123 -0.134510 -0.082671 0.057521 0.035982 0.121602 -0.016686 0.004662 0.121778 0.019620 -0.068312 -0.132515 0.206156 -0.332000 -0.151689 0.195590 0.294266 0.012069 0.115876 -0.150052 -0.434841 -0.007754 0.078606 0.131508 -0.049139 0.318536 0.284383 -0.121963 -0.001143 -0.013141 -0.214158 0.059635 0.187172 0.065195 -0.247309 -0.270286 -0.135158 -0.254981 0.061825 0.321151 0.433623 -0.160913 -0.077317 -0.146746 0.199111 0.178084 -0.016720 0.067155 -0.259713 -0.072383 0.358398 -0.228688 -0.212508 -0.079684 -0.122751 -0.112936 -0.027817 -0.210507 -0.011543 0.318264 -0.044360 -0.056185 -0.473677 -0.101169 -0.025447 -0.140482 0.048739 0.207243 0.106935 -0.238843 -0.213931 0.261418 0.015383 -0.173648 -0.001925 -0.101148 -0.090157 -0.311461 0.301706 -0.291633 -0.031871 0.257035 0.344451 0.266224 -0.364032 -0.016830 0.228420 0.091097 -0.192102 -0.317791 -0.271802 0.169220 0.233819 0.046378 0.156982 0.318461 0.035302 -0.242603 -0.166931 0.011056 0.019307 0.009630 0.023949 -0.423259 -0.407236 0.072917 0.106684 -0.046860 0.025189 -0.139648 -0.217801 -0.298008 -0.274164 0.113971 -0.356274 -0.194250 -0.023668 -0.231576 -0.046869 0.395544 0.196496 0.070467 0.322336 0.061885 0.197995 -0.236768 -0.273324 -0.149465 0.171599 0.146208 -0.042043 -0.083570 -0.134858 0.278812 0.251468 0.125612 0.026091 0.076798 -0.124842 -0.510527 -0.304832 0.101104 -0.225868 0.086789 0.143351 0.536659 0.396825 0.206502 0.003620 -0.058223 0.202984 -0.476522 0.172424 0.490002 -0.070648 -0.135610 -0.102078 0.075273 -0.048764 0.076736 -0.009670 -0.089108 -0.271646 0.528017 0.213408 0.354250 -0.080757 -0.453070 -0.289195 -0.294025 -0.262923 -0.122451 -0.243875 0.062192 -0.061464 0.115334 -0.103219 -0.419265 0.170766 -0.144763 0.330477 0.325472 -0.292042 -0.295699 0.275001 0.051475 -0.243620 -0.066805 0.358900 0.177256 -0.086226 0.444129 0.070876 -0.039571 -0.211159 -0.229745 0.169306 0.172035 -0.736214 -0.523538 -0.088302 -0.033729 -0.032959 0.073496 0.322958 -0.206177 0.147657 0.068033 0.107580 -0.285051 -0.149830 -0.441085 -0.619122 -0.495739 -0.245509 -0.096711 -0.043872 0.180188 -0.336386 -0.136608 0.178947 0.021913 -0.165322 0.056096 0.018758 -0.105379 -0.521219 0.173121 0.283638 0.216919 0.239050 0.245225 0.117889 -0.380107 0.232813 0.227695 0.023595 -0.332603 0.270762 -0.027777 -0.226325 -0.077972 0.101108 -0.052202 0.126390 -0.053790 -0.497224 -0.157256 0.329868 0.114813 0.007900 0.107570 -0.180810 -0.000153 -0.288398 -0.284513 0.180145 -0.036395 0.278367 -0.035858 -0.063714 0.022365 0.648049 0.740618 0.400934 0.310623 -0.078637 0.058076 -0.255154 0.211250 0.270182 -0.072976 0.303352 0.121937 -0.307863 -0.002831 -0.108778 0.057693 0.050451 0.110201 0.058589 0.487218 0.166777 -0.251392 -0.099104 0.198693 0.460855 -0.068467 -0.004900 0.158438 0.268005 0.524720 -0.021999 -0.175423 -0.013443 -0.182038 -0.445577 -0.150528 -0.244814 -0.165548 -0.414583 -0.449860 -0.290912 -0.206774 -0.374704 0.309400 0.023137 -0.250140 -0.093771 -0.059298 0.064200 -0.335901 -0.621447 0.034243 -0.191172 -0.453988 0.074001 0.286165 -0.304750 -0.183241 0.269432 -0.111608 -0.104753 0.579192 0.050910 -0.361096 0.033568 -0.274363 -0.451954 -0.182700 -0.070030 -0.333625 -0.190525 0.276511 0.192515 -0.016776 -0.081819 -0.062351 0.213304 -0.176909 -0.226353 0.555530 0.081516 0.054695 0.427436 0.339563 0.320228 0.068208 -0.052351 -0.131126 -0.238841 0.087363 -0.061617 0.140696 0.041110 -0.248797 0.043911 -0.156007 0.119658 -0.247222 0.021535 0.234016 0.107499 -0.037205 -0.037406 0.061117 -0.045268 -0.074789 -0.094924 0.193152 0.217573 0.098151 0.256259 0.107224 -0.012060 0.077856 -0.024579 -0.008248 0.093313 0.110337 -0.253258 0.511509 0.347595 0.221347 0.162513 -0.313956 -0.103885 0.115753 -0.002616 -0.216462 -0.323843 -0.032304 0.083149 0.043155 0.050551 -0.041279 -0.031503 0.121492 0.209724 0.257986 -0.416088 0.012719 0.081079 -0.221426 -0.165787 -0.007527 -0.048068 0.215085 -0.050100 0.023491 -0.078746 -0.127968 -0.356295 -0.286824 -0.211913 0.013311 0.383506 -0.028480 0.073690 0.213339 -0.223150 -0.229261 -0.397139 -0.038549 -0.075342 0.233392 0.189732 0.500209 -0.021956 -0.014012 -0.253999 -0.013410 0.111886 0.224850 0.211627 -0.044496 0.048128 0.164035 -0.166364 0.004725 0.172722 -0.057342 -0.041756 -0.146491 0.257894 0.017580 0.060096 0.221369 0.008116 -0.387225 0.131618 0.166059 -0.314064 0.212917 -0.115511 0.195315 0.211711 -0.065917 -0.111743 0.217531 0.625383 0.447145 -0.214143 -0.298831 -0.025776 0.285900 0.098773 0.085285 -0.030343 0.132960 -0.018178 -0.122907 -0.143764 0.015936 0.181563 0.109397 -0.215586 0.368828 0.744336 0.459526 -0.246426 -0.145092 -0.058359 0.276939 0.151187 0.102295 0.340430 0.018048 -0.001489 -0.011024 0.242737 -0.099083 -0.050652 -0.012973 0.058094 -0.366093 -0.374360 0.116275 -0.090726 0.148713 -0.712205 -0.027295 -0.138698 -0.071673 -0.453382 0.035752 -0.141232 -0.247151 -0.076300 -0.081839 -0.058191 -0.116311 -0.000033 0.079600 0.256492 0.128973 0.137285 0.385107 0.180950 0.123867 0.321207 0.219460 -0.317029 -0.300218 -0.211714 0.070365 0.060088 0.142065 -0.353978 0.064242 -0.141440 0.019918 -0.059717 0.379970 -0.177738 -0.086052 0.491331 0.140385 -0.221997 0.311958 0.217192 0.288142 0.535502 0.111930 -0.000223 0.104449 -0.077197 0.238571 0.127468 0.249704 -0.173155 0.174170 -0.047803 0.040745 0.018112 0.183842 -0.405098 0.113533 -0.033221 0.176573 -0.161876 0.159007 -0.015200 0.106723 -0.079112 -0.225994 0.467044 0.289666 0.071810 0.096177 0.084773 -0.085474 -0.000099 -0.174062 0.385813 0.075495 0.008109 0.112807 0.202510 0.507691 0.242364 0.397886 0.178645 0.031755 -0.423169 -0.216398 0.051988 -0.071803 -0.037108 -0.065991 0.360324 0.213874 0.013758 0.002961 0.025601 0.503576 0.086579 0.145012 0.145438 -0.076851 0.164949 0.099405 0.083662 -0.522060 -0.303397 -0.137011 -0.012696 0.174602 -0.101895 0.305705 -0.042588 -0.381158 -0.259012 0.295222 -0.056136 0.086102 0.105178 -0.027868 -0.022434 0.223856 0.354842 0.227173 -0.146835 -0.238718 0.267754 0.395277 -0.072396 0.117697 0.131828 0.263986 0.222080 0.132981 -0.307552 -0.469320 0.276003 0.316229 -0.086458 0.220965 0.057505 -0.142610 -0.297382 -0.158920 -0.270773 -0.107191 -0.129537 -0.164962 -0.125070 -0.191666 -0.293228 -0.065357 0.055519 -0.292077 0.071936 0.019935 -0.353324 0.088622 0.068508 0.322397 0.134828 -0.041954 -0.009839 -0.046129 -0.244941 -0.001255 0.079061 -0.020844 0.161888 0.303222 -0.427848 -0.339229 -0.345861 -0.199284 -0.348896 0.267781 0.049976 0.211829 0.038423 0.013799 0.023000 -0.216852 -0.071483 -0.383111 -0.205722 0.248844 0.068212 0.143075 0.159163 0.247178 0.159133 -0.369035 0.107586 0.145019 -0.173832 -0.045267 0.380640 0.117952 -0.757483 -0.477964 -0.116965 0.107335 0.078187 0.203380 0.223441 0.121551 -0.088726 0.029846 0.075870 -0.087442 -0.084424 -0.652000 -0.768620 -0.179168 -0.035669 0.359533 0.417872 0.142366 -0.162329 0.179966 0.444014 0.001582 -0.129983 -0.085418 -0.064179 0.188169 
-1.844611 0.439779 0.530443 0.219941 -0.033293 -0.003866 0.131886 0.198683 -0.000961 -0.098819 -0.262525 -0.301958 -0.109290 0.295881 0.229603 0.384275 0.261683 -0.168868 -0.359169 -0.180602 -0.018237 -0.092587 -0.130694 0.033757 0.150192 0.132107 0.141292 0.414751 0.481313 0.600829 0.116744 -0.224948 -0.134598 0.032048 0.160337 0.198302 0.202049 0.246317 -0.086145 -0.440304 -0.328345 -0.043746 -0.251185 -0.028707 0.186359 -0.139700 -0.562286 -0.453286 -0.178106 -0.416381 -0.190916 0.155211 0.474979 0.307247 -0.260992 0.213020 0.672588 0.436716 -0.196846 -0.181502 0.271000 0.469876 0.236457 0.246440 0.405659 0.109502 -0.256461 -0.323961 -0.217285 -0.234522 0.030835 0.184781 0.181691 0.165261 -0.221796 -0.323637 -0.216302 -0.371731 -0.236078 0.237081 0.198157 0.064131 0.347064 -0.015614 0.093753 0.672153 -0.039643 0.450226 0.643725 0.205316 0.136825 -0.283773 -0.186466 0.231370 0.226369 -0.072672 -0.322467 -0.179156 -0.085145 0.138252 0.048123 0.129636 -0.217895 -0.080646 0.102539 0.089343 0.102013 -0.277135 -0.032140 0.224444 0.309681 -0.165876 0.042844 0.288310 0.066527 0.147126 0.053487 0.171358 -0.145400 -0.288087 -0.072301 0.053454 0.252062 0.267145 -0.207468 -0.374690 -0.324501 0.013001 -0.243584 -0.094972 -0.140873 -0.214544 -0.346201 -0.402234 -0.118398 0.266691 -0.098534 -0.272140 0.084618 0.022224 -0.247465 0.003441 -0.183299 -0.195071 0.062028 0.095294 0.192814 -0.185427 -0.272083 -0.219089 -0.085617 0.093571 -0.072998 0.134308 0.052280 0.317347 0.068277 0.105323 0.022197 -0.116635 -0.315535 -0.413087 -0.125513 0.594917 0.109535 -0.073684 -0.039203 0.039508 -0.002688 0.234117 -0.276344 0.051699 0.731278 0.011556 0.272748 -0.360204 0.056733 0.501862 -0.217380 -0.294737 0.083111 -0.019750 -0.001720 -0.011036 -0.291920 -0.082352 0.081947 -0.011093 -0.346877 0.045173 0.202309 0.283986 0.074709 0.229165 -0.080159 0.253254 0.480443 0.391685 -0.132590 0.321171 0.160567 0.184226 -0.010767 0.300303 0.221818 -0.004120 -0.300728 0.072848 0.262976 0.123207 -0.217474 -0.520868 -0.208695 0.059120 0.065165 -0.540539 -0.184400 0.334865 -0.118687 -0.131316 -0.104252 0.116328 -0.038432 -0.061943 0.469568 0.356252 -0.177674 0.378124 0.466500 0.165184 0.292151 -0.261543 -0.140434 -0.027289 0.252520 0.091593 0.138659 -0.003331 0.102647 0.178910 0.518022 -0.212063 -0.124736 -0.336742 -0.115304 0.440988 -0.030547 0.199441 0.062616 -0.160610 0.153251 -0.025665 0.065398 -0.000888 -0.253216 0.521865 -0.134856 0.034842 0.148386 -0.077038 0.391259 -0.191567 -0.063741 -0.060108 -0.269843 0.021219 0.242142 0.209248 -0.246716 -0.385622 -0.082036 -0.313374 0.024504 -0.106208 -0.060721 -0.098986 -0.119362 0.073223 0.035252 0.117258 0.115223 -0.258639 -0.091332 0.494251 -0.212912 -0.114715 -0.333730 -0.058768 0.071098 -0.423934 0.000281 0.177827 -0.315294 -0.399758 0.005239 0.097989 -0.089713 0.145320 0.239365 0.011232 0.027517 -0.002501 0.023936 -0.071980 -0.214911 0.081286 -0.226345 -0.046807 0.218269 -0.190426 -0.151580 0.049827 -0.047361 -0.109474 -0.084689 0.395228 0.173042 -0.172139 0.153016 -0.129620 0.083683 0.393344 0.063269 -0.065509 0.001982 -0.101572 -0.082135 -0.153886 0.191087 0.023587 0.057899 0.177361 -0.226425 -0.137599 0.001590 -0.275806 -0.271728 0.182283 -0.104572 -0.184259 -0.050446 -0.010011 0.252399 0.191674 0.196339 0.377790 0.124786 -0.047929 0.264026 0.298265 -0.186558 -0.230832 -0.270451 0.044900 -0.637307 0.124705 0.267027 -0.235905 0.204658 0.373291 0.364477 0.241188 -0.370992 -0.368715 -0.093484 0.450904 0.245504 0.284912 0.223680 -0.066092 -0.022588 -0.279116 0.144683 0.118700 -0.055695 -0.316401 -0.220614 -0.107749 -0.151993 -0.159188 0.046235 0.432567 -0.247239 0.193143 0.084772 -0.121274 -0.314436 -0.060393 0.177858 0.053817 -0.343174 -0.215331 -0.031296 0.344473 0.058872 0.175981 0.290487 0.027138 -0.092428 -0.069903 -0.164921 -0.229978 -0.107747 -0.260795 -0.438688 0.103799 -0.218014 0.094005 -0.077403 -0.232961 0.310442 0.344493 0.599717 -0.099701 -0.010285 0.143052 0.110558 0.044283 -0.142054 0.516490 -0.059831 0.179665 -0.275811 -0.108275 0.114316 -0.092159 0.238660 0.207478 -0.035360 0.026560 0.181928 0.087908 -0.411837 -0.053702 -0.081004 0.091971 -0.464509 -0.304383 -0.355712 0.088061 -0.059499 -0.303539 -0.325511 0.131075 -0.037770 -0.057073 -0.441894 0.142736 -0.279319 0.181933 0.226310 0.288426 -0.309109 0.166523 0.282825 0.368435 -0.092032 0.234049 0.054339 0.019314 -0.289904 -0.177162 0.253044 -0.039584 0.108760 -0.050143 -0.361168 -0.382269 -0.086559 -0.183167 -0.704319 0.417047 0.083119 0.004340 -0.112010 0.010766 -0.185156 0.277631 0.088672 0.175822 -0.065613 0.193848 0.386790 0.113286 -0.070884 -0.219816 -0.341962 0.285411 0.206749 0.500434 0.294323 0.061851 0.020929 0.043775 0.540663 0.053893 -0.045379 0.017585 -0.042866 0.038993 -0.318944 0.168288 -0.329912 -0.086812 -0.051679 0.153547 -0.031950 0.281298 0.090133 -0.097693 0.027247 0.009276 -0.409199 -0.147524 -0.254147 0.081162 0.374884 0.063268 -0.054617 0.078019 -0.088690 -0.093136 0.380366 -0.079148 0.257983 0.126620 0.394171 -0.229192 -0.319372 0.229064 -0.071182 0.126322 0.332726 -0.037957 0.145350 0.270737 0.117177 0.126611 -0.168672 0.016764 -0.027089 -0.136409 -0.213356 -0.165197 0.097493 -0.009330 0.049337 -0.014564 0.087781 0.079301 0.056706 -0.313567 0.178385 0.254067 0.276179 -0.268300 -0.337014 -0.347755 -0.306452 -0.162740 0.064740 -0.044930 0.060574 -0.200388 0.231648 0.023401 -0.114026 0.149768 -0.070785 0.152187 0.102896 -0.033877 0.438184 0.386760 -0.227332 -0.445575 0.104520 0.011969 0.112726 -0.033875 -0.063950 0.072318 0.159128 -0.114991 -0.227352 -0.337584 -0.518295 -0.535383 -0.374373 0.204810 0.270047 -0.256128 0.121950 -0.111920 -0.021893 0.398420 0.142639 0.382560 0.218461 0.025098 -0.375215 -0.221060 -0.341373 0.013909 0.279704 -0.147779 0.033204 -0.347335 -0.398207 0.232970 -0.097603 0.152446 0.112430 -0.218479 -0.261461 -0.470262 -0.489908 -0.066454 0.185028 -0.189482 -0.017513 -0.179300 -0.094836 0.267473 -0.109465 -0.009612 0.207395 -0.043567 0.035172 0.145115 -0.177595 0.204573 0.346424 0.218244 0.076581 -0.231637 0.145603 -0.214076 -0.063242 0.241696 0.191557 0.034578 -0.145936 -0.159547 -0.241036 -0.042264 0.071598 0.350109 -0.132650 -0.080377 -0.036680 -0.268196 -0.556963 0.024297 -0.102454 -0.021989 0.174998 0.259612 0.082254 0.350221 0.227172 -0.093570 -0.392793 -0.146028 0.187981 -0.146697 0.066022 0.189284 0.101586 -0.221279 -0.266595 -0.668891 -0.381100 -0.394972 0.087475 -0.005947 -0.104408 0.069816 0.019089 -0.089428 -0.119339 0.241222 0.114634 -0.129483 0.453686 0.036838 0.027578 -0.252463 0.040013 0.284315 0.022756 -0.069330 0.144659 -0.227126 -0.466822 -0.166695 -0.156969 0.106499 -0.229252 -0.629059 -0.475490 -0.399003 0.239468 -0.175675 -0.338450 0.477174 -0.139237 -0.134776 0.203093 0.196659 0.154139 -0.202092 -0.093022 0.013399 0.083482 0.129464 0.024824 0.277403 -0.163782 0.097398 0.296693 0.148186 0.266625 0.077278 0.016172 0.132950 -0.084389 -0.492641 -0.621166 -0.461800 -0.143614 0.317384 0.107818 0.105156 -0.285813 -0.288066 -0.006534 0.190997 0.429372 0.201579 0.116202 0.167165 -0.124143 0.267004 0.355878 0.283509 0.210424 0.329990 0.366917 0.081725 -0.347586 -0.230068 0.059759 -0.040241 -0.451884 -0.651053 -0.784888 -0.866983 -0.421663 -0.051249 0.055641 0.055846 0.222003 0.254200 0.058383 0.195402 0.179431 0.042111 0.204734 0.125782 0.026440 -0.025833 -0.043298 0.229024 0.154845 0.249932 0.127507 -0.244911 -0.007912 0.245122 -0.193806 -0.366982 -0.581358 -0.730916 -1.048178 
-0.098367 -0.216163 -0.056847 -0.409546 -0.308609 -0.174419 0.014934 -0.021362 0.189124 0.524448 0.473165 0.248676 0.063249 -0.030003 0.237847 0.336635 0.341203 0.021072 -0.052000 -0.133035 -0.229523 -0.011234 0.079456 0.024909 0.082066 0.281322 0.087737 -0.047499 -0.321243 -0.157592 -0.177137 -0.366467 0.054671 0.040745 0.127179 0.101144 0.147507 -0.034963 -0.056798 0.066950 -0.002291 0.039327 0.213598 0.104621 0.149377 0.103728 0.218800 0.087270 -0.077550 -0.002343 -0.022572 -0.031955 -0.117098 0.048679 -0.264586 -0.107777 -0.208271 -0.108266 -0.208742 0.060899 0.160311 0.038298 0.041848 -0.133502 -0.200556 -0.265133 -0.086099 0.053161 -0.124578 -0.096647 -0.072735 -0.195448 -0.035979 0.070378 -0.035577 -0.079430 0.029445 -0.025926 -0.015295 -0.002975 0.173347 0.032868 -0.058636 -0.237335 -0.119847 -0.223407 0.068114 0.108232 0.171248 -0.017498 0.057813 -0.332186 -0.123977 -0.013723 -0.012509 0.127804 -0.030026 -0.032305 -0.021423 0.122247 0.278362 0.002741 0.013977 0.104133 0.039620 0.097841 0.014026 0.049906 0.128335 0.329656 0.166579 -0.063746 -0.157465 -0.262690 0.028196 0.031739 -0.243707 -0.132949 -0.042554 -0.214305 0.075389 0.040660 0.139854 0.051053 0.153126 0.196898 0.052434 0.043139 0.015168 0.062799 -0.048669 -0.058984 -0.119391 -0.155296 0.047399 -0.089900 -0.153649 -0.214617 -0.203734 -0.168495 -0.379958 -0.109649 0.072684 -0.066473 -0.155325 0.122153 -0.338780 -0.214547 0.112075 -0.176417 -0.132424 0.047006 0.224800 -0.011208 -0.066673 -0.102132 -0.042031 0.079677 0.226577 0.258745 0.014439 -0.137120 0.000195 0.174124 -0.048597 0.046730 -0.045080 -0.077704 -0.089778 -0.101887 0.198682 -0.097260 0.157299 -0.127950 -0.439766 -0.162186 0.272269 0.033635 -0.110983 -0.146052 -0.074325 -0.221476 -0.181986 -0.178913 -0.064536 0.094731 0.290845 0.366535 0.092542 -0.044805 -0.084994 -0.172326 -0.058866 -0.116638 0.086411 0.036625 0.114068 -0.097600 -0.008515 -0.080034 0.198525 -0.252297 -0.283427 0.143795 0.171115 -0.030381 -0.039598 0.039052 0.109114 0.025357 -0.087181 -0.081260 0.143402 0.089200 0.010836 0.193267 0.014482 -0.098370 -0.003489 -0.062520 0.110427 0.020676 -0.080742 0.037275 0.116101 -0.038588 -0.072386 0.046199 0.167678 -0.118908 -0.421000 -0.073549 0.012824 -0.052295 -0.180528 0.093987 0.186082 -0.053878 -0.093310 0.052628 0.198172 0.062763 0.309725 0.302946 0.006818 -0.003755 0.064915 0.109182 0.194256 -0.064806 -0.217410 -0.014096 0.020295 0.074779 -0.101692 0.038264 0.101602 -0.313335 -0.389118 -0.134310 -0.066137 -0.047815 -0.228700 -0.260584 -0.002896 -0.327841 -0.337278 -0.113911 0.151080 0.027958 0.396960 0.379647 0.139608 -0.084153 -0.033327 0.345052 0.172439 -0.097845 -0.062774 0.207987 -0.031675 0.149579 -0.083179 0.046007 0.042181 -0.111184 -0.196515 -0.173710 0.207346 0.067569 -0.379257 -0.068516 0.284795 -0.252258 -0.175065 0.045791 0.092870 -0.128139 0.084926 0.187286 -0.207602 -0.332481 0.013368 0.274893 0.227433 -0.048584 0.107426 0.077256 -0.041840 -0.019282 0.017619 0.098875 0.318859 0.016701 -0.140886 0.059259 0.176819 0.009894 -0.327797 0.127876 0.283738 -0.257054 -0.144008 -0.070101 -0.044773 -0.013545 0.122639 0.292253 0.147103 -0.130971 -0.029496 0.522717 0.376465 -0.029028 0.206583 0.083357 -0.053056 -0.027557 0.016188 0.297062 0.333965 -0.165146 -0.268453 -0.189951 0.092474 -0.110297 -0.060687 -0.008262 0.151087 -0.258992 -0.084755 -0.013979 0.145952 0.100922 -0.086113 0.134295 0.273713 -0.051335 0.027262 0.051891 -0.007342 -0.123399 0.288605 0.254727 0.090917 -0.209607 0.041093 0.024145 -0.122026 -0.068722 -0.330484 0.070536 0.234399 -0.102063 -0.162844 0.023231 0.022943 -0.147632 -0.036465 -0.183135 0.140853 0.024575 -0.087809 0.116709 0.037432 -0.128920 0.043029 0.080116 0.015778 -0.009635 0.184976 0.189331 0.129038 -0.076859 0.089306 0.000033 -0.001614 0.091995 -0.353446 0.195402 0.103987 -0.340257 -0.321091 -0.120338 -0.040321 -0.308413 -0.205378 -0.328487 0.059519 -0.083069 -0.271137 -0.120136 -0.218050 0.038389 0.032355 0.206721 -0.086363 -0.046749 0.017761 0.322568 0.240047 -0.055675 0.136367 -0.120474 -0.034246 0.043445 -0.218433 0.114952 -0.114045 -0.487987 -0.331112 -0.317664 -0.244307 -0.292100 -0.312683 -0.491518 -0.232238 -0.324656 -0.603894 -0.287747 -0.099114 0.144846 0.269165 0.307425 0.009756 -0.298317 -0.061204 0.262832 0.212315 -0.144040 0.068416 -0.077985 -0.251111 0.158351 0.016081 0.113574 -0.430532 -0.543059 -0.450384 -0.249890 -0.202631 -0.333792 -0.422938 -0.341780 -0.311974 -0.310471 -0.439475 -0.382525 -0.202024 0.184596 0.272027 0.474515 -0.008802 -0.207403 0.083015 0.255277 0.135906 -0.181753 -0.095485 -0.054221 0.027658 0.237766 0.083624 -0.127105 -0.134727 -0.259976 -0.101121 -0.213641 -0.195879 -0.356199 -0.439112 -0.447333 -0.386007 -0.385142 -0.367804 -0.301202 -0.023644 0.080680 0.136195 0.186818 0.015892 -0.050192 0.008282 0.261877 0.057746 -0.088825 -0.126917 -0.179922 0.138741 0.296133 0.026847 0.167164 0.287357 0.129779 0.157967 -0.178085 -0.002641 -0.205519 -0.256584 -0.283343 -0.205853 0.068392 -0.177067 0.009345 0.325200 0.310120 0.202422 -0.087236 -0.133710 -0.061767 0.020735 0.119467 0.063879 -0.041255 -0.250976 -0.131426 0.001914 0.275010 0.047825 0.254193 0.350485 0.175621 0.077138 -0.036565 0.124956 -0.179410 -0.111495 -0.237325 -0.003035 -0.208898 -0.344617 -0.202053 0.001802 0.115033 0.116284 -0.110426 -0.081293 0.065773 -0.056339 0.097015 0.136709 -0.010551 -0.116827 0.126791 0.137305 0.038024 0.138774 0.243774 0.240776 0.114276 0.109850 0.037344 -0.017572 -0.199606 -0.132224 -0.149052 0.087322 -0.100521 -0.153279 -0.208364 -0.287004 -0.083931 -0.083019 -0.132420 0.171093 -0.057863 -0.107409 0.024910 0.193941 0.056069 0.025990 0.164780 0.093357 0.012248 -0.270421 0.011219 0.190474 -0.030474 0.253669 0.116104 -0.174238 -0.154657 -0.025861 -0.086725 0.051706 -0.072191 -0.045279 -0.021360 -0.340768 -0.223466 -0.241354 0.109779 0.215802 -0.106267 -0.014627 0.004069 0.111093 0.095088 -0.061937 0.169186 0.233607 -0.012946 -0.219887 0.149609 -0.032221 0.026380 0.379305 0.150258 0.026590 -0.159203 -0.105175 -0.140004 0.156472 -0.019553 0.037411 -0.057697 -0.309097 0.000095 0.034057 0.425601 0.169223 -0.144344 -0.061333 -0.014049 0.004022 0.191548 -0.132107 0.070920 0.078634 0.168701 -0.155649 -0.085441 0.094777 0.050753 0.210236 0.073528 -0.108722 -0.276401 -0.285890 -0.218029 -0.035960 -0.031307 -0.074390 -0.165227 -0.303420 -0.098681 0.039873 0.148361 -0.107515 -0.096425 -0.051263 -0.051952 -0.051239 0.039728 0.032568 0.146308 0.039493 0.242289 -0.174869 -0.128569 0.189753 0.235017 0.014411 -0.019858 -0.135803 -0.316992 -0.336340 -0.146372 -0.181476 -0.116891 -0.034192 -0.199448 -0.330626 0.046801 -0.016108 -0.209355 -0.283329 -0.271113 -0.177581 -0.197009 -0.139958 0.018097 0.090037 0.193822 -0.069298 -0.076772 -0.116683 0.154575 0.334035 -0.070501 -0.089102 0.049362 -0.099881 -0.298440 -0.366999 -0.162186 -0.175878 -0.184031 -0.177660 -0.087833 -0.182934 0.131319 0.036136 -0.394942 -0.144008 -0.093042 -0.192800 -0.132298 -0.187633 -0.120257 -0.064077 0.138312 0.089370 -0.008961 0.103545 0.177297 0.337061 -0.134501 -0.297538 -0.099765 -0.211986 -0.243701 -0.249986 -0.182455 -0.277606 -0.279144 -0.395405 -0.026838 0.076501 0.336359 0.180485 0.034159 -0.072801 0.000981 0.177564 -0.168846 -0.284667 0.279488 -0.106838 0.078309 -0.003370 0.034234 0.024232 0.016464 0.223973 0.084083 -0.152276 -0.177833 -0.212212 -0.261516 -0.214808 -0.279724 -0.363350 -0.297479 -0.295374 -0.150068 0.086537 0.222806 0.264472 0.012156 -0.269361 0.197659 0.192145 0.262237 -0.049805 
0.089756 -0.084337 0.002095 0.094423 -0.226801 -0.511698 -0.768377 -0.030742 -0.038974 -0.134466 -0.059513 -0.167718 -0.282430 -0.509420 -0.278915 0.244289 -0.058334 0.035590 0.082203 0.377312 0.448111 0.241041 0.503767 0.273818 -0.159463 -0.222389 0.120322 0.115083 0.252481 0.152291 -0.028418 0.260695 0.263263 -0.147209 0.137746 0.180631 -0.050111 0.248169 0.316826 -0.104068 -0.323634 -0.090799 -0.116468 0.174770 0.187111 0.026466 0.024848 0.060168 -0.141002 -0.363588 0.504378 0.381530 -0.221217 0.229324 0.110056 -0.123676 0.038976 0.210043 -0.202322 -0.540499 -0.006861 0.016766 0.132367 0.106948 -0.036344 0.057189 -0.192382 0.009574 -0.171963 -0.283547 -0.336933 -0.218011 -0.116185 -0.140839 -0.175857 0.120510 0.091988 -0.187017 -0.246595 -0.067660 -0.227742 0.201307 0.336982 -0.048284 0.478474 0.135400 0.024199 -0.186523 0.188518 0.197099 0.263365 0.353971 -0.060932 -0.296781 -0.219570 0.041337 -0.379842 -0.347303 0.036493 -0.411894 -0.390712 0.102800 0.218465 0.415778 0.514338 0.071316 -0.148557 -0.052662 -0.026796 -0.014389 -0.022723 -0.045134 0.221934 0.171489 -0.056124 0.127926 0.412624 -0.016288 0.218058 0.223812 -0.058536 -0.358360 -0.023285 0.232625 -0.059571 -0.231019 0.006479 -0.129623 -0.093161 -0.136187 -0.088047 0.205169 0.050717 -0.252172 -0.235520 -0.210824 0.004058 0.178372 0.053917 -0.175816 -0.016844 0.349103 0.068181 0.153226 0.063600 -0.093156 0.192616 0.186246 -0.056236 0.077115 -0.041301 0.083110 -0.071082 -0.390197 0.062688 0.004175 0.138888 0.266311 -0.260473 0.181528 0.267300 -0.076810 -0.070800 -0.129062 0.260550 0.444354 0.425333 0.155168 0.139314 -0.033293 -0.006344 0.109687 0.065125 0.128728 0.123420 -0.001452 -0.021889 0.058103 0.107598 0.149531 -0.052316 -0.085076 0.050304 0.230433 0.243200 0.023464 -0.243089 -0.163429 0.267841 -0.082870 0.162229 -0.203452 -0.047834 -0.050463 -0.459990 -0.326941 -0.146333 -0.295268 -0.090386 0.027272 0.447033 -0.035317 -0.126565 0.323758 -0.057412 0.043432 -0.166793 -0.145962 -0.102667 -0.064410 0.235802 0.348676 0.150211 -0.254074 -0.233050 -0.255162 0.366602 0.445732 0.230233 -0.378193 -0.279286 -0.027626 0.015740 0.118926 -0.348978 -0.340010 0.024407 -0.037855 0.276377 -0.026663 0.068843 0.229544 0.169216 -0.066093 -0.149577 -0.154220 -0.041441 0.018087 -0.035184 0.000815 -0.603930 0.011961 0.002950 -0.285043 0.095779 0.257660 0.508438 0.071601 -0.116114 0.085025 -0.113578 0.047684 -0.345284 0.091567 0.145513 0.083750 0.303452 -0.348188 -0.261762 0.320156 0.367225 -0.260651 -0.080297 0.209214 -0.005339 -0.121466 -0.114134 -0.079932 -0.210199 0.185372 -0.005124 -0.383192 0.119576 -0.047791 -0.106044 -0.072917 -0.149978 -0.100888 -0.822823 -0.076169 -0.005666 0.002322 0.379559 0.402268 0.231880 -0.284006 0.012212 0.590105 0.033266 0.051642 0.403563 0.184898 0.317579 0.005789 0.409915 0.254408 -0.157408 0.056964 0.514920 0.036251 0.286884 -0.010262 0.006363 0.022695 -0.510236 -0.317801 -0.544182 0.152838 0.027032 -0.313108 0.340275 -0.120461 -0.095187 -0.227533 -0.243081 -0.217724 -0.335151 -0.187969 0.440601 0.170824 0.142645 -0.147128 0.064708 0.345968 -0.138400 -0.095653 0.191991 0.247324 -0.052660 -0.080000 0.015712 0.382040 -0.218968 -0.011445 -0.418401 0.179385 -0.151736 -0.225879 0.339068 -0.205306 -0.145451 -0.361271 -0.032582 0.016799 -0.077842 -0.169795 -0.035902 -0.290954 0.249726 -0.042984 0.349907 -0.104816 -0.035770 0.267122 0.250157 0.211387 0.314461 -0.062942 -0.258587 -0.332243 0.190585 -0.033984 0.025145 0.125360 -0.364999 0.090996 0.123804 -0.054877 0.414846 0.226486 0.097111 0.054728 0.227870 -0.092981 0.043109 0.003820 0.147589 0.105784 0.050302 0.327156 0.219029 0.207504 0.417226 0.200055 0.250233 0.132306 0.033274 0.008086 0.046525 -0.166358 -0.316066 -0.208390 -0.695051 0.111065 -0.087348 -0.168954 0.087968 0.052994 0.199225 -0.439034 -0.037916 0.138425 0.094251 0.140539 0.186737 0.094921 0.562988 0.170353 0.324294 0.102932 -0.006300 0.042928 0.269340 -0.323638 -0.071249 0.167986 -0.103220 -0.056404 -0.377217 -0.364394 -0.479373 -0.044975 -0.002148 0.162071 -0.093326 -0.201163 0.163070 -0.229880 0.256592 -0.209513 0.036958 -0.367412 -0.305142 0.172976 -0.043290 -0.084608 0.238479 -0.120639 0.070455 0.179533 0.110728 -0.518910 -0.464805 -0.174968 -0.116154 -0.025189 -0.166129 -0.136875 -0.302057 -0.150479 -0.166809 -0.174972 -0.221861 0.103126 0.154965 -0.190080 -0.119577 -0.189983 0.229913 -0.215776 -0.134714 0.232737 -0.320323 -0.134800 0.335054 0.117645 0.298254 0.282363 -0.057941 -0.339845 -0.102651 -0.108235 -0.131927 -0.005350 -0.029252 -0.216367 -0.316794 -0.227992 0.112535 -0.217136 -0.140522 -0.464748 0.192826 -0.088480 0.078008 0.229885 0.277027 0.201708 -0.103893 -0.407805 -0.316192 0.360525 0.532954 0.070253 0.025082 0.151340 -0.055953 0.041476 0.208037 0.323393 -0.136730 -0.193405 0.176878 -0.158262 -0.071804 -0.537448 0.221857 0.075708 -0.125091 -0.375199 0.558797 -0.115689 0.132358 -0.089387 -0.297162 0.035390 0.070095 0.383478 0.220485 0.144026 0.426938 -0.216281 -0.152009 -0.290351 0.042609 0.251245 0.104624 0.253389 0.315528 0.292779 0.113098 -0.087404 0.034524 -0.049980 -0.038939 -0.045535 -0.000367 -0.200434 0.128725 -0.315228 0.284001 0.091619 0.095355 -0.124985 -0.079216 0.706942 0.581154 -0.024556 0.173170 -0.006044 0.349301 -0.109513 -0.133277 0.166877 0.112634 -0.095014 -0.033784 -0.110030 -0.116484 -0.051409 0.096452 0.283740 0.089080 0.269815 -0.211987 0.082080 -0.052347 0.438741 0.070932 0.008314 -0.213579 -0.135061 0.125622 0.047850 -0.015219 -0.351314 -0.234589 -0.460243 -0.151887 -0.011515 -0.281306 -0.389509 0.058477 -0.135762 -0.226290 -0.262386 -0.092688 -0.118344 -0.009794 0.118880 -0.063340 -0.148014 0.008783 -0.081314 0.106496 0.376290 -0.108202 -0.096535 -0.204823 0.470740 0.427193 -0.153705 0.319411 -0.174118 0.023904 -0.035528 0.167563 0.137432 -0.228649 -0.481374 0.206662 0.093295 -0.242603 0.187661 0.148917 0.212966 0.144612 -0.297689 0.040424 -0.427340 -0.078933 -0.208118 -0.083989 0.164934 -0.237672 -0.033249 -0.403504 -0.253987 -0.268986 -0.233132 -0.061787 -0.008632 -0.201116 -0.342027 0.151524 -0.113472 -0.534531 -0.364500 0.065111 0.070279 0.167217 0.173040 0.307074 -0.089474 0.309616 -0.039022 -0.034765 -0.169361 0.054042 -0.429411 -0.132908 -0.033845 0.147649 -0.040548 0.209003 0.024694 0.331032 0.407240 0.038928 0.173826 -0.414865 -0.165632 0.129162 -0.188376 0.086896 0.157624 0.176928 -0.224063 0.113399 0.516706 0.296211 0.142353 0.634211 -0.020627 0.294534 -0.080611 -0.026274 0.229920 -0.155873 -0.282924 -0.115863 0.149287 0.136255 0.094344 0.313226 0.134800 -0.117093 0.071349 -0.156697 -0.151502 -0.157178 -0.140227 -0.101228 0.059498 0.337860 -0.034546 -0.049879 -0.046576 0.031598 0.219249 0.615692 -0.124348 -0.056897 0.044073 0.123056 0.406931 0.148114 -0.583413 -0.284699 0.244209 -0.211379 -0.234410 0.130840 -0.161414 -0.565371 -0.012779 0.133886 -0.160690 -0.233985 -0.280064 -0.182435 -0.332253 0.002382 0.396081 0.200262 -0.262534 -0.128357 0.005371 0.344618 0.434342 -0.011278 0.127926 0.365396 0.047877 -0.188459 -0.261014 -0.193034 -0.232173 -0.263904 -0.177063 -0.153245 -0.154735 0.024298 0.571617 -0.022001 -0.257871 -0.198574 -0.163569 0.004973 -0.157239 0.031564 0.205716 0.166129 0.364713 0.186885 0.085354 0.333976 1.228064 0.736222 0.233818 -0.031957 -0.034357 -0.264729 -0.071071 -0.113315 0.096489 0.144206 0.130875 0.097045 -0.061923 0.030181 0.341787 -0.168570 -0.462319 -0.354076 -0.114272 -0.019258 -0.216077 -0.406798 -0.428756 -0.069497 -0.098099 -0.020579 0.229224 0.135423 
-0.244831 -0.031699 -0.269406 -0.480799 -0.163390 0.172142 0.165550 -0.033785 -0.090612 0.146312 0.015679 -0.016797 0.177916 0.360256 0.245787 0.108690 0.124708 -0.012397 0.228319 0.033084 0.063018 0.127899 0.053312 -0.048968 0.066342 0.285280 -0.108049 -0.362172 -0.321260 -0.259499 -0.094385 -0.095037 -0.186525 -0.260825 -0.481565 -0.042519 0.179312 0.044034 0.076715 0.051425 -0.089715 0.188259 0.176361 -0.039629 -0.075411 0.089207 0.347836 0.713013 0.218927 0.075400 0.220577 -0.284468 0.089913 -0.227411 -0.194116 -0.396671 -0.551020 -0.242634 0.024657 0.010241 0.287037 0.032001 0.189799 0.373054 0.269014 0.251393 -0.019701 0.046014 0.064965 0.104726 -0.091428 0.048716 0.129397 -0.346347 -0.003099 0.284859 -0.101090 -0.065477 0.140999 0.135783 0.197626 0.078760 -0.492767 -0.300866 -0.334979 -0.289806 -0.264425 -0.109209 0.109800 -0.383166 -0.039909 0.125293 0.114075 0.206217 -0.093771 -0.028146 0.142722 0.010794 0.416346 0.334630 -0.003942 -0.459355 0.069410 -0.165095 -0.270531 -0.056061 0.126928 -0.114142 -0.094110 -0.031010 -0.316340 -0.207660 -0.031678 -0.263838 -0.103878 0.248704 -0.075048 -0.274353 0.246134 0.116700 0.162639 0.292254 -0.190761 -0.301969 -0.130456 -0.065340 0.232278 0.079194 0.190883 -0.116476 0.173667 0.080134 -0.260010 0.326706 0.454342 -0.122379 0.028323 -0.071122 0.138375 -0.289652 -0.078535 -0.238688 -0.555797 -0.042731 0.044798 0.455277 -0.210963 -0.013715 0.292818 0.324161 0.162632 -0.025946 -0.164750 -0.106236 -0.015137 0.018394 0.221291 -0.149427 -0.114496 -0.110789 -0.220818 0.086349 0.111225 0.078996 0.207974 -0.051981 0.120252 -0.164367 0.010443 -0.419063 -0.027246 0.309373 0.244713 0.159552 -0.214659 0.306407 0.071393 -0.107585 0.186772 0.287188 0.123851 0.070684 0.085672 0.098142 0.145568 -0.174202 0.044959 0.033637 0.011742 -0.025518 0.155532 -0.007272 0.187620 -0.089105 0.011524 -0.147312 0.172674 -0.106331 0.194024 0.096662 0.084904 0.009887 -0.041061 -0.005563 0.141462 -0.053119 -0.189212 -0.128519 -0.168622 -0.250625 0.037773 0.058818 -0.029532 -0.250461 -0.305413 0.167495 0.061253 -0.230767 0.099150 -0.027381 -0.134179 0.115846 -0.275573 0.086516 0.053866 0.037646 -0.177903 -0.091285 0.086639 0.229599 -0.072578 0.217208 0.255393 -0.001979 -0.155130 0.059296 0.016478 -0.008279 0.302179 -0.008875 0.046990 -0.051005 -0.072841 0.229844 0.209465 -0.079562 0.142980 -0.238767 -0.109486 -0.339033 -0.218249 -0.139267 -0.120199 0.207712 -0.004174 -0.251163 0.000359 0.110729 -0.011119 0.265992 0.195309 -0.087881 -0.038904 0.035617 0.220046 0.043061 -0.005794 -0.014770 0.043623 -0.353612 0.070929 0.058858 0.159863 0.312158 0.328681 -0.004825 0.438539 -0.162768 -0.018327 0.177608 -0.132949 -0.010236 -0.163084 -0.089796 0.108084 0.309236 0.189193 0.026936 -0.208515 -0.253109 0.014210 -0.138760 0.025637 -0.057849 -0.286902 0.088273 0.238651 -0.418321 0.143446 -0.042491 0.039214 0.098804 0.023349 -0.356738 0.150881 0.027525 0.045445 0.024696 -0.053009 -0.152121 -0.042998 -0.055738 -0.053772 0.023578 0.448010 0.026077 0.078975 -0.211901 -0.110501 -0.042638 0.116652 0.047327 -0.237718 -0.282165 -0.234782 -0.001458 -0.036514 0.053360 0.047241 0.046907 -0.357145 -0.615453 0.058020 -0.100597 -0.198015 0.206405 0.128427 0.054402 0.264861 0.152729 -0.105242 0.064338 -0.044824 0.048561 0.072724 -0.241389 -0.278272 0.071465 0.515161 0.027106 -0.243241 -0.026368 0.038752 0.375078 0.183186 -0.110007 -0.186547 -0.159853 -0.400952 0.262661 0.139880 0.421010 0.155524 0.256621 0.174700 0.159348 0.089557 0.043600 -0.105524 0.175936 0.115479 0.026606 -0.011966 -0.093051 -0.135917 0.011206 0.135895 -0.197659 -0.001180 0.095316 -0.242408 -0.354225 0.159057 -0.365953 -0.446396 -0.023522 0.117270 -0.123104 0.140713 0.142418 -0.156934 -0.062761 0.003969 0.200387 0.062400 -0.076714 0.071907 0.406509 0.022949 0.343804 -0.015430 -0.009890 -0.024077 -0.339066 -0.282309 0.003560 0.342646 0.316768 -0.082624 0.304857 0.094562 -0.413615 -0.120420 0.205637 0.071607 0.041175 -0.035618 -0.236478 -0.169047 -0.313389 0.011797 0.118186 -0.128975 0.110173 0.052458 0.054981 -0.176434 -0.042691 -0.133556 -0.195418 -0.126105 -0.036446 -0.145680 -0.081294 0.345970 -0.033891 -0.101639 0.441123 -0.311573 -0.300665 0.001743 0.323994 -0.074804 0.125155 -0.220107 0.056479 -0.107022 -0.230209 -0.069265 0.524900 0.043177 0.176903 0.271621 -0.047725 0.251026 0.029359 0.048892 -0.068297 0.356813 0.202426 0.012895 0.373247 0.292638 -0.304230 -0.027541 0.350378 0.141984 0.154956 -0.120737 0.220723 0.112570 0.115381 -0.173556 0.080456 -0.091905 -0.151982 -0.042781 -0.005493 -0.050971 0.220181 0.187428 -0.098684 -0.195578 0.225892 -0.289495 -0.098677 0.548898 -0.218055 -0.122142 0.252513 0.324069 -0.060015 0.107008 0.134194 -0.323501 -0.320183 0.075180 0.036468 0.159191 -0.010670 -0.178001 -0.332604 -0.088356 -0.183688 -0.112830 -0.003426 -0.003317 0.307842 0.509923 0.165922 -0.157598 -0.091474 -0.153473 0.161213 0.030407 0.356049 0.457659 -0.156462 -0.117762 -0.350551 -0.250852 -0.018007 -0.148826 0.089801 0.030244 0.000263 -0.022942 -0.195831 -0.461993 -0.196876 0.209616 -0.002013 0.010774 0.023816 -0.248883 -0.035486 0.262153 0.260645 -0.045901 -0.235991 -0.293429 -0.403583 -0.353767 -0.201311 0.407892 -0.173232 -0.366249 -0.093524 -0.073926 -0.047576 -0.160102 -0.157403 0.073890 -0.256955 0.297031 0.025564 -0.069787 0.247749 -0.080662 -0.055001 0.001080 0.168351 -0.192059 -0.165651 -0.206971 -0.177424 -0.134599 -0.111920 0.280035 -0.168581 -0.138286 0.103775 0.076305 -0.352617 0.107247 0.163668 -0.029747 0.097018 0.109907 0.101887 -0.109039 -0.151890 -0.143546 -0.070485 -0.066933 0.251271 -0.086971 0.040318 -0.032356 0.330580 0.344398 0.266244 0.046809 -0.227544 -0.340057 0.113545 0.148943 -0.535197 0.121877 0.363484 0.038374 0.076585 -0.071594 -0.071042 -0.124118 0.222434 0.157136 -0.179509 0.009379 0.213148 0.261630 -0.102775 -0.032664 0.176098 0.351349 0.040821 -0.034607 0.418979 -0.055532 0.355013 -0.037647 -0.011642 -0.383397 -0.135140 -0.082108 0.114117 0.178862 -0.281468 -0.012157 -0.335962 0.100161 0.236774 -0.193100 -0.004661 -0.072340 -0.486915 -0.013160 0.124936 -0.313846 -0.226498 -0.000302 -0.148244 0.035335 -0.032623 0.168038 0.497984 -0.016582 0.234381 0.331462 -0.022592 -0.213309 -0.141572 0.072981 -0.049719 -0.050454 -0.195623 0.040441 -0.176477 0.375370 0.000483 -0.404460 -0.264620 -0.270573 -0.300279 0.156236 -0.148008 -0.243474 0.100073 -0.036072 -0.279540 -0.032352 0.299840 0.097219 0.564185 0.050750 0.217637 0.251410 -0.125842 -0.112244 0.029765 -0.252419 -0.201580 -0.209794 0.192000 0.018043 -0.150250 -0.086643 0.017264 -0.508815 -0.552865 -0.065316 0.548225 0.061632 0.135243 0.148465 -0.276450 -0.240175 -0.032107 0.182015 0.232544 0.109808 0.386684 0.057759 0.237353 0.017036 -0.410047 -0.030780 0.224804 -0.055611 -0.337986 -0.231067 -0.146664 -0.086379 -0.226359 -0.165106 -0.122191 -0.124832 0.046313 0.029908 -0.224164 0.086616 0.255004 -0.061508 -0.165369 0.116888 0.204602 0.065049 0.295742 0.057957 0.037144 0.111795 0.001466 0.003855 0.163434 0.142166 0.306965 -0.238181 -0.282890 -0.548458 -0.076039 0.242619 -0.058856 -0.051355 -0.306455 -0.322450 0.175432 0.159940 -0.213241 -0.257389 0.015767 0.400016 -0.125636 -0.046005 -0.332871 -0.177231 -0.021677 -0.131356 0.030963 -0.160734 0.000599 0.212318 0.266785 0.069699 -0.125077 -0.008397 -0.088612 -0.472079 -0.295756 -0.255854 -0.285967 -0.088314 -0.146131 -0.037663 -0.095941 -0.167944 -0.015614 0.057974 0.220524 0.056814 -0.269120 -0.081881 -0.033495 0.200130 0.254319 0.235514 
