-0.2953684953884964 -0.4313029807899503 
-1.808533431954579 7.035873309649207 
-0.15111739190850124 -1.458996793846509 
-4.256328839015332 2.9874239078895997 
5.381828325008548 20.981482870531533 
7.448905033094833 1.7517158913825124 
-5.221450476256064 -2.132809232399645 
0.5700869557295479 -0.4906371595480479 
0.09805088455255401 -6.1617620243180955 
-0.8889710774285311 -0.0498527603813597 
-0.3514714879414669 8.980215359386294 
4.6445813327545915 1.5538798658913933 
-0.015676776677207873 -3.9255126177212305 
-0.06806206576854926 0.10052927069749013 
-0.2462860746835585 -5.895969574606993 
0.9812047477350758 0.10269251487574818 
0.24841875325773916 -7.770854869322539 
-2.810846907288399 -0.7278084958393196 
-0.26560952343462174 4.636039385325713 
-2.1339641152219015 0.6288692696434647 
0.7950097559527333 -3.7825157506027423 -0.45014966189313405 1.5633099138700877 7.675300077923796 3.145941333564079 -3.907075312527062 1.5739309528574783 -4.799647185785499 -0.874969807171301 -1.8544050718297251 1.277158799521934 2.0608677004653018 -1.2596340793844776 -0.29340557461428957 -0.89545007061814 1.0443703455387716 -1.399555733763319 -1.7953641868719297 0.7058187201279239 -0.8521475650555486 
