0.3327505670001575 0.18662378611582686 0.29147488903755014 -0.24211716251889107 0.1254023853483841 0.06839637815018645 -0.13740974219871152 0.062021764413959235 
5.319720374479692 29.61838728127034 -0.5865361554987177 16.5347388387936 -8.916757424884862 0.0610004358098838 12.019090093689726 -18.68489789644267 
15.409828397252106 -12.57896962965473 -14.844790096432838 -21.59433116301122 1.4396297743284159 27.162638438676495 -32.97817667341297 -11.210731816744303 
8.38668264861653 -0.4289816053427929 6.36807051130943 0.8500239051940518 5.363769389760161 9.803288602002597 4.5421959150326465 4.968390608065359 
-10.538137005162463 -27.443636719708035 -4.403848804480821 -10.72143170944266 5.968786843158531 -1.649539281924694 -11.21402512671478 -14.016647199598887 
5.928296273208954 0.14178175671426965 9.629956028336402 -4.302547524194798 -5.470124029168986 7.912496899427579 -2.4594857294319437 -3.755179010852419 
21.402297816250137 -34.74411180285604 50.52671517714423 -59.242395104683354 14.340665405975209 33.07443308133122 19.91553335804946 48.035764131075844 
-0.3174961576906685 -0.02064281777127162 1.4412784372341356 0.026156998585628023 -0.3765518075815487 -0.026043936542043546 -0.38165466846434964 1.197885746742874 
-15.635303457301168 -27.989904317948053 2.764524007405581 34.96163783887615 7.6303951209183785 -23.953034621811273 18.46982952872279 46.54566346617519 
-28.867977589583894 -24.49108674826741 -32.526405126173564 -23.705049706148625 -25.327190455806644 -32.089354854914674 -27.03946271214406 -11.496325032890834 
-25.861611259310344 -18.057449902153653 -35.6406818598922 -30.075676504271232 11.519431733547059 -29.879069838364064 -29.43353756265491 -24.57257105856772 
0.0046686132357816315 0.004535894537323054 -1.2593547652818637 -1.2920370184201189 4.079967985633566 -0.4793010328336868 -1.5992963376573646 -1.9239568375551543 
12.494514701461569 2.0642176740099596 -60.62071747272788 -3.8657271113173857 21.38103487248553 -54.70492702336407 -49.88543564055686 39.87903927102996 
1.6302639720976642 -3.844139969131357 7.839801347740026 0.7641428420563317 3.4276053750420186 12.663734590497649 -0.021331936100259682 -0.7052200774151266 
9.207690626772788 -8.878989825347974 -0.3200915946846202 -8.266166834342725 10.08510608984957 17.242968095978668 -8.245915791015706 -7.822047201609131 
-0.3260099865565935 -3.4496885023261123 -1.565335661935529 0.13885673465604093 1.2726842625185082 -2.350828268219707 -0.9950314491454852 1.836252480531423 
1.6724024628957128 6.3260963492830316 -1.721581585252011 -0.23770641790120375 -0.4249156121063747 0.2603296722619326 -3.0151319850631633 3.1851808224237583 
-180.4023892819273 -25.663610811896078 -152.71360369209077 -191.81945983580724 -81.99482393215064 -184.8160150633533 -184.43574181843846 -128.22326882096016 
-5.020688719671296 -2.1344166216521123 -4.355231188492842 1.3272194863046987 -2.000000000557361 1.7869302575027741 10.685269012119338 -2.983134182453435 -9.213202913038096 -6.5168521057828 2.671160374130302 2.077315634960356 11.125687350863984 0.7498380254708888 4.219150029887474 -5.413187740460527 -0.8093763724262973 -5.233932160128189 -5.639294985220178 
-0.3177897330312994 -0.3538288310957181 -4.890950432750118 -6.82727393939128 -6.575148963094297 -3.2896097628015517 -12.67586715367787 -4.2836136132549045 2.0043310445545863 4.287457553749396 5.134147133068923 0.5493935831558875 7.97708150597369 0.22950396857791663 -5.002849801753728 -0.8118196980057308 0.32917783690188274 6.2063106744197984 2.1111122441303207 
-1.4160814549706602 -0.9570863015854876 -7.711432415458372 3.6326075038735377 3.504394870665969 -2.430882948411928 -13.387757804327755 -0.0041528770898295085 2.97794331099544 5.362125784580708 2.08900252998349 -0.9820094564781471 -7.025058676691785 1.9678125999153164 3.347817742314339 1.4278335567088576 -0.9970710580648616 -5.412915162338345 -1.6221439908280932 
-4.6692828733217535 -2.358298170882013 -12.970514537169926 0.20690842296921647 0.5943458852615412 -0.24818382504249184 8.034977678862305 -4.087233854020778 3.3478523312588786 -3.2680406483908375 0.6817717566710728 -0.9883436572491958 -3.606851382671245 -3.81036431250816 -2.9578500438323685 -2.9992424347775524 -0.9058096043951712 9.418887355282733 -0.9442275723254029 
-1.1314080028261022 -0.7896648782990351 -2.8977866509750343 -1.833437872904986 0.9314685998788077 1.202166688541946 7.804571740200762 0.45275537518823494 0.22920657743150555 6.009870928607744 -8.758830909840722 -2.510093711148443 -14.416239327217665 -10.669601361286437 -0.7534575878982176 -0.18699854500094168 -1.7962466869183054 -11.738023252012374 1.4188098694844804 
-3.7258517823490327 -1.8657203877301825 4.04223933463799 -4.5428326423572 -7.178028822236752 0.8823947504592933 2.012519129679059 -4.5200023561085025 -1.861602278518232 0.2733784956451816 -8.23156479686963 -2.54187671047078 -14.30564437778093 0.328924047020071 -1.5115870260580455 -5.723080328483278 0.962146622681016 10.769801576069845 2.034971915362756 
-2.389148756686505 -0.8816032987755824 9.364744993136545 4.519922386287551 1.445280318375417 -0.06703059876144064 -10.442062299448965 -1.7720062846174947 -5.925769512861351 1.0627027579369168 0.23173050948801682 0.836064052199236 12.574828688286443 1.154339182608366 -1.7232797492199128 -0.39456651046128416 -1.3292852637524453 -7.634617705521296 -3.425713750833446 
-2.7765826642820413 -1.4898563008496097 -2.077103127640356 -2.796829276558571 0.49123816232892187 -3.281292481242382 -0.33057746379947384 -1.9999971691689937 0.13564666186503274 -3.370349698442713 0.2818313529092694 -1.0734071673541168 -5.670605585065163 0.9911091541409023 -0.2813779789487549 1.5225558704855324 -1.0254349998970549 3.496159370260528 -1.006355831152642 
-4.122441993196447 -2.1142698365109354 -2.00000460423406 -3.638842624725779 3.124058696944166 -1.620510031045859 4.111482675789359 -2.1128134597092196 2.5144624573334786 6.21496157517774 1.3828342428857556 -0.7985219806825617 -1.9586747407335408 -4.499441434353167 -2.0845629140959505 1.599878854062998 -0.6238611493141115 -5.781365652405855 -1.2472554829906088 
3.4102050127583414 1.4655017446962977 7.391649042926648 0.12145190709727882 -0.3718669678241934 -3.5942245834608757 2.503470474882381 4.697266517055298 -3.882002158666112 -10.246515252012516 -0.8563801714860564 -0.1167962647922269 -9.465379464131326 -0.041359727071526506 -1.0003735039852513 3.529045186831756 -4.336063649878367 -5.563999947730624 1.5141065575834465 
