0.193027 0.055904 -2.4E-5 0.054951 0.005931 -0.036703 0.049206 -0.03919 -0.031867 0.013984 -0.055432 -0.039885 0.068029 -0.070441 0.040612 -0.006689 -0.00469 0.088735 -0.010116 0.003907 0.058458 0.063016 0.070241 0.02798 -0.053701 0.010668 0.065119 0.104404 0.08244 -0.005251 0.05179 -0.047392 0.041501 -0.06734 -0.076883 -0.050593 -0.053593 -0.027255 -0.013465 0.017119 0.028046 0.088046 -0.032272 -0.06113 0.063166 0.064473 0.044224 0.002793 -0.015765 0.001182 -0.055392 0.010475 -0.014635 0.057114 0.03806 -0.041282 0.049507 0.088482 0.076745 0.023082 -0.072971 0.080486 0.011481 0.013868 0.027154 0.031636 0.04762 -0.040653 -0.018414 0.008471 0.103152 0.042612 0.004608 0.024768 0.052111 0.059708 0.029662 0.049011 -0.026342 0.074707 -0.023795 0.079107 0.063888 0.044445 -0.041499 -0.045297 0.023108 -0.022667 -0.022065 0.007752 0.071704 -0.037048 0.07761 0.072207 -0.02725 -0.004047 0.087221 -0.048634 -0.020712 0.054866 -0.001672 -0.040945 0.077979 -0.045561 0.06155 0.103282 0.025056 5.68E-4 0.038839 0.057944 0.115453 0.097411 -0.002071 0.031563 0.037155 0.039587 0.093208 0.030418 -0.051909 0.073599 0.06858 0.013003 0.019521 0.09666 0.100199 0.017498 -0.020186 0.060141 -0.043367 0.008986 2.79E-4 0.02428 -0.010105 -0.041474 0.063545 1.94E-4 0.047509 0.053879 -0.011748 0.043901 0.002988 -0.066962 0.043708 -0.035953 -0.00128 -0.012213 -0.009634 0.001806 0.011261 0.03442 -0.042741 -0.049424 0.064242 -0.022427 0.055908 0.026665 -0.035661 0.101783 -0.030342 -0.033067 0.051822 0.028467 0.079211 0.053243 0.063717 0.111912 -0.009252 0.038561 -0.01053 0.052367 -0.070683 -0.062643 -0.046516 0.001387 -0.052682 0.076593 0.066461 0.105799 0.084984 0.040989 0.091809 0.094072 0.079096 0.100189 -0.012542 -0.011949 0.065102 0.109758 0.094031 0.045156 -0.02609 0.067056 -0.03322 -0.044191 0.058093 -0.06357 0.09807 0.020357 -0.038455 0.080992 0.001592 0.095753 -0.048879 -0.058366 -0.019747 0.045543 0.010488 -0.05928 -0.050314 -0.038355 0.02831 0.058073 0.012281 0.044698 0.100338 -0.035442 0.081692 -0.037304 -0.043715 0.075729 0.066315 -0.022734 0.046613 0.040648 0.080674 0.012441 0.038007 -0.030111 -0.045471 0.091449 -0.054914 0.085252 -0.067998 0.020657 0.015179 0.093266 -0.065127 0.104989 0.04659 0.091628 0.059819 0.013235 0.007093 0.080549 0.042243 0.056687 0.055307 -0.039806 0.035474 0.04046 0.064854 -0.053696 0.091194 0.062416 0.057116 -0.02971 0.023248 0.01095 0.049003 0.024411 0.047228 0.006296 0.001707 0.06992 0.006121 0.0775 0.068112 -0.004866 -0.019495 0.058955 0.021174 0.051498 0.064404 -0.045626 -0.010969 0.058058 -0.03611 0.082035 0.08069 -0.025914 0.042868 -0.077501 -0.071464 0.049673 0.057736 -0.044622 -0.042454 -0.010419 0.040532 0.034927 0.030644 -0.040079 0.045016 -0.019309 0.061017 0.032342 0.100984 -0.025829 0.047073 0.006899 0.088393 0.022122 0.081807 0.058093 0.007831 0.082857 0.064239 0.008952 0.072886 0.091679 -0.020923 -0.011307 0.0943 0.043558 0.087547 0.093131 -0.056765 0.089471 -0.048644 0.094954 0.009111 0.083707 -0.043156 -0.009069 0.089274 -0.016219 0.052053 -0.033026 -0.068432 -0.071401 -0.063275 -0.044681 -0.004554 0.018795 0.041317 -0.083352 0.066606 0.06131 0.099705 0.100441 0.093613 -0.034621 -0.040314 0.025156 -0.039233 0.075437 0.072531 0.032501 -0.054153 0.036836 -0.016725 0.085318 -0.064686 0.023065 -0.046487 -0.033444 -0.061925 0.05598 -0.043415 -0.080451 -0.033645 -0.003684 -0.069775 0.076175 -0.05366 0.029565 0.024172 0.053573 0.035801 -0.062109 0.058342 -0.024365 -0.065029 -0.03788 0.033069 0.090957 -0.032259 0.078811 0.08127 0.087258 0.003895 0.085025 0.087233 -0.013813 -0.007868 -0.071203 0.030662 0.046795 0.061605 0.042559 0.05952 0.050973 0.002889 -0.017227 0.017107 0.074292 -0.068198 0.06332 -0.01731 -0.02341 0.084445 0.040452 0.003968 0.055485 0.036459 -0.002313 0.023304 0.094359 -0.016094 0.018954 -0.041593 -0.014005 0.092406 -0.037821 -0.033314 -0.02225 0.031998 -0.01259 0.042286 0.055851 0.065179 -0.015541 0.053397 -0.003537 -0.040178 0.091261 0.093639 0.029339 -0.027033 0.08566 0.077221 -0.014449 -0.012856 -6.61E-4 0.013133 -0.055654 0.047837 0.014264 0.101805 -0.046885 0.018202 0.015725 0.050362 0.074962 0.006541 0.078346 -0.057976 -0.036587 -0.007057 -0.063902 0.0843 0.042382 -0.061282 0.035547 0.009684 0.056051 -0.006338 -0.056752 -0.039125 0.101251 -0.008314 0.072395 0.036973 0.036454 -0.060464 0.068852 -0.048196 0.020358 -0.02184 -0.07183 0.084719 -0.053203 0.054298 -0.068536 -0.018352 0.030099 0.040447 0.095398 0.095136 0.037378 0.096324 0.006314 0.019764 -0.037822 0.034371 -0.02474 0.034634 -0.059837 0.070642 0.065685 -0.050616 -0.022479 -0.005921 -0.033581 -0.065092 0.058221 -0.003426 0.062013 -0.01691 -0.066513 0.082411 -0.020481 0.042101 -1.32E-4 0.052951 0.002547 0.094766 -0.064901 0.077766 0.068088 -0.042021 0.097937 0.067035 -0.017942 -0.050504 0.038253 0.005043 0.061555 -0.032349 0.077059 -0.018604 -0.053528 0.055513 0.107863 -0.032736 -0.042973 0.049746 -0.066821 0.047229 -0.052404 -0.014835 -0.044697 0.047855 -0.067934 0.037762 0.069494 0.028932 0.047965 -0.015816 0.092186 -0.022576 0.037508 0.093886 0.074782 0.055912 0.073604 -0.043174 0.108483 -0.009773 -0.007187 -0.032062 0.049583 0.044801 -0.040983 -0.025621 -0.025091 0.09603 0.016488 0.053242 0.104083 0.003057 -0.024769 -0.034985 -0.053198 0.061422 0.095979 0.089657 0.063048 0.033112 0.062254 0.037235 0.099505 -0.006145 -0.058927 -0.047977 0.043736 0.02906 -0.011197 0.006359 0.045778 0.008486 -0.015697 0.032319 0.057777 0.019214 0.075083 -0.051495 -0.047323 0.020613 0.007962 0.031839 -0.044531 0.045688 0.082471 0.085371 -0.047114 -0.017157 0.048934 -0.008658 0.022671 -0.030619 0.045482 -0.011762 0.099223 0.070743 0.001707 0.006901 0.069383 -0.023906 -0.007575 0.015205 0.109599 -0.028833 0.062855 -0.015231 0.11404 -0.015882 0.089642 0.066307 0.065948 0.062801 -0.020364 -0.025362 0.079855 0.047431 0.061729 -0.060898 0.07109 -0.057475 -0.061785 0.10342 0.07407 -0.030013 0.013651 0.101971 0.107298 0.002479 0.109543 0.085404 0.007069 0.008478 0.088919 -0.006709 -0.027306 -0.042529 -0.034253 0.041585 0.008449 0.102601 0.080275 0.008677 -0.003846 0.00558 0.074406 0.058175 -0.021821 -0.032042 0.105406 0.02375 0.013291 -0.034332 0.033544 -0.046994 0.05277 0.043618 0.002689 0.071658 0.094031 -0.004357 -0.037937 0.115038 -0.02283 0.015189 0.004832 0.095893 0.006209 0.095283 0.072374 0.113614 0.027499 -0.024777 -0.00947 0.028625 0.040195 1.84E-4 0.093227 -0.045606 0.014035 -0.003956 -0.056246 -0.028496 -0.061132 0.02715 0.09306 -0.048855 0.042394 0.086402 -0.003956 -0.016617 0.039517 -0.028403 -0.001437 -0.04776 0.033291 0.079501 0.053175 0.102619 -0.022273 0.048051 0.097716 0.070894 -0.027566 0.026348 -0.036182 0.094253 -0.075853 -0.027911 0.04294 -0.005119 0.079591 -0.036564 -0.01315 -0.04005 0.08801 0.092767 0.052808 0.042046 0.070576 0.098214 0.103674 0.049854 6.68E-4 -0.02932 -0.049941 -0.014686 0.038617 0.046677 -0.047396 0.001721 -0.036753 0.013959 -0.064267 0.085112 0.038306 0.04103 0.086748 0.060381 0.032111 0.027006 0.059189 0.084368 0.094747 -0.018866 0.06169 0.051438 0.07378 0.062109 -0.044903 0.104592 0.07934 -0.060018 0.03394 0.048667 0.080918 -0.00505 0.005829 -0.069354 0.036749 -0.035403 -0.063432 0.017533 -0.060441 -0.05364 -0.039628 -0.056669 -0.05431 -0.03356 0.066676 0.011781 0.06271 -0.038377 -0.028382 -0.064702 0.063984 0.104196 
-0.015090820706387297 -0.08163541606109083 -0.02049212606630278 0.008331633406903665 0.017959646647025145 -0.046484285851611434 0.010077827112260157 -0.03384956006414244 -0.026186672099624504 0.07283076012102363 0.01593016139213339 -0.011650443772546324 0.03295506044057426 0.031177467938926996 0.04757466394399938 1.841675087789806E-4 0.09621108288494588 0.0609530054379419 0.07704138998210235 -0.040970602119975254 0.02360382751103941 0.09017071478827413 -0.04460475851050448 -0.06506182573087149 0.005202211732671279 -0.02846812686809303 -0.01490794917462611 0.011575521611174219 -0.00486068849539937 -0.00128923960190386 0.06086951038130241 -0.06579057785581967 0.030075754157074443 0.047329872968179545 0.08117609166998908 -0.07593624861479911 0.027805295606143365 0.03338984124501679 0.14494247447934985 0.011046627333387791 0.1167576119415306 0.04338606849079361 0.04627416427465811 0.1223121885810793 0.07111740042957286 0.1495536168005175 0.11759875526067845 0.026452559528501007 0.12167114577121604 0.11548083714829516 0.06257329529149636 -0.023934677641092382 -0.037228018238839165 -0.10068081912416282 0.022765529258987498 -0.06044538276216056 -0.01378019407734087 -0.08382398720168119 0.04238027057312355 -0.0660399948928555 -0.0437726354402692 0.05835289041453779 -0.007862550855306221 -0.009373057322457514 0.03407274832969222 0.03337501050905008 0.08292070095382889 0.08167477434929862 0.07351072523329737 -0.008913422159052112 0.11959088598437036 0.1353793715584355 0.07408633103331082 0.02210092835453089 0.07571507709904779 0.0865709035707265 0.133725146410532 -0.02011076379183146 0.1422938343293182 0.07815769346458414 -0.03484926376644619 0.05266575716829819 0.01431933133190801 0.036984798246268 -0.051848185407886126 0.03430925274917466 0.03441600639131116 -0.06725851805268494 0.008776494705177662 0.06571137312897124 0.021026790311329657 0.08599211903243256 0.0027820431582968744 0.029057658344345177 0.15036959513214124 0.051511086988113436 0.013799839758452021 0.033336244193117835 0.11800687958079437 0.08906033625248987 -0.006426979000808182 0.04828793089865898 -0.00686529730547696 -0.0278508482009988 -0.02196695654285679 0.1482482792763042 0.03760726144827085 0.012049070534563215 -0.003046220435692955 -0.05413548496789181 -0.06088445543549609 -0.055363056289908195 -0.0814502922653715 -0.06085379040887429 -0.06353428119229529 0.04778968141094388 -0.03448110373650398 0.03889750008241114 0.05053318385880171 0.12576234532213176 -0.02565404666569168 0.0733370313545664 0.02353240127731418 0.09360959902127548 0.06730588233026122 0.12360425923476376 0.02419799231665118 -0.011992869769222796 -0.011302968637119774 0.014174750010944167 -0.03556070969385328 0.01131253913156579 0.023724073200312987 0.13919382142765718 0.051351400159226734 -0.02192373665931155 0.08255247174587221 0.05523942429524907 -0.02229591314439592 -0.03469208719529976 -0.08332096054535182 0.01938981450464365 -0.06960138941331959 -0.023809542140756396 0.03568832255728471 0.07455630249142661 0.1264085557540549 0.042824815307633116 0.1321438038121279 -0.0045908734323320205 0.06653494788457805 0.004593316267090596 0.05129519328341574 0.04918313487516382 0.004007082883814163 0.08528035884930292 -0.07732013529234538 -0.019815185396175886 0.02513509293176981 0.02077199146244662 0.047473782729987764 0.010670597070189112 0.02862697184136585 0.1020588933674258 0.06036551122993653 0.12432173709038019 0.0740318683698155 -0.0548543160467314 -0.024059792100175777 -0.0838717591250773 0.03870992242699573 0.0697337606661704 0.024005802405060176 -0.02810020893106845 0.010266449143174072 0.046943135136802754 -0.0326186872746954 0.05196789923213784 0.049300811596824874 -0.07158951607108727 -0.0538786223635623 0.03848967205115431 0.01454336521221575 0.003238417720155829 0.023731216134321498 -0.013305486264925255 0.038463859780290516 -0.010565104832886286 -0.05466790518371836 0.028390334737041285 0.006048476251406161 0.02737073781635096 0.04267132636467271 0.007219269700654149 -0.017261186913866813 -0.06895362221845622 -5.71165847438996E-4 0.028074934389536767 0.03409641044829237 0.11963254464887675 0.05541213208276599 -8.038788730305223E-4 -0.013386497281237773 -0.035666907103377284 0.0203127154352012 0.09227357999307498 0.013214249045240834 -0.006691749839593337 -0.001511728614206812 0.041005221660300545 -0.11003789304776486 -0.09007725984263262 -0.08500948060939455 -0.0788274151712682 0.007608283807797935 -0.09119118426375268 0.03919187212403626 0.04950605604513584 0.015500323044080689 0.05053112601522239 0.06929746297896962 0.08167866151863389 0.1251475453183103 0.021395235401172275 0.014549672943514108 -0.01576327547056093 -0.026439890781173595 -0.035083757800131926 -0.021231075977458796 0.008540703889614289 -9.113629987953177E-4 -0.03842999810249158 0.036194583137838236 0.007028952029487533 0.00597205996945409 0.04563096080765588 -0.09510979829016158 0.032501516068095176 -0.02909664674184185 -0.08144698239554965 0.04983931785747115 -0.04089969873326742 0.0010150255012405952 0.06297976946881226 0.042317306787226165 -0.08634824107381588 0.036739919773447004 0.028590655039929996 -0.029147578420998556 0.029818529373196446 0.06115012418958687 -0.02309211425998951 0.028749719849511274 -0.093806342077138 0.09545840854202316 0.053969215355574536 -0.03024300621193221 0.12094553123022722 0.05907260687208176 0.08149235278302591 -0.08129380925075079 -0.06921907790913621 -0.10571756489763479 -0.05568718017477646 0.055150842963770375 0.005721432205216149 -0.047424568499228104 0.0448460456808498 0.04884691574142015 -0.03508493893654073 0.07380003335796535 0.04544622682807422 -0.06735999451144592 0.001924821722413555 0.0744303086468908 0.06161708152120478 0.024398386691423194 0.06555108987383512 0.04853347574972065 -0.011216199598815651 0.09954249066690178 -0.061953552465674265 -0.033854193166096024 0.10829331483057249 0.106414454590557 0.09616025539169676 -0.0068002276669124175 0.058417618731506284 -0.017322210564897723 0.06450379207002599 0.008817766992963594 -0.04640294004939583 -0.016519761674198132 -0.06793836197935933 -0.08619318567960339 -0.006524596974318664 0.009885145208091363 0.06245270896976206 -0.0942280729171635 0.004761348371689496 0.04758325370592494 -0.0731348982055656 -0.008841157765553208 0.07634290373172685 0.0998377982040782 0.09561492310858621 -9.188949586567479E-4 0.1252569602505748 0.07351525539432274 0.022264349416153427 0.013039228707884286 -0.033506138277477934 0.11858005052965905 -0.027113391438331406 0.02345361724994458 0.02496884673135287 -6.08892885398704E-4 0.02811453633013045 0.06069225116327742 -0.08887857242235458 0.012696457280126297 -0.010273763494709095 0.024969708920583707 -0.05421234799170838 0.041604077277038694 0.02295111180145809 -0.04308873601903134 0.05281946782452027 0.05862252809927427 0.02836280086208485 0.08254394032699533 -0.04801650522911682 -0.07310925883514026 0.050800515672164294 0.11031944230044735 0.15133895530508135 0.0032966204298478584 0.04972085203677017 0.11587147848452087 -0.011569501588856744 0.03381964624009694 0.025295875836768452 -0.03504719896997752 -0.007984817630866704 0.011791649504145463 -0.08312738826925281 -0.01623236151699116 -0.10335483817655806 0.04898885271384799 -0.07566366538910736 0.02335238652643608 -0.007008227080360945 -0.02141897996552688 -0.052706087098747946 0.03165917106499292 0.04539534357305032 0.029799234998350462 -0.021351342183446025 -0.06490057300009183 0.07372175937833539 -0.04830612442471759 0.0171345371622347 -0.0209312407391623 -0.025927896300862206 -0.021612489687187847 0.06581361819293426 0.058922669342507915 -0.03957976556826466 -0.05239479203339213 -0.08823585091019445 0.0030371347129997226 -0.010474557481234346 0.062463598116280744 -0.06006857457361808 0.03155270207532123 -0.036135942310092733 -0.03685472825857504 0.040515443036199784 -0.05346112147396759 -0.054732482726719905 -0.08093318176811007 -0.08956986431165895 -0.01477234827050781 -0.045107594755595275 -0.001455138734364076 0.07609637841626275 -0.021221286929330563 0.0012401111451426665 0.049422311746971676 -0.056443984819263916 0.09273887929015211 0.016501607050648688 0.03157546539327385 0.017026626407566855 0.04703173875380472 -0.004388735808773102 0.0928151365163448 0.025142153442115307 -0.08453059171033057 -0.03382000710570548 -0.05382216377888456 0.03500943128850186 0.012062904709283956 -0.056258446759478484 -0.017487810764338453 -0.008958892155679934 0.011493507989353892 -0.10438094431269876 -0.043191282261681 -0.02757954296119229 0.022557541221278173 -0.05594364836773924 0.028538022770827492 0.03899892246154552 -0.09397958486998535 0.0011054301958986512 -0.08651512024273052 0.0018971041682903662 0.08119116481068353 0.05243194097757175 0.027766545898130456 -0.016455189538850477 0.025028673874133586 -0.0075154839718224445 0.06357293801639657 -0.019943073268030416 -0.09816876373167864 -0.04842336921837023 -0.09160751502067431 0.018696239912071092 0.01975197028604299 0.027738411828944036 -0.10371343774961858 0.003260496039262934 0.035064111050279775 -0.04087702780410115 0.04710244550578185 0.019691589420134083 0.07880321047020628 0.08275351848092712 -0.032013859865612115 0.05774602797838415 -0.011133439638326727 -0.07125945436548328 0.06726825850825831 -0.046051088642564075 0.04843559295422453 0.1395141553767314 0.13027220350449623 0.03257923634602605 0.0758993243115866 -0.008883879490934467 -0.05486202069938632 -0.03834950934825239 -0.05920936862367915 0.07991595848314482 -0.031090176755686517 0.019447347329996482 0.03373743359441161 -0.053234348009486156 7.5015607238787E-4 0.007435188749163621 -0.008783687381986552 -0.08472236993416554 -0.05364857884457885 0.03797544354557091 0.00628154021153668 -0.08841239538069132 0.05694710713198964 0.0032842831123159285 -0.054717121943177995 0.016343027590988164 0.05715470315295415 0.01024595931267305 0.04769201378906506 0.022322044645873344 0.13967810951068996 -0.003149617385880069 0.08791383353937426 0.11304135746106378 0.09553130615108048 -0.06819300515491819 -0.03490154419589726 0.04138476176032748 -0.011759987888038453 -0.06587473678364893 -0.09161115669867348 -0.05281744217977072 -0.04300258482500322 0.03789751742738478 -0.03369426399344956 -0.0012208532634569906 -0.0582872801163455 0.02702694610060606 0.018083010158456723 0.0497148833881412 0.039654632641023826 0.010293593963443384 -0.06617386384422261 0.08539115469954586 0.04785459315598202 -0.005195413412323916 0.07264538768559714 0.07924771500260278 0.04028611414993543 0.049106972586311866 0.06889603398685475 0.08105523687390041 0.005737307873187899 0.0029957365432101706 -0.030242650371118292 0.06073498080445227 -0.0014048615035190664 0.041978474389541436 0.02336728673306259 0.07002675383220067 0.0359433148333529 -0.08807320208806083 -0.047935980589779756 0.02105845317526688 -0.06361726483222899 0.007642041737106567 0.002578741590940842 0.05359364157241145 -0.06779492470593856 0.04200274406007702 0.01598259771180862 -0.033401849797146214 -0.05960421845562852 -0.02189587155877726 0.03680679677372302 0.12409144147466082 -0.01596080208617111 0.08424035023716703 0.02561722669606631 0.10606664378805286 0.0693886809094533 -0.017009525563900136 0.0418988594713781 -0.050692255338908795 0.0486550473971087 -0.09396136081896798 -0.03370919744126984 -0.025402653656496386 -0.0481881064240017 -0.10094651427619139 -0.08003401826042657 -0.06751270727303736 0.006194029987383647 0.07717505962446168 0.04063345181024605 0.09072275173950214 0.032055724322379645 0.035223342798662696 0.07185959917665226 0.06450900213216221 0.0620670919012128 -0.0297950975333922 0.11482302642619134 0.09992760700056882 0.023502743578846887 0.09801615853212342 0.013878606889427247 -0.045797267362688195 -0.027975255093852555 -0.038802918445078646 -0.07004847303705011 0.015984575219107646 0.011237124778331416 -0.08198405258901797 0.005959927532573345 -0.06582393221525323 -0.07429037889054606 -0.022703476588144693 0.04756061975345129 0.03732200215094203 -0.0173604171231484 0.06894870991202823 -0.07652931499119141 0.05861175505495949 0.03855200449746862 -0.0173270213342909 -0.005008716791866371 -0.05482587608862036 -0.02629833609738277 0.08743166976201797 0.05778688276159819 0.12578062221219816 -0.035509311383155905 0.043720323294579276 0.055451366107109774 0.06798029339756972 0.05190271767868477 0.08288465938022864 0.08380131167555904 0.07003765318970338 -0.07591142874500147 0.02855051572438623 0.04727693305973654 -0.028732733422285602 0.030122064933147407 -0.04484068537695228 0.014395033607121134 -0.035258480015323355 -0.07762769080121765 0.0375930054076963 -0.08161627912782934 0.03232233550582708 0.049888532294014847 -0.056975912937014844 -0.04579242772157128 0.002359792585431879 -0.023020961999835103 0.049654112812193556 0.03185764389418203 0.06834421282865336 -0.01384411416220667 0.025425701157564682 0.08736684033944078 0.07552278649652956 0.053437003176679626 -0.045877539469045325 0.07726452142782805 -0.061457618850127176 -0.05219204351110267 0.03145342216482752 -0.09434786500899837 0.05868557965830206 -0.04088897818874722 0.03328643024547459 0.035305195434288145 0.04041712095451446 0.05450906491998773 0.010451518481805555 0.05937842291036087 0.0770366518694203 0.05433224747266078 -0.05166498501582367 0.07649292768429301 0.058842392855123764 0.07721851729792244 0.013558968079037198 -0.02363522342286406 0.042267323217268615 0.06125526551014803 -0.03599343405075189 0.0936836088343773 0.07674862263373793 0.108292181528271 -0.04223047513928129 0.06278856896001386 0.01664904172983885 -0.06816841040443314 0.033885782707668 -0.03725090765209137 0.06168382729139378 -0.03103629010831717 0.05459784707087085 3.453467393009094E-4 0.022651928578497616 6.16544336948165E-4 0.07264028359790935 -0.053285879462852376 -6.585653859322113E-4 0.050093549363684674 -0.057764672360881585 -0.04547599911205332 0.09918238997303656 0.05356184856337461 0.021185152600250442 -0.026185147652876314 0.05682019640720946 -0.06407775777014833 -0.08800387976546024 0.02164751759375502 0.01897116078238917 0.06409516799571725 0.1105393523083345 -0.05031410595483241 -0.06497804834649866 -0.003188265153364998 0.08238310677525616 0.015200234036123758 -0.0075208144214442075 -0.08478260313549237 -0.08817929904869418 -0.009905367440420471 0.06266578508302786 0.05217999344901191 -0.03363240634377574 -0.018898053465716887 9.940952950836615E-4 -9.915931237316365E-4 -0.05328306626404816 0.10643087078237275 -0.006066226990208485 0.045626926585348906 -0.027896978355468508 -0.025622392504517595 0.004060666236903312 -0.058112753363165105 0.06303532252850565 -0.04086265563868911 0.08553361944735341 0.10954950074572273 0.09275902565945647 0.02032868093553841 0.05609800211853205 0.03623500843059408 -0.05036741796869238 0.06374269631891327 -0.023339853727258688 -0.018438582474468345 -0.05253147668613334 0.01811552865373091 -0.03962116245300243 -0.012534451998950622 -0.07139263763459548 0.08527794798460357 0.08225684412806845 0.058226491007514945 0.03437797244318575 0.07163163281292685 -0.007973838448151981 -0.011060449437941114 -0.026351675727858844 0.01573861605384696 0.00215818634552146 -0.03996664208712576 -0.06486778949080511 4.9090367461582E-5 4.332732305797505E-5 -0.053022388158542516 -0.0235914903909948 0.10546366726535868 0.02116425162171218 0.04092803966249593 -0.029998768966962276 -0.06363321142884135 -0.06621070372994314 -0.07852380863832734 -0.013991664803053614 0.009959607301530336 -0.06792700921923371 0.08053871991790523 0.08197362980650716 0.09630868699595466 -0.02075411020976835 0.06669763933632272 0.06703801604451223 -0.022779301938272375 0.04805809337546817 0.02154904874676786 -0.029194863531244366 0.03692332133568389 0.023227356077521428 0.038634772324522844 -0.07898115733996941 0.09159711868723179 0.06457640634894041 0.05876553308701712 -0.04501679826650054 -0.07642527348256774 -0.010803849049151978 -0.037509850774197655 -0.025579149354920252 0.06242350213834592 0.017762557524471954 -0.07065525244535636 -0.008434204121619588 -0.008783493023041112 -0.022857584602526092 -0.08465001779165113 -0.020739720216225402 -0.06794843171403732 -0.07366306559644292 -0.06133757684493748 -0.015865454767020983 0.07787560118802342 -0.04731833187249829 0.04590370246517619 0.03626936637922301 0.10719391120309572 0.039758590983367655 0.021751843316107 
-0.06070991718909879 -0.0548545465186102 0.08342582125369763 0.08707105432463809 0.10898522177440005 -0.06897289103087101 0.007872471179443463 -0.010883050383499912 0.01133976535519818 -0.09299551028606855 -0.014056556010081283 -0.17032957110820413 -0.17477781724681582 -0.16722530062360752 -0.30543468691121034 -0.26649640764247456 -0.06770380045698923 0.002064654869410843 -0.0074899884931108815 -0.15416044072454405 -0.046063885656536054 -0.04351297244109269 -0.09272438196634429 0.13974757090583037 0.1572582610038782 0.27191689940998803 0.29037325933391483 0.3465257731287518 0.3381620020407952 0.09856269132333922 0.023968837827018058 -0.05462091038399164 0.05771914640813498 0.056643103517519666 -0.00296431610376613 -0.007387676208383439 -0.022825708089493284 -0.15345672044896597 -0.17611785936656318 -0.08355564266176672 -0.08495115130202834 -0.24484804874642557 -0.1456828139484654 -0.20374291975839923 -0.05587633492580883 -0.014157260523545646 -0.17272996939690732 -0.28113057151616166 -0.14970685342248286 0.03571711509174437 -0.1017672096096602 0.19555392371878258 0.07813387857605651 0.23193394842466183 0.1979915962659872 0.2831120187019784 0.3777691311124936 -0.12767084774783907 -0.012104265526920389 -0.0394827012911409 -0.09943826150842393 -0.05837413144470886 -0.2122154507811632 -0.1520470694360123 -0.09917702267799751 -0.12450633728029507 -0.2165364934863586 -0.10731603938477324 -0.10471801920835788 -0.05651920711551605 -0.1330080395875602 0.0028214782865856707 0.031071588025863364 0.18054637185183411 -0.06840846880907292 0.0025888804802465357 -0.04196948430538586 -0.131604609781475 -0.08065325509746284 -0.10682963938237028 -0.1338091342019164 -0.06728863018388191 0.26078573926882687 0.19517021196874063 0.4028387726880596 -0.018257644247939537 0.16528316028067705 0.10991494015013004 0.08264578916644968 0.008169387611028325 -0.04099339983712364 -0.10106401819380036 -0.13270969027898588 -0.20077992115011825 -0.09320085488252385 -0.08528121842264164 -0.08882888396087303 -0.044920628819269864 -0.20394073556351694 0.024268586042948157 0.11681422634523828 0.24163028555733193 0.07739103078122431 -0.0046413396289212705 -0.042520180108032185 -0.03136998969033478 0.032048578169095274 0.03352098147749295 0.13535235093985368 -0.049344825585882435 0.12311947271845144 0.2025488585032992 0.2630016996670625 0.014910000082913884 0.08773290762671625 0.025647190619344645 0.018070146129307452 -0.032414122071385304 -0.05881094192819916 0.006746520230552186 -0.10739488823240942 -0.14631769943283973 -0.16318455401306523 -0.12456874026406264 -0.048751600950215114 -0.10931870937458484 -0.14232400903523124 -0.014883037712564563 0.06390660712198688 0.037900209731437734 -0.010417728344930995 -0.010457334244422174 0.21048330611501676 0.02709086686693457 0.08512404617533718 0.13555842185516298 0.1486634584622202 0.08064755048055901 0.04521321915535461 0.171633693431215 0.13735180099574384 -0.03744409846284279 0.14721005440806945 0.07016996051771153 -0.09760732966618418 -0.280836216953049 -0.14582659777213441 -0.0810103102184481 -0.19901103208465584 -0.11587573626229854 -0.11654965426242773 -0.07236634726272753 0.09296972852778569 0.06116352085595656 0.002158560604440572 0.03687424646045778 0.012458774029076703 0.042784919761332266 0.04875121853636291 0.12941061342613563 0.03800401644415078 0.1438248808811857 0.16581817650404151 0.18119128187518488 0.02956245067284027 -0.09939732539194414 -0.013854562815871543 0.12077571129159176 0.1385097708757335 -0.04984815643643647 0.08693811870212018 -0.011670096327635434 -0.051325263499315696 -0.14350451556344332 -0.032519352061353445 -0.08706195978258453 -0.05057720253133777 -0.020635137766327322 0.024748536655083742 0.0989950193580467 0.15039695904982928 0.04305291047641241 0.04465040326290898 -0.0182072845564215 0.05318080232334036 0.06676365865271626 0.0312674154545332 0.03315664000914102 0.07929673728546062 0.11190989396627252 0.026595210493482933 0.07361757270977339 0.05094991167605777 0.023321179670140083 0.09848156130539162 0.1287848851567219 0.04524569632274493 0.04399438646792389 0.155484553630213 -0.013741679957522138 -0.05710191454560316 -0.08537551307107145 -0.11034445745549995 -0.23704298380234173 -0.19405276702418747 -0.01968696796832236 0.06532363574654249 0.08211769590337199 0.011123656742953967 -0.05925512872206217 -0.056745711732754806 0.0022686349611301332 -0.09235708470477212 0.12029633592464115 0.17788051605720753 -0.05520156165875642 -0.13628610493143972 0.055805371986923626 -0.030589915353065718 0.1297855211126957 0.054489013299569455 -0.02327781949759558 -0.04412085703634424 -0.005967818991818759 0.027382272112180334 0.03933204250834692 0.07282372638083437 -0.037083062563154336 -0.13485214333811285 -0.25378014212850525 -0.09747537690919399 -0.06253395763407105 -0.1716907145487229 -0.006542540632329104 -0.05984488095589016 0.043338046100280365 0.05025707663852854 -0.10517210328783784 -0.1269717279771885 0.1155786762887105 0.04979526803424061 0.1086394101580844 0.0020425645960739755 -0.09295553090023005 -0.06601798638626949 0.0014613309664476832 -0.019605167364701335 -0.036663739715829355 -0.06849436216144243 0.023056601054978237 0.04900857665759311 -0.0584004015040248 -0.0054079665018850875 0.06485877045933297 -0.013311515868514728 0.04362488080550019 -0.049802787162531746 -0.1376209904749219 -0.045396043313952944 -0.28313677229544265 -0.23538312634186742 -0.1623714811145232 0.019401973499262468 0.06290646540298392 -0.035972130266859116 0.1163533084755711 -0.047344504372665366 0.20980317023156742 0.042753374200605716 0.05475943648356632 -0.013192514346801002 -0.01310147527834024 -0.11078503606096497 -0.21884446485197415 -0.15313131071397154 -0.04963286092424939 0.03566912978653353 0.07024564354764465 0.025669175233981774 -0.11721434729880689 -0.040964910805381026 0.01782023228600343 0.03944311620043787 0.18030569365777077 -0.08077501636241213 -0.10215929285428355 -0.17458976089744566 -0.0010513739001180393 -0.06225632826042833 0.019126409636204145 0.03993575584563186 0.12873804571769323 -0.03097900682292807 0.06611089680375008 0.06179343433865893 0.09734443878394612 0.0880120829823195 0.07997305541937536 -0.10139509456457765 0.07538071159442376 -0.0011942698665011132 -0.08222725226326136 -0.10451488378653011 0.06963205261618623 -0.04872726733250696 0.04671665939161889 -0.04554959994990884 -0.22296286104747887 -0.1533532453691248 0.056953598702601214 0.032798479877023 0.05497068699378847 0.06792239455840668 -0.13586194511236077 -0.08122790132129615 -0.11346523241334203 -0.1367638981223224 0.05057024120636777 0.11339947298524167 0.1422409039701244 0.05410885302574034 -0.022604456711959185 0.03980964231786205 0.3180901276548445 0.2553111779868973 0.1473121940804523 0.05236088323562348 0.09864609108896297 0.03674631394886524 0.001661248763884746 0.16078865913479298 0.20180773174569455 0.03782346076034841 -0.05568157848141558 -0.03427919919419735 -0.2248787075513314 -0.1373671271358545 0.021355315134257053 -0.0637019991192087 0.02607435779356724 0.04197050058270468 -0.013684786158564858 0.026034457461515274 -0.19342984360842713 -0.10360109595850372 -0.031079186599843055 -0.04285088931986336 -0.025998826241296256 0.007415271610444475 -0.1407228723662265 0.1704951032234456 0.1413630566469889 0.20957200408004495 0.03779525892756452 -0.015592618878330564 -0.04088022358708063 -0.033602885603696696 -0.10389551308081676 0.06197578060489307 -0.015024432736408688 -0.0038632445295976184 -0.2854645283060369 -0.10252098108770952 -0.1987149168933882 -0.13515480790663467 -0.14152724838350736 -0.009610443622879787 -0.10549987796659255 -0.1764889228725409 -0.04780077446917126 -0.0914863251168285 -0.09357423210636977 -0.1633536441188867 -0.07057961297490879 -0.0890642753351998 0.031528003414693216 -0.013362325220676327 -0.0388110078963057 0.0212133765787172 0.03214675102203177 -0.11067063074008264 -0.06243842560703526 -0.02414275254568775 -0.07388067144227455 0.07084344540040775 -0.019718220310043968 -0.13548012513159532 -0.04611298293503439 -0.07072665554272464 -0.19216304793450067 -0.12897458186221747 -0.14197410649600986 -0.22012370362750594 -0.10976974426107633 0.025940995222794947 -0.1671798160075161 -0.15112590037493454 -0.06772804611815914 -0.1071806133164404 -0.07515813297223885 -0.07824754947650821 -0.03860443580880591 0.07635814027950662 0.14961964940984723 0.11049758337662463 0.10213132486468673 0.0959009150090198 0.045263494440828084 -0.009000201513998997 -0.01737513758336663 -0.1495939972598647 -0.06985220517994858 -0.025730463050759957 0.08743634448647022 -0.11784257237045956 -0.028755285512037543 -0.14657230145698766 -0.12263368894506356 -0.03798995191308002 -0.05931245787412797 -0.08606448155064161 -0.03849753467545008 -0.00809541925743222 -0.13959928084978612 -0.0373832720102608 -0.02097722802945215 0.05730806813382471 -0.010344329665063693 -0.06801174113861891 0.009199093756640917 0.048527406210189535 0.07327430144281193 0.14156894559857225 -0.014567211151968287 -3.673019609521155E-4 -0.04700842536205844 0.09493942369154303 -0.1183025213213105 -0.017940748766732784 0.07144014173745729 0.06142206481599074 0.011438902682383493 0.03484430116170453 0.0353598069526979 0.00439351435198943 -0.02308181320411963 -0.08538538697559306 0.09886822025558453 -0.02811975374384439 -0.11190173288534394 -0.17302734184351748 -0.22224595614226536 0.06735853133873636 0.20185241199520557 -0.03326876364463005 0.047204101137909 -0.02001100331912116 -0.013712189250889508 0.0350209099577423 0.038401442084104995 0.034345560581318386 -0.1048360308957464 -0.21733126210216527 -0.034929950563666524 0.03509380709323917 -0.046664935064446716 -0.13045032546226368 -0.07039097587014242 0.0022761860083701222 0.07705509566666816 0.05256747657048309 -0.0559467779895681 0.012344885471958462 -0.060196232750415274 -0.08766898188461292 0.016301848678038303 -0.03902573661574543 -0.03337683490390901 -0.04458934432784483 -0.140711453907301 0.022600347339495074 -0.1262728363776047 -0.16765323900206108 -0.1441711405390955 -0.10578572768053571 -0.2031610203562889 0.11782268757785587 0.04985957556843225 0.08456871483238257 -0.10830105830428007 -0.017298072662963633 -0.0021336162990256 0.04318429935421722 0.007442941931874357 5.022364796955648E-4 -0.008659095847190282 0.12313640024279728 0.06440811696093837 0.09108890541893926 0.10268730106284685 -0.06581949351169465 0.01120851353380603 -0.07933340783014836 -0.0020801365437377755 -0.0694508318810658 -0.05681766550062267 0.06123955666437428 -0.17872847912505688 -0.12461622537089814 -0.02120923232230491 -0.02631434093185149 -0.03455860418327264 0.03746226976312652 -0.03340956845915831 -0.010305978250783363 -0.07685207892453318 -0.018243707496235686 0.07935985726638796 -2.0152176731410177E-4 0.11084247507033074 0.15849059078083158 0.25032064984661034 0.19577838000774883 0.060759263005473 -0.0018417940845404138 -0.033947842220757016 0.17147389542428165 0.11330387052727275 0.09023283212215892 0.01564043622230658 -0.04853879551298945 0.012562258534144952 -0.009092103823529379 -0.20236373740293423 -0.0830487235211842 -0.09808423648538396 -0.07319794374042377 -0.2137087280703578 0.0942446661295496 0.07921102081096155 0.146696337408078 0.02547521329492438 0.07262787762623253 0.13262215052126836 0.050191625548887425 -0.021733713519282674 0.06867057020602814 0.2012785099329519 0.1136647007068117 0.1574701501396626 0.16193472889763783 0.09150242134792226 -0.0702472759667951 -0.0014301933252844701 0.10586744103629947 0.04112006023167485 -0.05477625106909027 -0.07828967477373619 -0.09096858937420077 0.04405978180707545 -0.06446668993781993 -0.29803223280162117 0.015007605593415074 -0.16064594056965223 -0.031058151878579184 -0.031013246997252004 0.03788964072054498 0.05013329631217957 0.057267581178424495 0.12070380145017387 0.11412091387170356 0.20217523932396161 0.17398073341970552 0.24395312558139004 0.0645658785570905 0.1590241947037899 0.1415449524028106 0.06734190282257359 0.09825440296517682 -0.04566157833603777 0.03824849867757707 0.060399626402486035 0.05796743089724616 0.023387999657058373 -0.05255715205729219 -0.1184534773462643 -0.10129740124930565 -0.016421190671421487 0.037194658266571326 -0.38833815203085886 -0.12285696747445125 -0.10897148243207441 -0.06052268759809101 0.06726286099995583 0.012766306765801703 -0.147640998578631 0.03796898879812535 0.19064348817426544 0.08546523659219156 0.09129563136769377 0.23115156427517616 0.21163132704157325 0.22154382404421166 0.14252078716547664 0.126649000803558 0.059139625851445735 -0.055117080883012065 0.030150062981779014 0.14682608291036237 0.11542663201715672 -0.042071156117948275 -0.017176158169810954 0.010893390344268368 -0.12407918000530387 0.0021584281093875667 0.10360639609595065 0.014069117597282233 -0.5434428924608113 -0.23379897571503835 -0.10571970603699744 -0.0026521810897031997 -0.01726023079621 -0.05485431060328746 0.06870253899154928 0.1935181155747411 0.007872149838843961 0.027990426794742666 0.3071879783822185 0.17406487460464898 0.20953155716137908 0.07119572554428097 0.14464774181178805 0.08985087592216494 -0.06032998919393212 -0.08695272342201409 0.2331917906186179 0.06264511076763837 0.09266594287477564 0.05380733178625059 0.12493919985846653 0.09182974872708378 0.1447310217388378 0.21751532386433536 -0.004810193328481541 -0.06635605744194105 -0.49099872062437216 -0.26752123287000185 -0.16828681478689025 -0.06343098847988746 0.007417666119994679 0.021776122752171237 0.11570644573079518 0.12141766493596813 0.17294682010612944 0.2232806537544225 0.17430943463401383 0.09841736998032127 0.05110175145876721 -0.005638073250383741 0.16641412539925313 0.20288772415967662 0.1798445439604997 0.2145522487385307 0.23341525466808788 0.00682416551867365 -0.057346200236483194 0.045565394588605763 0.06050431823594708 0.10578528653738951 0.025370718837377994 0.09423810790104395 -0.00788142690615793 -0.1994140535516555 -0.6043385476815054 -0.31006822840768855 -0.12192759838907827 -0.14134324934131834 -0.047653727663506625 0.07374975355420828 -0.03172297152144886 0.01453062259358117 0.14279219754408606 0.15012862273083158 0.10548794409909051 0.08845368750439672 0.1852783601621434 0.21763550925307915 0.14412900485394806 0.18804521484228703 0.22702927369371234 0.07365395832228004 0.13887069572832247 0.08619838949711078 -0.07256263150795848 -0.13929824344767652 0.13386218679111903 -0.038593084684184244 -0.14290409676061278 0.039617478920266166 -0.021367591217799 -0.1423698083882962 -0.38521808255925294 -0.30696754625086464 -0.23294658588422124 -0.15727841485360564 0.0547147445485005 -0.09228612395968372 -0.016633494565809034 0.047469193378114866 0.1187973868965146 0.12619291135123958 0.23920267429703698 0.00870249974242127 -0.04665124660591748 0.1550994265236715 0.11616202341470051 0.16780988583757858 0.08743372084549353 0.13918184686954324 0.15598473948352845 0.09098050584910919 0.07865957060458723 0.12309768383183137 0.10748347900225813 0.03259568278535559 9.66338836033362E-4 -0.0688825985893045 -0.04438277242584555 -0.16592094894342252 -0.4001367436138873 -0.29027353201662925 -0.3055850114153715 -0.15884557887261475 -0.13354141323657603 -0.05502614652167982 -0.12342095412413435 0.09168603683594712 0.138396412253765 0.29698925113998387 0.12309234584689355 -0.029019871633094222 0.006849831228099835 -0.022124265815674615 0.06449209208301795 0.11763444831699993 0.24998569068656987 0.0748256622125096 0.15022171842688675 0.1717993789014225 0.056144619848671744 -0.025779023199133173 0.00932619545953484 0.12820947627015403 0.09026103393927974 0.01893079230652601 -0.02169781822677595 -0.030552073587612867 -0.32011068368676665 -0.3204982140696994 -0.21097817722519782 -0.12158206636049439 -0.056091112616842326 -0.018233550689924292 0.05613183736467709 -7.866939248012034E-4 0.11871060805734981 0.19456586183952673 0.0759005840368074 0.11827797907419842 0.0802946422703321 -0.18618884279981826 -0.12992457952320924 0.057703323639322714 0.11412906310632025 0.0988686597873639 0.022174578330635224 0.11417012408501843 0.026585836814987187 0.15279113833200192 0.09931407768938932 0.10803757773749018 -0.0047907137888145955 -0.06007111554297711 -0.10760577826057076 -0.004473061098012063 
0.2548648164492424 0.21476169614977078 0.16772309510212707 0.17211130006705996 0.09776435995134797 0.040928575144959706 -0.004906280400304983 0.041992718975362886 -0.0014452704560399658 0.0564302730480592 0.14535815482111927 0.10729101549392314 0.10341417343621578 0.09289260890461319 0.0014899015933347176 0.025674384307173795 -0.03748439689256985 -0.014829710651158201 -0.1583961119308291 -0.07409084243676199 -0.0998458410765632 0.02942725260010663 -0.14091888851859896 -0.036056025269178275 0.036426065428606456 -0.0017459632614395682 0.16462289698617041 0.04478558475844148 0.14099787854248366 0.3052778977460832 0.157427665317134 0.027291738513714494 0.08760661588960149 0.06866231703255138 -0.015296481226137379 0.09683872832844641 0.028496672054826994 0.12376831588238238 -0.017439424893187234 0.06460161153234587 -0.037275658065154066 0.12836060458756998 0.07895691167235049 0.11958511333809796 0.1882072177657706 0.03356581831627493 0.1014394868724402 -0.003441792451725094 0.04485469025720427 0.06397931517451878 -0.1444517509119616 0.03377007638808173 0.030709801575444378 0.06175526127906514 -0.03410224900449908 0.05472259984560025 0.06584205119827534 0.19250988801676597 0.11365247834890647 0.035361017775972864 -0.036659078573967066 0.038574219007086505 0.1315647636745659 0.11741128036897637 0.17404592802744961 0.09097658768909575 0.07581938039995319 0.0532042377044982 0.012976392992951651 -0.12170454095421994 -0.05625184825762224 0.0037629093425256225 -0.04331110338086829 0.09693077075927657 -0.036138010945116025 -0.07778494547427316 -0.05749418497623039 -0.07115079820540914 -0.06778796801926894 -0.08447863733433059 -0.23242222273941382 -0.12093025885688952 -0.08652720165896989 0.04076548535348137 0.11463626840474081 0.1835037492349202 0.11754625812857525 0.11126226146482252 0.05632567886001398 0.09274275441506233 0.08043309320947373 0.03123905034452552 -0.07315616538758654 0.0477139989688395 0.10298911326789204 0.058141195578021894 -0.08563590664457352 -0.10587753652542707 -0.06000080399922163 0.12255831390516532 0.07560402428644794 0.17367565811491428 -0.04987454918198759 0.05204206537025548 -0.06722411141055433 0.07571119536319401 0.044297229710893476 0.0879962815269214 -0.07998828050086537 -0.1323075058468911 0.08375394531654708 -0.00857752847605973 0.13205685277986792 0.1120669186958229 0.12708538965011484 0.1290160918616695 -0.012060600910437012 -0.03400410098193774 -0.08372483114960752 -0.07613025650762402 0.031197586647741582 -0.00926049838463922 0.0739788807174418 0.036729019382715104 0.08869849473473969 -0.0422971732013425 -0.0541761649249547 0.10477283708651948 0.049515841523210674 -0.0042148795047324454 -0.2006345117251368 0.009006656221526878 0.08302169196473175 0.06613240220337464 0.08032808632679357 0.038122394222426075 0.04155684962845668 -0.11489697909204935 -0.06533486717954493 0.14011739195843206 0.130218275662943 0.0731371146310761 0.12340481259960763 -0.020547696798068657 -0.027735086304058867 -0.07643019242819951 -0.07935316838946894 0.057974237916123016 0.12049977927480848 -4.7730822076459786E-4 -0.03191520833408969 -0.05590900423301598 0.007630318485671967 -0.06948837772705642 0.06498422074394296 0.044918020581933706 -0.1397493821668105 0.018606926032412843 0.0145164026874179 0.13480563822188105 0.08472073503704093 -0.055189589632557524 -0.022840739111508118 -0.025710442808749182 -0.0727465473721196 0.06061328207555705 -0.10464817248168852 0.06661127305709912 0.10324741786258355 0.23940235916619615 0.013591127197101014 -0.14396612721552346 0.001623265584849741 0.03887252208213256 0.1349004175260862 0.044990136322177195 0.2230632183125817 0.036251056495240686 -0.0275418762464021 0.03410985854296905 0.047061057219035876 -0.0378621611730549 0.007996317566978594 0.07566920237367931 0.023565313132646724 0.10299291836908743 0.11882433774256852 0.1606400886625118 0.016768961096198614 -0.061383032944994864 -0.07476840579971124 -0.1448881155846294 -0.025879009121356124 0.007151837264203709 -0.02246041196492439 0.005357106714275652 0.07478587337257607 0.17479367035475896 -0.1729729554582039 -0.12640876233517867 0.02735514058978073 0.04628479488706295 0.002418455689506251 0.056780243262892716 -0.005877306256017555 0.06300190459462054 -0.03910690189232964 -0.013974865617654538 -0.022905529199367638 0.08842827932654224 0.10276576625590808 0.09245825495420444 0.13225890736132756 0.1267566525350729 0.16214038736843847 -0.07362008946267745 0.015751237689820206 -0.026628080371405967 -0.05339137281140441 -0.14934068025774155 -0.00830320512726939 -0.014169424967887265 0.07690194262450566 0.11528153474983252 -0.06840159203414083 0.052799390991888316 -0.177866892596317 -0.037772631009339565 0.09614596723185204 0.00195244479218943 -0.05739532198372676 0.03426209998984664 -0.01649153170223203 -0.07956876784089462 0.005322028499926356 0.023701885284575418 0.01750973417518997 0.13241441107480276 0.13406822027442647 0.20540267752366845 0.18797941150585526 0.20208837751929074 0.13471537131913439 -0.01976870682502794 -0.13122938814593502 -0.005477460228512971 -0.2358645286660681 -0.011122489996385907 -1.4104879378085036E-4 0.09065773072042504 0.09024649792005289 0.044465752486607314 -0.031436570027694156 -0.11358527250037771 0.03597015270620018 0.1491056147911367 0.16370902529927703 0.07360856241065061 -0.0510288609824383 -0.049646070719775254 -0.13513750048675935 0.003941115374553879 0.035104513167841335 -0.013029866030039078 -0.0408114476340617 0.0180438315448669 -0.04828433696022559 -0.021407518426800668 0.0552769970578906 0.07187062919806828 0.09498029697512914 -0.06155558847472386 -2.970281176642634E-4 -0.05799924938779442 -0.1533502473603319 -0.03965381653810189 -0.08411927173615667 -0.023010518807025742 0.03052248754623404 0.06955488176021685 -0.00929587952992193 -0.14723748385578384 -0.08491257848746805 -0.02933966752443218 -0.04858303376722201 -0.058620444976495094 0.09553290434977645 0.025298566724421927 0.0198289912013338 0.04982359956762491 -0.10454284946924253 -0.04149940430001356 0.003857570921672204 0.00865657706417559 0.09605549572853804 0.1569814974584158 0.09742334789919518 0.06607668796134497 -0.10246453190100073 -0.028643207652053335 -0.08903273492490574 -0.11501781531268246 -0.08573723024455451 -0.04217589487088618 -0.030839841120143523 -0.03890893226999048 -0.0483861049694438 0.12206187413647672 0.19154455618595898 -0.10556809547663526 -0.06909696565591576 0.09447754493796423 -0.06105836855623511 0.0397271318809434 0.08582939596873576 0.03225870802106447 -0.007939802097403265 -0.09933934517202259 -0.08593021985611883 0.02424124948959381 -0.10531827511980521 0.09502017928486803 0.15278009383876948 0.12462522681979946 0.019237331924802047 -0.03036396569566462 -0.18363627211255704 0.03135972803487148 0.002438516994875896 -0.12372846621107447 -0.10049388631239302 0.07966189975630493 0.06708161312858742 0.017610640070625523 -0.07761229373436619 0.054916320817973145 0.045041506779307745 -0.23301963010978918 -0.17881326356297464 -0.1313874421916121 0.0023641445162522826 -0.0713467013385446 -0.04290006261918677 -0.1902838470169337 -0.11422470949207944 0.050466237232721076 0.04421020899981202 0.05430496231788331 -0.007895506669721034 0.11542119280613211 0.12136728433871877 0.10017709895606625 0.019825343509669656 -0.09706026672955703 -0.12496144169772731 -0.22884086592108188 -0.10817839275243268 0.050471686996816874 -0.04098438952230357 0.040604408594300354 -0.0911614274605913 -0.06167144698991546 0.1057286564897845 0.12019418850861861 -0.02397910270965733 -0.22998243594868728 -0.0636295571580826 -0.06736666846089591 0.021986212109573716 0.01868123122381285 -0.04447452856541912 -0.08908656376481018 -2.472692182695998E-4 0.02772768534097353 0.07899122678961402 0.1089375494673207 0.013205132741192976 0.005592596091166753 0.1381743739759704 0.09145450598325931 -0.030548356689989346 -0.09945269305397285 -0.13986998695496353 -0.010647182733630453 0.06472088269213343 0.13415007561459028 0.12245306388426758 -0.06888650409344436 -0.02939062921184338 -0.070180361248229 0.14518179163629977 0.05694012878315598 0.02753712975586625 -0.29922155380872 -0.05260217288259585 0.07940286934317249 -0.058074762679837855 -0.04081594670548417 -0.04364824049041107 0.03699432886014263 0.02188117330440564 -0.08556099514864896 0.06528185162848038 0.03231106619925432 -0.08019572253616516 0.036853279474149264 -0.11051829021866166 -0.135189262640251 0.03320891841046957 -0.21450417562601629 -0.21383072422534982 -0.05644137351033585 -0.010873013548189172 -0.06055429935222461 0.014405224724427533 -0.009692691769161363 -0.0070033576303797805 -0.03134403643623724 0.1509441162047616 0.27193821208952246 0.07467159835797671 -0.2287310530237339 0.02033060544903742 -0.066936988479851 -0.004601859289867453 -0.0683519347486506 -0.05883980813651135 -0.11592471403445263 -0.008280300834790854 0.04867939701611077 0.01854739990801203 0.027479084607161773 0.02206048822075257 6.153678941635698E-5 -0.13270614766602534 -0.08669295153616867 -0.10487174806276851 -0.2373581373135139 -0.26330681058802335 -0.06795759305165872 0.021091315355223482 0.04830374036165211 -0.0823463041083473 0.08463690661746695 0.10909152863882438 0.07453565317462867 0.0859585054781756 0.1569233109330568 0.11750194417039919 -0.22073405724851014 -0.14213115139732937 -0.047712376909986115 0.04105470760919737 0.10522307293975317 0.11042630279429527 0.06990573485708594 -0.06970025652471627 0.10899525305311293 0.030011127298431032 -0.19197399946721713 -0.053966136467080074 0.02173715451604271 0.02183883211466965 -0.01786434850629922 -0.1695632346686125 -0.10565310747080968 -0.2872964373557831 -0.283911646995307 -0.1462991484414219 -0.11042461811287232 -0.05496699319137297 0.1709988365577484 0.2542892087274321 0.09778227371084305 0.06632664116738539 0.2533904885034776 0.07874452011728837 -0.2406051720154708 -0.28129830712613774 -0.03929818132454465 -0.04701414232828302 0.09838472115710316 0.1361842328839038 0.06212247391296223 -0.011673153494475877 0.054765267980696475 -0.04835005606862468 -0.12760625472154094 0.028222676307638746 0.03425395905739184 -0.13395049574812176 -0.2933594558111164 -0.18032769549597705 -0.1849459036354032 -0.18175027831112925 -0.14885078338184246 -0.12283648045719205 -0.050751861368288124 0.05085370235298663 0.13131872148366114 0.19250165715568282 0.058647583020024735 0.052032044145839555 0.11359417119982891 0.06705736636627135 -0.07151772459400167 -0.19901680458814927 -0.22379885539676353 0.04918241372502037 0.061693049040181316 0.03791313274063937 0.11456664563928645 0.0229813957293864 0.01505896457303175 -0.009523989635743385 -0.1001094191703001 -0.029720061883395554 0.020224159613255965 -0.09275091592793631 -0.17387156111508842 -0.13890072815694465 -0.15319979123221777 -0.2240473620647326 -0.17972408588579047 -0.13996581737112232 -0.16550929732055844 -0.04884197440501122 -0.008994580326227943 0.1097932892083591 0.11305541619683718 0.1292910128875783 0.1195658180160464 -0.0518968056425607 0.01660419144410198 -0.0179849163570972 -0.14595039565600867 0.08161258976952461 -0.012049700261806849 0.10301361978244708 0.05813333876359848 0.04005136977748216 -0.10409728937904329 0.072010465236624 0.14861518762486756 0.09673729873583571 -0.035110449668829834 0.05932259307662012 -0.22105633662413318 -0.24766362998113867 -0.16209676001429957 -0.17440194835405382 -0.21520414536881743 -0.11715722396900802 0.0483609304783913 0.006975544645640568 -0.02509415432202314 -0.013576000272823576 0.03173181014077597 0.11727403333265847 0.0789206078778445 0.010233487267142674 -0.051614502607125926 -0.0538395404361345 -0.01995744486654824 -0.016472981050184514 -0.024261210837791838 0.010239167088929552 0.17246448638800677 0.1761221673619825 0.1581174283571935 0.07935936690565724 0.1412587947982373 -0.05169265778502501 -0.11216713477939111 0.0034669787305992676 -0.2294248832123874 -0.04075840527776185 -0.1143327421709229 -0.12660620617138563 -0.1989642938232813 -0.19026759111781225 0.01628289208200391 -0.03914170540540638 -0.14302155156204033 -0.08580299338884202 0.008983515652363881 -0.04008853009317773 0.03245529073414066 -0.07105029633036981 -0.011153849167754604 -0.00852584047234165 0.04050256548651611 -0.02718793726294928 -0.12301156102805805 0.06154587080559474 0.0673737216871245 0.20142531608037526 0.10029276015664744 0.2076934937911001 0.1901453949459337 0.0443211528919976 -4.8025060193332934E-4 0.017104780279439163 -0.16904213989465555 -0.023191087795074488 0.04211939953058554 0.01842008644005828 -0.020463937607921725 -0.0507273218238522 0.03587194610330085 -0.1336587237511118 0.18014331299985872 0.015248221486203176 -0.004270783235160339 0.08380035508250144 0.0368925339336942 -0.06907721061443357 -0.10302202434704275 -0.11121304910267514 -0.019488424968064744 0.043128364524668866 8.658970719912431E-4 -0.08408808361542051 0.07130212911435625 0.11009914871285176 0.04710805211033479 0.19094600012460766 0.3061905598428825 0.0655545200337257 -0.031031578809802077 -0.08174018688850156 -0.18097205188972476 0.05017906031434713 -0.002888067337415703 0.03199263633869466 0.04905401155294599 -0.1270107729236967 -0.05262934946937012 0.012952466491659865 0.05724066310795829 0.1363960427355484 0.08539382310882472 0.0684955739150301 -0.02864237451654146 -0.1508317281011612 -0.13974629127481183 0.0058785500235338396 -0.00964367437742751 -0.02676400817477219 -0.040292515504852605 -0.0949294746885458 0.09997075857430783 0.14780675194265497 0.2043185676578777 0.15303931204068524 0.20283536022407084 0.08836954578646096 -0.07040272465491686 -0.2283226430857574 -0.1395891339781009 -0.07084921989107554 0.0647446631560847 -0.21296762961660884 -0.14169866552481258 -0.04326333577521566 0.03872859575777114 0.025255717216804672 0.01119277638556511 0.09050474608551115 0.11841398792846863 -0.038701312783456523 -0.12769111138693492 -0.036826624787467385 -0.19895479536554353 -0.0787501909904246 0.05146182715509513 -0.028917730679691587 -0.05627336775593393 -0.07549805957742867 0.08350881173403078 0.07198164232998533 0.09094213436905849 0.12660827789556356 0.09862792799532502 0.10882519798711668 0.04464928126806305 -0.1349018632764803 -0.2638982562404512 -0.09692467240211053 -0.04697982374425952 -0.11653378111583095 -0.17030308339381936 0.007992373423097082 -0.04271945200473659 -0.12372817697905156 -0.054947619047332814 -0.012414974255060808 0.002400662143058976 -0.13139800105386523 -0.14021015800886327 -0.049068247179007436 -0.09799676269559014 -0.1751191524136831 0.11439127285683491 0.1634472271658959 0.01873589566163342 -0.02679734544441171 0.033700055320957385 0.17730435451163684 0.1590710969771718 0.22536787186452725 0.30130114958987503 0.06540831644962006 -0.22019941850198566 -0.10881409366956808 -0.13766206136982984 -0.07542921649157439 -0.039295458478424104 -0.1128478216233072 -0.0696065928083033 -0.016964502791270982 0.03094298622347786 0.0924563345219773 0.04058981592223041 0.02586728872481763 0.0030695122186718514 -0.1085441624658673 -0.2463487093252574 -0.24854672882785764 -0.046385345973039026 -0.014984950116727671 0.07705172507149186 0.1384320946338491 0.003166321889786563 -0.016281032876352405 0.053807321099282705 0.23437024769476952 0.26505937476355645 0.19943111182814358 0.139538226085834 -0.03737780206920058 -0.2460034841974227 -0.14003989683950077 -0.22332816604777786 -0.06191201470534887 -0.0751504675312823 -0.23608003972166214 -0.09390427855080656 0.09551471500003088 0.12166371130789352 -0.10532913277062007 0.1043940979636706 -0.020896338092177544 0.11620349721212749 -0.05598128511793322 -0.19486790109684368 -0.09187738363829324 0.19671180118416887 0.09527350895967565 0.04464786930269255 0.0546602335494674 0.10811290053318501 0.10690513473810327 0.20924909676827133 0.057077940283929124 0.04246085572141337 0.05740085748469353 0.025816912907513728 0.12383388755290589 -0.04989133344411255 -0.3255116014747861 -0.23655634270235942 -0.3009933963288287 -0.2577141054713905 -0.2932730345189043 -0.23615935990703976 -0.15733690614772997 -0.11202610774416662 -0.07331209595008974 -0.03639379971082408 -0.03376927021417977 0.03545420860835792 -0.048028591721513844 -0.17578200046456788 -0.27748272588510586 
-0.28644924465504884 -0.33053907311326436 -0.28877266737745894 -0.19640460661945539 -0.09736683077768252 -0.10050441714112479 0.05597277205613465 -0.03245931602455214 -0.011551964185549863 -0.15284406789138144 0.004929596968043975 0.008326227718027514 -0.09594649197669944 -0.037382307856742424 -0.03530881163772301 0.09691948355909728 0.08375217382134371 0.19813522735631972 0.16584758537920102 0.008062238222009063 -0.029502325321224473 0.020610820359205532 -0.040715777067792384 0.025962147313451048 -0.010851960961741201 0.08769977268968691 -0.10067726306279025 -0.11772737256516395 -0.019137295380182003 -0.25299869441629935 -0.2202351202721781 -0.16066944153918794 -0.019481529537279028 -0.035488295917369836 -0.013983465538739793 0.03684095898565359 -0.12260913695924563 0.011346770513014503 0.07517582882418118 -0.06082364515672932 -0.027037803188548128 -0.0489852003739417 -0.05187241169745653 -0.10136901370186431 0.02137639024106382 0.059617538202456806 -0.08771962765269768 -0.014156494158014269 -0.07269751139492654 0.08630832889881303 0.17492712480658648 -0.017730571772133018 0.033346722809804885 0.04322224182492523 0.03839632482338096 0.002202859394698651 -0.04163351355292696 -0.29711333606498086 -0.02990728022649815 -0.07031618400409452 -0.11872677770858593 -0.029027178610653768 -0.1493930816572858 -0.0654620755866745 0.023999716255984998 -0.002634408075696939 0.03941365997857335 -0.019101768009827626 0.04736802045919127 0.0972926621585631 0.11254981611234897 0.048466440021713755 0.07368773691718652 -0.06731757590128688 -0.02674016279926664 -0.014253886444903273 0.014305332369614244 -0.032920526012353325 -0.014781396181023936 0.05242799038733555 0.03969876540566529 0.1335222341139298 0.12584974930202458 0.03210112273152348 -0.028620022502034607 -0.14247323159989017 -0.07496639739806914 -0.08443018002483 -0.07922647215590889 -0.026265650424144808 -0.15853435235761856 0.004995977265826199 -0.05886476956246111 0.008201130411563624 -0.0459456012238539 0.05249165898132808 0.04090874992974082 0.15200069329372462 -0.02344672066552713 -0.11123211251661679 -0.07444949591772146 -0.059239540003094504 -0.07576109845913247 -0.13370950139501664 -0.02621072291718211 -0.08080495465547609 -0.09543694050299707 0.013057249711547817 0.18727450666902534 -0.03858403071548778 -0.010598725216383472 0.06580743167571604 -0.11703637794210983 -0.2811664412857658 -0.0731015382123729 -0.18592133293793472 -0.09602440957361069 -0.009538189460422656 -0.04191580308234423 0.04004083153362958 -0.05888475162278678 -0.07353871546859754 -0.11534217502186671 -0.049900010957218396 0.013427421442580861 0.05291311184822105 -0.08463037309504325 -0.08227230551360655 -0.1637319751907656 -0.039307048601436544 0.06131279747411697 -0.07268585675183316 -0.1174212115825631 0.03032873144729194 0.06492939418522345 0.20257611273862253 0.14585802347560795 0.009406325193927964 0.014619326567229588 -0.06275086895612768 0.007785895064139485 -0.13743266007205235 -0.13239801631594533 -0.03401791280136253 0.020027433289204477 -0.079692815986044 0.0430971544216213 -0.17555050493578628 -0.11397953849829229 -0.04101323992084502 -0.03724804371838485 0.08158463412094812 -0.02659879903105038 -0.06878628277067943 -0.22021067374011122 -0.13591457742902147 0.025528104581274164 -0.009070058115789327 -0.0497096732646976 -0.05696679674057574 -0.0556905657002199 0.08826265658891128 0.16424190887052173 0.08117370316027496 0.11250493998960483 0.00570656406090713 -0.016998017844392192 -0.06291996861601838 -0.14549316271630158 -0.19756869271408634 0.0015050530435110352 -0.01211340504018202 0.014410434502593807 -0.03936019089580086 -0.0349542616328339 -0.1291917946569147 -0.12533990241013787 -0.06615926819616033 -0.05970012229158634 0.05293581837120733 0.02890737415145515 0.026402025485160865 -0.11832395969242049 -0.0031036156986350436 0.03739789302549596 -0.12323176261872135 -0.08938714724459777 -0.0808595376894687 0.017990419001025968 0.09545162722869549 0.013716475723247374 0.013781082364363236 0.07968348381291258 -0.08995507988136198 -0.09759788759541353 -0.023812172577672965 -0.08114684780446689 -0.08378610755093727 0.0033517612459017187 5.021234920788172E-4 0.009429754727323386 -0.017054291294728074 -0.086013930115509 -0.09906219566907429 -0.011733086579324892 -0.04361036228102766 0.03397986705183597 -0.04944684378419459 -4.823376660220915E-4 -0.02406539605996635 -0.19178541118816042 -0.044281870354345276 0.10643612953528934 -0.06199470998214869 -0.1231193831133732 0.1461654538842803 0.03882313573278231 0.04626358503520954 0.0352102484134966 0.08201362934609041 0.04720361731695191 -0.11411227066055071 -0.04189041612306315 -0.11413354079672391 -0.15624593434378786 -0.043866130674960244 0.056714585580350765 -0.10528219942199038 -0.08120462811230116 -0.03222931199962254 -0.1962906771844306 -0.0015174292249322168 0.025154915892218226 -0.05481300910013677 -0.07304457040997815 -0.012397850111922026 -0.03566682843305262 -0.1980009951350234 -0.15369376905650609 -0.18307140513969744 -0.04338977450748293 -0.01797289789214988 -0.0525417827779209 0.09657386241382582 -0.07370314792668291 -0.010970304515736514 0.03711934202830774 0.03818136431044205 -0.05576004849180462 -0.011454124914394575 -0.07535501290629816 -0.07163467920324759 -0.16396238227264623 -0.08190563433911968 0.017683480935399537 -0.07916994237039456 -0.10088005243363184 0.035444738068644614 -0.057415049979121245 -0.046573260562006356 0.05621317810021894 -0.09688715751026097 -0.07232809534704997 0.08413965021601563 -0.03127393652181563 -0.10970965408439622 -0.14463884499465815 -0.07279371741220057 0.056882906764475216 -0.041044042564965286 -0.07245842378242676 -0.10740579860407377 0.033188022947766446 -0.04516266023314372 -0.031278252503797656 -0.0975844786314282 0.009982330616740169 -0.20356131486351958 -0.031628217600092406 -0.20988743308915495 -0.1412948572384017 0.013804573827246841 -0.057421505669345715 0.06032631318082005 0.02291316862583614 0.02634651265628439 -0.007913522982300972 -0.03679772326426776 0.0591288188529659 0.01864899535061983 0.1293600787624791 0.012029473800542236 0.019119690234228447 -0.04853672847074996 -0.21621320168006533 -0.1960546521211172 -0.014782608336713833 -0.10502879331257069 0.08035578188003 -0.061962542561807124 -0.08547978886766527 -0.05760989151690559 -0.036022066508036285 -0.09812448717203921 -0.05457441861691186 -0.0994411853954359 -0.16394643011004867 -0.2816978778901819 -0.21635016208484006 0.07441026128709707 -0.04485651379843561 0.033672584302891696 0.12914328548061005 0.09746571448313507 0.11316000417706125 0.0968689983920847 5.9297343472340276E-5 -0.0187234330417775 -0.06051012750696864 -0.08310130359175237 0.034270451476996984 -0.12063968195959011 -0.09750080704856313 -0.07987639757052165 0.005967328120096732 -0.039732191490112416 -0.11243824567064921 -0.15095711359260172 -0.1034261709942337 -0.12761888786032513 -0.08486884691117107 -0.2496627281087549 -0.11180074318968404 -0.07815859197631428 -0.20174881015135585 -0.07740272264807407 -0.19453842687374906 -0.0051480224289889315 0.01472457953230873 0.1899416194008313 0.05844156067881448 0.19708945140590103 0.19342293432018015 0.113207326711002 -0.08775020610674589 0.007248426343676033 -0.06984140647500094 -0.23693270273637115 -0.14832809950939435 -0.08082709036409078 -0.24647173211642032 -0.042072975645959056 -0.04151912125872289 -0.11611280953176734 0.01230804284776445 -0.07334854038762363 -0.20089703008683563 -0.20008264287013683 -0.06255325198629728 -0.06240593635676361 0.01736026638065867 0.008050035842835443 -0.169894356207323 -0.20437835051424982 -0.13558276998667879 0.05340175272582845 0.16398212448932853 0.15911778648277805 0.17260193333662785 0.022598080382502054 0.07180490913907685 -0.0952004627534681 -0.07251638367869678 0.0012664402978684861 -0.01562731401580842 -0.14403294775426975 -0.08006442405275878 -0.11947512730846697 -0.163494379659813 0.011819019833453083 0.02303907154087232 -0.01235270968603367 0.02723532159512316 -0.011485075984245377 -0.21811816671766016 -0.24141113707752085 -0.04508063126437738 0.02052406657418664 -0.04871869035999574 -0.09492247514818188 -0.16219411406575393 -0.19228565998287925 -0.253134696065599 0.09373894104796528 0.08206074592930594 0.056520731220398635 0.04583025173836905 -0.027569048451462182 -0.023192588739499136 -0.0335963177541755 -0.11014050131744298 -0.13041679505059273 -0.04284525590026548 -0.3079446923596112 -0.04554573820299064 -0.01383413823724652 0.039800468737139515 0.029281393643932497 -0.08770665997635925 0.08947136098306079 -0.027806770468841786 -0.10207344853293641 -0.039580610291035365 -0.15883423384414408 -0.06492203610755688 -0.1457476530062944 -0.12273407645331293 -0.06468925203538121 -0.08064926227388666 -0.19758211841839676 -0.1441906649180408 0.1914667536441352 0.018827039932165834 0.05392559946305579 0.10437774723034753 0.1298871435022407 0.08717599752042278 0.04685299757208699 0.03326933023160815 -0.04206628615814925 -0.12526806643620997 -0.08322726039431405 -0.06688255683393604 -0.013652598937508082 0.006298748097100069 -0.026105557518137878 0.05881561408580041 0.12088596161618306 0.017976133527388836 -0.05350531125181279 -0.1467817205227997 -0.10150678783210838 -0.13209861598059225 -0.20813441547203812 -0.09022113746091558 -0.0852366006722562 -0.04761863020135023 -0.27222366699423955 -0.1966013600707205 0.23051035774300524 0.15986599951844568 0.10931231386848322 0.16794595818212282 0.043668913305376374 -0.062067836972221145 -0.014275082331426376 -0.07384695432824141 -0.10055499642598782 -0.16722689393630452 0.024308529393929204 -0.08401587162564471 -0.04187506208140791 -0.016216278744956885 0.04703793912439864 0.12317660233595103 0.21749339410662769 0.1815647354997664 0.26774408661663973 0.19507556122639144 0.02706136128811658 -0.04152554714224852 -0.08179761706302918 -0.0836180559881049 -0.13557509712555516 -0.12423316102092324 -0.13584394698755847 -0.17557848938860168 0.21871189143402522 0.17540068844595075 -0.019625506060261075 -0.08070838322947538 -0.004667662854853271 -0.20235526814231738 -0.04733200005351326 -0.0560524636546542 -0.12040802239651367 -0.061663855201373324 -0.15881066597011903 -0.00533627721660039 0.07348381509963077 -0.016812661716441513 0.06644872978656641 0.12840062887978787 0.1007033584328427 0.24491235448118995 0.15597314370657814 0.09561462937464153 -0.018235702825011874 -0.016030156621766895 -0.06785521917468212 0.018120164747252764 -0.0499327843543113 0.11506039177307639 -0.07837592088960675 -0.11697625412076511 0.02703873941785586 0.01810438077364991 -0.07245723294183187 6.006914250799635E-4 -0.02434523821100877 -0.1253464195876058 -0.02303536787293342 -0.02219249688315343 0.10794521688412483 -0.06080287714330609 -0.09096362315515517 -0.016958510208529835 -0.055529656564313 0.06618640638408844 0.11352579181607375 0.2060051168718285 0.04578209674305867 0.09502391473814469 0.24179078037102728 0.146920228826872 0.12821329945309143 0.1384539980658458 0.15543327682514405 -0.004915302865224415 0.06248067049579368 0.10940191880454116 0.030676113830982763 -0.1240127628400817 7.443043442034348E-5 -0.07280142244821523 -0.0108709856895403 -0.1194745951387569 9.420861953229177E-4 -0.03485041692163226 0.01694872948567095 -0.041957061275573214 0.08267014908811168 -0.007033727534222989 -0.15486699943320528 0.032455378598991204 0.07962844474683747 0.03820846230206712 0.08527299481060951 0.11620952888611118 0.09370782225585103 0.3126974161351183 0.3246845027204062 0.19704975259836371 0.17196868613328584 0.1164056606836192 0.05188973115611195 0.1038418999284469 0.09255060576738536 0.009617929422915254 0.022288157024479543 -0.13378177477304756 -0.05243237572265578 -0.08455842597011828 -0.07381092937965732 -0.05918055164548772 -0.08220551193644966 0.0022623953521887273 -0.10772155827915433 -0.03799279790379388 0.0048594866852862215 -0.1065728341928635 -0.06206094843494285 -0.04541341559724995 -0.0230266579016937 0.10765916066942781 0.16857091346268657 -0.009080044125324281 0.15342418806317065 0.2113677606608687 0.3385491117841504 0.20187835155607253 0.16494108941343422 0.1517489744084615 0.2240143353991409 0.13596563550054314 0.04417286890107591 0.004783671505838775 -0.06629595340405706 -0.11700177519018286 0.039713595233541954 -0.009667261006354939 -0.03904734688205845 0.05678011234174503 0.11649827424279234 0.04670117597350904 -0.10592012565667437 -0.10704110120160541 -0.06064124889990908 -0.03263578343544661 -0.14184121005728587 -0.09843510498770143 0.06403073401644976 0.04416675938370341 0.13763082307016872 0.14128162003526573 0.04563036994366053 0.26052023852150075 0.26793983576768116 0.10943007476108634 0.20317709989119584 0.1379610941581867 -0.037526634145250155 0.11336848843587001 0.09362989555145564 -0.05996426542030469 0.05710671406915057 0.003266213357411887 -4.6620795085446125E-4 -0.016588956339342018 0.019344607388380033 -0.011715276454770504 -0.03076841154271818 -0.03132825109562288 -0.14378759413679254 -0.04636415624057206 -0.0869812482341734 -0.17748082822644076 -0.21027132527013395 -0.10601536121455064 -0.017131274457243325 0.10989203986469039 0.17615654719869628 -0.03898770707472178 0.08211835723889568 0.1170828454255092 0.20045656771984066 0.16619833419434965 0.11865930430620833 0.061894619203706217 0.05960915055172167 0.19831027298334303 0.09596549963524495 -0.0077097140889732215 0.08092172164240063 0.11421781705167698 0.0033252331935019535 0.004563429680359698 0.059564596995855666 -0.015037708375168605 -0.02729713124842928 0.011469158279924879 -0.11383830227332364 -0.10906034687462494 -0.19797907246288338 -0.19805348867730305 -0.15954343623369752 -0.01930239730031544 -0.00596863662724305 0.003016608343999253 0.15531549957621094 0.19706409337489997 0.1647561399329989 0.16640130219180785 0.26647496049590835 0.11836728972813773 0.19058795354248817 0.11945076450213521 0.0933689312510617 0.062279209682139576 0.019106024113947007 0.087852210080719 0.06758530994151395 0.152384881704726 -0.030180316047406366 0.04758948689860688 0.10401272238473887 0.08064276759209486 0.18583474956663232 0.08612975520090209 -0.1765801662113244 -0.1005935296466112 -0.05775450654535541 -0.18277506014286932 -0.1731047761842602 -0.045021179557614276 -0.02784738101372571 0.07472293961017283 0.13279297775631307 0.10408295403630803 0.12596469751027256 0.25043904104096815 0.23534957257293454 0.16093511687168116 0.14827831183442491 0.12199347059809076 0.1427040335651401 0.05855523156318151 -0.002815149126157531 0.11677713475717864 0.097483969316264 0.1434618308201249 0.06288709204986048 0.052226175525058254 -0.02070162891004854 -0.07497775275449382 0.08228587005721881 -0.04353478339472171 -0.034957544338337455 -0.1544744634662428 -0.3169911756756132 -0.22658189071242055 -0.2435901800913082 -0.02039386835857703 0.07677091123298273 0.16554994070175214 0.16184573209334588 0.04333277561324583 0.06977265717822542 0.08066383867410484 0.045789110382818986 0.03340359669315573 -0.0174777208484687 0.011098136670905711 -0.06532508522489065 0.07046631297433749 0.0688067879189487 0.18788550499559953 0.20794935852947702 0.1904259893155322 -0.0961738028514456 -0.10451690529332278 -0.05872536108791863 -0.09926526629262317 0.056935245370126696 0.015498122248640764 -0.01887481544587664 -0.2518057087038709 -0.25731922421840425 -0.16459347062944024 -0.1653335591582968 -0.016898544884164313 0.11320846030331813 0.08731137858344726 0.17472743247280434 0.06691236472482091 0.07683413141645065 0.1271006344408966 0.05249446605452689 -0.0026833730610389328 -0.09855276726446009 -0.047626619334102796 -0.006135766282917175 -0.03904127889435427 0.08342757736634325 0.17164726480145934 0.22498334912010698 0.12312745174447967 -0.06382125584753466 -0.23567318426595635 -0.009966866301315077 -0.02267005630300965 -0.021737451537756226 -0.08821440987904096 -0.1250019094639251 -0.10900475675167058 -0.18396181773024492 -0.1319628708071396 -0.06980451301057754 0.044281378767448976 0.01429534311316161 0.1808446363989809 0.35318449545254504 0.3124135032971046 0.3494866739084763 0.22705224355730863 0.17517163659004925 0.05116787835392596 0.03758748648547323 0.058939204311350406 0.16587290736606394 0.2003680460495689 0.1722715729062453 0.14765562246373365 0.18154515868424723 0.2582634807661058 
-0.17134038449099545 -0.1484045321551055 -0.2678310612053279 -0.16961425051694434 -0.02578414445153818 0.0084871415492558 0.05158285908622554 -0.03832852747010368 -0.11419761698357067 -0.03629047671234243 0.01588763100569396 0.08391209089006121 0.19184804170657363 0.09176336776203121 0.21890610967780816 0.08276341215222442 0.22142923742790527 0.19546569467977593 0.10380053870845979 0.1290333703292683 0.161878833022972 0.10543408128917246 0.16811543787245956 0.09240372539025725 -0.01236527239962947 -0.004561637827364561 -0.20788821094997673 -0.19508790985238392 -0.08739405303149805 -0.3267841267751244 -0.2682598227395671 -0.13668195337694308 -0.055323040806163744 -0.2126847482756762 -0.20820061870330817 -0.028047293344029958 0.010012332658146841 -0.006942694345732555 0.2006883913627202 0.03662749192987754 0.1226321612842647 0.16306934470573228 0.09282715603182562 -0.0016114599973557128 0.07066668472604241 0.23143310059875155 0.14317902715064587 0.245136802467075 0.07176956114915567 0.053630331810736 0.06332551505638745 0.03573029505623061 0.017734513545088947 -0.08418327860312201 -0.01753345078177324 -0.12555283742818818 -0.26499755613908277 -0.2233763222573045 -0.04790410578817351 -0.07033500346315208 -0.017475349289782543 -0.04623266232359969 -0.06851355126408706 -0.08014765138996913 0.10824385256304986 0.11028804747600494 -0.015061064364165265 -0.10258917517497804 0.11117689827948181 0.20157212350027215 0.09389523767697557 -0.021237290826820326 -0.031078115949578673 -0.11686600820333479 0.07791982520194186 0.09657953993859979 0.05603794672522164 0.13883156846322645 0.006835592133322871 0.02879738237981071 0.15765679667583057 0.06283676559119553 -0.10759493916344096 -0.07626244194712027 -0.23336543691202777 -0.07202198744936314 -0.19673519644256712 -0.04470696518373363 -0.11052347040133066 -0.16734110723751458 -0.016809972657991525 0.03368908878186825 -0.0017540754768519634 0.10346898931645561 0.04631282365182718 0.10660928619094527 0.015203971750172632 0.05619700696583898 0.07569561719748802 -0.01152117953669332 -0.05438506847455999 -0.06524121928852036 0.08139834213780438 0.008984392468147888 -0.0710251680799291 0.025678379086657273 0.037800779663237194 -0.011842703137054045 0.05646503232978483 -0.015339260978493583 -0.1640314420553794 -0.07119037692939474 -0.17232753078335916 -0.13734821914501416 -0.10379741010163665 -0.07680661215517204 -0.10575938655566718 -0.01438475635108349 0.09843254861395684 -0.08294037109350251 -0.06705587201948877 0.09234355766773876 0.06560119229163833 0.09221706178738073 0.12077000939989106 0.10046746151504483 0.08275695771003236 -0.022074940473955525 -0.07056623811136675 -0.023440937102663355 0.06641807519858671 -0.11802065563392986 -0.04592517935965784 -0.041494831904123695 0.04999847824382362 0.024368944363839653 0.0557243897605278 0.032021127508585025 0.014127533603726941 -0.04916540353807818 -0.08447298226942401 -0.1575130723928591 -0.049231674109410976 -0.047507386723562375 -0.0038670249353280573 0.05517380038842663 -0.13587464382506748 -0.05618876909179546 -0.0088322546042701 0.061235187907211774 0.00785514110968586 0.11094456199415544 0.01040892557370884 0.12587089133150295 -0.06607608205339593 -0.023538616412311968 0.08320368052839826 0.0034587074605798357 0.07141014494481825 -0.10846118657605802 -0.049451574227943385 0.048795740662513194 0.07098723567445674 0.1958925336288018 0.13830394167465068 0.1355738767159217 -0.09662782930382229 -0.2055964488452508 -0.19032091929253697 -0.14978511898731448 0.007354640833934195 0.17659721654198332 0.04570869413038022 -0.05740747892668915 -0.13735994696064516 -0.06229363119084532 -0.1109259845618948 0.012583533283078206 0.010455124193261504 0.21835366138558512 0.013313844035856408 -0.008318155952922582 -0.031248850829993045 0.034591737770115066 0.01093718462902299 0.018045195887562992 -0.022235047915649172 0.05882165748897146 -0.013508615949094431 0.1354469216402917 0.23092336933285243 0.14407832776764387 0.06020756736659644 -0.09898357875340061 -0.14939710758079924 -0.11997063797409545 -0.0914053954469813 -0.11780988708367843 0.19223247834516208 0.09674238215481822 -0.03569084420322531 0.042921277188019795 0.06014141842930224 0.02564607663036477 -0.08794995483766352 -0.017332432774175108 0.04931478281875135 0.04988835048639012 0.034214912310205764 0.012953483767417263 -0.004059423304810432 0.08119154745533942 0.038280996775163445 -0.0773249162063579 -0.09641455697869235 0.012774802931168486 0.02345916131935958 -0.050681466556956045 0.10401368871144395 0.11640145483185561 -0.08607493093576019 -0.15306524674703229 -0.1615523055553706 -0.159831231201433 0.037316769706784214 -0.14549751346004436 0.023132150915734274 0.011904539483369064 0.06277018549877289 0.12646645572648543 0.1016425523450024 0.06455101127953038 -0.02021261076952563 0.05903499698556732 0.046189224430218535 0.08349425795128394 -0.12625328119778068 -0.04277464797554124 -0.09797134345219868 -0.15374991279170377 0.042419946812376895 -0.04372267108111678 -0.05670684377949025 0.14637072562946998 -0.011906989335351613 -0.04021444046850832 0.021363864344274983 0.08274391958442455 -0.09665873635830208 -0.13835507072652925 -0.1744981638857875 -0.1929128507695752 -0.04390795532419409 -0.02925463335677566 0.04267859222901747 -0.16731796289445217 -0.015289042363742457 0.15493337405613536 0.09690371981856308 0.10593396724511736 0.1452854868934483 0.05413573407293074 0.13230185894383628 0.12172658313527815 -0.018483644763145558 0.03157998968970718 0.0857122640667638 -0.08339002110723233 0.030361768415954168 -0.1227778056304308 0.036076014074644724 -0.059625092474870606 -0.04919143739710765 0.1286724180319094 0.1342691321951674 0.14112217911564306 0.031027972477204784 -0.05687325059402498 -0.08327062371361114 -0.0538030854684368 -0.09595409820988719 0.048689462597689845 -0.05755763706749426 -0.10844225953086523 -0.009355110013080375 0.16922737418911601 0.10930523624146038 -0.0370846560822596 -0.04769634741161147 0.10572907950753292 0.07332723676285394 -0.0633971825323923 0.059230838715819245 0.08483686865941058 -0.08157165454621611 -0.11043298344870704 0.028610392648643304 -0.046451260579833446 -0.02893173312048445 -0.02214677129715393 -0.06348117835401465 0.0706068046157013 0.0398549382744818 -0.1091588646505889 -0.10076424059183398 0.03266931873348627 0.03164952108611043 0.0067449558527493516 0.04645099479201201 0.20947934153101755 0.1535742499553673 0.06596319612960637 0.08186668009228018 0.0977922665852786 0.06924939962873645 0.12636081410130018 -0.045306834315617585 0.10382543897765939 0.03269698238072042 -0.0013377641514585468 0.003657095151929367 0.06928134877134236 -0.08022577995713101 -0.05867744862511788 -0.15493605486642034 -0.014553448224384598 0.10214772146782959 0.06933001066626737 0.006598265141617374 0.02730499390262448 -0.09748540508428302 -0.18510888791616573 -0.09393020460363727 -0.12861893607984498 -0.018196806953923776 0.10622432817830979 0.023361848249863024 0.20009896348563075 0.2435455027333055 0.23876285963048458 0.02848165242748161 0.07796935184881094 -0.010216820264955418 0.0398342506163183 0.025391633788090565 -0.1389137014953687 -0.017772504923960354 -0.05440620052207224 -0.03772415064929278 -0.07775985777692107 -0.030067767594162267 0.011791858949825554 -0.03785806893735387 0.16724536110701985 0.16270444018395008 0.009195462223012532 0.035863883887669534 -0.19852320872054915 -0.19562893097985062 -0.09043663527677245 -0.049499773692496876 -7.811293272849544E-4 0.01379661787777705 0.011758137706535794 0.07749788829894223 0.3616815207891174 0.18578628837562772 0.1481053169117631 -0.01058092336795526 -0.010089669363393608 0.03537739053578888 -0.01639731620559386 -0.1533290683262455 -0.07898775797157707 0.0025265349087039432 0.03203566071866339 0.006401559124759578 0.1392100792216388 -0.01461223534074432 0.04904910138661135 -0.0898712937958259 0.042932635356253274 -0.03688114937473845 -0.18712871587319757 -0.12477943818693324 -0.08630024583573245 -0.18100321067152142 -0.08853432349492027 -0.016942066551791854 0.0401218427544225 -0.07237760701339145 -0.16772380889424632 -0.11256696787938937 0.28655495953743676 0.1809292079111542 0.022705163658746447 0.14629086154645934 0.10167397432145149 0.019767143096435635 0.10841290855147591 0.03372454375335332 -0.045954861952448856 -0.009007436023867114 0.009609639735328794 0.06323452798737583 0.16068186805191234 0.1504751992627822 -0.011751987339082276 -0.15557003544861042 0.08351225873590648 0.01588997879181556 -0.10397542176689971 -0.005750215719783604 -0.025530729655510485 -0.0059383190474380666 0.0035804681976818738 -0.05225372525232152 0.023957875268337817 -0.052259695455331844 -0.18054211229164754 0.0010403774841485816 0.24362356450381972 0.046050011967881783 -0.031864375574561954 -0.06077068493689669 -0.04288770582180588 -0.013063322320239995 0.16828932930109322 0.14047461550746784 0.09924211105001426 0.11896367647390195 0.05811480317877813 0.11361677750300629 0.04980400707524617 0.17083361468182448 0.010283024631068602 -0.08142760971669041 0.10908368426325611 0.10284171527397426 0.07643669135307271 -0.00360300934152202 -0.052504537947441816 -0.1521449433554891 0.028777772857021596 -0.1301380494586512 -0.04401348280892204 -0.18381265568876196 -0.2855586504307228 -0.07301005716436727 0.3471211119135793 0.223740301054173 0.10147749439653964 0.1163307250272366 0.06536498186269551 0.05450397393850443 0.013963261266957043 0.01277037600174846 0.07389939406124661 0.02284190573238905 -0.028902742205731743 -0.034759094161250365 0.1233279609898978 -0.02907793454622364 0.0041580767159105116 0.06293740815746905 0.12194843169295179 0.1305445750969345 0.11289689185825348 0.02972427200678545 -0.0317917509368797 0.05737461739370482 -0.09328202135827322 -0.1607191087911201 -0.07887813176017448 -0.16572564194045228 -0.17925395988393295 -0.20725014030466984 0.22585914269625737 0.14409763240277215 0.173712821308126 0.18163143356198466 0.043810349758212755 0.05473866870077595 -0.03464581242149706 -0.09150092692305008 0.07327907643602494 0.11568795157554436 -0.009544232896193406 -0.029552794829364088 0.03930893129369407 -0.041193606938053934 0.009566458003657644 0.05458586311514656 -0.02934898829020013 0.05444932674167405 0.05734853309672579 -0.05113638071646152 -0.021942167492057178 -0.023681342897315022 -0.012921766864765642 -0.11259280902259582 -0.13127865876161807 -0.1947262060249648 -0.23542441634281924 -0.039121294907323065 0.13942819380941934 0.06250080948728078 0.3263858696423017 0.15163637118685241 0.10774401223241421 0.053672928014218 -0.010823333962360342 -0.07818942499996624 -0.004739592342924509 0.08826136355240745 -0.07330074526125634 -0.0010170820944012636 0.05225018279907402 -0.0898348207114346 0.07305191590740025 -0.04712689603459323 -0.06100370438790463 -0.12480081308454645 -0.09661391055454115 -0.07903647552738582 -0.08787367595028621 -0.10350768072470795 -0.06683086995073667 -0.1845925248989277 -0.15021959905112595 -0.2309353739345804 -0.13895535251361346 0.007955699391960181 0.16188504566764358 0.19232774749316014 0.2301060644461646 0.20517193793716992 0.04139111398285987 -0.001556941956772878 0.028245789525630314 0.05822177936778211 -0.05894347228027276 -0.06179565592517734 -0.07824862580512144 -0.13999713569398958 -0.1430807797541479 -0.07761870838846018 -0.04736265777098774 -0.09221343121683029 -0.09638999631966386 -0.12232853603938827 -0.15141977334003684 -0.08372289023853646 -0.09431536575328713 -0.1324627925052055 0.03339877350199465 0.03841578110223545 0.049528873075662054 -0.162954197891307 -0.17889517332251947 -0.14337710545156931 0.1333074816251079 0.23169248443732526 0.1629727331102708 -0.0377603444545254 -0.0026679020921462292 0.06496153494288448 0.10675086437241389 4.6538923636966605E-4 0.055035208793113084 -0.025875110185709618 0.043162676180789006 0.0184726812704072 0.028178825872438536 0.10564813008774264 -0.0319613065985879 0.09540060721655488 0.07108581248258974 -0.02924190977141436 0.04591873907657571 0.12366807362521023 -0.023971108972116927 0.04091154117614612 0.08978884629573049 0.07792023270898792 0.09159327707966969 0.031024884562125814 -0.09299258258936685 -0.048479825209151346 0.25138087112447055 0.15055942828286584 0.16013130717193277 0.058429025825744926 0.0015567167066634622 0.03350599066081061 -0.06891464171597948 -0.11894981901868944 -0.13007521703171462 0.09988332029968665 0.11910708778664231 0.07928187077245427 -0.04355108046977246 -0.001398339525183687 -0.014373317417251553 -0.04674275338497058 0.07890241987293817 0.12889266094701904 -0.00571803829357438 -0.1329060633034833 -0.03474668720981791 0.14132961935176494 -0.0029678653478201044 0.04244078261138929 0.09980246272236305 -0.11046653753967724 -0.04273865583580182 -0.03487823246434487 0.2343134314941958 0.10621419857911658 0.1629470219000406 -0.10248544901433485 -0.15645898984312584 -0.08698571637573314 -0.13338058410839024 -0.07551588083010752 -0.1168625743509955 -0.1814626848671994 -0.24013909238874848 -0.13073120370249527 -0.041279842650216204 -0.1457349431830519 -0.09332125464078571 -0.03308596679845768 0.09558977561173941 0.028307840196977838 -0.11849459503385157 -0.05883806634324689 -0.021759010693379596 0.09046710133124261 0.07213002443562176 0.10406373229725638 -0.08805972958744965 -0.22207704528229133 -0.0932279260301432 0.023492802818612255 0.13169720314624409 0.05360579036727119 0.0675709163849985 -0.022890471204953217 -0.07766512596706847 -0.06590900983523638 -0.03246217693595659 -0.04544334127601518 -0.0876531484108516 -0.17743685766321982 0.027094002108941247 -0.05591493283830662 -0.2140472543862823 -0.053795739726679816 -0.0746199127345325 0.04988602533093281 0.02170773523243428 0.0906678312094322 0.007982832993297887 -0.02789523219400627 -0.023036911801491863 -0.014607329439863499 0.07739791139768958 0.09433994316100795 -0.03556357525491549 -0.054873942404955606 0.08668819956937414 -0.017099819736539814 0.1900673197778341 0.03545840986690771 -0.10846645648689925 0.03468854408284379 -0.10563226225463394 -0.0442867547527168 -0.08263396235084755 -0.027189233657974637 -0.12198018284293696 -0.03746894081464356 -0.06156576868200063 -0.11317751443563243 -0.1838687652041163 -0.1794862785724457 -0.028331097069710664 -0.05427418134303226 0.03341046360076045 0.13210008994978004 0.2554479061615917 0.018737955466596314 0.12783249818415013 0.1220486674420177 0.0966765400410094 0.10721666637044544 0.18277765774235794 0.0886270892006707 0.1383364839613426 0.06494335777976627 0.05639561334435735 0.03857150826542809 -0.017755353887583775 -0.05200597531513461 0.01419687159760369 0.13287718325548992 0.11069788558957612 -0.049386412641747625 -0.19924357275511162 -0.1931140619913979 -0.22081895703580096 -0.1740917647396104 -0.18019263075265837 -0.20259211620650375 -0.16337886927044906 -0.09079037063633505 0.15487378257967982 0.0892866183502416 0.07816310265458104 0.10554892623318325 -0.0021408561501832734 -0.03155658923190577 -7.888758484940955E-4 0.174475195256086 0.09231705938462449 0.10021489110512938 0.24066300408459954 0.18595734166403807 -0.07351674620712195 -0.03752109123782393 -0.12190926428115915 -0.0026425032636411046 0.013553178267338746 0.028027397259908736 -0.0448088537604672 -0.16155447435318432 -0.25466679272727205 -0.2996022258353988 -0.2534795720064681 -0.13650276500197142 -0.19488726669815437 -0.1945353014432344 -0.3083537933137909 -0.24672442371816228 -0.09214951032137482 -0.11784133905522526 -0.123700290010255 0.01439065229963545 0.12227304340197544 0.12196806965838893 0.10942356518946077 0.09971834027093417 0.028850376663594687 0.1485821858397647 0.1647967958143199 0.28554565495182477 -0.13324597574823277 -0.10374906831535438 -0.1473019966496712 0.03444270659109353 0.021640374362700658 -0.032500635054312194 -0.03215848586562387 -0.1015317785763079 -0.09766822215447223 -0.18554167714607622 -0.2984261818522569 -0.3079967287437863 -0.27746475200974224 -0.3013559404261248 -0.2761199326730119 -0.269909630370268 -0.14372096213347987 -0.056698503762904855 -0.02584327723585084 0.08472827839841131 0.18445864937039255 0.24984331802556378 0.043664996098680374 0.08355969413190233 0.0841420562388078 0.13772410215897612 0.16129649534497958 0.23309841204507076 
