0.3327505670001575 0.18662378611582686 0.29147488903755014 -0.24211716251889107 0.1254023853483841 0.06839637815018645 -0.13740974219871152 0.062021764413959235 
5.318208471272541 29.617142564069 -0.5804820254774591 16.53471162832922 -8.90633677660927 0.0614160365425293 12.020225655707913 -18.676358539968557 
15.406785029779796 -12.57896962965473 -14.844400757903687 -21.593973526872897 1.4365864134415212 27.159595071204315 -32.97781882076271 -11.210373964070627 
8.386682647463473 -0.4289816053427929 6.3680705102151665 0.8500239051491026 5.363769388607265 9.803288600849541 4.542195914992651 4.9683906069311 
-10.53813700516127 -27.443636719707246 -4.403848804480821 -10.721431709441477 5.968786843178546 -1.6495392819243067 -11.214025126713597 -14.016647199597704 
5.928269053052688 0.14178175671426965 9.629956028336402 -4.302547525308148 -5.4701512493252515 7.912469679271313 -2.4594857294319437 -3.755179010852419 
21.406806609751055 -34.74354018942817 50.52593891092145 -59.2378986721811 14.34517669817665 33.07894300828626 19.91504927416 48.03528284979546 
-0.3174964547396515 -0.020643002676137234 1.4412784372341356 0.026156701536644813 -0.3765521046305317 -0.026044048686161052 -0.3816548533692148 1.1978855618380153 
-15.632483623202369 -27.989477213561095 2.7619018840395593 34.962727874509405 7.623811121300638 -23.946574863461752 18.465932102800718 46.5360565773268 
-28.86480829978937 -24.489151390330637 -32.524469768216136 -23.70188041637473 -25.32402116601212 -32.08618556511996 -27.03752735420729 -11.496325032884455 
-25.861611259310344 -18.057449902153653 -35.6406818598922 -30.075676504271232 11.519431733547059 -29.879069838364064 -29.43353756265491 -24.57257105856772 
0.0046686132357816315 0.004535894537323054 -1.2593547652818637 -1.2920370184201189 4.079967985633566 -0.4793010328336868 -1.5992963376573646 -1.9239568375551543 
12.491770178780316 2.0920539897525923 -60.619534340109944 -3.86643637462053 21.37693742225839 -54.709784663826674 -49.88228454999461 39.88955921309085 
1.6302639720925085 -3.844139969130864 7.839801347740026 0.764142842061434 3.427605375041135 12.66373459049685 -0.02133193609537255 -0.7052200774099996 
9.20672967654356 -8.879950763919245 -0.3200915959074979 -8.267127783109322 10.084145140967747 17.242968083521095 -8.246876739904032 -7.823008150456967 
-0.3226885415224724 -3.4546989662966583 -1.5620145638116991 0.14217817969013583 1.2676540064089674 -2.3475068252744578 -0.991710004111398 1.8395734308878848 
1.6757236462247989 6.330579601514373 -1.7153467513220437 -0.2335657509498332 -0.4233749060486817 0.26494804335480865 -3.0113103319121355 3.1889691333530163 
-180.37950648706314 -25.658838816266204 -152.69599046971916 -191.80191962745738 -81.98225609421578 -184.79295277475293 -184.4188811940334 -128.2159924303627 
-5.020687595128241 -2.1344160593805848 -4.354729944866453 1.3271487678671792 -1.9999988760052647 1.7869264572186614 10.685211333816888 -2.9831330804658918 -9.213202344891995 -6.516394922234404 2.671160374130302 2.077315634960356 11.12562021654771 0.7498380254707898 4.219151154438409 -5.413186619191544 -0.8093919784498754 -5.233931586340163 -5.639294985220178 
-0.3177897330312748 -0.3538288310957058 -4.8909537597105395 -6.827273939391083 -6.5751489630941 -3.2896097628015517 -12.67584360125092 -4.283613604950631 2.0043310445545863 4.287457553749396 5.134147133068923 0.5493935831558875 7.976966648773062 0.2290068772849778 -5.002601256522873 -0.8113226304026862 0.32906297969430387 6.206071069560342 2.1111122441303207 
-1.4159763684288187 -0.9570337583145668 -7.711343435443957 3.6326283425831956 3.5044999572124693 -2.430882947123718 -13.387277720557341 -0.004047792245898195 2.978017705691205 5.362229448136249 2.08900252998349 -0.9820094564781471 -7.025007148253184 1.9678863060457255 3.347885976205364 1.4278597267186242 -0.997003970358051 -5.41282232082621 -1.6221439908280932 
-4.669208967671987 -2.35826121805713 -12.97009449830959 0.20690842329700912 0.5944197909181477 -0.24816439080457234 8.035048969344396 -4.087159948371012 3.3472354278591445 -3.270870476243213 0.6817717566710728 -0.9883436572491958 -3.605535849893335 -3.810364312507963 -2.957776138523499 -2.999242192803933 -0.9064769870521435 9.417643599170761 -0.9442275723254029 
-1.1313223364906444 -0.7896220451313062 -2.897921684670245 -1.8334378432261922 0.9315542662142409 1.2021666885419953 7.804067242853222 0.45284104152124016 0.22926887155754108 6.009955557347497 -8.758830909840722 -2.510093711148443 -14.413155719041814 -10.669601361286437 -0.7533719214183162 -0.18085309090659674 -1.796237902112278 -11.737946972667338 1.4188098694844804 
-3.7257677529836553 -1.8656783730474937 4.042323363828901 -4.5428326423572 -7.1779447928807905 0.8823947504592933 2.0121056529588315 -4.519918335056618 -1.861540848131905 0.2734625250069787 -8.23156479686963 -2.54187671047078 -14.305400670864941 0.32942113831300984 -1.5117515421907686 -5.723034834489677 0.9625260799742666 10.769862896942694 2.034971915362756 
-2.3875837244369276 -0.880820782650769 9.365867553964826 4.51751574670854 1.4468453506198922 -0.06702727269173939 -10.443532651972989 -1.7704411690399657 -5.924184165074267 1.0637534292494786 0.23173050948801682 0.836064052199236 12.574598536572521 1.1572429135446374 -1.72316658258289 -0.3959052672263712 -1.3275007176362903 -7.632435539210516 -3.425713750833446 
-2.776572265732864 -1.489851101575021 -2.0801629039346143 -2.7937296684765736 0.4912485608728677 -3.2812894572989744 -0.33450405357677837 -1.9999868191795311 0.1329462859747828 -3.379027862074196 0.2818313529092694 -1.0734071673541168 -5.6693482001189075 0.994012885079503 -0.28281945114956497 1.5120031859363727 -1.0276500848248773 3.4893440052953473 -1.006355831152642 
-4.122021443119009 -2.1140595614722164 -2.0000168547948998 -3.6349447112500934 3.1244792470120895 -1.6205067031992042 4.110136015375731 -2.1123930414828935 2.513313182975313 6.2124161033188665 1.3828342428857556 -0.7985219806825617 -1.9604818660153709 -4.499440019378876 -2.0841430746259464 1.5905940422654914 -0.6258987046793776 -5.780671396529898 -1.2472554829906088 
3.4079781698788434 1.4643883232565487 7.389403673164912 0.12146364522603392 -0.3740938107013374 -3.594224514367051 2.501151813816462 4.695039674113783 -3.8829618915090487 -10.246629789295252 -0.8563801714860564 -0.1167962647922269 -9.46666245093509 -0.041359727006808816 -1.0026003469472744 3.5267700524336174 -4.335872687251457 -5.565104025156256 1.5141065575834465 
